<?xml version="1.0"?>
<opencv_storage>
<opencv_ml_svm>
  <format>3</format>
  <svmType>C_SVC</svmType>
  <kernel>
    <type>LINEAR</type></kernel>
  <C>1.</C>
  <term_criteria><epsilon>1.1920928955078125e-07</epsilon>
    <iterations>1000</iterations></term_criteria>
  <var_count>400</var_count>
  <class_count>10</class_count>
  <class_labels type_id="opencv-matrix">
    <rows>10</rows>
    <cols>1</cols>
    <dt>i</dt>
    <data>
      0 1 2 3 4 5 6 7 8 9</data></class_labels>
  <sv_total>45</sv_total>
  <support_vectors>
    <_>
      0. 0. 0. 0. 0. 0. 8.28385164e-05 1.60004405e-04 4.20905126e-04
      3.33995413e-04 3.71425238e-04 4.31055843e-04 3.42658954e-04
      1.64051889e-04 4.50482803e-05 0. 0. 0. 0. 0. 0. 0. 0.
      -3.13582348e-07 6.55566546e-05 2.62571324e-04 2.53797160e-04
      1.27276275e-04 -7.89930491e-05 1.83860611e-04 2.29010766e-04
      4.93700718e-05 1.59062038e-04 1.03668957e-04 2.57512467e-04
      1.28780361e-04 8.43583475e-05 1.50157193e-05 0. 0. 0. 0. 0.
      7.44108183e-06 1.51566404e-04 4.43403806e-05 7.97258544e-05
      -1.75170979e-04 -2.33316576e-04 -2.73674115e-04 -2.33707004e-04
      3.43625725e-05 -7.46670630e-05 -2.03883392e-04 -9.00171362e-05
      -2.21751689e-04 1.44516598e-04 -8.78455103e-06 -2.12088780e-05
      -1.29623731e-06 0. -1.72470280e-07 -1.09231178e-06 3.54379044e-05
      1.86634745e-04 4.19589305e-05 1.03356535e-04 -2.58083077e-04
      -2.65546405e-04 -2.85754853e-04 -3.36194760e-04 -1.96545850e-04
      -3.54489021e-04 -2.35683881e-04 1.72917644e-04 -2.06034965e-04
      7.23186822e-05 1.87982383e-04 -6.27088866e-06 0. 0.
      -4.98739655e-06 6.65444259e-06 1.50681386e-04 1.76284142e-04
      1.58598450e-05 4.28442290e-04 -8.84590481e-05 -2.42213617e-04
      -3.31742543e-04 -4.84062766e-04 -9.33247720e-05 -2.11258244e-04
      -1.09990367e-04 7.21733522e-05 -5.32297163e-05 6.91433233e-05
      1.81815616e-04 1.06368359e-04 0. 0. -5.90998161e-06 2.15360178e-05
      2.32076432e-04 1.71430045e-04 1.68001337e-04 8.10482961e-05
      -4.10649591e-05 -6.61661907e-05 -1.99050672e-04 -3.45394074e-04
      -1.67324004e-04 -2.77732470e-04 1.47223491e-05 -8.73454555e-05
      1.92704305e-04 9.70404653e-05 2.50854355e-04 1.03874940e-04
      5.74363366e-06 0. 0. 1.07078034e-04 3.18724451e-05 2.29612269e-04
      5.91150092e-05 6.93750335e-05 1.83272583e-04 3.85493659e-05
      -1.14781891e-04 -2.42976326e-04 -2.62588699e-04 -2.09719161e-04
      -1.94848271e-05 -9.58805831e-05 3.42739047e-04 1.13408460e-04
      9.54051138e-05 1.78368224e-04 0. 0. 0. 1.36879185e-04
      2.79170519e-04 1.26109531e-04 1.33624140e-04 2.80394102e-04
      2.28491554e-04 3.45587032e-05 -1.47032290e-04 -2.40394875e-04
      -4.67890291e-04 -2.36307591e-04 -7.36485017e-05 5.60829758e-05
      3.00705608e-04 2.14973290e-04 1.83366035e-04 1.61242526e-04 0. 0.
      0. 5.20713947e-05 6.67468470e-04 1.20377721e-04 2.54025304e-04
      4.70612576e-04 2.07285950e-04 -3.63063555e-06 -1.12855116e-04
      -3.34154320e-04 -4.91706363e-04 -3.46358458e-04 3.70260386e-06
      1.93248809e-04 1.96937428e-04 3.09393334e-04 3.22300941e-04
      5.35441322e-05 0. 0. 0. 1.24046666e-04 5.49596094e-04
      3.67545658e-06 2.58069544e-04 4.79413895e-04 2.23556461e-04
      -1.06617990e-05 -7.15547212e-05 -4.37537965e-04 -4.70185565e-04
      -2.75737286e-04 7.62908458e-05 1.56053342e-04 4.61077834e-05
      4.70752828e-04 3.04783898e-04 0. 0. 0. 0. 3.15862882e-04
      4.49214713e-04 5.02945586e-05 2.61237845e-04 4.70081577e-04
      2.20860238e-04 -2.89784271e-06 -4.93109983e-05 -5.40921639e-04
      -4.83216689e-04 -1.87002108e-04 1.29178763e-04 1.41579469e-04
      2.38847897e-05 4.90018982e-04 2.32929015e-04 0. 0. 0. 0.
      3.08934104e-04 4.36966395e-04 1.03637278e-04 2.20273214e-04
      4.34944610e-04 1.63528894e-04 1.49004591e-05 -1.42065343e-04
      -5.00571332e-04 -4.07301035e-04 -1.33697875e-04 1.36016912e-04
      8.65666152e-05 9.33700503e-05 6.70223031e-04 6.13379962e-05 0. 0.
      0. 6.95126946e-05 2.68120406e-04 3.32412106e-04 2.50423211e-04
      2.60973844e-04 3.65380576e-04 2.30438745e-04 3.80912752e-05
      -2.37332482e-04 -4.54633147e-04 -2.78082007e-04 -8.51453660e-05
      7.26751532e-05 6.81140227e-05 1.26244631e-04 6.98162010e-04
      3.40242113e-05 0. 0. 0. 7.02963953e-05 1.77821217e-04
      3.11373064e-04 3.56037781e-04 1.64159093e-04 3.15542537e-04
      3.05691065e-04 1.75897567e-05 -2.96756916e-04 -4.02206642e-04
      -1.53497531e-04 -1.05770567e-04 2.58360724e-05 1.12538455e-05
      2.72845326e-04 2.92569457e-04 8.89023795e-05 0. 0. 0.
      1.48719082e-05 2.63828435e-04 2.54639192e-04 4.59077157e-04
      1.10020410e-04 2.77332787e-04 3.15334444e-04 -6.46294211e-05
      -2.74486985e-04 -2.78347405e-04 -1.02353406e-04 -7.31010223e-05
      -2.93742323e-06 1.63418052e-04 3.51654628e-04 2.59996275e-04 0. 0.
      0. 0. 1.78199916e-05 1.91637402e-04 1.93497443e-04 3.13340308e-04
      2.01458199e-04 1.82525167e-04 2.70811899e-04 -2.36599997e-04
      -8.36759573e-05 -1.39799406e-04 -4.56330890e-05 -1.47667059e-04
      1.58197712e-04 2.65714509e-04 7.77147216e-05 1.44697900e-04
      5.97177541e-06 0. 0. 0. 0. 8.99244333e-05 2.64390896e-04
      2.17819572e-04 2.81734916e-04 7.77069217e-05 9.81495104e-05
      -2.52648519e-04 1.89357423e-04 -1.03197308e-04 -4.07707848e-05
      -1.77690556e-04 2.49105273e-04 9.45197098e-05 6.33483432e-05
      2.63719562e-06 -1.86756752e-05 -4.34584726e-05 0. 0. 0.
      -1.02136073e-04 -1.39393916e-04 -1.76353421e-06 2.57853593e-04
      1.21200013e-04 -4.85205237e-05 -6.54426549e-05 1.32510482e-04
      -8.52055236e-05 1.92976906e-04 1.36717776e-04 7.73196443e-05
      7.30148968e-05 4.79636947e-06 -2.32510443e-04 -2.31882485e-04
      -1.31227542e-04 0. 0. 0. 0. -1.29547352e-05 -5.01929608e-05
      -1.41101955e-05 1.41917189e-04 -8.56168772e-05 1.20611279e-04
      3.38157086e-04 1.25956503e-04 1.39363445e-04 1.24246508e-04
      7.79797338e-05 1.51553049e-05 -2.66954827e-04 -1.60061871e-04
      -2.46333093e-05 0. 0. 0. 0. 0. 0. 0. -4.64139412e-05
      -3.10046598e-05 -7.87500103e-05 3.81850668e-07 -3.00249842e-04
      -3.01165390e-04 -4.94618653e-05 9.21956234e-05 -9.41318503e-05
      -1.51751141e-04 0. 0. 0. 0. 0.</_>
    <_>
      0. 0. 0. 0. 0. -1.07103858e-06 -3.87000691e-05 -3.37205965e-05
      4.34690483e-05 -1.84967532e-04 8.62616434e-05 -3.37012279e-05
      -5.48039570e-05 -3.50039307e-04 -9.90741319e-05 -2.27978981e-05 0.
      0. 0. 0. 0. 0. 0. -2.18815112e-05 -4.80092458e-05 9.73151509e-06
      -1.55819231e-04 6.80909943e-05 -1.73227512e-04 2.18163608e-04
      3.00117041e-04 -1.32585279e-04 1.35640948e-04 -2.32199178e-04
      -2.10237646e-04 -9.49029709e-05 -9.41498274e-06 -2.65962044e-05 0.
      0. 0. 0. -3.05781668e-06 -6.25454122e-05 7.18752999e-05
      -1.72461456e-04 1.85324025e-04 6.81999372e-05 1.76888898e-05
      -5.62508940e-05 -1.38348711e-04 7.40255855e-05 5.63327776e-05
      -2.10394312e-04 -2.56570202e-04 -5.43296846e-05 -2.21027309e-04
      -2.27526092e-04 -9.95738810e-05 -1.77137863e-05 0. 0.
      -8.95772155e-06 -1.84199685e-04 2.55179097e-04 -6.76249692e-05
      3.19720275e-04 -3.91546964e-05 -1.42281991e-04 -5.71777018e-05
      -1.35368537e-05 1.01928643e-04 4.44519828e-05 -1.84383374e-04
      4.53451321e-05 -1.35248338e-04 -2.64909584e-04 -7.03362966e-05
      -2.70156132e-04 -6.29440983e-05 0. -5.79830339e-06 -9.76090087e-05
      4.76992536e-05 1.06169180e-04 -3.49910260e-05 4.37183044e-04
      -1.35318505e-05 -1.13768452e-04 1.19858203e-04 -2.55757059e-05
      -4.92073850e-05 8.28899429e-05 -2.39891655e-04 1.81325391e-04
      -6.43597232e-05 -1.85010722e-04 -1.33276524e-04 -1.64504250e-04
      -1.39141703e-04 -2.59689841e-07 -1.47638484e-05 -6.01777465e-05
      1.88860693e-04 2.45194213e-04 6.00965905e-05 1.34211805e-04
      3.07301962e-05 8.29955825e-05 1.08082459e-04 -1.07523403e-04
      -4.99724993e-05 -1.00361343e-04 -1.11976035e-04 9.90551052e-05
      3.51099297e-05 6.62939565e-05 -1.14506474e-04 -2.44392548e-04
      -1.43889774e-04 -6.09529161e-06 -1.77681359e-05 -2.53796716e-05
      2.10525221e-04 3.21502215e-04 6.16819743e-05 8.62342349e-05
      3.05698253e-04 1.87045865e-04 -1.08958120e-05 -1.33029884e-04
      -7.49344545e-05 -4.68272410e-05 -5.86700298e-05 -1.10294648e-04
      3.79535195e-04 8.27007461e-05 -3.41635256e-04 -1.37593554e-04
      -1.14504219e-04 -1.21614748e-05 -1.28786614e-05 8.86972994e-05
      5.36132895e-04 3.34807788e-04 3.58294055e-05 3.05903784e-04
      2.88847601e-04 4.27230880e-05 -1.46836697e-04 -1.25039835e-04
      -7.14900816e-05 -1.22233949e-04 -1.91837666e-04 1.39972661e-04
      3.04219080e-04 7.11896719e-05 -2.03207062e-04 -7.53817149e-05
      -1.07129497e-04 -1.62170600e-05 5.43485521e-06 1.29680106e-04
      8.50424753e-04 3.21878819e-04 2.29528625e-04 5.38034423e-04
      1.83225697e-04 -2.23122945e-04 -1.06261730e-04 -3.52073330e-05
      -8.94154437e-05 -2.96559447e-04 -2.59373395e-04 1.52015957e-04
      1.72069442e-04 1.07928543e-04 -1.67489015e-05 -1.16834439e-04
      -7.22356417e-05 -1.83894645e-05 -1.50993947e-05 2.36340464e-04
      7.28343963e-04 -2.12846280e-05 3.09804542e-04 5.71869547e-04
      8.75057012e-05 -1.28071915e-04 -2.78650714e-05 -3.02158242e-05
      -1.80141840e-04 -3.35361081e-04 -2.25903277e-04 7.89181358e-05
      -1.06650339e-04 3.37253470e-04 9.39207675e-05 -1.05820705e-04
      -4.86914942e-05 -1.68263323e-05 -6.96539519e-06 4.53856395e-04
      7.27017934e-04 6.77058488e-05 3.73147923e-04 5.11847844e-04
      1.37616575e-04 -6.53615498e-05 -6.82163736e-05 -7.67240708e-05
      -4.77650814e-04 -5.50734578e-04 -2.58090993e-04 -4.26428342e-05
      -1.60010983e-04 6.61517901e-04 2.34864536e-04 -6.18177000e-05
      -3.30038711e-05 -9.23925109e-06 -1.66385689e-06 4.01008030e-04
      7.96230452e-04 1.66171274e-04 4.11244109e-04 4.61861957e-04
      1.93990883e-04 -1.06884676e-04 -2.45236122e-04 -5.69872325e-04
      -9.08689341e-04 -9.45965701e-04 -5.07565310e-05 9.52972914e-05
      1.20119024e-04 1.03488227e-03 1.54628244e-04 -1.24450171e-05
      -4.61036143e-06 -7.98811470e-06 6.94982809e-05 2.86188821e-04
      5.71114768e-04 3.30682960e-04 2.29813493e-04 3.21933592e-04
      1.88040489e-04 -1.88544305e-04 -6.23117026e-04 -8.00809299e-04
      -9.56769625e-04 -3.05130205e-04 2.67446710e-04 3.28226888e-04
      3.87763081e-04 8.02625727e-04 3.55402808e-05 -1.15954144e-05
      -1.60653835e-05 -3.88539083e-05 5.28335704e-06 7.33602938e-05
      3.84714396e-04 4.35383234e-04 1.44047415e-04 2.52971164e-04
      1.47243642e-04 -2.56036408e-04 -5.10545564e-04 -4.92079242e-04
      -6.09962153e-04 1.97334608e-04 3.66614317e-04 3.01424036e-04
      5.26683289e-04 4.71499661e-04 6.43310050e-05 -4.34451467e-05
      -1.84374076e-05 -8.45118702e-05 -1.51692933e-04 1.00300604e-04
      2.84308859e-04 5.16629545e-04 2.45892843e-05 -3.01432574e-05
      1.07965163e-04 -1.87282712e-04 -3.90755129e-04 -3.87241016e-04
      -1.47907936e-04 3.37238191e-04 3.21620406e-04 4.61880787e-04
      5.75389247e-04 3.52903822e-04 -3.86843640e-05 -4.54438705e-05
      -8.15026578e-06 -1.58792143e-04 -2.14333748e-04 -3.86040374e-05
      -6.59171928e-05 3.76492862e-05 -8.51800505e-05 1.64871002e-04
      1.65356352e-04 -2.08396072e-04 6.24865788e-05 -3.16010206e-04
      1.73781402e-04 2.07821315e-04 3.73732240e-04 5.44223061e-04
      3.30455747e-04 2.19582376e-04 -7.45006910e-05 -2.73200531e-05
      -2.20291736e-06 -1.92390144e-04 -4.74705244e-04 -3.14801582e-04
      7.71948035e-05 1.44614285e-04 2.30423626e-04 1.16827221e-04
      -2.32450853e-04 2.26648262e-04 2.49640667e-04 -2.91071447e-05
      8.80526932e-05 1.41903720e-05 3.95767594e-04 2.60958564e-04
      2.32882419e-04 -8.96447546e-06 -1.09066175e-04 -1.22631944e-04 0.
      0. -2.53763661e-04 -3.47866269e-04 3.08838062e-05 8.89246076e-05
      3.48012894e-04 -2.34955965e-04 -5.66194831e-05 1.43632031e-04
      -2.87003320e-04 -8.42153459e-05 1.04932129e-04 1.51526634e-04
      -1.80058032e-05 5.71569180e-05 -8.69034411e-05 -5.59154898e-04
      -7.45215162e-04 -2.88612995e-04 0. 0. 0. 0. -4.79230803e-05
      4.59168696e-05 1.77806251e-05 4.62474185e-04 1.64616344e-04
      -3.82123457e-04 -4.37613868e-04 9.41475228e-05 -9.31116447e-05
      -1.96089895e-04 -2.10041078e-04 -2.55825027e-04 -6.31150324e-04
      -3.84132931e-04 -7.87673489e-05 0. 0. 0. 0. 0. -6.24724853e-05
      -3.69774003e-04 -2.49836885e-04 -1.52001929e-04 -6.82127211e-05
      -4.64148121e-04 -1.53063505e-04 -2.19181820e-04 -1.80974806e-04
      -1.65964419e-04 -3.16127669e-04 -3.00646265e-04 -2.08570127e-04 0.
      0. 0. 0.</_>
    <_>
      0. 0. 0. 0. 0. 0. -1.32962587e-05 -3.14431381e-05 -4.79943119e-05
      -2.35033207e-04 -7.23746562e-05 -1.55969043e-04 -1.35921538e-04
      -2.06374985e-04 -1.31370034e-04 -8.35677565e-06 1.11027230e-05 0.
      0. 0. 0. 0. 0. -1.97032950e-05 -6.64990075e-05 -3.28418500e-05
      -9.24611504e-06 6.18484992e-05 1.57983275e-04 3.40275146e-04
      1.76470799e-04 4.95610584e-05 -1.23054808e-04 1.16997457e-04
      -1.48027457e-05 -7.82404386e-05 6.03439048e-06 -1.22310321e-05 0.
      0. 0. 0. -3.25904330e-06 -6.42549858e-05 -1.33965095e-05
      -1.24318385e-05 1.08583445e-04 7.73133434e-05 2.06852710e-05
      -6.68888242e-05 -1.81709867e-04 -3.52077259e-05 -4.98246700e-05
      -1.42908939e-05 5.94399025e-05 -1.65687816e-04 -1.54129506e-04
      -1.63090328e-04 -9.26058783e-05 -1.10028623e-05 0. -2.19497815e-06
      -3.19225328e-05 -2.10366314e-04 1.38518721e-04 -4.07261432e-05
      5.27110060e-05 -1.95195462e-04 -1.88999940e-04 -2.23594267e-04
      -1.89671613e-04 -3.29936120e-05 -1.15595976e-04 -2.78318330e-04
      2.80702050e-04 -1.61606775e-04 -1.38116404e-04 -1.86380366e-05
      -2.98756058e-04 -4.38444804e-05 0. -3.62994106e-05 -1.79017938e-04
      -1.46853024e-04 1.58763767e-04 -2.79053415e-06 1.47817744e-04
      -3.74077863e-05 3.38473837e-05 -1.68162369e-05 -2.03746604e-04
      6.48480273e-06 1.30403045e-04 -3.76834301e-04 2.88086594e-04
      -1.07987209e-04 -7.59362665e-05 -1.33799855e-04 -2.47145304e-04
      -1.22911239e-04 -2.71246081e-05 -8.82794193e-05 -2.08415076e-04
      5.26689437e-05 3.78930235e-05 3.62394901e-04 2.68107047e-04
      2.31023805e-04 1.20285164e-04 -4.30543078e-05 -1.78847156e-04
      -1.14854840e-04 7.98303608e-06 -1.19909681e-04 1.98631722e-04
      1.25814069e-04 6.18941995e-05 -1.60663316e-04 -2.79341737e-04
      -1.30830420e-04 -1.06043099e-05 -5.36002262e-05 -1.12294641e-04
      2.77725376e-05 3.90496483e-04 2.54556915e-04 3.35398567e-04
      3.82753526e-04 1.86295292e-04 -1.31862471e-04 -2.14850821e-04
      -2.52289203e-04 -2.57190288e-04 -2.52401311e-04 8.72673045e-05
      1.89880157e-04 5.54266371e-05 -3.50089394e-04 -1.08318149e-04
      -6.00443527e-05 -1.36829806e-06 -1.49568941e-05 9.40447353e-05
      5.13619976e-04 3.74823197e-04 3.77302495e-04 4.35970374e-04
      2.80846696e-04 1.19595541e-04 -1.49736778e-04 -1.76802190e-04
      -4.08962718e-04 -7.39141891e-04 -9.85773950e-05 -1.94365231e-04
      1.87305370e-04 1.34572430e-04 -1.13851551e-04 3.86960855e-05
      -3.69948721e-05 0. 1.97428017e-05 1.45245678e-04 9.81375109e-04
      4.07038169e-04 5.10580838e-04 5.50034398e-04 2.58085667e-04
      -1.48654261e-04 -3.02496861e-04 -4.40401112e-04 -6.67578075e-04
      -5.36689477e-04 -5.57903375e-04 -1.68031547e-04 3.39478102e-05
      2.21508031e-04 1.77302267e-04 2.21223036e-06 -1.31045072e-05 0. 0.
      2.12516126e-04 8.61586828e-04 3.47037567e-04 4.66820493e-04
      5.73404133e-04 1.86898105e-04 -2.01964911e-04 -7.78928923e-04
      -1.88517256e-03 -1.41985819e-03 -8.11551756e-04 -8.76915990e-04
      -1.49207888e-04 -2.54272280e-04 5.35402622e-04 1.90947481e-04
      -2.97930164e-05 0. 0. 0. 3.87078646e-04 8.49941105e-04
      3.72538983e-04 4.64488752e-04 5.52337093e-04 2.56428379e-04
      -8.22242419e-06 5.85948001e-05 2.39689340e-04 -1.51203087e-04
      -4.37136943e-04 -3.17152997e-04 -1.98706664e-04 -1.70445928e-04
      5.36230742e-04 1.42068253e-04 -7.29647436e-05 0. 0. 0.
      2.62310088e-04 8.18370318e-04 3.58470337e-04 4.25724400e-04
      5.21757989e-04 2.75695085e-04 5.59823711e-05 8.27068070e-05
      1.68339262e-04 -8.19041816e-05 -2.54687300e-04 -1.47904953e-04
      -7.70680854e-05 -1.40831253e-04 2.97713414e-04 -2.58346063e-05
      -1.28615822e-04 0. 0. 1.77747825e-05 2.92238929e-05 3.16724647e-04
      8.27334152e-05 3.26329406e-04 5.04536729e-04 3.01868218e-04
      1.04447216e-04 5.71456849e-06 5.86014266e-06 -8.19062043e-05
      -2.31679020e-04 -2.25615629e-04 -3.03324505e-05 8.16176253e-05
      1.38746880e-04 -1.24510931e-04 -1.22058067e-04 -2.16038934e-05 0.
      -5.73772813e-05 -1.24605082e-04 2.03537827e-04 2.60881090e-04
      1.31876601e-04 4.28480067e-04 3.28438764e-04 1.39769356e-04
      1.38216762e-06 -3.94714061e-06 -1.26323444e-04 -1.74078421e-04
      -1.74167988e-04 2.99676030e-05 -1.15967916e-04 3.84103123e-06
      -1.71640204e-04 -1.20028133e-04 -4.27640334e-05 0. -1.58105482e-04
      2.51610854e-05 2.32703780e-04 2.74604128e-04 6.40273356e-05
      3.09372175e-04 3.37047037e-04 1.86887686e-04 1.39527028e-05
      -7.49913161e-05 -1.72535001e-04 -1.64891535e-04 -1.09305467e-04
      -2.33048604e-06 1.61162570e-05 1.59804222e-05 -3.10323521e-04
      -1.14192611e-04 -1.04603414e-05 -9.63331058e-06 -9.45314168e-05
      -1.33815865e-05 -1.67475555e-05 -3.93814407e-05 2.91787874e-04
      1.65630379e-04 2.47206335e-04 2.42115260e-04 5.52258934e-05
      -9.84788276e-05 -1.52335007e-04 -1.31264984e-04 1.93388814e-06
      -1.04663908e-04 3.43909815e-05 -1.56375769e-04 -2.28410790e-04
      -7.63214921e-05 -5.39779057e-06 0. -5.81242348e-05 -2.25998392e-05
      -2.36363321e-05 -7.79660841e-05 2.90905766e-04 -8.61596345e-06
      1.02435304e-04 1.28176020e-04 2.34717299e-05 4.70552259e-05
      -1.90693521e-04 -1.70537256e-04 7.59149261e-05 -7.35710055e-05
      -1.56039587e-05 -2.58566317e-04 -1.50059612e-04 -2.22604303e-05 0.
      0. -8.98706912e-06 -6.18900594e-05 2.88088868e-05 -2.84333382e-05
      1.51811138e-04 -2.55722844e-04 7.97110406e-05 1.05277126e-04
      4.33873211e-05 1.58703551e-05 5.91009812e-05 4.12020781e-05
      -2.85149526e-05 -1.67124854e-05 -1.37524796e-04 -2.05230957e-04
      -6.85402347e-06 0. 0. 0. 0. 9.68964923e-06 2.00979812e-05
      -8.85724949e-05 -1.45932150e-04 -2.56141102e-05 -1.33125097e-04
      1.47555431e-04 2.68309144e-04 1.73183056e-04 1.53045461e-04
      -6.82597465e-06 -1.46170394e-04 -2.23345545e-04 -2.20359245e-04
      -1.00644662e-04 -3.32673790e-06 0. 0. 0. 0. 0. 8.98311191e-06
      -7.57645512e-06 -1.01339734e-04 -1.42805002e-04 -2.40340596e-04
      -1.74394081e-04 -1.95192930e-04 -1.90536361e-04 -2.26552715e-04
      -2.39059853e-04 -1.23995997e-04 -1.56231254e-05 0. 0. 0. 0. 0.</_>
    <_>
      0. 0. 0. 0. 0. 0. 1.63707547e-04 3.13098571e-04 3.33582284e-04
      1.01106685e-04 3.17046477e-04 -1.27218973e-05 8.60691798e-05
      -5.64236216e-05 -2.82301080e-05 -1.43256533e-04 -2.98666127e-05
      -3.65278211e-05 0. 0. 0. 0. 0. 5.70622933e-06 1.18369142e-04
      4.36221686e-04 5.65855124e-04 3.34737299e-04 -7.91800121e-05
      2.99302366e-04 5.73191865e-05 1.40196149e-04 1.91038402e-04
      2.62518588e-04 2.38099718e-04 1.99925838e-04 -2.28770887e-06
      -3.61529565e-05 0. 0. 0. 0. 0. 2.79198957e-05 2.60164874e-04
      3.28113587e-04 3.40336963e-04 4.79982955e-05 -1.52727356e-04
      9.57055308e-05 4.45090445e-05 2.55284162e-04 -2.23819243e-05
      1.87142105e-05 9.99027980e-05 1.47629122e-04 -7.85230732e-05
      -6.89226727e-05 -1.87016965e-04 -2.29917514e-05 0. 0.
      1.41810897e-05 1.19729084e-04 3.51969124e-04 3.62984370e-04
      3.10612639e-04 1.20815377e-04 2.28449098e-05 3.10986099e-04
      7.57333546e-05 1.09870140e-04 6.56659031e-05 -1.76332702e-04
      2.96809536e-04 -4.60379260e-06 -1.79742310e-05 -4.64818295e-05
      -1.78256378e-04 4.46401573e-05 0. 0. 5.18334018e-05 2.33429091e-04
      3.63212137e-04 4.36150614e-04 4.77125082e-04 8.70598524e-05
      2.81457451e-05 3.97455558e-04 -2.54594197e-04 -2.75974337e-04
      1.29612672e-04 -2.19644106e-04 2.57472042e-04 -3.27863672e-05
      2.73664091e-06 6.84859260e-05 8.11737664e-06 5.42089438e-05 0.
      3.20503750e-06 7.10446038e-05 2.74624559e-04 3.30714451e-04
      5.48587996e-04 3.86405969e-04 2.26015436e-05 1.95252302e-04
      -9.19577651e-05 -3.62307328e-04 -2.46119540e-04 -5.23474373e-05
      -1.15483446e-04 6.24846871e-05 5.43828937e-05 1.38581263e-05
      -7.35436915e-05 4.95438580e-05 6.04165834e-05 0. 0. 1.59370436e-04
      1.44043996e-04 4.53152519e-04 4.99939197e-04 5.29756944e-04
      1.64377081e-04 -1.00580597e-04 -1.80394927e-04 -2.80836102e-04
      -1.98932234e-04 -2.56221334e-04 1.43377489e-04 -4.55038717e-05
      1.72701024e-04 9.82542479e-05 -9.76883384e-05 1.27692154e-04
      7.34596761e-05 0. 2.92369873e-06 1.68144092e-04 3.55530152e-04
      3.69040587e-04 4.63664706e-04 4.69471444e-04 -1.66676124e-04
      -6.30724855e-07 -2.90463126e-04 -3.78351921e-04 -1.84505610e-04
      -3.38530459e-04 1.33119916e-04 9.57693410e-05 2.35774671e-04
      1.66581420e-04 6.44872780e-05 1.33177615e-04 1.00659396e-04 0.
      1.21279354e-05 1.02283113e-04 5.84613066e-04 8.59802967e-05
      3.60892591e-04 2.15801076e-04 2.94315487e-05 -1.05698935e-04
      -2.26112606e-04 -2.08435857e-04 -2.29513971e-04 -3.55937955e-04
      -1.19603639e-04 3.22306500e-04 3.11829761e-04 2.61132227e-04
      2.44931260e-04 1.08260036e-04 1.23854363e-04 5.48182015e-06
      2.34635227e-05 1.94073538e-04 3.10311589e-04 -1.44768928e-04
      2.06937009e-04 4.53857618e-04 4.38418909e-04 -1.82319462e-04
      -2.30094462e-04 -1.83953758e-04 -3.18687846e-04 -2.75301427e-04
      -2.16885557e-04 3.71950475e-04 -1.19853657e-05 3.29654198e-04
      2.14576416e-04 9.08823567e-05 7.89887126e-05 3.10932082e-05
      2.61428590e-06 1.28864951e-04 5.59501823e-05 -8.02499053e-05
      1.91323517e-04 5.85750910e-04 3.31695162e-04 -2.47831282e-04
      -1.71524007e-04 -2.02846277e-04 -3.28322611e-04 4.58603790e-05
      -8.75016340e-05 3.45004722e-04 3.43982174e-05 3.38466692e-04
      5.59843756e-05 -8.81394881e-05 1.58451749e-05 8.48069831e-05
      -2.03650852e-05 6.82741811e-05 5.78025320e-05 -4.27476247e-04
      -1.71338281e-04 4.40538919e-04 2.05672797e-04 -1.02788254e-04
      -1.64804005e-04 -2.74627761e-04 -2.19992842e-04 7.71495761e-05
      1.30009372e-04 9.81530320e-05 -4.69162624e-05 -2.26385109e-05
      -2.44758819e-04 -1.15422816e-04 -2.93151334e-05 1.32931833e-04
      1.43844576e-04 4.87028301e-05 -9.88850443e-05 -2.08241763e-04
      -2.01461356e-04 5.60240114e-05 -1.90324601e-04 -2.79049942e-04
      -2.99416162e-04 -1.42081146e-04 -1.94208755e-04 -7.13167465e-05
      -1.31283799e-04 -2.64341361e-04 -7.64909055e-05 -8.80261359e-05
      -3.84016399e-04 -2.08228550e-04 -7.07103100e-05 1.03427999e-04
      8.84307010e-05 4.17024858e-05 6.14341552e-05 1.57931663e-05
      -3.22465959e-04 9.96580275e-05 -2.11858962e-04 -4.66616999e-04
      -8.75986181e-04 -9.95799783e-04 -8.57803388e-04 -4.78328584e-04
      -1.51578846e-04 -2.86698545e-04 -1.79858063e-04 -1.63100602e-04
      -2.52021273e-04 -1.27208128e-04 -1.46764696e-05 1.37410956e-04
      1.30643093e-04 1.76508824e-04 1.70048923e-04 4.57003262e-05
      -1.77528753e-04 -7.55665460e-05 -3.03295412e-04 -6.12000294e-04
      -8.22525355e-04 -8.49349948e-04 -7.66612065e-04 -5.09106321e-04
      -4.62962053e-04 -4.20865923e-04 -2.75065919e-04 6.78461001e-05
      -1.63123477e-04 0. 0. 1.31301422e-04 1.49486557e-04 2.27592245e-04
      3.42951680e-04 -4.21119039e-05 -2.30463629e-04 -5.07037330e-04
      -2.51153309e-04 -1.13683680e-04 -3.18731298e-04 -4.35910537e-04
      -4.41030978e-04 -3.30812414e-04 -3.98047850e-04 -1.43236481e-04
      -5.14927378e-04 9.96590825e-05 -1.86346893e-04 -4.59656039e-05 0.
      8.35010214e-05 1.32111643e-04 2.66830582e-04 5.44609327e-04
      3.81494086e-04 3.92507354e-04 -1.71648382e-04 2.28661393e-05
      8.61356020e-05 1.44760867e-04 -1.45359867e-04 -9.79475080e-05
      1.35958689e-04 -9.28702357e-05 -1.06815882e-04 -2.77065032e-04
      -1.08380758e-04 -1.42863573e-04 -1.36497663e-04 0. 0.
      4.75897214e-05 9.82877682e-05 5.85513888e-04 5.29767771e-04
      5.61700610e-04 2.08650643e-04 4.16983734e-04 3.46895074e-04
      8.23511728e-05 -1.42954101e-04 5.72649624e-05 -1.35207665e-06
      -4.98912377e-05 6.15074387e-05 -8.94231125e-05 -3.57632438e-04
      -9.40566388e-05 -1.54563517e-04 0. 0. 0. 0. 6.38511701e-05
      2.39842222e-04 3.50370392e-04 4.89940168e-04 3.90258036e-04
      2.45697738e-04 1.37113006e-04 2.23139883e-04 2.52655009e-05
      4.34226495e-05 -1.39451140e-05 6.66701380e-05 -5.67491297e-05
      -2.39207016e-04 -1.34000629e-05 0. 0. 0. 0. 0. 0. 0.
      4.32002616e-06 3.51433730e-04 1.02632919e-04 -5.30139187e-05
      -1.89674993e-05 -1.18414689e-04 1.58978975e-04 2.28963167e-04
      -4.75129418e-05 -2.06497971e-05 -5.67304887e-05 -1.78779846e-05 0.
      0. 0.</_>
    <_>
      0. 0. 0. 0. 0. -1.34854872e-05 -3.57281169e-05 1.90293169e-04
      -9.18090373e-05 -2.29313198e-04 -1.21187004e-04 -1.04331193e-04
      -8.06261451e-05 -1.99623755e-05 -1.86217458e-05 -1.05027457e-05
      -4.80380040e-05 -1.19189617e-05 0. 0. 0. 0. 0. -7.74222499e-05
      -3.45498731e-04 -3.73603747e-04 4.21572695e-05 6.18326230e-05
      -3.47880356e-04 1.16388510e-04 -2.78637366e-04 -3.04906571e-04
      1.44498670e-04 9.31269751e-05 1.68660568e-04 1.28366213e-04
      1.28371466e-05 -3.36696030e-05 7.29548810e-06 0. -4.93536163e-06
      -7.30260945e-05 -1.29822743e-04 -2.42164300e-04 -6.14396471e-04
      -2.55560677e-04 1.32307279e-04 -1.13466769e-04 -9.14223201e-05
      -1.44703095e-04 -3.82411556e-04 -6.19233833e-05 -8.06023018e-05
      -8.10749261e-05 -2.14771222e-04 -4.10557914e-05 -7.75120934e-05
      -5.44667826e-04 -3.96778662e-04 -1.70839761e-04 -2.48056258e-05
      -1.83177515e-04 -1.84560253e-04 9.13897238e-05 -8.49485150e-05
      -7.29747189e-05 2.18160523e-04 -1.46075181e-04 1.97746209e-04
      2.14524815e-04 1.97592090e-04 3.06750444e-04 2.14487518e-04
      6.56920311e-05 1.92101987e-04 -1.65881938e-05 5.71467062e-05
      6.85494379e-05 -2.26775737e-04 -2.97519990e-04 -1.62786910e-05
      -1.37999567e-04 -1.43967118e-04 1.57981252e-04 2.30118458e-04
      8.36170584e-05 4.53375542e-04 -1.78151546e-04 9.19194354e-05
      1.64762285e-04 2.91931647e-04 2.70780729e-04 3.76592303e-04
      2.51530844e-04 5.41869842e-04 2.88784562e-04 2.91244360e-04
      2.46514770e-04 1.40026110e-04 -5.99305167e-05 -7.75175795e-06
      -6.81956444e-05 -1.07526059e-04 3.81250313e-04 -6.31270377e-05
      6.54143587e-05 2.09914695e-04 -1.95735392e-05 1.16270712e-04
      7.78403482e-05 7.12061374e-05 4.30423861e-05 -1.33852169e-04
      3.95951720e-05 4.93002532e-04 7.28429528e-04 5.40989451e-04
      4.50989901e-04 2.96154234e-04 6.52826493e-05 0. -2.24800988e-05
      7.18672090e-05 2.36244930e-04 1.76987553e-04 -1.11732872e-04
      1.22405152e-04 -8.64529720e-05 -7.84877397e-04 -1.10115902e-03
      -9.31297836e-04 -4.09250817e-04 -1.47800398e-04 6.27993768e-06
      1.06537693e-04 4.82147210e-04 7.19840289e-04 2.48188851e-04
      3.95900308e-04 8.83797038e-05 0. -1.03141374e-05 1.61170523e-04
      5.45803166e-04 1.36002665e-04 -2.03830947e-04 4.44830439e-05
      -3.15526820e-04 -1.02495332e-03 -1.56066555e-03 -1.55338203e-03
      -1.09405548e-03 -7.02572055e-04 -1.15685150e-04 1.81058393e-04
      4.05177270e-04 4.51696600e-04 2.66737828e-04 3.46782181e-04
      7.92402134e-05 0. 9.66899279e-06 9.40642567e-05 8.22287402e-04
      1.99027811e-04 1.08181164e-04 -2.77827639e-04 -5.90640004e-04
      -7.51473708e-04 -5.69634954e-04 -5.56165702e-04 -5.89412346e-04
      -5.27153956e-04 -4.14975511e-04 1.79766997e-04 3.82718339e-04
      1.38658463e-04 2.26367221e-04 1.53075089e-04 3.08156377e-05 0. 0.
      2.00061419e-04 6.68336055e-04 1.14560506e-04 2.67900061e-04
      2.86368711e-04 -5.92742654e-05 -1.37623530e-04 -9.93374560e-05
      -1.06502870e-04 -2.25232347e-04 -3.61257116e-04 -2.01415110e-04
      -6.92813919e-05 -7.84016520e-05 2.07879290e-04 7.45889702e-05
      -5.46663296e-06 -1.44636460e-05 0. 0. 4.13491332e-04
      7.80903036e-04 2.36558626e-04 3.19354236e-04 5.15473366e-04
      2.64353177e-04 1.32388974e-04 -2.57527745e-06 -9.94408947e-06
      -4.75738780e-05 -4.22888814e-04 -5.80613014e-05 -1.37641662e-04
      -2.06595112e-04 2.15022097e-04 -3.51344170e-05 -5.12171282e-05
      -4.09803288e-05 0. 0. 2.97932012e-04 6.75131334e-04
      -3.56141420e-04 2.00711016e-04 6.63333689e-04 5.21624577e-04
      2.02864569e-04 3.13986166e-05 -7.34530943e-08 -1.11763722e-04
      -2.90920463e-04 2.77648778e-05 -2.53263162e-04 -1.55178743e-04
      1.75783760e-04 -3.63937812e-04 -6.20984792e-05 -6.74970142e-05 0.
      5.35851286e-05 1.36685179e-04 1.97946603e-04 1.00776604e-04
      2.50942423e-04 6.68286637e-04 4.73940483e-04 2.85165297e-04
      6.97747018e-05 0. -1.76592963e-04 -1.07959138e-04 -1.17414631e-04
      -7.67200763e-05 -3.07998380e-05 3.01199889e-05 -4.96471301e-04
      -1.31142486e-04 -7.71394480e-05 0. 3.00185038e-05 -6.57107084e-05
      1.41452489e-04 4.06209030e-04 6.55982076e-05 4.56809881e-04
      4.77616471e-04 3.64663923e-04 1.08139007e-04 -7.67814981e-06
      -3.19835410e-04 -2.60856159e-05 -2.12843384e-04 -2.76364608e-05
      -5.30941434e-05 -3.13956640e-04 -4.33606445e-04 -1.27218940e-04
      -5.99880877e-05 0. -2.58773343e-05 5.96585960e-05 2.90752596e-05
      3.53205280e-04 2.68001953e-04 3.29318369e-04 3.32592434e-04
      3.33925767e-04 1.64369994e-04 -8.76558552e-05 -2.51047051e-04
      -3.10965993e-06 -2.07552861e-04 1.56226415e-05 -2.09614591e-04
      -2.22920353e-04 -4.57876478e-04 -7.40907344e-05 -4.05646788e-05
      -3.27492535e-06 -1.00544472e-04 -7.92440478e-05 -9.98505202e-05
      2.90080003e-04 5.89140051e-04 2.83301255e-04 9.31063769e-05
      5.92097495e-05 8.15180028e-05 -1.02847480e-04 -7.98628680e-05
      -9.10176022e-05 1.04789624e-05 -3.29376235e-05 -3.08552670e-04
      -5.41406567e-04 -1.29326625e-04 -5.65383707e-05 -1.57303966e-05 0.
      -8.33621380e-05 -1.08669410e-04 6.52536110e-05 -6.01743632e-05
      -1.93790474e-05 2.72328475e-06 1.42061777e-04 1.59739444e-04
      2.08580808e-04 1.56609996e-04 2.65939379e-05 -1.50658496e-04
      1.56291819e-04 -1.06073821e-04 -1.74673129e-04 -3.21322441e-04
      -1.16724506e-04 -3.35003569e-05 -4.49596064e-06 0. 3.05919548e-06
      -2.14489934e-04 -5.02005751e-05 -2.51823280e-04 -1.82539326e-04
      -1.13766619e-04 2.43873525e-04 2.87382689e-04 2.80401844e-04
      1.18497475e-04 7.91118582e-05 2.04265511e-04 -1.47960032e-04
      -3.87272274e-04 -2.13075633e-04 -1.18297314e-04 -3.11610820e-05 0.
      0. 0. 7.29548810e-06 4.15531649e-05 5.94825651e-05 -1.48097810e-04
      -3.87902866e-04 -2.61623034e-04 -2.23950730e-04 -2.33089857e-04
      -3.51038616e-05 2.05736782e-04 2.13603518e-04 8.23203663e-05
      -3.69964800e-05 -1.70840125e-04 -1.57177084e-04 -2.20297661e-05
      -3.16569503e-06 0. 0. 0. 0. 7.63880507e-06 2.48044944e-05
      4.55135778e-05 -5.41018489e-05 -1.94531734e-04 -2.53423292e-04
      -5.11169317e-04 -8.28097982e-05 -7.30454485e-05 -1.11513573e-05
      -3.72554023e-05 -6.80140365e-05 -4.39404575e-05 0. 0. 0. 0. 0.</_>
    <_>
      0. 0. 0. 0. 0. 0. 1.43456360e-04 3.72166454e-04 4.95813438e-04
      2.06974088e-04 3.96529096e-04 6.35557284e-04 7.11372879e-04
      1.21736375e-04 -1.28205484e-05 -1.12577116e-04 -6.71859161e-05 0.
      0. 0. 0. 0. 0. 2.14768115e-05 2.33580780e-04 6.32530428e-04
      8.03681323e-04 5.41311107e-04 2.32811188e-04 2.49902048e-04
      5.77092345e-04 3.86236556e-04 2.77328159e-04 1.63714678e-04
      3.19314306e-04 2.56566127e-04 3.61800958e-05 -8.74743546e-06 0. 0.
      0. 0. 0. 7.50130857e-05 3.80427344e-04 4.38510790e-04
      1.06961073e-04 2.42706767e-04 3.87484652e-05 -2.79125408e-04
      4.14930983e-04 1.30061380e-04 -5.99621162e-05 6.49216745e-05
      4.69983643e-05 5.67323877e-04 2.60741392e-04 -1.38884992e-04
      -1.00544348e-04 -4.00189238e-05 0. 0. 3.53872310e-05
      3.03682435e-04 4.91306302e-04 7.37571609e-05 -1.09715103e-04
      5.56855011e-05 -1.16296687e-04 9.57601442e-05 3.67642904e-04
      2.10265687e-04 1.37754658e-04 1.48939187e-04 4.94444917e-04
      3.06843518e-04 4.21040982e-04 3.00190761e-04 2.94820693e-05
      -9.09090304e-05 0. 0. 7.37364899e-05 2.19077381e-04 3.89222871e-04
      2.07016754e-04 2.73154321e-04 -1.42820412e-04 -1.44201622e-04
      4.13862057e-04 2.29680081e-05 5.60965331e-04 4.10414359e-04
      2.55779596e-04 6.21606479e-04 3.53567331e-04 3.10526229e-04
      2.40656344e-04 1.68176164e-04 -5.26340773e-06 0. 6.76887339e-06
      9.24071865e-05 3.00322397e-04 1.61950138e-05 6.14174205e-05
      -4.25585422e-05 -1.00440746e-04 -2.45823612e-04 -8.95741687e-06
      -1.52733090e-04 3.81151680e-04 3.88015585e-04 5.74716716e-04
      7.76339148e-04 6.53278490e-04 4.28496656e-04 3.07162729e-04
      2.49864883e-04 1.13852489e-04 0. 0. 1.53073430e-04 1.35614988e-04
      1.06360843e-04 -4.82540854e-05 -5.16233304e-05 -3.54075339e-04
      -1.24417245e-04 -4.47544007e-04 -7.09889457e-04 -3.32506315e-04
      1.62355296e-04 4.90227540e-04 3.62283259e-04 7.80607574e-04
      6.10816234e-04 3.88126773e-06 4.47368424e-04 1.49982239e-04 0.
      -4.10511447e-08 1.03661521e-04 1.82572607e-04 -3.66519671e-05
      -2.89637130e-04 -4.52118722e-04 -3.79729696e-04 -1.45119999e-03
      -1.37641036e-03 -1.39957492e-03 -1.07999821e-03 -9.37979377e-04
      3.07508453e-04 4.86388744e-04 6.64252788e-04 6.34280848e-04
      5.88138355e-04 5.61197347e-04 1.17209282e-04 0. -2.15575099e-07
      2.42069091e-05 1.71925887e-04 -4.21361212e-04 -2.91098404e-04
      -3.30366674e-05 -1.26736797e-03 -1.27813988e-03 -9.31341143e-04
      -6.98033546e-04 -5.83618588e-04 -7.48687075e-04 -2.21621929e-04
      6.42940635e-04 5.12003666e-04 5.82126901e-04 9.20022256e-04
      3.62140767e-04 4.55813861e-05 0. 0. -1.64851717e-05
      -1.27960899e-04 -5.29228302e-04 -5.06415381e-04 2.58666805e-05
      -8.51969409e-04 -7.02041492e-04 -1.71892403e-04 -2.51995480e-05
      -1.29716238e-04 -5.84483379e-04 -4.70195373e-04 3.37778329e-04
      -8.31347133e-05 6.60017889e-04 6.37455436e-04 1.27067193e-04 0. 0.
      0. -5.46281881e-05 -1.54581241e-04 -6.16311445e-04 -3.90650821e-04
      3.79596459e-05 -2.35381332e-04 -2.98492785e-04 -9.29635498e-05
      -1.59392614e-04 -2.29350335e-04 -2.13954132e-04 4.41077245e-05
      -1.11818372e-04 1.70502221e-06 7.25436665e-04 2.95740843e-04
      -6.07072179e-05 0. 0. 0. 1.45394040e-07 -8.80907901e-05
      -3.57126177e-04 -2.46285315e-04 -7.82930074e-05 -2.44272494e-04
      -1.69209437e-04 -8.41799483e-05 -6.83957478e-05 -1.94995577e-04
      5.32279919e-05 2.78850173e-04 -1.59740506e-04 1.43666970e-04
      4.06052655e-04 -5.81220957e-05 -2.51043704e-04 0. 0.
      1.13104807e-05 -6.14714154e-05 -2.29244310e-04 -3.15651094e-04
      -8.82879176e-05 2.35262822e-04 1.34603557e-04 5.68401229e-05
      1.03304710e-05 -2.27020087e-06 1.14859824e-04 7.08566658e-05
      3.90791334e-04 1.44449601e-04 1.34213129e-04 -2.91257893e-05
      -3.27553164e-04 -3.36489640e-04 -7.39114184e-05 0. 6.80867670e-05
      -2.79414060e-04 -2.15325577e-04 -5.16731488e-05 -2.24449570e-04
      1.83635711e-04 2.59110355e-04 2.03120435e-04 2.34316722e-05
      2.72450416e-05 2.74295657e-04 6.59317811e-05 3.77762306e-04
      3.20581021e-05 -3.08418857e-05 -4.14814771e-04 -4.94729262e-04
      -2.75504281e-04 -9.21175451e-05 0. -1.38704070e-06 -2.40377631e-04
      5.02214571e-05 -2.60400666e-05 -1.40705204e-04 -3.49264483e-05
      2.60603556e-04 2.14494547e-04 9.86625091e-05 1.32722285e-04
      1.87697238e-04 2.03303833e-04 3.21020139e-04 5.07857076e-05
      8.79359141e-05 -5.37877204e-04 -3.66352266e-04 -2.96473823e-04
      -2.06387813e-05 0. -1.13761162e-05 -4.07774205e-05 -4.52275388e-04
      4.07811931e-05 1.30767803e-04 -1.60663447e-04 9.14990378e-05
      2.47653283e-04 2.84224021e-04 2.93457822e-04 1.16936681e-04
      2.51184392e-04 3.49678099e-04 3.18679638e-04 -1.05379615e-04
      -6.61371800e-04 -3.23776418e-04 -2.09977268e-04 -2.54652805e-05 0.
      -5.99157147e-06 6.15848548e-05 -1.40157921e-04 -7.41710246e-05
      2.01001349e-05 -2.61862093e-04 -4.24682330e-05 2.73661717e-04
      4.66594531e-04 4.82213829e-04 1.00857855e-04 3.07595503e-04
      -5.93500727e-06 6.45836844e-05 -2.08412748e-04 -4.55683126e-04
      -2.49221426e-04 -6.19551647e-05 -5.97424787e-06 0. 0.
      -1.51238455e-05 1.04374994e-04 -5.63389804e-05 -7.71132327e-05
      -1.85116340e-04 -1.19005905e-04 8.15000967e-05 1.28792060e-04
      2.14434855e-04 2.05430595e-04 1.24934639e-04 -2.78812397e-04
      -3.17304512e-04 -2.58874235e-04 -3.14638572e-04 -1.30195287e-04 0.
      0. 0. 0. 6.75292858e-06 3.03515772e-05 -1.49875443e-04
      -4.20858123e-04 -1.51834165e-05 -2.91056436e-04 -1.83693439e-04
      1.58135837e-04 -1.90433318e-04 -7.40258314e-04 -3.45270673e-04
      -2.62775808e-04 -4.46196180e-04 -4.63050907e-04 -1.19566350e-04
      -1.55639755e-05 0. 0. 0. 0. 0. 6.26052770e-06 -2.56859221e-05
      -1.37428273e-04 -6.20132414e-05 -1.75554305e-04 -3.10960168e-04
      -2.22604634e-04 -3.01957713e-04 -2.76947889e-04 -2.00031442e-04
      -1.88321588e-04 -8.41639703e-05 0. 0. 0. 0. 0.</_>
    <_>
      0. 0. 0. 0. -2.59342167e-04 -2.87930045e-04 -2.34315885e-04
      -2.72074423e-04 -4.16056864e-05 -1.62601078e-04 -2.33467668e-04
      -3.64698906e-04 -3.24933353e-04 -2.73215090e-04 -2.77516461e-04
      -2.83621135e-04 -2.79865984e-04 0. 0. 0. 0. 0. 0. -5.07096192e-05
      -1.29893742e-04 3.71064234e-05 6.37127305e-05 -5.74885344e-05
      -3.37890000e-04 -1.33193564e-04 -9.96874733e-05 -1.59783929e-04
      -7.56619556e-05 -9.94304210e-05 -1.74718982e-04 -2.07875841e-04
      -1.72120519e-04 -5.33099665e-05 0. 0. -3.81963991e-06
      -8.33900631e-05 -2.17417968e-04 -3.18161037e-04 -1.41078053e-04
      -2.18643458e-04 -6.20128558e-05 -1.09679371e-04 -5.15456450e-05
      -1.36284623e-04 -1.90514809e-04 -1.35413487e-04 -1.31659501e-04
      -5.62314563e-05 -2.86827526e-06 -2.05766308e-04 -8.84720648e-05
      -4.15055809e-04 -4.04400897e-04 -2.59115623e-04 0. -1.82481250e-04
      -1.60548298e-04 -1.80357034e-04 6.97531846e-07 -6.57440105e-05
      1.73618275e-04 4.53237153e-05 2.76401861e-05 -4.49956060e-05
      -8.25950483e-05 -9.70856127e-05 -2.61103356e-04 -1.36784976e-04
      6.94261398e-05 -2.11710852e-04 2.12733376e-05 1.00391437e-04
      -4.19596763e-04 -5.12965955e-04 0. -1.34682414e-04 -1.38830874e-04
      1.32793994e-05 7.34863133e-05 1.23371166e-04 4.13279980e-04
      4.89922022e-05 3.75358286e-05 -6.49678168e-06 -9.27049259e-05
      -5.61209818e-05 -7.65089353e-05 -1.25423350e-04 4.95747554e-05
      -7.42174889e-05 -6.74834300e-05 -2.19512658e-04 -2.41490474e-04
      -1.45189653e-04 0. -5.23236304e-05 -1.40161137e-04 4.20977594e-05
      1.42621473e-04 1.55602582e-04 1.62238284e-04 7.56160953e-05
      1.47672035e-04 -3.30693401e-05 -1.13819595e-04 -1.96128443e-04
      -1.38851377e-04 3.49953989e-05 8.58735802e-05 1.04215585e-04
      -2.16611792e-04 -1.08011984e-04 3.41363989e-06 -9.18276874e-06 0.
      0. 3.85557578e-05 -3.49351321e-05 3.61461862e-04 8.04202064e-05
      1.72383079e-04 2.87689356e-04 1.40585704e-04 -4.81199459e-05
      -1.69017818e-04 -2.45999719e-04 -1.52784603e-04 -7.77374407e-06
      1.48936406e-05 1.73256936e-04 -1.95317160e-04 4.22520243e-05
      1.87699989e-04 0. 0. 0. 1.15914343e-04 3.23867338e-04
      2.09988109e-04 1.11319459e-04 2.79803935e-04 3.07702576e-04
      5.73349716e-05 -1.30057248e-04 -2.18021742e-04 -3.12085351e-04
      -2.47384945e-04 -1.90297724e-05 -9.61269543e-05 1.37369891e-04
      1.52277891e-04 1.88044112e-04 1.69678315e-04 0. 0. 0.
      4.22075100e-05 6.59767364e-04 9.12114774e-05 1.46562903e-04
      4.54428256e-04 1.85687633e-04 -1.10725436e-04 -2.27586352e-04
      -2.56668194e-04 -3.18136474e-04 -3.73564108e-04 1.74015458e-05
      -3.94064373e-05 2.29315759e-04 3.68269393e-04 3.38950660e-04
      5.63454232e-05 0. 0. 0. 1.34545946e-04 5.61518536e-04
      -3.02474909e-05 1.68844228e-04 4.36822476e-04 1.91065032e-04
      -2.39252055e-04 -3.57266894e-04 -2.61028996e-04 -4.42673831e-04
      -3.64847772e-04 -1.03788943e-05 2.24482297e-04 9.63686980e-05
      5.42059890e-04 3.22209817e-04 0. 0. 0. 0. 3.34921351e-04
      4.83165320e-04 1.29617856e-05 2.19717665e-04 4.06368286e-04
      1.09542758e-04 -3.54432792e-04 -3.06843285e-04 -9.96437302e-05
      -5.86684851e-04 -2.40683759e-04 2.86958937e-04 3.09635972e-04
      7.58109672e-05 5.63888520e-04 2.49388075e-04 0. 0. 0. 0.
      3.03444423e-04 4.68638144e-04 5.64855945e-05 1.48556734e-04
      3.08506482e-04 -1.20579568e-06 -3.19141225e-04 -3.71637463e-04
      -4.84651449e-04 -2.68817850e-04 -1.56321519e-04 2.27835786e-04
      2.92038079e-04 1.40277669e-04 7.59878953e-04 6.59302314e-05 0. 0.
      -1.70407668e-06 6.40988801e-05 2.42353519e-04 3.48243630e-04
      1.96605950e-04 7.89090045e-05 1.84459743e-04 5.97138096e-05
      -3.86858126e-04 -3.79952980e-04 -4.00780438e-04 -1.25705614e-04
      -1.00926714e-04 1.88087899e-04 2.93058401e-04 1.73111184e-04
      7.93919375e-04 3.86085958e-05 0. 0. -1.42817853e-05 4.29166503e-05
      1.45577345e-04 2.87384726e-04 2.33527084e-04 -3.59569494e-05
      1.36516275e-04 9.58124001e-05 -4.82297182e-04 -2.79494736e-04
      -1.96936016e-04 -6.32006850e-05 -1.08582411e-04 1.52165085e-04
      1.79791939e-04 4.00643708e-04 3.46827088e-04 1.01969454e-04 0. 0.
      -3.37082602e-05 -2.49151708e-05 2.31311948e-04 1.49872867e-04
      2.98015890e-04 -3.90647037e-05 -2.41556554e-05 -9.95438095e-05
      -1.33711641e-04 -2.53908685e-04 -1.14204398e-04 -7.94412190e-05
      -2.41320686e-05 1.41728582e-04 3.46079178e-04 5.39050088e-04
      3.22743057e-04 0. 0. 0. -4.15470131e-05 -2.56227577e-05
      1.17840456e-04 1.78858700e-05 1.30256201e-04 2.36462020e-05
      -3.22975102e-04 1.58963358e-05 -7.18437805e-05 -1.24640908e-04
      -6.54661417e-05 -7.87059325e-05 -5.54179569e-05 1.84608478e-04
      4.48838080e-04 2.76794977e-04 2.10891099e-04 1.15659086e-05 0. 0.
      -3.89503221e-05 -5.30534198e-05 -1.28183465e-05 9.59387107e-05
      -1.44394844e-05 4.09964014e-05 -1.84698452e-04 5.09361198e-05
      -8.29865312e-05 1.93294250e-06 -2.35723819e-05 -8.75969781e-05
      -1.30253582e-04 3.58624064e-04 3.07179842e-04 2.48269236e-04
      9.63667771e-05 0. 0. 0. 0. -2.15443306e-05 -1.31483685e-04
      6.84999031e-05 1.18101161e-04 2.12200539e-04 7.86184683e-06
      6.54583710e-05 1.60932414e-05 3.79674057e-05 3.39741600e-05
      1.69378050e-04 1.34426184e-04 1.81479511e-04 2.31462720e-04
      2.51806807e-04 3.01923428e-05 0. 0. 0. 0. 0. 0. 1.50196074e-05
      1.33124806e-04 3.66394932e-04 5.45219926e-04 3.41904961e-04
      1.60812473e-04 3.24610679e-04 3.75057163e-04 9.88289103e-05
      6.42851664e-05 2.16420754e-04 2.93215358e-04 3.10777759e-05
      1.24316455e-06 0. 0. 0. 0. 0. 0. 0. -8.18546614e-05
      -7.61458941e-05 7.58322494e-05 4.11110639e-04 5.90903102e-04
      3.15375422e-04 4.50570864e-04 4.21707227e-04 3.40222177e-04
      2.17864450e-04 6.61627200e-05 0. 0. 0. 0. 0.</_>
    <_>
      0. 0. 0. 0. 2.16806507e-06 1.37310781e-05 -5.24701427e-05
      2.36160795e-05 -1.03319078e-04 -1.43708137e-04 2.62183803e-05
      -3.26276553e-04 -1.40287302e-04 -3.77560791e-04 -8.88952127e-05
      1.80435145e-05 3.23214636e-06 0. 0. 0. 0. 0. 0. -2.33237442e-05
      -2.42456099e-05 -5.41244808e-05 -9.85305305e-05 -1.41207362e-04
      1.25644670e-04 2.37286018e-04 2.63172376e-04 3.07668117e-04
      -1.59955234e-04 2.39260753e-05 -1.70855870e-04 -1.54316047e-04
      -1.58460593e-04 -6.40392100e-05 0. 0. 0. 0. -2.74561316e-05
      -3.77510805e-05 -1.06424864e-04 5.17461303e-05 9.03702494e-06
      1.56135211e-04 1.06665524e-04 8.84447727e-05 -8.18587887e-06
      2.02918265e-04 -2.28555073e-05 1.64593628e-04 9.23992920e-05
      -8.30487916e-05 -2.07284756e-04 -4.06241481e-04 -6.53955358e-05
      5.29142255e-07 0. 0. -9.61256446e-05 -1.74606248e-04
      -3.58062316e-05 -8.30550998e-05 -2.56912699e-05 5.71168721e-06
      2.45242874e-04 4.21689037e-05 7.02794132e-05 6.94684859e-05
      1.44536834e-05 -1.82700329e-04 1.63231438e-04 -2.70947876e-05
      5.21381435e-06 -3.57769721e-04 -3.10079864e-04 7.64493689e-06 0.
      -3.93127630e-05 -9.99869371e-05 -1.75415844e-04 6.18583508e-05
      6.22043008e-05 1.11942136e-04 -1.41296579e-04 2.04987751e-04
      5.51416342e-05 1.24898826e-04 -4.12885674e-06 2.00829512e-04
      -2.09281759e-04 9.81604317e-05 5.96783684e-05 5.90263844e-05
      -3.74672323e-04 -3.37349484e-04 -2.29537873e-05 0. -3.69675399e-05
      -9.18532314e-05 -5.16159198e-05 -9.27674264e-05 2.51927879e-04
      1.48312247e-04 -5.70263546e-05 1.90806040e-05 1.11755526e-05
      8.27526492e-06 -7.62893396e-05 1.23873411e-04 6.22043226e-05
      1.53808141e-04 2.20730624e-04 6.07708571e-05 -2.28121731e-04
      -3.08391347e-04 -4.57804199e-05 0. -2.42064780e-05 -3.36013181e-05
      5.12397019e-05 4.23871010e-04 1.87753452e-04 3.11426178e-04
      1.13544607e-04 -2.72083271e-04 -2.32770530e-04 -1.64649362e-04
      -1.85005556e-04 -6.12595904e-05 5.42069611e-05 3.53232695e-04
      2.45518371e-04 1.65813646e-04 -2.91835226e-04 -1.75297493e-04
      5.52374331e-05 0. 8.73025201e-05 3.13999158e-06 3.31858173e-04
      5.27369324e-04 2.37673390e-04 2.20013462e-04 -5.06676988e-05
      -3.38867918e-04 -4.52388573e-04 -2.32370003e-04 -5.67190989e-04
      -4.88370075e-04 8.14092928e-05 2.77272396e-04 2.95049598e-04
      2.68411764e-04 -1.12774280e-04 1.34811358e-04 4.92896543e-05 0.
      1.76299378e-04 1.11476780e-04 6.25610293e-04 2.13856983e-04
      -3.11051735e-06 2.96493585e-04 -5.01600036e-04 -7.56448775e-04
      -5.30385121e-04 -2.80756387e-04 -6.96523290e-04 -8.11483595e-04
      -3.45637673e-04 2.21149923e-04 1.77462818e-04 3.99434502e-04
      2.95308593e-04 2.72850128e-04 1.91681993e-05 0. 1.94770750e-04
      2.77681393e-04 6.62488572e-04 -2.57208776e-05 -2.39289177e-04
      -1.21085313e-05 -8.96822428e-04 -1.28921960e-03 -1.33470749e-03
      -1.75844051e-03 -1.39179640e-03 -1.01862499e-03 -5.34651626e-04
      2.37615113e-05 7.25003556e-05 4.64451005e-04 4.78139118e-04
      2.48956931e-04 0. 0. 1.94770750e-04 2.51731894e-04 4.53388551e-04
      8.71019001e-05 -4.32705601e-05 -1.00937476e-04 -5.97014790e-04
      -7.09067914e-04 -1.06634916e-05 3.20648891e-04 -3.02987810e-05
      -7.73969514e-04 -6.95758135e-05 3.61291459e-04 3.36292374e-04
      6.30546419e-04 2.28284131e-04 1.13373513e-04 0. 0. 1.94770750e-04
      5.03457204e-06 4.45813814e-04 2.26664433e-05 1.61252829e-04
      1.68462429e-04 -1.16312542e-04 -1.74715184e-04 1.27420717e-04
      4.13748407e-04 5.50644909e-05 -2.92617915e-04 5.38124186e-05
      2.69265089e-04 4.34081536e-04 5.48559474e-04 -1.05226987e-04
      -3.14257777e-05 0. 0. 1.02690719e-04 -1.98877373e-04
      3.22718057e-04 -1.26003302e-04 1.01359889e-04 1.98183217e-04
      1.69778832e-05 -8.84589826e-05 -1.56088208e-04 -1.82488977e-04
      -9.62724807e-05 1.14682844e-04 2.57767853e-04 1.83673095e-04
      8.51385921e-05 3.06332688e-04 -3.01142310e-04 -1.35351947e-04
      -6.35039760e-05 0. -9.83268837e-05 -1.96951660e-04 2.02852796e-04
      1.02245518e-04 6.50214060e-05 1.65278718e-04 1.43477591e-04
      5.42589878e-05 3.11414078e-05 -1.29720633e-04 -7.07270810e-05
      1.08433334e-04 2.40343928e-04 2.46866868e-04 -7.03745245e-05
      -1.12344969e-04 -3.12954246e-04 -1.87430342e-04 -1.05261846e-04 0.
      -2.27811310e-04 -1.48917490e-04 9.66103499e-08 9.31610411e-05
      -2.81847402e-04 2.14612737e-04 2.51919380e-04 8.47143892e-05
      2.40725785e-05 6.18152408e-05 -1.45353997e-05 4.08905798e-05
      8.70029035e-05 1.61152318e-04 -9.09765731e-05 -3.17146507e-04
      -1.82417469e-04 -2.86665832e-04 -2.49869026e-05 -9.20500042e-06
      -1.40127930e-04 -1.70707717e-04 -1.72409971e-04 4.79955816e-05
      5.65230548e-05 -2.29749916e-04 2.32980339e-04 3.14140605e-04
      3.03307002e-06 2.26968099e-04 1.15517716e-04 1.89186176e-04
      5.40802903e-05 2.06885437e-04 -1.35137438e-04 -3.90123372e-04
      -3.69865651e-04 -1.66493686e-04 -1.54401823e-05 0. -6.03925400e-05
      -1.66160782e-04 -3.12379882e-04 -1.79814480e-04 5.59670625e-05
      -2.58977554e-04 8.00791386e-05 2.91988894e-04 -1.44956703e-05
      2.79688073e-04 2.89349555e-04 5.05842581e-05 1.36301096e-04
      -4.06213694e-05 -2.50125759e-05 -3.45642882e-04 -2.81776622e-04
      -1.15123854e-04 0. 0. 0. -9.03234904e-05 -8.38528213e-05
      -1.74916931e-04 8.45519171e-05 -9.16162535e-05 1.67342921e-04
      2.83266301e-04 2.21032096e-04 1.73374119e-05 2.49294884e-04
      2.43697559e-05 7.71294945e-05 -1.53067114e-04 -2.78675056e-04
      -2.06171069e-04 -1.39248994e-04 0. 0. 0. 0. 2.82078236e-06
      1.32910336e-05 -4.92116269e-05 -2.66625168e-04 -1.97827772e-04
      -1.86325604e-04 9.84574654e-05 2.39425979e-04 6.03587032e-05
      2.55677496e-05 -7.82036004e-05 -1.60782336e-04 -2.62664020e-04
      -2.72871635e-04 -1.63074335e-04 -1.87567384e-05 0. 0. 0. 0. 0.
      2.61510013e-06 1.20337727e-05 -6.63191968e-05 -6.66614069e-05
      -3.14253877e-04 -4.00100456e-04 -1.87222584e-04 -2.12745203e-04
      -2.50694895e-04 -7.34608548e-05 -1.81662559e-04 -1.23887112e-05
      2.16806507e-06 0. 0. 0. 0.</_>
    <_>
      0. 0. 0. 0. 0. 2.42235874e-05 -6.90875677e-05 -2.19695125e-04
      -3.25998815e-04 -2.88750947e-04 -5.51061356e-04 -3.58474237e-04
      -1.65260019e-04 -2.82746478e-04 6.03630679e-06 -1.38370433e-05 0.
      0. 0. 0. 0. 0. 0. -3.64906700e-05 -2.33643979e-04 -3.07819108e-04
      -3.52924806e-04 -2.93174497e-04 1.04753035e-05 -3.31712479e-04
      -1.95256158e-04 -3.94259754e-04 -1.43682570e-04 -1.16533476e-04
      -7.18627343e-05 1.68288883e-04 9.64875871e-05 6.83804319e-06 0. 0.
      0. -2.52739278e-06 -3.40799888e-05 -2.05536358e-04 -4.72540763e-04
      -9.97516909e-05 -1.56661932e-04 1.36601957e-04 -1.21584606e-04
      1.04000201e-05 4.30266169e-04 -4.87345351e-05 -1.34464906e-04
      -8.46297044e-05 -1.02717364e-04 3.55372867e-05 -1.12722970e-04
      -7.03161713e-05 -6.99562152e-05 -8.48032141e-06 0. -3.25239816e-05
      -2.09424456e-04 -5.23303810e-04 -4.59155417e-04 6.77192511e-05
      -2.75726314e-04 -2.41634780e-06 3.87278078e-06 4.14963986e-04
      1.41900950e-04 -3.16509136e-06 -6.69104265e-05 -3.69311252e-04
      3.83065417e-05 -2.28144345e-04 -7.92602950e-05 2.07559831e-04
      -8.78571082e-05 -4.54279107e-05 0. -9.63845014e-05 -3.71733360e-04
      -7.31236069e-04 -2.72305624e-04 7.89922851e-05 -1.00833113e-05
      2.10393948e-04 -2.54053768e-04 2.52591737e-04 2.12444618e-04
      1.51999222e-04 2.98669707e-04 -4.22586396e-04 -1.03986404e-05
      -2.67660187e-04 -1.21803154e-04 -1.00390578e-04 -4.31584049e-05
      -9.46147338e-05 -2.66510342e-05 -1.74109999e-04 -4.20263765e-04
      -1.14488730e-03 -4.96652210e-05 -8.71842167e-06 -1.70768311e-04
      2.16885761e-04 7.66009634e-06 1.09678906e-04 1.32458328e-04
      1.11381953e-04 1.02323109e-04 -1.42575387e-04 -4.85831333e-05
      3.49399197e-05 -1.26913073e-04 -3.87725217e-04 -9.18096703e-05
      -5.37239939e-05 -6.47468914e-05 -1.74296176e-04 -3.90600821e-04
      -1.22500153e-03 3.94456496e-04 -1.81022566e-04 5.84203153e-05
      3.88181012e-04 2.25808049e-04 9.02114043e-05 8.53864694e-05
      -1.98689631e-05 -7.88997932e-05 -6.63111541e-06 -8.58580388e-05
      -9.41216058e-05 -2.19007372e-04 -5.89060131e-04 -8.45091126e-05
      -4.05570936e-05 -9.54792849e-05 -1.20860997e-04 -4.25746257e-04
      -4.61147487e-04 -2.78156105e-04 1.55427388e-05 1.84181437e-04
      4.99253045e-04 2.12030398e-04 2.55573716e-04 -1.29609980e-04
      -2.29362791e-04 -6.54343312e-05 -9.47523295e-05 8.07754768e-05
      -2.14984568e-04 -3.10500269e-04 -4.09239146e-04 -1.14736584e-04
      -4.84708362e-05 -4.95757849e-05 -8.51358200e-05 -4.37075389e-04
      1.81769297e-04 -3.41221632e-04 1.41791257e-04 2.80505017e-04
      2.01351562e-04 9.82787169e-05 8.39481218e-05 4.43050521e-05
      1.41916549e-04 -1.29509572e-04 -1.94706445e-04 -2.24759744e-04
      -2.31724727e-04 -3.52681498e-04 -3.27350455e-04 -5.05261851e-05
      6.09063545e-06 5.05834214e-05 5.13689120e-05 -1.67758451e-04
      5.42860187e-04 7.25429127e-05 1.57633403e-04 1.35213544e-04
      -6.60331643e-05 5.82394932e-06 -8.59020147e-05 2.33150335e-04
      6.30499781e-05 -7.44079662e-05 -7.11516768e-04 -3.72161827e-04
      -4.99394839e-04 -2.36209773e-04 -4.54980007e-04 -4.32801571e-05
      -4.77950243e-06 7.78665199e-05 1.01501617e-04 3.50845745e-04
      8.44749506e-04 3.78139928e-04 5.14337560e-04 8.29222918e-05
      -6.11756055e-04 1.39246331e-04 -6.00764688e-05 -9.03085436e-07
      -1.10954454e-03 -8.68495787e-04 -6.74947631e-04 -3.48521746e-04
      -6.06172311e-04 -3.29130009e-04 -2.69231910e-04 1.21812864e-05
      7.34324130e-05 3.18874845e-05 1.51475499e-04 7.35846639e-04
      1.04046555e-03 7.03901751e-04 6.56067627e-04 5.48489334e-04
      -6.40447950e-04 -5.42681431e-04 -4.78642847e-04 -4.61352640e-04
      -5.25701034e-04 -1.23380742e-03 -8.35752988e-04 -4.59974690e-04
      -5.50573110e-04 -4.83145668e-05 -2.07082616e-04 5.99919222e-05
      2.77231247e-05 6.36596596e-05 3.28636350e-04 8.42699432e-04
      1.23339205e-03 9.54640040e-04 7.65679171e-04 9.17816767e-04
      1.80018193e-04 -8.00915412e-04 -1.38424966e-03 -1.44590647e-03
      -1.07940275e-03 -7.29310443e-04 -3.17669299e-04 -4.44185542e-04
      -4.10870125e-04 1.69375067e-04 -5.56735722e-05 7.73784777e-05
      -5.38691097e-07 5.13236664e-05 2.70741148e-04 6.64838590e-04
      6.43067178e-04 3.04207031e-04 3.34784127e-04 7.84350268e-04
      5.74595644e-04 1.50128208e-05 -7.48504302e-04 -9.73127782e-04
      -5.11156919e-04 -2.61234090e-05 -9.67282685e-05 -2.31821308e-04
      -1.73903667e-04 9.29973467e-05 1.40755597e-04 4.94126944e-05 0. 0.
      9.18225924e-05 5.66580973e-04 2.76477185e-05 3.88872693e-04
      3.38908663e-04 4.90688311e-04 6.87366701e-04 3.20196181e-04
      3.13301098e-05 -3.55772703e-04 -2.92113284e-04 -8.74027610e-05
      -4.66981292e-05 1.05780040e-04 -1.15807663e-04 5.32815757e-04
      2.46705949e-05 1.38161276e-05 0. 1.55473651e-06 5.48168919e-06
      1.17280717e-04 -3.03346082e-04 4.58453986e-04 4.45935206e-04
      6.03390217e-04 4.77173424e-04 7.61743926e-04 2.82574969e-04
      5.50496843e-05 -5.14607818e-04 6.46850822e-06 3.57565325e-04
      -6.20187711e-05 3.28533461e-05 3.98052973e-04 1.09833098e-04
      -1.60392244e-06 0. 0. -4.14097194e-05 4.82207251e-05
      1.97956833e-04 3.15178419e-04 4.47120838e-04 1.57943476e-04
      2.76366860e-04 4.20238794e-04 6.36631506e-04 1.99014699e-04
      -1.74646848e-04 1.47281200e-04 1.14903152e-04 2.25924341e-05
      5.24011266e-04 2.74041231e-04 1.81883352e-05 0. 0. 0.
      -1.13506949e-05 -1.24237820e-04 3.35129123e-04 3.05871858e-04
      4.60386538e-04 1.71667620e-04 1.04172330e-04 -1.44705773e-04
      1.68030863e-04 5.72038289e-06 5.71137643e-05 4.47384897e-04
      1.34297399e-04 3.73637129e-04 6.87972817e-04 2.99540461e-05
      -1.82340500e-05 0. 0. 0. 0. 0. 2.09185455e-05 2.20880120e-05
      4.42184042e-04 6.19941275e-04 -9.29150847e-05 -1.81416544e-04
      4.28128027e-04 2.80743057e-04 7.01124256e-04 7.68162194e-04
      1.58575771e-04 5.62362839e-04 4.89186903e-04 -4.10435496e-05
      -4.19179923e-06 0. 0. 0. 0. 0. 0. -5.58199863e-05 -2.66441057e-04
      -3.39893973e-04 3.05472029e-04 6.74476789e-04 3.41537059e-04
      9.97396128e-05 1.01046974e-03 7.14097929e-04 -2.22112994e-05
      7.54499924e-05 5.62459809e-06 0. 0. 0. 0.</_>
    <_>
      0. 0. 0. 0. 0. 0. -1.34468035e-04 -7.14377093e-04 -1.28697965e-03
      -1.19134434e-03 -7.00277858e-04 -1.10715406e-03 -4.48087434e-04
      -9.63948201e-04 -5.87417526e-05 3.13018136e-05 0. 0. 0. 0. 0. 0.
      0. -1.11050773e-04 -4.33939480e-04 -8.49511707e-04 -7.82588206e-04
      -4.90210019e-04 -2.54091370e-04 -3.83629185e-06 2.40367604e-04
      6.57499913e-05 1.52817971e-04 -4.57215414e-04 -2.86414899e-04
      -1.55310583e-04 -1.85063793e-04 -1.77664751e-05 0. 0.
      -2.88464389e-06 -9.48795932e-05 -3.60748469e-04 -5.77144965e-04
      -5.11785503e-04 -5.02204814e-04 -7.01602476e-05 1.67388498e-04
      2.91603792e-04 -1.15669201e-04 5.50789235e-04 -2.07157966e-04
      1.48310559e-04 5.36203792e-04 4.79766837e-04 4.42706107e-04
      -4.13729373e-04 2.23143739e-04 2.50100857e-04 8.75336045e-05 0.
      -1.08867644e-04 -2.24950025e-04 -8.58725456e-04 -7.14448688e-04
      -4.74906963e-04 -2.72870675e-04 1.92535546e-04 -6.63525367e-04
      1.40196382e-04 1.34532311e-04 -9.44560161e-05 4.09477070e-04
      2.94653117e-04 2.23270763e-06 5.46914292e-04 2.52622005e-04
      5.63902780e-04 -1.68037604e-05 6.08721348e-05 4.94485794e-05
      -3.02771514e-05 -3.24435619e-04 -6.62338280e-04 -7.27774750e-04
      -2.56699423e-04 -2.62871763e-04 7.18876894e-04 1.28042564e-04
      -1.77479465e-04 5.52758342e-04 1.65741003e-04 3.73094023e-04
      2.96637027e-05 2.89192918e-04 3.16554535e-04 1.56508904e-04
      2.45785370e-04 -2.67304888e-04 -1.79315160e-04 2.10957514e-05
      -7.10907552e-05 -2.51215126e-04 -6.49568916e-04 -7.83767377e-04
      5.24310826e-06 1.55990332e-04 1.13605034e-04 -3.76126191e-05
      1.57044560e-04 7.09499815e-04 2.77209998e-04 3.97658412e-04
      -1.57969014e-04 3.68025358e-04 -2.21414361e-04 8.53798629e-05
      -3.71431343e-05 -4.66111262e-04 -2.34057283e-04 -2.02056719e-04
      -4.28050349e-04 -4.25964274e-04 6.91346504e-05 -1.73194567e-04
      2.05093515e-04 -2.47353659e-04 -2.09861246e-04 6.32772513e-04
      8.15397478e-04 6.18720427e-04 1.92228224e-04 1.16829597e-05
      -4.84767050e-04 -3.53004289e-04 1.50409440e-04 -1.05867985e-04
      -3.21216969e-04 -4.64336976e-04 -1.44724647e-04 -4.03148500e-04
      -5.17574605e-04 -4.03434213e-04 4.12981790e-05 2.66854127e-04
      1.41754950e-04 -2.26150776e-04 5.81051791e-06 6.54549687e-04
      1.30418688e-03 7.11933244e-04 7.55050161e-04 1.01676451e-04
      -4.66990867e-04 -4.47909988e-04 8.92166063e-05 -4.17873700e-04
      -4.46373975e-04 -3.40593659e-04 -1.18350923e-04 -5.37589658e-04
      -5.72033518e-04 -2.27905475e-04 1.42136578e-05 -5.31689864e-07
      -1.07755804e-05 -7.76155211e-05 1.55406698e-04 6.45536406e-04
      1.30604149e-03 9.08759248e-04 7.78988411e-04 3.28480644e-04
      -5.84146532e-04 -4.80120216e-04 -7.57849426e-04 -3.50261806e-04
      -7.55237706e-04 -2.41656482e-04 -8.12231374e-05 -6.09604118e-04
      -5.00539492e-04 -6.18118138e-05 0. 0. 0. 0. 9.43540654e-05
      5.54020691e-04 1.13795476e-03 1.02287764e-03 8.47169489e-04
      2.68446776e-04 -3.94033559e-04 -5.28435397e-04 -2.96888524e-04
      -3.33440868e-04 -5.24401956e-04 -1.33894791e-04 -5.03968149e-05
      -5.57786843e-04 -2.30900332e-04 0. 0. -1.95869973e-07 0.
      -8.95543326e-06 4.02779478e-05 2.96238431e-04 6.84311846e-04
      7.36193499e-04 9.04203684e-04 3.25915433e-04 -3.28652532e-04
      -3.40850645e-04 -5.72618970e-04 -4.71969135e-04 -1.74007349e-04
      -6.13375523e-05 -1.54115260e-05 -3.06277827e-04 -4.55027293e-05 0.
      -2.62042249e-06 -6.00667909e-06 -1.98638118e-05 -1.25539867e-04
      -1.34506976e-04 -1.55722795e-04 5.39871166e-04 1.06811314e-03
      5.58764441e-04 -9.68932654e-05 -3.42102052e-04 6.43359526e-05
      1.71986521e-05 -1.10626148e-04 -3.79779594e-05 -5.07884579e-06
      -1.66321588e-05 -4.43060344e-05 -2.69610769e-06 -1.24342205e-05
      -5.02216244e-05 -9.28154041e-05 -2.10901300e-04 -4.19769407e-04
      -3.43037711e-04 -4.79686161e-04 -3.50352057e-05 3.62545252e-04
      -4.22596873e-04 -1.27590989e-04 5.65479335e-04 5.92095195e-04
      5.49231307e-04 5.94571566e-06 -1.59019110e-04 -3.43588181e-04
      -5.32561680e-04 -4.98597183e-06 1.58092807e-05 -3.25076035e-05
      -1.44842546e-04 -2.94468075e-04 -3.63108353e-04 -3.80697078e-04
      -5.62912785e-04 -9.22403473e-04 -3.25038272e-04 5.95872443e-05
      2.48431636e-04 9.64469218e-04 8.28130636e-04 7.00187753e-04
      3.43715772e-04 -2.61306268e-04 -5.60332381e-04 -5.65278868e-04
      -6.11193420e-04 -5.96620193e-05 -9.01486419e-05 1.22275351e-05
      1.97403438e-06 -8.10499041e-05 -3.97877273e-04 -9.91050969e-04
      -8.61027511e-04 -2.08067810e-04 -5.07733552e-04 4.17291303e-04
      1.07701181e-03 1.01819239e-03 9.38491838e-04 4.66645142e-04
      5.36612242e-05 -2.31550745e-04 -6.72502560e-04 -3.02864530e-04
      -2.70178367e-04 -1.63086414e-04 -4.24901045e-05 1.06861939e-04
      1.40516122e-05 -4.82248579e-04 -9.31420363e-04 -8.07239092e-04
      -2.52859900e-05 6.88090877e-05 4.40333359e-04 4.22945275e-04
      9.41007747e-04 9.05214809e-04 4.99210553e-04 8.67530689e-05
      -4.51482338e-04 -4.12443653e-04 -8.98058759e-04 -3.70554262e-05
      1.00505495e-04 -1.78244401e-04 -2.11783918e-04 1.47444793e-04
      2.43595190e-04 -6.81734455e-05 -2.53003411e-04 1.07583495e-04
      -3.02789500e-04 6.47161738e-04 -4.72591113e-04 1.76326284e-04
      -2.91595992e-04 3.55547731e-04 -2.21566836e-04 -6.41799474e-04
      -5.66549774e-04 -1.23660473e-04 -8.58282292e-05 -3.85914609e-05
      2.21860959e-04 0. -1.33175476e-04 2.36990207e-04 4.24668397e-04
      4.56494978e-04 4.60746669e-04 -3.02926550e-04 -1.16026342e-04
      2.14106112e-04 -7.65944831e-04 -8.33894082e-05 -6.81424048e-04
      -6.55925542e-05 -4.61713236e-04 5.31446967e-05 -4.25643484e-05
      -6.38053752e-05 -2.62561196e-04 -2.30502570e-04 1.00775724e-04 0.
      0. 0. 2.55466221e-05 2.53981503e-04 1.21082128e-04 1.42772522e-04
      3.57420620e-04 -5.14560030e-04 -8.42374982e-04 -3.12481163e-04
      -5.35452680e-04 -8.04799056e-05 -6.84714236e-04 -3.18233011e-04
      -2.39014807e-05 -8.99207080e-05 -2.10352791e-05 0. 0. 0. 0. 0.
      -4.39047435e-05 -1.77011359e-04 2.40501715e-04 2.66559528e-06
      1.25728577e-04 -6.77897886e-04 5.92536926e-05 -2.26045639e-04
      7.80268601e-05 -1.12230897e-04 -2.17581022e-04 4.88405465e-04
      3.42486048e-04 -1.93197993e-05 0. 0. 0.</_>
    <_>
      0. 0. 0. 0. 0. 0. -1.13165726e-04 -2.53191247e-04 -4.46336140e-04
      -2.52855243e-04 -2.67505180e-04 -4.97235043e-04 -3.34410113e-04
      3.30667353e-05 -1.25458653e-04 -1.51441825e-04 -1.39517579e-04 0.
      0. 0. 0. 0. 0. -1.70176190e-05 -1.93680346e-04 -4.94644279e-04
      -3.76327720e-04 -1.52136345e-04 5.99444320e-05 1.99898306e-04
      -1.29582113e-04 -6.74960465e-05 -2.28361474e-04 2.09462756e-04
      -2.47108197e-04 -1.67830658e-04 -1.50708347e-05 1.61778244e-05 0.
      0. 3.80579678e-07 7.19641594e-06 1.52593348e-05 -2.36203523e-05
      -3.13285185e-04 -3.29030881e-04 3.30253795e-04 3.25556088e-04
      4.10408626e-04 3.04629182e-04 1.16826322e-05 -1.33188965e-04
      5.83968831e-05 2.07141449e-04 1.81441632e-04 -6.84764964e-05
      4.19137468e-05 9.53581548e-05 -7.55769943e-05 -5.58859283e-05 0.
      2.57872962e-05 3.26095324e-05 -8.79760555e-05 -2.81123270e-04
      -1.62947137e-04 2.41326052e-04 6.49344991e-04 1.58478084e-04
      5.04014024e-04 2.53740262e-04 3.37267324e-04 5.55027975e-04
      -1.94259355e-05 7.58260285e-06 6.49358481e-06 -3.14142162e-05
      1.09059780e-04 -3.41726671e-04 -1.35761074e-04 2.07395278e-05
      4.35843467e-05 -2.50841549e-05 -1.66030513e-04 -1.60562326e-04
      1.27540596e-04 -9.23643820e-05 1.50793581e-04 2.46364914e-04
      7.32165412e-04 6.65396161e-04 1.59246687e-04 6.22465275e-04
      -7.93123399e-05 1.44275677e-04 -1.32705623e-04 -5.23288254e-05
      -8.53379534e-05 -3.43163527e-04 -1.26878032e-04 1.05343634e-05
      2.63804322e-05 -1.30487213e-04 -3.57049488e-04 -2.76181934e-04
      -1.56949274e-04 -1.58910232e-04 3.16702848e-04 8.86873167e-05
      4.38365096e-04 5.10613900e-04 3.02639179e-04 7.68363359e-04
      7.09525266e-05 6.90522502e-05 -3.03610170e-04 1.72610977e-04
      -1.89553946e-04 -3.27242364e-04 -8.33857775e-05 0. 3.05496542e-05
      -1.96454392e-04 -4.30880937e-05 3.31465853e-05 2.70670516e-05
      7.49321844e-05 1.26047453e-04 2.91400120e-05 6.59512007e-05
      2.39826666e-04 1.46391874e-04 3.07390554e-04 4.77259237e-05
      2.77467392e-04 -1.38188072e-04 1.64234778e-04 -2.53866834e-04
      -2.85068352e-04 0. 0. 1.71841803e-05 -6.36858458e-05
      1.18822609e-05 1.57255257e-04 1.64702782e-04 3.29025715e-05
      -1.17600619e-04 -2.39301473e-04 -1.48575476e-04 3.60033329e-04
      3.69111018e-04 -1.39666561e-04 2.30334641e-04 -1.93234919e-05
      1.34504997e-04 -8.14241939e-05 -2.42363792e-04 -1.29284308e-04 0.
      0. 0. 0. 2.73259388e-06 0. 0. -1.49056345e-04 -3.98068310e-04
      -3.08087154e-04 -2.84834328e-04 -1.67587350e-04 1.53057495e-04
      3.57878598e-04 -1.49809988e-04 7.12997717e-05 8.33144895e-06
      -3.09106254e-04 -1.64879719e-04 -2.35880416e-05 0. 0. 0. 0. 0. 0.
      -3.43602296e-05 -2.57340143e-04 -3.10353760e-04 -4.16585448e-04
      -1.28780911e-03 -1.64844445e-03 -4.61028540e-04 1.83765034e-04
      -4.08259511e-04 -2.91279430e-04 -3.76851269e-04 -1.22784506e-04
      -3.74183837e-05 0. 0. 0. 0. 0. 0. 0. -5.09453639e-05
      -1.79124690e-04 -1.84711826e-04 -1.15550567e-04 5.36120751e-05
      9.88508458e-04 2.86751223e-04 -8.97028440e-05 -6.99796219e-05
      -3.49654700e-04 -4.95198765e-04 -1.88926249e-04 0. 0. 0. 0. 0.
      -8.10731653e-05 -1.00011217e-04 0. 0. -7.54883877e-05
      1.28554884e-05 1.93142827e-04 5.68927673e-04 9.31579911e-04
      6.38612080e-04 -3.37216989e-05 -7.48299863e-05 -4.44349920e-04
      -5.57636784e-04 -5.06708049e-04 0. 0. 0. 0. -7.63302596e-05
      -2.86453462e-04 -3.34924174e-04 -2.71067169e-04 -1.50736349e-04
      -8.07005199e-05 5.15553547e-05 2.90008262e-04 7.42630509e-04
      9.29239672e-04 6.73414499e-04 8.03994408e-05 -2.28906400e-04
      -5.78678504e-04 -2.98291241e-04 -6.83897815e-04 -6.11448340e-05 0.
      0. 0. -2.50142504e-04 -3.06383299e-04 -2.54320970e-04
      -3.09398776e-04 -3.17705446e-04 -2.22675662e-04 1.26654122e-04
      3.83081293e-04 6.96768926e-04 8.09241552e-04 5.13835461e-04
      4.91731844e-05 -2.98528030e-04 -3.04454617e-04 -4.84761258e-04
      -4.31881752e-04 -2.12132043e-04 9.48092656e-06 0. 0.
      -2.97144143e-04 -1.15682735e-04 1.54883310e-05 -2.88809679e-04
      -3.30193259e-04 -4.52461565e-04 2.63386592e-05 4.92124993e-04
      5.63529087e-04 5.04960597e-04 2.27588753e-04 -1.45558850e-04
      -2.06186116e-04 -3.17686827e-05 -3.08504212e-04 -3.20988736e-04
      -2.67113443e-04 2.84427806e-05 0. -4.41971461e-05 -2.17806373e-04
      -1.45057886e-04 -2.75222228e-05 -4.02261037e-04 -3.48967878e-04
      -3.53710988e-04 -7.06731007e-05 1.05039202e-04 8.31312063e-05
      1.80234478e-04 -1.01368700e-04 -7.45324214e-05 -4.03303929e-05
      -3.55419412e-04 1.04312559e-04 -2.39752713e-04 -1.01161677e-04
      2.30237511e-05 8.42749068e-06 -1.47208275e-05 -3.43115971e-05
      -4.57563110e-05 -1.60250886e-04 -3.45171866e-04 -2.68010946e-04
      -3.69498943e-04 -9.57706652e-05 -2.25476790e-04 -4.57910210e-04
      -1.57706363e-05 -3.23092623e-04 -4.18430718e-05 -6.45809632e-05
      -3.91169538e-04 -3.24610774e-05 1.34312868e-05 1.31247245e-04
      9.88102765e-05 2.00152899e-05 0. 3.96410869e-05 1.53292945e-04
      2.74633727e-04 2.46646209e-06 -1.58358758e-04 -5.15282154e-04
      -2.20701564e-04 -3.06627422e-04 -5.85249567e-04 -1.19690325e-04
      -2.15925102e-04 -1.50922206e-04 -1.04350729e-04 6.57320124e-05
      1.08976164e-04 4.66683356e-04 5.97013277e-04 1.76491812e-04
      1.08635622e-05 0. 0. 0. -1.38903051e-04 -7.93086747e-06
      -2.36168213e-04 -1.12872467e-05 -3.60431914e-05 -3.53366253e-04
      -2.62842193e-04 -3.70382681e-04 -1.61048345e-04 -1.57929549e-04
      -2.89130752e-04 5.03530682e-05 2.08110796e-04 3.19565705e-04
      6.56332195e-05 0. 0. 0. 0. 0. -5.96369282e-05 -9.77147720e-05
      -1.07388616e-04 -3.31623858e-04 1.12034722e-04 -3.10131058e-04
      5.93968871e-05 8.31072830e-05 2.67208234e-05 -1.33488953e-04
      2.51029531e-04 3.78441357e-04 5.37270498e-05 0. 0. 0. 0.</_>
    <_>
      0. 0. 0. 0. 0. 0. 3.22414780e-05 1.16803378e-04 1.48044113e-04
      1.82539196e-04 4.36610753e-05 -1.66465601e-04 1.82354677e-04
      -5.28989003e-05 -2.42938177e-06 -2.40186346e-04 0. 0. 0. 0. 0. 0.
      0. 7.07981462e-06 3.19803330e-05 7.93863728e-05 1.68070823e-04
      2.76374631e-04 3.87796696e-04 3.47504567e-04 4.82566684e-04
      9.95691298e-05 1.32434288e-04 1.84287172e-04 -5.40980436e-05
      -5.15785323e-05 1.11183072e-04 1.86343350e-05 0. 0. 4.72146610e-07
      8.92786284e-06 1.89307084e-05 5.00821079e-05 1.04937797e-04
      1.84770572e-04 3.56965931e-04 5.73325844e-04 3.84683837e-04
      3.45817185e-04 4.78225033e-04 2.85404589e-04 2.83274101e-04
      3.00387735e-04 2.68024683e-04 2.18247107e-04 1.86684323e-04
      8.84330148e-05 -1.37594589e-05 1.90107603e-05 0. 2.95582740e-05
      3.91645990e-05 1.34349481e-04 1.84271456e-04 2.21056893e-04
      4.63444827e-04 6.12325734e-04 4.22588753e-04 4.88068530e-04
      6.34253316e-04 4.98542853e-04 4.39435273e-04 2.28885503e-04
      2.11726350e-04 2.25586366e-04 1.40139513e-04 8.35117607e-05
      -2.70187479e-06 7.68962927e-05 2.57294269e-05 8.23853770e-05
      1.87339261e-04 2.53289123e-04 2.05119082e-04 2.71197729e-04
      3.89996741e-04 6.02719665e-04 5.71841898e-04 5.89515083e-04
      4.62020020e-04 9.25034474e-05 2.04956057e-04 1.53841083e-05
      2.48482393e-04 1.72601052e-04 1.08555592e-04 6.70104273e-05
      3.43881220e-05 4.18792661e-05 1.30689159e-05 9.02204629e-05
      1.78635004e-04 1.23633974e-04 1.02347862e-04 2.12304134e-04
      5.19317924e-04 4.61229327e-04 4.47671744e-04 1.68981045e-04
      3.17166014e-05 -2.82713008e-05 3.01049324e-04 1.49517509e-04
      1.98790774e-04 7.52067353e-05 1.42324410e-04 4.70260857e-05
      3.01438977e-05 9.16724457e-06 0. 3.78998557e-05 6.13002267e-05
      2.85152746e-05 9.32761850e-06 2.05767254e-04 3.29291623e-04
      4.99315101e-05 1.73241278e-05 -1.09045541e-04 -2.40265130e-04
      -7.80935807e-05 8.40464782e-05 1.72880973e-04 2.30123900e-04
      1.14961687e-04 1.98113397e-04 5.94628327e-05 8.68475763e-06 0. 0.
      2.13186686e-05 1.83579832e-05 3.98441762e-06 -8.93715787e-06
      -5.24046227e-05 -1.23073100e-04 -1.47698811e-04 -1.14980190e-04
      -1.20038523e-04 8.80882453e-06 8.94068653e-05 1.77100024e-04
      2.55223305e-04 8.26651085e-05 1.80135234e-04 1.41440178e-04
      2.88486754e-05 0. 0. 0. 0. 0. -3.38698305e-06 -1.54479771e-04
      -2.40362933e-04 -4.52993205e-04 -4.56914975e-04 -4.70782310e-04
      -2.61416426e-05 4.06892301e-04 3.08385526e-04 -4.06272156e-05
      1.97916772e-04 9.20396633e-05 2.67988245e-04 4.87017060e-05
      4.39420864e-06 0. 0. 0. 0. -1.51042068e-05 -9.05656270e-05
      -2.64800445e-04 -2.74713151e-04 -3.93838360e-04 -5.12050232e-04
      -2.39941437e-04 1.24989238e-04 4.10009350e-04 1.91978324e-04
      -3.10134674e-05 4.36865048e-05 1.84673729e-04 -2.38124358e-05
      -1.30772794e-04 -8.82171953e-05 0. 0. 0. 0. -8.90038355e-05
      -2.61208945e-04 -2.87343457e-04 -3.42549029e-04 -3.42109997e-04
      -6.24737528e-04 -1.00050922e-04 2.87593808e-04 6.20162056e-04
      3.79505276e-04 1.16589421e-04 7.19118179e-05 8.39206914e-05
      -1.96490801e-04 -1.88936872e-04 -1.80075585e-04 -7.15607312e-05 0.
      0. 0. -8.41392393e-05 -2.30617588e-04 -4.88757505e-04
      -6.20934530e-04 -6.40771526e-04 -5.35116880e-04 -1.38550065e-04
      1.81139345e-04 1.16929528e-04 4.37907991e-04 1.46456368e-04
      -1.28076732e-04 -1.49673346e-04 -2.88143114e-04 -2.79263128e-04
      -1.34164002e-04 -5.16827531e-05 0. 0. -1.49944990e-09
      -1.03628146e-04 -2.03428717e-04 -4.30450949e-04 -9.80542740e-04
      -8.84062436e-04 -5.96840924e-04 -1.28543979e-04 4.57841743e-05
      2.84486188e-04 1.35603230e-04 -2.12715095e-05 -6.72432070e-04
      -5.86163602e-04 -4.03677899e-04 -1.22082070e-04 -4.82830255e-05
      -6.24000386e-05 -1.91899544e-05 0. 0. -6.49364010e-05
      -1.90633786e-04 -2.93173478e-04 -8.31380603e-04 -8.97861435e-04
      -7.09920772e-04 -4.14345734e-04 -1.22556492e-04 -1.23053571e-04
      -1.56484035e-04 -2.78508815e-04 -7.02003948e-04 -6.76622847e-04
      -4.04084363e-04 -1.79958603e-04 -1.35988899e-04 -4.08545238e-05
      -4.77538060e-06 0. 0. -7.33808411e-05 -1.59792078e-04
      -4.43992205e-04 -3.12956690e-04 -4.01829690e-04 -6.69779372e-04
      -7.02029443e-04 -5.59920503e-04 -5.61361492e-04 -3.40143335e-04
      -4.12342430e-04 -6.92953821e-04 -7.20616721e-04 -2.52887665e-04
      -5.99383275e-05 -5.31360020e-05 1.00675898e-05 0. 0.
      -3.91900676e-06 -6.82902828e-05 -9.31741743e-05 -2.54934188e-04
      -3.52015428e-04 -4.67187638e-04 -3.13740486e-04 -1.03242353e-04
      -2.42559487e-04 -2.24260031e-04 -2.70041317e-04 -5.52421960e-04
      -1.99494389e-04 -6.69241359e-04 -3.37253703e-04 -2.09271602e-04
      -2.00260067e-04 -1.91163272e-05 7.18606998e-06 0. 2.96562739e-05
      6.12080548e-05 4.84441625e-05 3.10430842e-05 -5.22180708e-05
      -2.44832627e-04 -2.14561500e-04 -4.21739154e-04 -3.77664022e-04
      -3.20533552e-04 -2.63213064e-04 5.48555108e-05 -3.26522495e-05
      -3.41305975e-04 -2.67224648e-04 -1.64945726e-04 -1.00632969e-04
      -3.13412274e-05 -6.75476476e-05 0. 1.97989102e-05 9.80031618e-05
      3.51667230e-04 1.21485224e-04 1.10668872e-04 1.81430922e-04
      1.28848988e-04 -2.50032783e-04 -7.47747137e-04 -4.07074054e-04
      -3.46642802e-04 -5.94693374e-05 1.68530474e-04 -2.10462458e-04
      -4.36905219e-04 -2.12829582e-05 1.07659143e-04 -3.58151483e-05
      -5.62822534e-05 0. 0. 0. 4.34179456e-05 2.63393216e-04
      6.33493590e-04 2.23120020e-04 6.18112608e-05 -3.21079133e-05
      5.01086215e-05 1.75752866e-04 -1.22956350e-04 -3.94477567e-04
      -1.28380940e-04 -5.60433720e-04 -2.08582875e-04 1.15650204e-04
      1.61757089e-05 0. 0. 0. 0. 0. 0. 0. 1.09733388e-04 2.30921738e-04
      2.43266724e-04 1.72902772e-04 9.11689931e-05 2.75694358e-04
      3.51276802e-04 -3.85550433e-04 -7.09550295e-05 -1.81322990e-04
      -2.81389162e-04 -2.53973354e-04 0. 0. 0.</_>
    <_>
      0. 0. 0. 0. 0. 0. -4.65306402e-05 -1.34430156e-04 -2.65810610e-04
      -2.28284873e-04 -2.61230249e-04 -5.32621169e-04 -4.72872634e-04
      -3.07150767e-04 -2.40975089e-04 -1.11425725e-04 1.66132713e-06
      -1.30216678e-04 0. 0. 0. 0. 0. -3.28373171e-05 -2.13600346e-04
      -3.37535923e-04 -1.38596035e-04 1.99204101e-06 8.67661292e-05
      3.49017682e-05 -3.08071212e-05 -9.01097010e-05 7.80022747e-05
      2.26037137e-05 -3.07474838e-04 -3.83438135e-04 -4.59982111e-04
      -1.61426215e-04 0. 0. 1.46707819e-07 2.48145852e-06 4.86882300e-06
      -3.70052876e-05 -3.19721497e-04 -1.69733248e-04 1.06048428e-04
      1.22454396e-04 4.67356207e-04 9.32444309e-05 7.46671358e-05
      1.66572703e-04 4.39735741e-05 1.15993389e-04 -1.72115644e-04
      -1.52732173e-04 -2.92246463e-04 -4.89633065e-04 -3.75425909e-04
      -6.85956766e-05 0. 1.38882542e-05 2.07932499e-05 1.85314726e-04
      -1.88408376e-04 -1.14656381e-04 5.66070521e-05 3.40068160e-04
      5.02576877e-04 2.21413415e-04 4.26435086e-04 4.71087347e-04
      4.02312085e-04 1.28737243e-04 -6.47220877e-05 1.79578768e-04
      3.87485343e-05 -3.37384263e-05 -1.99087546e-04 -6.01994761e-05
      1.75318510e-05 6.05344976e-05 1.48817067e-04 1.16349067e-04
      -1.22999714e-04 3.36347221e-05 -3.18101302e-05 2.24721007e-04
      7.87535391e-05 3.59845406e-04 7.47969549e-04 4.82275034e-04
      5.84321620e-04 1.32783884e-04 2.98757950e-04 1.98766909e-04
      5.33813218e-05 -2.88497067e-05 -6.28613852e-05 -4.46920239e-05
      8.90506726e-06 6.55503827e-05 1.06786370e-04 1.77210063e-06
      -2.30822014e-04 1.95821144e-06 -5.26232725e-05 1.15734307e-04
      -4.56218295e-05 4.29872744e-04 5.29167883e-04 4.20822733e-04
      7.00457604e-04 1.38397227e-04 3.35116638e-04 1.35120325e-04
      6.90466768e-05 2.62664639e-06 -1.51727481e-05 -5.71532109e-06 0.
      2.58246946e-05 1.41818009e-05 1.82449876e-05 -1.49437110e-04
      -5.56177911e-05 4.64165823e-05 -2.51087942e-04 -5.62683563e-04
      -2.73425307e-04 4.59598377e-05 4.24360303e-04 6.11293653e-04
      2.71825498e-04 2.08074867e-04 4.20728720e-05 4.64546101e-05 0. 0.
      0. 0. 1.45263903e-05 7.15538090e-06 4.24762984e-05 -8.05666132e-05
      -2.72421137e-04 -2.19813272e-04 -3.16500838e-04 -7.06413761e-04
      -1.17018330e-03 -1.06803898e-03 -4.26554470e-04 1.13953953e-04
      2.21737835e-04 7.79466500e-05 1.42468480e-05 -9.16619956e-06
      -9.15513283e-06 0. 0. 0. 0. -1.67300595e-06 -9.69714802e-06
      -6.15296740e-05 -3.15984973e-04 -5.90744021e-04 -8.35755549e-04
      -6.97766023e-04 -1.74927030e-04 2.35874715e-04 1.67427221e-04
      1.81646916e-04 6.50817537e-06 -1.35863113e-04 -1.41314740e-04
      -6.59010911e-05 -3.00476149e-05 0. 0. 0. 0. 0. -8.03042803e-06
      -6.48974383e-05 -1.60440526e-04 -4.42157238e-04 -6.22401247e-04
      -3.11185984e-04 -3.51244307e-05 4.73605120e-04 4.24254744e-04
      -8.48975469e-05 8.75364203e-05 -3.83035251e-04 -3.06799921e-04
      -8.70643125e-05 -4.38490133e-05 -5.00793567e-06 0. 0. 0. 0.
      -4.68441658e-06 -4.07548541e-05 -8.06598327e-05 -2.69474578e-04
      -3.73659655e-04 4.53779612e-05 2.30901482e-04 6.37304620e-04
      6.22677966e-04 -2.26353863e-04 -1.51344851e-04 -3.90144472e-04
      -4.04798047e-04 -1.79020470e-04 -4.68036815e-05 -4.69493989e-06 0.
      0. 0. 0. -2.41190373e-05 -4.63789220e-05 -7.02017642e-05
      -1.97229947e-05 -3.85979110e-05 2.57598367e-05 3.32263531e-04
      7.17788993e-04 5.24897652e-04 -7.85400698e-05 -4.08587657e-04
      -5.71878161e-04 -3.06662754e-04 -2.67348805e-04 -5.79732659e-05 0.
      0. 0. 0. -9.11829375e-06 -6.55536132e-05 -1.34827369e-05
      -1.43084035e-04 -6.02459077e-05 -7.10575307e-07 2.57196316e-05
      4.25469159e-04 6.61203812e-04 4.87614307e-04 3.55438824e-05
      -4.82625503e-04 -3.41134873e-04 -2.04949523e-04 -3.59856931e-04
      -8.69792930e-05 -7.01160297e-06 0. 0. 0. -1.80705720e-05
      -4.17108495e-05 -1.07624452e-04 -2.40983631e-04 -1.73206994e-04
      4.32061415e-06 7.99997870e-05 4.54882480e-04 5.68249205e-04
      3.38197773e-04 3.96564283e-05 -4.54518478e-04 -2.23934971e-04
      -1.74118046e-04 -2.63554684e-04 -1.65290825e-04 1.66591713e-06 0.
      0. -2.23754814e-05 -3.94542985e-05 -7.13773552e-05 -1.93632601e-04
      -1.84547011e-04 -1.97689165e-04 -7.47412487e-05 2.34911029e-04
      3.95123527e-04 3.68529523e-04 1.95808941e-04 -4.05027167e-05
      -1.87223850e-04 -1.94190477e-04 -9.89864275e-05 -1.28043976e-04
      -1.89041486e-04 2.40436802e-05 0. -2.72335037e-05 -1.92004984e-04
      -2.87344010e-04 -1.10525791e-04 -2.37484754e-04 -1.79047220e-05
      -1.32455840e-04 -2.34765073e-04 2.27053722e-04 1.78990973e-04
      1.80944990e-04 -1.38680509e-04 -9.50241156e-05 1.44643665e-04
      -2.40678011e-04 4.20309734e-05 -2.34834370e-04 -1.37492088e-05
      2.84962134e-05 7.12405335e-06 -2.72299312e-05 -1.70613494e-04
      -3.32873082e-04 -1.55072135e-04 -1.51965622e-04 -1.07296728e-04
      -1.43700338e-04 -5.60977132e-05 1.75482375e-04 -5.21673901e-05
      2.30834412e-05 -3.32283496e-04 -7.83009018e-05 1.69359322e-04
      9.25395361e-05 3.08149210e-05 -6.92071117e-05 -1.74582219e-05
      8.79907311e-05 1.69196264e-05 0. -2.84539947e-05 -1.74761764e-04
      2.24486139e-05 -1.19003285e-04 -1.51262997e-04 -1.59495743e-04
      2.25507567e-04 1.29742810e-04 -2.14063126e-04 -3.11309617e-04
      -2.23016905e-04 1.12528294e-04 2.47592776e-04 3.61247439e-05
      1.67048682e-04 3.33855947e-04 3.14711564e-04 1.99241244e-04
      9.18334990e-06 0. 0. 0. -8.75994592e-05 -3.71722766e-04
      -2.99060397e-04 -2.36961045e-04 9.06576606e-05 -4.58606548e-04
      -6.00530999e-04 -4.28466410e-05 -1.51937056e-04 -6.16788529e-05
      9.78636308e-05 1.54089343e-04 2.72505131e-04 2.67797499e-04
      4.32503730e-05 0. 0. 0. 0. 0. -1.51282235e-04 -1.88683596e-04
      -2.08237732e-04 -1.88661914e-04 -5.37786254e-05 -2.71611352e-04
      4.76366229e-04 2.92920362e-04 -4.04313141e-05 -1.02928185e-04
      3.24929453e-04 2.43323826e-04 6.09799572e-05 8.30663521e-06
      5.44003206e-06 0. 0.</_>
    <_>
      0. 0. 0. 0. 0. 0. 4.63262222e-05 1.09995039e-04 1.54505717e-04
      1.14663060e-04 6.79786390e-05 3.36994308e-05 2.13072723e-04
      3.84922350e-05 -3.82127728e-05 0. 0. 0. 0. 0. 0. 0. 0.
      1.25256281e-06 1.49138486e-05 5.89017691e-05 1.65889913e-04
      2.40784066e-04 2.34912586e-04 2.11929964e-05 2.02528565e-04
      2.57606036e-04 2.46830576e-04 8.11845603e-05 -1.02485581e-04
      6.88421060e-05 -2.92655350e-05 -4.57740534e-05 0. 0. 0. 0. 0.
      1.50464111e-05 7.00182645e-05 1.14821611e-04 2.29183104e-04
      4.04388556e-04 4.19597054e-04 1.37165305e-04 4.21492441e-04
      1.80417934e-04 1.23462378e-04 1.79751805e-04 1.55161888e-05
      2.68811331e-04 -1.96947338e-04 -2.50316749e-04 -1.34496629e-04
      -4.70451232e-05 0. 2.23895609e-06 4.77643971e-06 1.11063702e-04
      1.09696986e-04 1.15774092e-04 2.31065103e-04 4.69976425e-04
      8.84199981e-05 7.36488437e-05 4.93364758e-04 2.15863780e-04
      4.48743493e-04 1.90729304e-04 6.75658448e-05 1.43682264e-04
      -8.84418623e-05 -3.81052087e-05 -5.75987651e-05 -1.01803977e-04 0.
      2.57224219e-05 8.77796047e-05 1.03310864e-04 6.76974087e-05
      1.98142719e-04 5.55361039e-05 1.48322797e-04 -2.22323015e-05
      3.41159641e-04 3.54112737e-04 7.79558904e-05 3.29571281e-04
      1.04887167e-05 2.65003415e-04 1.03472186e-04 -3.58305479e-05
      -2.19837748e-05 -2.20701513e-05 -5.35814215e-05 0. 2.66169609e-05
      5.96219907e-05 1.49016259e-05 5.86680180e-05 3.08794806e-05
      3.70214802e-05 7.00465389e-05 -2.15541557e-04 -4.29338252e-06
      1.11000125e-04 2.12165702e-04 3.92549962e-04 1.16668583e-04
      4.12159105e-04 -2.95710834e-06 -8.11474274e-06 -2.33416677e-06 0.
      0. 0. 0. 0. 1.21049634e-05 7.50829204e-05 -1.75672812e-05
      -1.24342521e-04 -2.93113000e-04 -7.27725783e-05 -1.02055143e-04
      1.08989232e-04 2.74687627e-04 4.76975023e-04 3.08535673e-04
      2.67783791e-04 1.81999640e-05 1.30812241e-05 0. 0. 0. 0. 0. 0.
      1.96633719e-05 -4.15283757e-05 -2.41309317e-04 -5.67012990e-04
      -3.16492165e-04 -8.15201784e-04 -2.69041135e-04 -1.24480182e-04
      3.10623756e-04 -1.55010450e-04 2.08959245e-04 6.21325016e-05
      1.56856931e-05 6.82498649e-06 0. 0. 0. 0. 0. 0. -7.86504243e-05
      -3.50586226e-04 -3.41243111e-04 -5.22405782e-04 -1.02121150e-03
      -7.02975609e-04 -3.13042226e-04 9.27576984e-05 4.25088103e-04
      2.19028530e-04 -2.77939165e-04 -2.05685341e-04 -2.02978714e-04
      5.68748874e-07 0. 0. 0. 0. 0. -1.96179117e-05 -1.89479339e-04
      -5.01111848e-04 -4.81110357e-04 -6.70795911e-04 -7.08771346e-04
      -3.13902536e-04 7.18251158e-06 4.70348197e-04 5.34159713e-04
      9.22986364e-05 -3.76176904e-04 -3.87155917e-04 -4.14434588e-04
      -1.37102006e-05 0. 0. 0. 0. 0. -7.35671711e-05 -2.85478309e-04
      -4.69023595e-04 -3.14094097e-04 -5.40281704e-04 -3.84042098e-04
      -3.80148922e-05 1.11448680e-04 6.22149091e-04 6.19818864e-04
      1.26463579e-04 -1.37021038e-04 -3.86210420e-04 -4.75374662e-04
      -1.66620288e-04 0. 0. 0. 0. 0. -1.27516425e-04 -3.12246993e-04
      -3.64474428e-04 -3.11505981e-04 -4.64709534e-04 -1.44143400e-04
      -3.91317626e-05 1.80722025e-04 6.07690425e-04 5.20461821e-04
      1.13414564e-04 4.50744528e-06 -3.10332543e-04 -3.88368033e-04
      -3.19490326e-04 0. 0. 0. 0. -3.43313441e-05 -1.91696367e-04
      -3.55791795e-04 -3.45435867e-04 -2.51719670e-04 -2.74074060e-04
      -5.84555964e-05 -9.22443633e-06 2.84815411e-04 6.31146657e-04
      3.98732460e-04 9.40907194e-05 5.14002677e-05 -1.58386669e-04
      -3.63807660e-04 -4.17749747e-04 -4.00441932e-05 0. 0. 0.
      -3.96505384e-05 -2.72653735e-04 -3.65573738e-04 -2.70364573e-04
      -3.17462953e-04 -3.70884634e-04 -1.74448687e-05 5.33951898e-05
      3.31832416e-04 6.08836708e-04 2.59313529e-04 1.42610108e-04
      9.39236706e-05 -3.16371530e-04 -3.03856854e-04 -2.73950165e-04
      -1.56888127e-04 0. 0. 0. -5.57764142e-05 -3.31842777e-04
      -3.55614931e-04 -1.95810324e-04 -1.88751772e-04 -3.68337467e-04
      -8.11568534e-05 2.26586984e-04 3.68868874e-04 4.18138865e-04
      1.93118394e-04 1.49129788e-04 3.16002042e-05 -3.43471707e-04
      -1.26561485e-04 -2.22619899e-04 -8.88664290e-05 0. 0. 0.
      -3.63116706e-05 -2.35683925e-04 -4.33329435e-04 -1.28208121e-04
      -1.62497512e-04 -2.59317865e-04 -2.12017054e-04 5.61195367e-04
      2.14705608e-04 2.18530200e-04 4.11956462e-05 1.95538421e-04
      -1.02614147e-04 -1.61719698e-04 -1.46604189e-05 -3.49896436e-04
      -4.73055225e-05 0. 0. 0. -8.94165623e-06 -1.29908512e-04
      -4.05836327e-04 -2.72555742e-04 -1.75292866e-04 -9.85079823e-05
      -2.13743609e-04 5.53680642e-04 -7.64386496e-05 7.72446292e-05
      -1.08635555e-04 2.49886536e-04 -2.45588220e-04 -4.68529142e-05
      -2.14080719e-05 -1.24343147e-04 7.24512756e-06 4.39375035e-05 0.
      0. 0. 6.66976193e-05 2.73630838e-04 -3.67073953e-05
      -1.90353618e-04 -7.46929290e-05 -2.23060815e-05 8.98398503e-05
      -1.84044358e-04 6.75796982e-05 -1.17664720e-04 5.28885612e-05
      -9.26845314e-05 -3.82190556e-05 7.38131057e-05 1.72375090e-04
      2.32623148e-04 1.32674031e-04 0. 0. 0. 0. 2.66751740e-05
      -4.95392715e-06 -8.14887608e-05 -1.50059583e-04 2.20738439e-04
      -2.91492848e-04 -1.27294566e-04 -9.30772003e-05 -3.30497918e-04
      -1.56692884e-04 -1.05304447e-04 -5.95674646e-05 2.49617133e-05
      1.73421809e-04 2.57047304e-05 0. 0. 0. 0. 0. 0. 0. 6.01798747e-05
      1.31083507e-04 1.72663844e-04 -7.24684141e-05 3.49420043e-05
      1.23997059e-04 -2.60784800e-05 -1.30120781e-04 2.43705450e-04
      1.86859150e-04 0. 0. 0. 0. 0.</_>
    <_>
      0. 0. 0. 0. -4.71191946e-04 -6.86165527e-04 -9.06942645e-04
      -1.32390275e-03 -3.96772608e-04 -7.77358830e-04 -1.67581486e-03
      -1.58051366e-03 -5.01362141e-04 -6.01741718e-04 -8.00930953e-04
      -6.15455501e-04 -3.63683765e-04 0. 0. 0. 0. 0. 0. -2.23234412e-04
      -5.85874543e-04 -7.11248314e-04 -1.26477587e-03 -1.19165028e-03
      -2.24317500e-05 -5.94571233e-04 -6.71016984e-04 -2.92008452e-04
      -2.27136028e-04 -3.26286245e-04 -9.55619558e-04 -4.46053862e-04
      -4.76608635e-04 -1.68031082e-04 0. 0. -5.38921995e-06
      -1.55641086e-04 -6.53872208e-04 -1.36951124e-03 -1.03061250e-03
      -4.10471548e-04 -7.61437055e-04 -1.87297497e-04 6.79688455e-05
      -3.88203742e-04 -5.64710062e-04 -1.53634595e-04 -7.80030750e-05
      -1.93289554e-04 -7.96116656e-05 -9.89303589e-05 -7.58095528e-04
      -9.18254838e-04 -4.89799131e-04 -3.47241526e-04 0. -2.36681211e-04
      -5.05776028e-04 -8.24193296e-04 -8.18021770e-04 -5.47034724e-04
      -4.43025347e-04 4.97940891e-05 1.23789971e-04 -2.38124994e-05
      -4.67105448e-04 -1.76783251e-05 -1.36083530e-04 -3.54240328e-04
      1.80483534e-04 2.92534241e-04 -3.93676426e-04 -6.74870738e-04
      -2.66873511e-04 -7.05477782e-04 0. -7.28878294e-05 -1.16038616e-04
      -3.10697098e-04 -5.64814778e-04 2.35487114e-05 -2.91920966e-04
      -1.19829401e-05 2.38230248e-04 6.82186917e-04 -1.20601726e-04
      3.70985857e-04 -5.76095408e-06 3.96749732e-04 -3.79475678e-05
      -1.12495407e-04 -3.32236377e-04 -4.49623243e-04 -2.43858682e-04
      -1.53820292e-04 0. 3.03723846e-05 -7.11003668e-05 -3.60556849e-04
      -5.52519399e-04 -2.50247947e-04 -1.20193865e-04 1.88796956e-04
      5.73653437e-04 5.29785291e-04 3.67219065e-04 7.02579389e-04
      1.19794116e-04 4.89330792e-04 3.08515737e-04 -2.60996603e-04
      -5.92334727e-05 -4.18260053e-04 -9.19595113e-05 0. 0. 0.
      -1.75996349e-04 -2.14898871e-04 -2.04525102e-04 -1.53793546e-04
      -1.83692697e-04 3.08767194e-05 5.53829537e-04 6.96159666e-04
      7.55627756e-04 8.50501063e-04 5.02085430e-04 1.15269635e-04
      -6.00665953e-05 -7.36578149e-05 -2.33378640e-04 -5.83084475e-05 0.
      0. 0. -3.66904169e-06 -1.21262114e-04 -1.58606170e-04
      -1.39570780e-04 -9.43704799e-05 -1.51821820e-04 4.79793198e-06
      3.73206160e-04 6.11252850e-04 6.98465388e-04 5.39718603e-04
      3.64618259e-04 2.21506241e-04 -6.45480904e-05 -1.15961986e-04
      -1.27748615e-04 0. 0. 0. 0. -1.57995273e-05 -1.12448768e-04
      -1.12191141e-04 -7.30444372e-05 -5.58647807e-05 -4.59792454e-06 0.
      2.16467612e-04 3.10899020e-04 5.72895515e-04 5.37695654e-04
      1.28282598e-04 2.47746590e-04 -1.23155143e-04 6.22590960e-05
      3.35640448e-06 0. 0. 0. 0. 0. -9.70102337e-05 -5.50768418e-05
      -1.92599655e-05 -3.39104554e-06 0. 0. 9.36812648e-05
      3.05163794e-05 2.13954467e-04 9.64558276e-04 2.54358602e-04
      2.51987076e-04 1.45866346e-04 -6.58285762e-06 0. 0. 0. 0. 0. 0.
      -1.49091211e-05 -1.50343949e-05 -1.52670452e-06 0. -5.30973182e-07
      4.45278556e-06 1.15802446e-04 4.84720513e-04 5.71978511e-04
      -3.97105614e-04 5.44233713e-04 3.60569451e-04 8.18857443e-05
      1.87722446e-06 0. 0. 0. 0. 0. 0. 0. 0. 0. -9.38137674e-08
      -5.22279606e-06 1.07410851e-05 -3.04439454e-04 3.91852605e-04
      2.27785451e-04 1.31017630e-04 4.89753729e-04 1.18734082e-04
      1.10268549e-04 1.24345797e-06 0. 0. 0. 0. 0. 0. 0. -1.11044869e-07
      -4.81194434e-07 -9.83207974e-06 -1.55320995e-05 -8.11992941e-05
      -7.34523928e-04 -1.08049180e-05 -5.24137176e-05 5.38144901e-04
      2.99879466e-04 2.79210479e-04 1.62155397e-04 1.89479306e-06
      5.92122831e-08 0. 0. 0. 0. 1.08255381e-05 1.71715419e-05
      6.20750961e-06 -9.14794146e-06 -1.53179517e-05 -5.17322660e-05
      -4.14347887e-04 -4.36746428e-04 2.48590921e-04 2.14417392e-04
      3.21208674e-04 2.29686557e-04 2.56116531e-04 1.51888613e-04
      5.29711215e-05 7.10547397e-07 0. 0. 0. 0. 1.92454008e-05
      3.69146692e-05 3.02345998e-05 1.62830111e-05 1.01078840e-05
      -6.36929006e-04 -6.95181545e-04 2.98148079e-04 -1.69117402e-06
      4.76370740e-04 2.39845438e-04 2.29402445e-04 1.83522177e-04
      1.65339035e-04 1.09155080e-04 1.36188248e-06 0. 0. 0.
      6.67904214e-06 2.59732387e-05 3.63463223e-05 2.13020830e-05
      3.73485591e-06 -2.03696152e-04 -6.77096832e-04 1.73404987e-04
      2.59783235e-04 -1.21312056e-04 -1.17287476e-04 1.61046803e-04
      1.52494249e-05 4.39239157e-05 1.65339035e-04 1.65339035e-04
      1.21100584e-05 2.36849132e-07 0. 0. 1.30653043e-05 7.83386276e-05
      1.48547362e-04 3.48847061e-05 -1.93178319e-04 -2.19004418e-04
      6.72342067e-05 3.22619599e-04 -2.95912178e-04 -5.24871211e-05
      -4.92294203e-04 6.81080564e-05 -2.28020188e-04 7.61975025e-06
      1.30154192e-04 1.65339035e-04 6.82940154e-05 1.91017971e-05
      1.16111783e-04 0. 0. 4.80640228e-05 3.26254754e-04 3.95976327e-04
      1.74624220e-04 3.73551418e-04 4.90466366e-04 2.42434307e-05
      -2.18807501e-04 -1.58641415e-04 -2.41156929e-04 -4.03066806e-05
      -7.70793463e-07 -1.47553219e-04 9.44997228e-05 3.29261558e-04
      4.88750229e-04 5.66161529e-04 3.50612070e-04 0. 0. 0. 0.
      3.87867731e-05 3.07539245e-04 8.81925924e-04 6.14694145e-04
      -1.92063540e-04 1.60031763e-04 -1.75713707e-04 -2.20490096e-04
      1.61083117e-05 1.06257154e-04 -2.20359303e-04 5.74037025e-04
      5.81457221e-04 3.27326416e-04 5.72126810e-05 0. 0. 0. 0. 0. 0.
      5.25078349e-07 2.79039159e-05 2.20857095e-04 6.30195718e-04
      1.17189926e-03 1.02136086e-03 6.58726436e-04 1.12475257e-03
      9.76730837e-04 6.07972383e-04 6.13998796e-04 1.88381484e-04 0. 0.
      0. 0.</_>
    <_>
      0. 0. 0. 0. 0. 0. -4.72096472e-05 -7.25589343e-05 -1.87728248e-04
      -2.67149560e-04 -2.14587577e-04 -2.71239871e-04 -1.29133783e-04
      -1.74431436e-04 -6.73894247e-05 0. 0. 0. 0. 0. 0. 0. 0.
      -6.11894029e-06 -1.24281039e-04 -3.66829539e-04 -2.80874112e-04
      4.56021990e-05 1.27523090e-04 1.91076324e-05 -1.24579412e-04
      -4.26986480e-06 -2.94263358e-04 -1.21973979e-04 -2.54441082e-04
      -7.10219319e-05 -4.02885962e-05 -1.60373093e-05 0. 0.
      1.02578701e-06 2.00962932e-05 4.57211172e-05 2.91374236e-05
      -1.35684269e-04 -2.78600142e-04 1.49156011e-04 4.22963902e-04
      4.61106189e-04 3.56439210e-04 4.17028059e-05 1.55241913e-04
      1.75985188e-05 5.70788470e-05 3.29436385e-04 2.08835569e-04
      -5.39513276e-05 -4.20113647e-05 -2.73826900e-05 -9.33528736e-06 0.
      6.51929076e-05 3.24051471e-05 -1.23202364e-04 -1.07506123e-04
      -5.80988162e-05 8.57900741e-05 3.50615417e-04 4.45367943e-04
      3.42952291e-04 2.01174858e-04 3.04695888e-04 3.37704114e-04
      1.96317469e-05 2.16309825e-04 1.80635208e-04 -2.50502781e-05
      -2.41076210e-04 -1.04699713e-04 -4.83237673e-05 5.58998254e-05
      1.07315303e-04 2.73676869e-05 -1.85375411e-05 -3.43780848e-05
      6.23021551e-05 1.50952392e-05 1.25105522e-04 3.47264926e-04
      1.51064916e-04 3.60739097e-04 1.85119701e-04 4.27055638e-04
      -5.96223144e-05 8.42098016e-05 6.99674638e-06 -1.33456400e-04
      -1.78232498e-04 -1.37968644e-04 -7.93724103e-05 2.83935624e-05
      9.89996406e-05 3.57382705e-05 -1.43431549e-04 5.62844480e-06
      -1.52491688e-04 3.43436550e-05 7.35560970e-05 4.51382039e-05
      9.65331419e-05 2.21572700e-04 3.22340173e-04 5.60140761e-04
      7.80387054e-05 -6.44755200e-05 -1.78161063e-04 -1.93611704e-04
      -1.64653000e-04 -1.61885517e-04 -3.93778791e-05 0. 8.23413284e-05
      -6.74202092e-05 -3.39524049e-05 1.04933897e-04 -1.59136165e-04
      -1.87059981e-04 -7.86806959e-06 -1.12811074e-04 2.71926037e-05
      1.92936292e-04 3.23160610e-04 3.61332553e-04 1.20737539e-04
      1.60035142e-05 -1.84873992e-04 -2.03511168e-04 -1.57532471e-04
      -1.15584073e-04 0. 0. 4.63169999e-05 -8.73899990e-05
      -6.22657826e-05 3.86618303e-05 -1.73469394e-04 -2.96189828e-04
      -9.60580437e-05 -1.09197790e-04 -2.87150615e-04 1.80608738e-04
      2.85271526e-04 3.37797610e-05 6.48800924e-05 -2.68108241e-04
      -1.62882730e-04 -1.80226882e-04 -1.05733547e-04 -3.72134818e-05 0.
      0. 0. -2.41673333e-05 -8.62549277e-05 -3.77335004e-04
      -1.41872777e-04 -2.29559271e-04 -4.65158693e-04 -5.00072725e-04
      -5.20501111e-04 -2.50055455e-04 -3.56344273e-04 -1.13694405e-04
      -2.44134251e-04 -1.73278575e-04 -4.26138376e-06 -4.90497332e-05
      -2.06553523e-05 -4.24235805e-06 0. 0. 0. -5.31099715e-07
      -1.40434404e-05 -2.29982586e-04 -2.84553709e-04 -2.80319189e-04
      -4.87748999e-04 -8.82441935e-04 -9.60401667e-04 -9.13704454e-04
      -4.96582943e-04 -3.01373366e-04 -6.43347157e-05 -1.96788314e-04
      -2.11752165e-04 -4.00268145e-05 -1.09097082e-05 0. 0. 0. 0.
      -1.99071619e-05 -8.89626463e-05 -1.89750950e-04 -3.21545696e-04
      -5.22040995e-04 -6.12534408e-04 -7.84177682e-04 -2.15514756e-05
      1.12710448e-04 1.88478502e-04 2.16903645e-05 -7.44697682e-05
      -1.65179794e-04 -1.73035034e-04 -1.81655691e-04 -1.04896986e-04 0.
      0. 0. 0. -8.32422811e-05 -1.49687650e-04 -1.23171485e-04
      -4.15968447e-04 -6.43043546e-04 -6.54928561e-04 -1.51731758e-04
      4.13079892e-04 5.91143384e-04 5.12417719e-05 -4.93925254e-05
      -1.15973948e-04 -2.27411118e-04 -1.99692091e-04 -1.21300975e-04
      -2.26219912e-04 0. 0. 0. -3.77221368e-05 -1.58006209e-04
      -1.87103171e-04 -3.99544107e-04 -4.74300905e-04 -6.22332154e-04
      -3.07960261e-04 1.12442840e-05 5.73010475e-04 5.95016812e-04
      3.14425444e-04 -1.05877107e-05 -2.06953817e-04 -7.58461829e-05
      -3.78512603e-04 -5.90635100e-05 -2.82175752e-04 -4.78162910e-05 0.
      0. -7.48276652e-05 -1.28407497e-04 -2.31217535e-04 -4.25510894e-04
      -3.49032693e-04 -4.41508746e-04 -5.69509029e-05 1.41387020e-04
      4.82471776e-04 5.41626592e-04 2.65551847e-04 -8.52527519e-05
      -1.73719571e-04 -8.77580314e-05 -2.88574782e-04 -1.45399361e-04
      -1.63560559e-04 -1.14454640e-04 0. 0. -7.00132659e-05
      -2.47538628e-05 -2.32739403e-04 -2.64036498e-04 -4.33135749e-04
      -1.19323653e-04 -2.97044080e-05 8.24301824e-05 3.81821505e-04
      4.91654791e-04 3.18462000e-04 -1.91857343e-05 -8.49845674e-05
      -1.09335560e-04 -1.91616142e-04 -1.36204704e-04 9.07239610e-06
      -2.80208114e-05 0. 1.81832202e-05 3.36806661e-05 4.64953700e-06
      -2.12797138e-04 -1.28012180e-04 -2.35902509e-04 -7.25930731e-05
      7.44938152e-05 4.32723537e-05 1.89451457e-04 4.16749943e-04
      1.35559254e-04 5.73344259e-05 1.03291852e-04 -4.47832062e-05
      -1.85723591e-04 -3.07212904e-05 -1.74770146e-04 6.17867991e-05
      2.56278163e-05 5.60887711e-05 1.31394190e-04 6.70531444e-05
      -9.40146056e-05 -1.90507155e-04 1.87462720e-05 -1.13750888e-04
      1.46486869e-04 7.81063864e-05 -8.95905687e-05 1.75604291e-04
      7.83284395e-06 -1.33932353e-05 2.63885420e-04 3.17857121e-05
      -2.07919402e-05 -3.43756910e-05 -5.86674651e-06 1.24689221e-04
      6.08660630e-05 0. 6.90601009e-05 1.28499858e-04 1.01857520e-04
      2.99158946e-05 1.21360477e-04 -1.68284401e-04 3.54778022e-05
      -4.49224499e-05 -2.13384817e-04 -6.88800937e-05 7.36714355e-05
      3.09531060e-05 2.18522648e-04 -1.67679063e-05 -2.56588610e-05
      2.22407820e-04 4.48159757e-04 2.10335769e-04 3.30358562e-05 0. 0.
      0. 1.14578197e-05 1.29088134e-04 1.14380200e-04 1.34115922e-04
      -4.41805096e-05 -2.06422745e-04 -1.18203068e-04 -1.93888758e-04
      -2.13385792e-04 -1.29199543e-04 -6.18961858e-05 2.06887649e-04
      8.76190752e-05 1.24831757e-04 4.35399343e-05 0. 0. 0. 0. 0. 0. 0.
      5.27261327e-05 3.52350398e-05 -2.35571097e-05 -1.62275737e-05
      -1.71488991e-05 1.47772616e-05 8.04690426e-05 7.98755864e-05
      1.46045422e-04 1.34291360e-04 0. 0. 0. 0. 0.</_>
    <_>
      0. 0. 0. 0. 0. 0. -1.17125768e-04 -2.63207476e-04 -6.01308013e-04
      -5.27677126e-04 -4.38799005e-04 -4.84188233e-04 -3.07182374e-04
      -2.22181436e-04 -3.71931783e-05 0. 0. 0. 0. 0. 0. 0. 0.
      -5.09093252e-06 -1.35641050e-04 -4.63111704e-04 -4.26203740e-04
      -1.98871639e-04 -4.19151093e-06 -1.50205466e-04 -1.60215859e-04
      -1.29089924e-04 -5.89008676e-04 -1.42398712e-04 -2.98066385e-04
      2.37451059e-05 4.10083085e-05 -2.10776989e-06 0. 0. 0. 0. 0.
      -2.40288573e-05 -2.59361434e-04 -1.47192506e-04 6.79923760e-05
      2.78241350e-04 2.75481609e-04 1.32554662e-04 7.78215981e-05
      1.11702255e-04 -8.36084437e-05 3.83929801e-05 1.13347131e-04
      -1.01287912e-06 1.08304157e-05 -3.64213738e-05 -3.17743593e-06
      2.77665949e-05 0. 3.35949062e-06 -5.84977170e-06 -8.58637577e-05
      -3.27144749e-04 -1.46894599e-04 -7.53578297e-06 2.32736493e-04
      1.04889928e-04 2.02990719e-04 2.79008702e-04 3.59610131e-04
      4.11394372e-04 -1.99743499e-05 2.80013192e-04 1.20435288e-04
      4.25325306e-05 1.99966453e-05 -2.57639913e-05 1.97493355e-05 0.
      4.02438309e-05 2.61663736e-05 -2.24537187e-04 -2.45722913e-04
      -3.04711662e-04 -2.39872563e-04 1.76993199e-04 1.32440677e-04
      3.94158822e-04 5.16769534e-04 3.70845257e-04 4.84619610e-04
      -2.39311979e-04 1.97120869e-04 1.80300238e-04 5.19375681e-05
      -9.37998702e-05 -1.19580523e-04 -8.88480063e-05 0. 3.70060006e-05
      -3.69384434e-05 -4.94239677e-04 -1.29949185e-04 -4.53051063e-04
      -1.46942795e-04 1.28939355e-04 1.22516416e-04 2.31106387e-04
      3.49627138e-04 3.10949603e-04 4.23792284e-04 -9.33609626e-05
      1.63391524e-04 9.94891307e-05 -8.11327664e-06 -2.21574417e-04
      -1.91661005e-04 -7.84178337e-05 0. 0. -1.17576594e-04
      -4.37537121e-04 -2.20874572e-04 -4.09434637e-04 -2.34776613e-04
      -1.36126298e-04 -3.01190667e-05 1.08653840e-04 2.65263778e-04
      3.86980595e-04 3.87744833e-04 6.75359915e-05 8.26964970e-05
      -6.92447793e-05 -9.42825354e-05 -2.60143686e-04 -1.47515195e-04
      -3.86026295e-05 0. 0. -9.79938050e-05 -3.32288211e-04
      -4.04619786e-04 -4.54394321e-04 -4.51373548e-04 -3.68795823e-04
      -2.27568002e-04 -1.59398746e-06 1.93407293e-04 3.76201031e-04
      3.76652897e-04 -2.03923119e-04 -9.17882880e-06 -2.43126793e-04
      -3.03204084e-04 -2.20501417e-04 -1.05658037e-04 -4.85270939e-05 0.
      0. -3.18581551e-05 -2.37695698e-04 -6.16803067e-04 -3.47325200e-04
      -4.91557585e-04 -5.43612638e-04 -4.18262673e-04 -1.77260095e-04
      1.49013169e-04 4.78709961e-04 2.69259617e-04 -1.90664257e-04
      -3.44273518e-04 -3.03370936e-04 -2.70456891e-04 -1.07007567e-04
