<?xml version="1.0"?>
<opencv_storage>
<opencv_ml_svm>
  <format>3</format>
  <svmType>C_SVC</svmType>
  <kernel>
    <type>INTER</type>
    <gamma>1.0000000000000001e-05</gamma></kernel>
  <C>1.0000000000000001e-01</C>
  <term_criteria><epsilon>1.1920928955078125e-07</epsilon>
    <iterations>1000</iterations></term_criteria>
  <var_count>256</var_count>
  <class_count>10</class_count>
  <class_labels type_id="opencv-matrix">
    <rows>10</rows>
    <cols>1</cols>
    <dt>i</dt>
    <data>
      0 1 2 3 4 5 6 7 8 9</data></class_labels>
  <sv_total>924</sv_total>
  <support_vectors>
    <_>
      0. 0. 0. 0. 0. 0. 0. 78. 255. 255. 255. 255. 215. 0. 0. 0. 0. 0.
      0. 0. 0. 0. 222. 255. 255. 255. 255. 255. 255. 255. 0. 0. 0. 0. 0.
      0. 0. 255. 255. 255. 255. 255. 255. 255. 255. 255. 209. 0. 0. 0.
      0. 0. 105. 255. 255. 255. 255. 255. 255. 255. 255. 255. 255. 0. 0.
      0. 0. 0. 255. 255. 255. 255. 255. 0. 7. 255. 255. 255. 255. 0. 0.
      0. 0. 0. 255. 255. 255. 255. 66. 0. 0. 255. 255. 255. 255. 0. 0.
      0. 0. 0. 255. 255. 255. 255. 0. 0. 0. 255. 255. 255. 255. 0. 0. 0.
      0. 208. 255. 255. 255. 255. 255. 255. 199. 255. 255. 255. 255. 0.
      0. 0. 0. 224. 255. 255. 255. 199. 255. 255. 199. 255. 255. 255.
      208. 0. 0. 0. 0. 255. 255. 255. 255. 199. 255. 255. 255. 255. 255.
      255. 208. 0. 0. 0. 0. 255. 255. 255. 255. 0. 0. 0. 255. 255. 255.
      255. 0. 0. 0. 0. 0. 255. 255. 255. 255. 0. 0. 66. 255. 255. 255.
      255. 0. 0. 0. 0. 0. 255. 255. 255. 255. 7. 0. 255. 255. 255. 255.
      198. 0. 0. 0. 0. 0. 255. 255. 255. 255. 255. 255. 255. 255. 255.
      255. 105. 0. 0. 0. 0. 0. 209. 255. 255. 255. 255. 255. 255. 255.
      255. 255. 0. 0. 0. 0. 0. 0. 0. 255. 255. 255. 255. 255. 255. 255.
      222. 0. 0. 0. 0.</_>
    <_>
      0. 0. 0. 0. 0. 54. 215. 255. 255. 255. 215. 54. 0. 0. 0. 0. 0. 0.
      0. 0. 74. 255. 255. 255. 255. 255. 255. 255. 74. 0. 0. 0. 0. 0. 0.
      0. 255. 255. 255. 255. 255. 255. 255. 255. 255. 0. 0. 0. 0. 0. 0.
      196. 255. 255. 255. 255. 219. 255. 255. 255. 255. 0. 0. 0. 0. 0.
      0. 217. 255. 255. 255. 255. 0. 255. 255. 255. 255. 217. 0. 0. 0.
      0. 0. 255. 255. 255. 255. 13. 0. 13. 255. 255. 255. 255. 0. 0. 0.
      0. 0. 255. 255. 255. 255. 0. 0. 0. 255. 255. 255. 255. 0. 0. 0. 0.
      0. 255. 255. 255. 255. 255. 255. 255. 255. 255. 255. 255. 0. 0. 0.
      0. 0. 255. 255. 255. 255. 255. 255. 255. 255. 255. 255. 255. 0. 0.
      0. 0. 0. 255. 255. 255. 255. 255. 255. 255. 255. 255. 255. 255. 0.
      0. 0. 0. 0. 255. 255. 255. 255. 0. 0. 0. 255. 255. 255. 255. 0. 0.
      0. 0. 0. 255. 255. 255. 255. 13. 0. 13. 255. 255. 255. 255. 0. 0.
      0. 0. 0. 217. 255. 255. 255. 255. 0. 255. 255. 255. 255. 217. 0.
      0. 0. 0. 0. 196. 255. 255. 255. 255. 219. 255. 255. 255. 255. 0.
      0. 0. 0. 0. 0. 0. 255. 255. 255. 255. 255. 255. 255. 255. 255. 0.
      0. 0. 0. 0. 0. 0. 74. 255. 255. 255. 255. 255. 255. 255. 74. 0. 0.
      0.</_>
    <_>
      0. 0. 0. 0. 0. 0. 0. 215. 255. 255. 255. 235. 0. 0. 0. 0. 0. 0. 0.
      0. 0. 0. 255. 255. 255. 255. 255. 255. 255. 0. 0. 0. 0. 0. 0. 0.
      0. 255. 255. 255. 255. 133. 255. 255. 255. 229. 0. 0. 0. 0. 0. 0.
      162. 255. 255. 255. 0. 0. 0. 255. 255. 255. 0. 0. 0. 0. 0. 0. 255.
      255. 255. 178. 0. 0. 0. 255. 255. 255. 0. 0. 0. 0. 0. 0. 255. 255.
      255. 0. 0. 0. 0. 255. 255. 255. 0. 0. 0. 0. 0. 0. 255. 255. 219.
      0. 0. 0. 0. 255. 255. 255. 0. 0. 0. 0. 0. 229. 255. 255. 127. 255.
      255. 255. 0. 255. 255. 255. 0. 0. 0. 0. 0. 238. 255. 255. 50. 255.
      255. 255. 0. 255. 255. 238. 0. 0. 0. 0. 0. 255. 255. 255. 50. 255.
      255. 255. 127. 255. 255. 229. 0. 0. 0. 0. 0. 255. 255. 255. 0. 0.
      0. 0. 219. 255. 255. 0. 0. 0. 0. 0. 0. 255. 255. 255. 0. 0. 0. 0.
      255. 255. 255. 0. 0. 0. 0. 0. 0. 255. 255. 255. 0. 0. 0. 178. 255.
      255. 224. 0. 0. 0. 0. 0. 0. 255. 255. 255. 0. 0. 0. 255. 255. 255.
      162. 0. 0. 0. 0. 0. 0. 229. 255. 255. 255. 133. 255. 255. 255.
      255. 0. 0. 0. 0. 0. 0. 0. 0. 255. 255. 255. 255. 255. 255. 255. 0.
      0. 0. 0. 0.</_>
    <_>
      0. 0. 0. 0. 0. 0. 239. 255. 255. 215. 0. 0. 0. 0. 0. 0. 0. 0. 0.
      0. 54. 255. 255. 120. 120. 255. 255. 54. 0. 0. 0. 0. 0. 0. 0. 0.
      255. 255. 0. 0. 0. 0. 255. 255. 0. 0. 0. 0. 0. 0. 0. 185. 255.
      255. 0. 0. 0. 0. 255. 255. 0. 0. 0. 0. 0. 0. 0. 204. 255. 0. 0. 0.
      0. 0. 0. 255. 204. 0. 0. 0. 0. 0. 0. 255. 255. 0. 0. 0. 0. 0. 0.
      255. 255. 0. 0. 0. 0. 0. 0. 255. 255. 0. 0. 0. 0. 0. 0. 255. 255.
      0. 0. 0. 0. 0. 0. 255. 255. 0. 0. 255. 255. 100. 0. 255. 255. 0.
      0. 0. 0. 0. 0. 255. 255. 0. 0. 255. 255. 100. 0. 255. 255. 0. 0.
      0. 0. 0. 0. 255. 255. 0. 0. 0. 0. 0. 0. 255. 255. 0. 0. 0. 0. 0.
      0. 255. 255. 0. 0. 0. 0. 0. 0. 255. 255. 0. 0. 0. 0. 0. 0. 204.
      255. 0. 0. 0. 0. 0. 0. 255. 204. 0. 0. 0. 0. 0. 0. 185. 255. 255.
      0. 0. 0. 0. 255. 255. 0. 0. 0. 0. 0. 0. 0. 0. 255. 255. 0. 0. 0.
      0. 255. 255. 0. 0. 0. 0. 0. 0. 0. 0. 54. 255. 255. 120. 120. 255.
      255. 54. 0. 0. 0. 0. 0. 0. 0. 0. 0. 0. 239. 255. 255. 239. 0. 0.
      0. 0. 0. 0.</_>
    <_>
      0. 0. 0. 0. 0. 0. 0. 215. 255. 215. 96. 0. 0. 0. 0. 0. 0. 0. 0. 0.
      0. 90. 255. 0. 0. 0. 195. 90. 0. 0. 0. 0. 0. 0. 0. 0. 0. 255. 0.
      0. 0. 0. 0. 255. 0. 0. 0. 0. 0. 0. 0. 0. 205. 101. 0. 0. 0. 0. 0.
      85. 226. 0. 0. 0. 0. 0. 0. 0. 227. 85. 0. 0. 0. 0. 0. 0. 243. 0.
      0. 0. 0. 0. 0. 0. 255. 0. 0. 0. 0. 0. 0. 0. 255. 0. 0. 0. 0. 0. 0.
      0. 255. 0. 0. 0. 0. 0. 0. 0. 255. 0. 0. 0. 0. 0. 0. 0. 255. 0. 0.
      0. 0. 0. 0. 0. 255. 0. 0. 0. 0. 0. 0. 0. 255. 0. 0. 0. 0. 0. 0. 0.
      255. 0. 0. 0. 0. 0. 0. 0. 255. 0. 0. 0. 0. 0. 0. 0. 255. 0. 0. 0.
      0. 0. 0. 0. 255. 0. 0. 0. 0. 0. 0. 0. 255. 0. 0. 0. 0. 0. 0. 0.
      227. 35. 0. 0. 0. 0. 0. 0. 255. 0. 0. 0. 0. 0. 0. 0. 205. 101. 0.
      0. 0. 0. 0. 85. 226. 0. 0. 0. 0. 0. 0. 0. 0. 255. 0. 0. 0. 0. 0.
      255. 0. 0. 0. 0. 0. 0. 0. 0. 0. 90. 195. 0. 0. 0. 195. 215. 0. 0.
      0. 0. 0. 0. 0. 0. 0. 0. 96. 224. 255. 255. 96. 0. 0. 0. 0. 0.</_>
    <_>
      0. 0. 0. 0. 0. 0. 0. 135. 255. 255. 255. 151. 0. 0. 0. 0. 0. 0. 0.
      0. 0. 0. 123. 65. 0. 0. 24. 255. 145. 0. 0. 0. 0. 0. 0. 0. 0. 88.
      100. 0. 0. 0. 0. 13. 177. 0. 0. 0. 0. 0. 0. 0. 0. 231. 0. 0. 0. 0.
      0. 0. 255. 0. 0. 0. 0. 0. 0. 0. 151. 72. 0. 0. 0. 0. 0. 0. 255. 0.
      0. 0. 0. 0. 0. 0. 253. 0. 0. 0. 0. 0. 0. 0. 255. 0. 0. 0. 0. 0. 0.
      0. 255. 0. 0. 0. 0. 0. 0. 13. 166. 0. 0. 0. 0. 0. 0. 166. 13. 0.
      0. 0. 0. 0. 0. 13. 166. 0. 0. 0. 0. 0. 0. 166. 13. 0. 0. 0. 0. 0.
      0. 255. 62. 0. 0. 0. 0. 0. 0. 244. 0. 0. 0. 0. 0. 0. 0. 255. 0. 0.
      0. 0. 0. 0. 0. 255. 0. 0. 0. 0. 0. 0. 0. 242. 0. 0. 0. 0. 0. 0. 0.
      255. 0. 0. 0. 0. 0. 0. 191. 151. 0. 0. 0. 0. 0. 0. 0. 255. 0. 0.
      0. 0. 0. 0. 255. 0. 0. 0. 0. 0. 0. 0. 0. 177. 11. 0. 0. 0. 0. 237.
      88. 0. 0. 0. 0. 0. 0. 0. 0. 145. 255. 0. 0. 27. 255. 123. 0. 0. 0.
      0. 0. 0. 0. 0. 0. 0. 151. 255. 255. 255. 135. 0. 0. 0. 0. 0. 0. 0.</_>
    <_>
      0. 0. 0. 0. 0. 0. 159. 255. 255. 223. 53. 0. 0. 0. 0. 0. 0. 0. 0.
      0. 0. 223. 180. 11. 0. 11. 180. 223. 0. 0. 0. 0. 0. 0. 0. 0. 0.
      255. 0. 0. 0. 0. 0. 255. 0. 0. 0. 0. 0. 0. 0. 0. 170. 159. 0. 0.
      0. 0. 0. 159. 170. 0. 0. 0. 0. 0. 0. 0. 223. 0. 0. 0. 0. 0. 0. 0.
      223. 0. 0. 0. 0. 0. 0. 0. 255. 0. 0. 0. 0. 0. 0. 0. 255. 0. 0. 0.
      0. 0. 0. 0. 255. 0. 0. 0. 0. 0. 0. 0. 255. 0. 0. 0. 0. 0. 0. 0.
      255. 0. 0. 0. 0. 0. 0. 0. 255. 0. 0. 0. 0. 0. 0. 0. 255. 0. 0. 0.
      0. 0. 0. 0. 255. 0. 0. 0. 0. 0. 0. 0. 255. 0. 0. 0. 0. 0. 0. 0.
      255. 0. 0. 0. 0. 0. 0. 0. 255. 0. 0. 0. 0. 0. 0. 0. 255. 0. 0. 0.
      0. 0. 0. 0. 223. 0. 0. 0. 0. 0. 0. 0. 223. 0. 0. 0. 0. 0. 0. 0.
      170. 0. 0. 0. 0. 0. 0. 159. 170. 0. 0. 0. 0. 0. 0. 0. 0. 255. 0.
      0. 0. 0. 0. 255. 0. 0. 0. 0. 0. 0. 0. 0. 0. 223. 180. 11. 0. 11.
      180. 223. 0. 0. 0. 0. 0. 0. 0. 0. 0. 0. 159. 255. 255. 255. 159.
      0. 0. 0. 0. 0.</_>
    <_>
      0. 0. 0. 0. 0. 0. 191. 255. 255. 191. 0. 0. 0. 0. 0. 0. 0. 0. 0.
      0. 0. 255. 255. 0. 0. 255. 255. 0. 0. 0. 0. 0. 0. 0. 0. 0. 217.
      255. 140. 0. 0. 255. 255. 217. 0. 0. 0. 0. 0. 0. 0. 0. 255. 255.
      102. 0. 0. 102. 255. 255. 0. 0. 0. 0. 0. 0. 0. 204. 255. 255. 102.
      0. 0. 102. 255. 255. 204. 0. 0. 0. 0. 0. 0. 217. 255. 255. 102. 0.
      0. 102. 255. 255. 217. 0. 0. 0. 0. 0. 0. 255. 255. 255. 102. 0. 0.
      102. 255. 255. 255. 0. 0. 0. 0. 0. 0. 255. 255. 255. 102. 0. 0.
      102. 255. 255. 255. 0. 0. 0. 0. 0. 0. 255. 255. 255. 102. 0. 0.
      102. 255. 255. 255. 0. 0. 0. 0. 0. 0. 255. 255. 255. 102. 0. 0.
      102. 255. 255. 255. 0. 0. 0. 0. 0. 0. 217. 255. 255. 102. 0. 0.
      102. 255. 255. 217. 0. 0. 0. 0. 0. 0. 204. 255. 255. 102. 0. 0.
      102. 255. 255. 204. 0. 0. 0. 0. 0. 0. 0. 255. 255. 102. 0. 0. 102.
      255. 255. 0. 0. 0. 0. 0. 0. 0. 0. 217. 255. 140. 0. 0. 140. 255.
      217. 0. 0. 0. 0. 0. 0. 0. 0. 25. 255. 255. 0. 0. 255. 255. 0. 0.
      0. 0. 0. 0. 0. 0. 0. 0. 0. 191. 255. 255. 191. 0. 0. 0. 0. 0. 0.</_>
    <_>
      0. 0. 0. 0. 0. 0. 191. 255. 255. 255. 191. 0. 0. 0. 0. 0. 0. 0. 0.
      0. 0. 255. 255. 255. 255. 255. 255. 255. 0. 0. 0. 0. 0. 0. 0. 0.
      217. 255. 255. 255. 0. 255. 255. 255. 217. 0. 0. 0. 0. 0. 0. 0.
      255. 255. 255. 140. 0. 255. 255. 255. 255. 0. 0. 0. 0. 0. 0. 204.
      255. 255. 255. 102. 0. 102. 255. 255. 255. 204. 0. 0. 0. 0. 0.
      217. 255. 255. 255. 102. 0. 102. 255. 255. 255. 217. 0. 0. 0. 0.
      0. 255. 255. 255. 255. 102. 0. 102. 255. 255. 255. 255. 0. 0. 0.
      0. 0. 255. 255. 255. 255. 102. 0. 102. 255. 255. 255. 255. 0. 0.
      0. 0. 0. 255. 255. 255. 255. 102. 0. 102. 255. 255. 255. 255. 0.
      0. 0. 0. 0. 255. 255. 255. 255. 102. 0. 102. 255. 255. 255. 255.
      0. 0. 0. 0. 0. 255. 255. 255. 255. 102. 0. 102. 255. 255. 255.
      255. 0. 0. 0. 0. 0. 217. 255. 255. 255. 102. 0. 102. 255. 255.
      255. 217. 0. 0. 0. 0. 0. 204. 255. 255. 255. 102. 0. 102. 255.
      255. 255. 204. 0. 0. 0. 0. 0. 0. 255. 255. 255. 140. 0. 140. 255.
      255. 255. 0. 0. 0. 0. 0. 0. 0. 217. 255. 255. 255. 0. 255. 255.
      255. 217. 0. 0. 0. 0. 0. 0. 0. 25. 255. 255. 255. 255. 255. 255.
      255. 0. 0. 0. 0.</_>
    <_>
      0. 0. 0. 0. 0. 0. 0. 183. 255. 255. 255. 183. 105. 0. 0. 0. 0. 0.
      0. 0. 0. 255. 255. 255. 255. 255. 255. 255. 255. 255. 0. 0. 0. 0.
      0. 0. 255. 255. 255. 104. 0. 0. 59. 255. 255. 255. 108. 0. 0. 0.
      0. 255. 255. 255. 35. 0. 0. 0. 0. 0. 255. 255. 184. 0. 0. 0. 36.
      255. 255. 146. 0. 0. 0. 0. 0. 0. 255. 255. 255. 0. 0. 0. 255. 255.
      255. 0. 0. 0. 0. 0. 0. 0. 255. 255. 255. 0. 0. 63. 255. 255. 255.
      0. 0. 0. 0. 0. 0. 0. 255. 255. 255. 0. 0. 182. 255. 255. 0. 0. 0.
      0. 0. 0. 0. 0. 255. 255. 255. 0. 0. 255. 255. 255. 0. 0. 0. 0. 0.
      0. 0. 0. 255. 255. 182. 0. 0. 255. 255. 255. 0. 0. 0. 0. 0. 0. 0.
      255. 255. 255. 63. 0. 0. 255. 255. 255. 0. 0. 0. 0. 0. 0. 0. 255.
      255. 255. 0. 0. 0. 255. 255. 255. 0. 0. 0. 0. 0. 0. 77. 255. 255.
      139. 0. 0. 0. 184. 255. 255. 0. 0. 0. 0. 0. 35. 255. 255. 255. 0.
      0. 0. 0. 108. 255. 255. 255. 59. 0. 0. 104. 255. 255. 255. 0. 0.
      0. 0. 0. 0. 255. 255. 255. 255. 255. 255. 255. 255. 255. 0. 0. 0.
      0. 0. 0. 0. 0. 105. 255. 255. 255. 255. 183. 0. 0. 0. 0. 0. 0. 0.</_>
    <_>
      0. 0. 0. 0. 0. 0. 0. 0. 183. 255. 255. 213. 8. 0. 0. 0. 0. 0. 0.
      0. 0. 0. 31. 255. 255. 0. 0. 151. 255. 0. 0. 0. 0. 0. 0. 0. 0. 62.
      255. 255. 127. 0. 0. 150. 255. 174. 0. 0. 0. 0. 0. 0. 0. 255. 255.
      254. 0. 0. 0. 150. 255. 176. 0. 0. 0. 0. 0. 0. 126. 255. 255. 117.
      0. 0. 0. 255. 255. 255. 0. 0. 0. 0. 0. 0. 255. 255. 255. 0. 0. 0.
      0. 255. 255. 255. 0. 0. 0. 0. 0. 60. 255. 255. 255. 0. 0. 0. 58.
      255. 255. 255. 0. 0. 0. 0. 0. 174. 255. 255. 101. 0. 0. 0. 212.
      255. 255. 255. 0. 0. 0. 0. 0. 192. 255. 255. 45. 0. 0. 0. 255.
      255. 255. 174. 0. 0. 0. 0. 0. 255. 255. 255. 0. 0. 0. 0. 255. 255.
      255. 60. 0. 0. 0. 0. 0. 255. 255. 151. 0. 0. 0. 220. 255. 255.
      255. 0. 0. 0. 0. 0. 0. 255. 255. 151. 0. 0. 0. 238. 255. 255. 126.
      0. 0. 0. 0. 0. 0. 255. 255. 5. 0. 0. 0. 255. 255. 255. 0. 0. 0. 0.
      0. 0. 0. 174. 255. 0. 0. 0. 179. 255. 255. 0. 0. 0. 0. 0. 0. 0. 0.
      0. 255. 0. 0. 29. 255. 255. 31. 0. 0. 0. 0. 0. 0. 0. 0. 0. 8. 213.
      255. 255. 183. 0. 0. 0. 0. 0. 0. 0.</_>
    <_>
      0. 0. 0. 0. 0. 0. 0. 0. 165. 255. 159. 0. 0. 0. 0. 0. 0. 0. 0. 0.
      0. 0. 0. 253. 30. 0. 255. 126. 0. 0. 0. 0. 0. 0. 0. 0. 0. 0. 213.
      16. 0. 0. 70. 255. 0. 0. 0. 0. 0. 0. 0. 0. 0. 66. 255. 0. 0. 0. 0.
      255. 0. 0. 0. 0. 0. 0. 0. 0. 0. 175. 48. 0. 0. 0. 0. 255. 0. 0. 0.
      0. 0. 0. 0. 0. 0. 255. 6. 0. 0. 0. 0. 255. 0. 0. 0. 0. 0. 0. 0. 0.
      143. 255. 0. 0. 0. 0. 0. 255. 0. 0. 0. 0. 0. 0. 0. 0. 143. 80. 0.
      0. 0. 0. 30. 255. 0. 0. 0. 0. 0. 0. 0. 0. 255. 80. 0. 0. 0. 0. 80.
      255. 0. 0. 0. 0. 0. 0. 0. 0. 255. 79. 0. 0. 0. 0. 79. 143. 0. 0.
      0. 0. 0. 0. 0. 0. 255. 79. 0. 0. 0. 0. 255. 126. 0. 0. 0. 0. 0. 0.
      0. 0. 255. 80. 0. 0. 0. 48. 225. 0. 0. 0. 0. 0. 0. 0. 0. 0. 255.
      80. 0. 0. 0. 177. 175. 0. 0. 0. 0. 0. 0. 0. 0. 0. 143. 79. 0. 0.
      14. 213. 0. 0. 0. 0. 0. 0. 0. 0. 0. 0. 0. 255. 6. 0. 253. 0. 0. 0.
      0. 0. 0. 0. 0. 0. 0. 0. 0. 110. 255. 255. 0. 0. 0. 0. 0. 0. 0. 0.</_>
    <_>
      0. 0. 0. 0. 0. 0. 0. 180. 255. 180. 0. 0. 0. 0. 0. 0. 0. 0. 0. 0.
      0. 0. 207. 207. 0. 207. 207. 0. 0. 0. 0. 0. 0. 0. 0. 0. 0. 0. 255.
      0. 0. 0. 255. 0. 0. 0. 0. 0. 0. 0. 0. 0. 0. 61. 255. 0. 0. 0. 255.
      164. 0. 0. 0. 0. 0. 0. 0. 0. 0. 164. 255. 0. 0. 0. 107. 164. 0. 0.
      0. 0. 0. 0. 0. 0. 0. 243. 18. 0. 0. 0. 18. 255. 0. 0. 0. 0. 0. 0.
      0. 0. 0. 255. 18. 0. 0. 0. 18. 255. 0. 0. 0. 0. 0. 0. 0. 0. 0.
      255. 18. 0. 0. 0. 18. 255. 0. 0. 0. 0. 0. 0. 0. 0. 0. 255. 18. 0.
      0. 0. 18. 255. 0. 0. 0. 0. 0. 0. 0. 0. 0. 255. 18. 0. 0. 0. 18.
      255. 0. 0. 0. 0. 0. 0. 0. 0. 0. 243. 48. 0. 0. 0. 18. 243. 0. 0.
      0. 0. 0. 0. 0. 0. 0. 164. 255. 0. 0. 0. 255. 164. 0. 0. 0. 0. 0.
      0. 0. 0. 0. 61. 255. 0. 0. 0. 255. 164. 0. 0. 0. 0. 0. 0. 0. 0. 0.
      0. 255. 0. 0. 0. 255. 0. 0. 0. 0. 0. 0. 0. 0. 0. 0. 0. 207. 207.
      0. 207. 207. 0. 0. 0. 0. 0. 0. 0. 0. 0. 0. 0. 0. 180. 255. 180. 0.
      0. 0. 0. 0. 0.</_>
    <_>
      0. 0. 0. 0. 0. 0. 0. 180. 255. 255. 180. 0. 0. 0. 0. 0. 0. 0. 0.
      0. 0. 0. 207. 207. 255. 255. 207. 207. 0. 0. 0. 0. 0. 0. 0. 0. 0.
      0. 255. 255. 207. 207. 255. 255. 0. 0. 0. 0. 0. 0. 0. 0. 0. 61.
      255. 255. 0. 0. 255. 255. 164. 0. 0. 0. 0. 0. 0. 0. 0. 164. 255.
      255. 0. 0. 255. 255. 164. 0. 0. 0. 0. 0. 0. 0. 0. 243. 255. 255.
      0. 0. 107. 255. 255. 0. 0. 0. 0. 0. 0. 0. 0. 255. 255. 18. 0. 0.
      18. 255. 255. 0. 0. 0. 0. 0. 0. 0. 0. 255. 255. 18. 0. 0. 18. 255.
      255. 0. 0. 0. 0. 0. 0. 0. 0. 255. 255. 18. 0. 0. 18. 255. 255. 0.
      0. 0. 0. 0. 0. 0. 0. 255. 255. 18. 0. 0. 18. 255. 255. 0. 0. 0. 0.
      0. 0. 0. 0. 255. 255. 48. 0. 0. 18. 255. 255. 0. 0. 0. 0. 0. 0. 0.
      0. 243. 255. 255. 0. 0. 255. 255. 243. 0. 0. 0. 0. 0. 0. 0. 0.
      164. 255. 255. 0. 0. 255. 255. 164. 0. 0. 0. 0. 0. 0. 0. 0. 61.
      255. 255. 0. 0. 255. 255. 164. 0. 0. 0. 0. 0. 0. 0. 0. 0. 255.
      255. 207. 207. 255. 255. 0. 0. 0. 0. 0. 0. 0. 0. 0. 0. 207. 207.
      255. 255. 207. 207. 0. 0. 0. 0.</_>
    <_>
      0. 0. 0. 0. 0. 0. 0. 110. 255. 255. 255. 170. 0. 0. 0. 0. 0. 0. 0.
      0. 0. 0. 224. 110. 0. 0. 0. 219. 250. 0. 0. 0. 0. 0. 0. 0. 0. 248.
      142. 0. 0. 0. 0. 0. 255. 162. 0. 0. 0. 0. 0. 0. 36. 248. 0. 0. 0.
      0. 0. 0. 23. 255. 0. 0. 0. 0. 0. 0. 232. 137. 0. 0. 0. 0. 0. 0.
      23. 255. 0. 0. 0. 0. 0. 0. 255. 0. 0. 0. 0. 0. 0. 0. 23. 255. 0.
      0. 0. 0. 0. 117. 255. 0. 0. 0. 0. 0. 0. 0. 23. 255. 0. 0. 0. 0. 0.
      162. 255. 0. 0. 0. 0. 0. 0. 0. 23. 171. 0. 0. 0. 0. 0. 162. 255.
      0. 0. 0. 0. 0. 0. 0. 255. 162. 0. 0. 0. 0. 0. 255. 23. 0. 0. 0. 0.
      0. 0. 0. 255. 117. 0. 0. 0. 0. 0. 255. 23. 0. 0. 0. 0. 0. 0. 0.
      255. 0. 0. 0. 0. 0. 0. 255. 23. 0. 0. 0. 0. 0. 0. 208. 232. 0. 0.
      0. 0. 0. 0. 177. 255. 0. 0. 0. 0. 0. 0. 248. 36. 0. 0. 0. 0. 0. 0.
      157. 255. 0. 0. 0. 0. 0. 142. 248. 0. 0. 0. 0. 0. 0. 0. 0. 250.
      219. 0. 0. 0. 110. 224. 0. 0. 0. 0. 0. 0. 0. 0. 0. 0. 170. 255.
      255. 255. 151. 0. 0. 0. 0. 0. 0.</_>
    <_>
      0. 0. 0. 0. 0. 0. 0. 35. 188. 0. 255. 0. 0. 0. 0. 0. 0. 0. 0. 0.
      0. 0. 0. 150. 0. 0. 85. 32. 0. 0. 0. 0. 0. 0. 0. 0. 0. 0. 255. 0.
      0. 0. 0. 255. 0. 0. 0. 0. 0. 0. 0. 0. 0. 95. 255. 0. 0. 0. 0. 255.
      0. 0. 0. 0. 0. 0. 0. 0. 0. 255. 96. 0. 0. 0. 0. 255. 0. 0. 0. 0.
      0. 0. 0. 0. 0. 255. 0. 0. 0. 0. 159. 255. 0. 0. 0. 0. 0. 0. 0. 0.
      32. 255. 0. 0. 0. 0. 159. 255. 0. 0. 0. 0. 0. 0. 0. 0. 32. 255. 0.
      0. 0. 0. 255. 255. 0. 0. 0. 0. 0. 0. 0. 0. 255. 255. 0. 0. 0. 0.
      255. 32. 0. 0. 0. 0. 0. 0. 0. 0. 255. 159. 0. 0. 0. 0. 255. 32. 0.
      0. 0. 0. 0. 0. 0. 0. 255. 159. 0. 0. 0. 27. 255. 0. 0. 0. 0. 0. 0.
      0. 0. 0. 255. 0. 0. 0. 0. 96. 255. 0. 0. 0. 0. 0. 0. 0. 0. 0. 255.
      0. 0. 0. 0. 255. 95. 0. 0. 0. 0. 0. 0. 0. 0. 0. 255. 0. 0. 0. 0.
      255. 0. 0. 0. 0. 0. 0. 0. 0. 0. 0. 255. 85. 0. 0. 150. 75. 0. 0.
      0. 0. 0. 0. 0. 0. 0. 0. 5. 255. 0. 188. 228. 0. 0. 0. 0. 0. 0. 0.</_>
    <_>
      0. 0. 0. 0. 0. 0. 0. 252. 0. 252. 0. 0. 0. 0. 0. 0. 0. 0. 0. 0. 0.
      0. 255. 0. 0. 0. 255. 0. 0. 0. 0. 0. 0. 0. 0. 0. 0. 43. 255. 0. 0.
      0. 255. 43. 0. 0. 0. 0. 0. 0. 0. 0. 0. 255. 91. 0. 0. 0. 91. 255.
      0. 0. 0. 0. 0. 0. 0. 0. 0. 255. 91. 0. 0. 0. 91. 255. 0. 0. 0. 0.
      0. 0. 0. 0. 0. 255. 91. 0. 0. 0. 91. 255. 0. 0. 0. 0. 0. 0. 0. 0.
      0. 255. 91. 0. 0. 0. 91. 255. 0. 0. 0. 0. 0. 0. 0. 0. 0. 255. 91.
      0. 0. 0. 91. 255. 0. 0. 0. 0. 0. 0. 0. 0. 0. 255. 91. 0. 0. 0. 91.
      255. 0. 0. 0. 0. 0. 0. 0. 0. 0. 255. 91. 0. 0. 0. 91. 255. 0. 0.
      0. 0. 0. 0. 0. 0. 0. 255. 91. 0. 0. 0. 91. 255. 0. 0. 0. 0. 0. 0.
      0. 0. 0. 255. 91. 0. 0. 0. 91. 255. 0. 0. 0. 0. 0. 0. 0. 0. 0.
      255. 91. 0. 0. 0. 240. 255. 0. 0. 0. 0. 0. 0. 0. 0. 0. 54. 255. 0.
      0. 0. 255. 54. 0. 0. 0. 0. 0. 0. 0. 0. 0. 0. 255. 0. 0. 0. 255. 0.
      0. 0. 0. 0. 0. 0. 0. 0. 0. 0. 26. 215. 0. 252. 26. 0. 0. 0. 0. 0.</_>
    <_>
      0. 0. 0. 0. 0. 0. 0. 175. 228. 255. 255. 202. 175. 0. 0. 0. 0. 0.
      0. 0. 0. 11. 255. 250. 0. 0. 0. 159. 255. 11. 0. 0. 0. 0. 0. 0.
      37. 255. 255. 0. 0. 0. 0. 0. 255. 207. 0. 0. 0. 0. 0. 0. 223. 255.
      48. 0. 0. 0. 0. 0. 255. 255. 0. 0. 0. 0. 0. 0. 255. 255. 0. 0. 0.
      0. 0. 32. 255. 255. 0. 0. 0. 0. 0. 255. 255. 255. 0. 0. 0. 0. 0.
      170. 255. 255. 0. 0. 0. 0. 0. 255. 255. 95. 0. 0. 0. 0. 0. 250.
      255. 175. 0. 0. 0. 0. 53. 255. 255. 58. 0. 0. 0. 0. 0. 255. 255.
      170. 0. 0. 0. 0. 170. 255. 255. 0. 0. 0. 0. 0. 85. 255. 255. 53.
      0. 0. 0. 0. 175. 255. 250. 0. 0. 0. 0. 0. 95. 255. 255. 0. 0. 0.
      0. 0. 255. 255. 170. 0. 0. 0. 0. 0. 255. 255. 255. 0. 0. 0. 0. 0.
      255. 255. 170. 0. 0. 0. 0. 0. 255. 255. 0. 0. 0. 0. 0. 0. 255.
      255. 0. 0. 0. 0. 0. 255. 255. 223. 0. 0. 0. 0. 0. 0. 207. 255. 0.
      0. 0. 0. 0. 255. 255. 37. 0. 0. 0. 0. 0. 0. 11. 255. 170. 0. 0. 0.
      250. 255. 11. 0. 0. 0. 0. 0. 0. 0. 0. 0. 202. 255. 255. 228. 175.
      0. 0. 0. 0. 0. 0. 0.</_>
    <_>
      0. 0. 0. 0. 0. 0. 0. 0. 175. 80. 80. 183. 0. 0. 0. 0. 0. 0. 0. 0.
      0. 0. 14. 178. 0. 0. 0. 215. 178. 0. 0. 0. 0. 0. 0. 0. 0. 0. 255.
      0. 0. 0. 0. 0. 255. 0. 0. 0. 0. 0. 0. 0. 0. 231. 255. 0. 0. 0. 0.
      0. 255. 0. 0. 0. 0. 0. 0. 0. 25. 255. 25. 0. 0. 0. 0. 229. 255. 0.
      0. 0. 0. 0. 0. 0. 154. 255. 0. 0. 0. 0. 0. 229. 255. 0. 0. 0. 0.
      0. 0. 0. 255. 135. 0. 0. 0. 0. 0. 253. 178. 0. 0. 0. 0. 0. 0. 0.
      255. 127. 0. 0. 0. 0. 0. 255. 179. 0. 0. 0. 0. 0. 0. 179. 255. 0.
      0. 0. 0. 0. 127. 255. 0. 0. 0. 0. 0. 0. 0. 178. 253. 0. 0. 0. 0.
      0. 135. 255. 0. 0. 0. 0. 0. 0. 0. 255. 229. 0. 0. 0. 0. 0. 255.
      255. 0. 0. 0. 0. 0. 0. 0. 255. 229. 0. 0. 0. 0. 25. 255. 25. 0. 0.
      0. 0. 0. 0. 0. 255. 0. 0. 0. 0. 0. 255. 231. 0. 0. 0. 0. 0. 0. 0.
      0. 255. 0. 0. 0. 0. 0. 255. 56. 0. 0. 0. 0. 0. 0. 0. 0. 178. 215.
      0. 0. 0. 250. 14. 0. 0. 0. 0. 0. 0. 0. 0. 0. 0. 183. 80. 80. 175.
      53. 0. 0. 0. 0. 0. 0. 0.</_>
    <_>
      0. 0. 0. 0. 0. 0. 0. 0. 199. 255. 255. 227. 0. 0. 0. 0. 0. 0. 0.
      0. 0. 0. 15. 255. 255. 167. 240. 255. 227. 0. 0. 0. 0. 0. 0. 0. 0.
      0. 235. 255. 127. 0. 0. 255. 255. 0. 0. 0. 0. 0. 0. 0. 0. 60. 255.
      255. 0. 0. 0. 255. 255. 0. 0. 0. 0. 0. 0. 0. 0. 131. 255. 42. 0.
      0. 0. 255. 255. 0. 0. 0. 0. 0. 0. 0. 0. 255. 255. 42. 0. 0. 0.
      255. 255. 0. 0. 0. 0. 0. 0. 0. 0. 255. 255. 0. 0. 0. 0. 255. 255.
      0. 0. 0. 0. 0. 0. 0. 153. 255. 224. 0. 0. 0. 213. 255. 213. 0. 0.
      0. 0. 0. 0. 0. 213. 255. 213. 0. 0. 0. 213. 255. 213. 0. 0. 0. 0.
      0. 0. 0. 248. 255. 33. 0. 0. 0. 255. 255. 0. 0. 0. 0. 0. 0. 0. 0.
      255. 255. 0. 0. 0. 17. 255. 255. 0. 0. 0. 0. 0. 0. 0. 0. 255. 255.
      0. 0. 0. 42. 255. 255. 0. 0. 0. 0. 0. 0. 0. 0. 255. 255. 0. 0. 0.
      255. 255. 60. 0. 0. 0. 0. 0. 0. 0. 0. 255. 255. 0. 0. 12. 255.
      255. 0. 0. 0. 0. 0. 0. 0. 0. 0. 212. 255. 240. 167. 255. 255. 15.
      0. 0. 0. 0. 0. 0. 0. 0. 0. 0. 199. 255. 255. 199. 0. 0. 0. 0. 0.
      0. 0.</_>
    <_>
      0. 0. 0. 0. 0. 0. 0. 176. 227. 255. 255. 255. 255. 199. 0. 0. 0.
      0. 0. 0. 0. 57. 255. 255. 255. 255. 255. 255. 255. 255. 255. 0. 0.
      0. 0. 0. 9. 255. 255. 255. 255. 211. 167. 255. 255. 255. 255. 187.
      0. 0. 0. 0. 255. 255. 255. 255. 50. 0. 0. 8. 255. 255. 255. 229.
      0. 0. 0. 112. 255. 255. 255. 186. 0. 0. 0. 0. 255. 255. 255. 255.
      0. 0. 0. 255. 255. 255. 255. 0. 0. 0. 0. 0. 255. 255. 255. 255. 0.
      0. 0. 255. 255. 255. 255. 0. 0. 0. 0. 14. 255. 255. 255. 255. 0.
      0. 206. 255. 255. 255. 255. 0. 0. 0. 0. 88. 255. 255. 255. 247. 0.
      0. 206. 255. 255. 255. 88. 0. 0. 0. 0. 135. 255. 255. 255. 206. 0.
      0. 255. 255. 255. 255. 88. 0. 0. 0. 0. 255. 255. 255. 255. 148. 0.
      0. 255. 255. 255. 255. 0. 0. 0. 0. 0. 255. 255. 255. 255. 0. 0. 0.
      255. 255. 255. 255. 0. 0. 0. 0. 0. 255. 255. 255. 255. 0. 0. 0.
      255. 255. 255. 255. 0. 0. 0. 0. 223. 255. 255. 255. 108. 0. 0. 0.
      255. 255. 255. 255. 8. 0. 0. 50. 255. 255. 255. 255. 0. 0. 0. 0.
      187. 255. 255. 255. 255. 167. 211. 255. 255. 255. 255. 9. 0. 0. 0.
      0. 0. 255. 255. 255. 255. 255. 255. 255. 255. 255. 57. 0. 0. 0.</_>
    <_>
      0. 0. 0. 0. 0. 0. 0. 0. 165. 255. 159. 0. 0. 0. 0. 0. 0. 0. 0. 0.
      0. 0. 0. 253. 30. 6. 255. 126. 0. 0. 0. 0. 0. 0. 0. 0. 0. 0. 213.
      16. 0. 0. 79. 255. 0. 0. 0. 0. 0. 0. 0. 0. 0. 66. 255. 0. 0. 0. 0.
      255. 0. 0. 0. 0. 0. 0. 0. 0. 0. 175. 48. 0. 0. 0. 0. 255. 0. 0. 0.
      0. 0. 0. 0. 0. 0. 255. 6. 0. 0. 0. 0. 255. 0. 0. 0. 0. 0. 0. 0. 0.
      143. 255. 0. 0. 0. 0. 0. 255. 0. 0. 0. 0. 0. 0. 0. 0. 143. 80. 0.
      0. 0. 0. 30. 255. 0. 0. 0. 0. 0. 0. 0. 0. 255. 80. 0. 0. 0. 0. 80.
      255. 0. 0. 0. 0. 0. 0. 0. 0. 255. 79. 0. 0. 0. 0. 79. 143. 0. 0.
      0. 0. 0. 0. 0. 0. 255. 79. 0. 0. 0. 0. 255. 126. 0. 0. 0. 0. 0. 0.
      0. 0. 255. 80. 0. 0. 0. 48. 225. 0. 0. 0. 0. 0. 0. 0. 0. 0. 255.
      80. 0. 0. 0. 177. 175. 0. 0. 0. 0. 0. 0. 0. 0. 0. 143. 79. 0. 0.
      14. 213. 0. 0. 0. 0. 0. 0. 0. 0. 0. 0. 126. 255. 6. 30. 253. 0. 0.
      0. 0. 0. 0. 0. 0. 0. 0. 0. 0. 110. 255. 255. 0. 0. 0. 0. 0. 0. 0.
      0.</_>
    <_>
      0. 0. 0. 0. 0. 0. 0. 180. 255. 180. 0. 0. 0. 0. 0. 0. 0. 0. 0. 0.
      0. 0. 207. 207. 0. 207. 207. 0. 0. 0. 0. 0. 0. 0. 0. 0. 0. 0. 255.
      0. 0. 0. 255. 0. 0. 0. 0. 0. 0. 0. 0. 0. 0. 164. 166. 0. 0. 0.
      255. 61. 0. 0. 0. 0. 0. 0. 0. 0. 0. 221. 18. 0. 0. 0. 18. 164. 0.
      0. 0. 0. 0. 0. 0. 0. 0. 255. 18. 0. 0. 0. 18. 243. 0. 0. 0. 0. 0.
      0. 0. 0. 0. 255. 0. 0. 0. 0. 18. 255. 0. 0. 0. 0. 0. 0. 0. 0. 0.
      255. 0. 0. 0. 0. 18. 255. 0. 0. 0. 0. 0. 0. 0. 0. 0. 255. 0. 0. 0.
      0. 18. 255. 0. 0. 0. 0. 0. 0. 0. 0. 0. 255. 0. 0. 0. 0. 18. 255.
      0. 0. 0. 0. 0. 0. 0. 0. 0. 255. 18. 0. 0. 0. 18. 243. 0. 0. 0. 0.
      0. 0. 0. 0. 0. 221. 18. 0. 0. 0. 107. 164. 0. 0. 0. 0. 0. 0. 0. 0.
      0. 164. 166. 0. 0. 0. 255. 61. 0. 0. 0. 0. 0. 0. 0. 0. 0. 0. 255.
      0. 0. 0. 255. 0. 0. 0. 0. 0. 0. 0. 0. 0. 0. 0. 207. 207. 0. 207.
      207. 0. 0. 0. 0. 0. 0. 0. 0. 0. 0. 0. 0. 180. 255. 180. 0. 0. 0.
      0. 0. 0.</_>
    <_>
      0. 0. 0. 0. 0. 0. 0. 151. 255. 255. 255. 255. 138. 0. 0. 0. 0. 0.
      0. 0. 0. 0. 224. 110. 0. 0. 0. 219. 255. 0. 0. 0. 0. 0. 0. 0. 0.
      248. 142. 0. 0. 0. 0. 0. 255. 162. 0. 0. 0. 0. 0. 0. 36. 248. 0.
      0. 0. 0. 0. 0. 23. 255. 0. 0. 0. 0. 0. 0. 232. 137. 0. 0. 0. 0. 0.
      0. 23. 255. 0. 0. 0. 0. 0. 0. 255. 0. 0. 0. 0. 0. 0. 0. 23. 255.
      0. 0. 0. 0. 0. 117. 255. 0. 0. 0. 0. 0. 0. 0. 23. 255. 0. 0. 0. 0.
      0. 162. 255. 0. 0. 0. 0. 0. 0. 0. 233. 171. 0. 0. 0. 0. 0. 162.
      255. 0. 0. 0. 0. 0. 0. 0. 255. 162. 0. 0. 0. 0. 0. 255. 23. 0. 0.
      0. 0. 0. 0. 0. 255. 117. 0. 0. 0. 0. 0. 255. 23. 0. 0. 0. 0. 0. 0.
      0. 255. 0. 0. 0. 0. 0. 0. 255. 175. 0. 0. 0. 0. 0. 0. 208. 232. 0.
      0. 0. 0. 0. 0. 177. 255. 0. 0. 0. 0. 0. 0. 255. 36. 0. 0. 0. 0. 0.
      0. 157. 255. 0. 0. 0. 0. 2. 255. 248. 0. 0. 0. 0. 0. 0. 0. 0. 250.
      219. 56. 15. 56. 255. 224. 0. 0. 0. 0. 0. 0. 0. 0. 0. 0. 170. 255.
      255. 255. 151. 0. 0. 0. 0. 0. 0.</_>
    <_>
      0. 0. 0. 0. 0. 0. 0. 34. 175. 255. 255. 255. 255. 197. 0. 0. 0. 0.
      0. 0. 0. 0. 227. 255. 255. 255. 255. 255. 255. 255. 255. 10. 0. 0.
      0. 0. 0. 194. 255. 255. 255. 120. 0. 0. 251. 255. 255. 167. 0. 0.
      0. 0. 68. 255. 255. 255. 116. 0. 0. 0. 186. 255. 255. 238. 0. 0.
      0. 0. 255. 255. 255. 255. 0. 0. 0. 0. 199. 255. 255. 255. 0. 0. 0.
      0. 255. 255. 255. 255. 0. 0. 0. 0. 255. 255. 255. 255. 0. 0. 0.
      245. 255. 255. 255. 29. 0. 0. 0. 0. 255. 255. 255. 167. 0. 0. 0.
      255. 255. 255. 255. 2. 0. 0. 0. 108. 255. 255. 255. 167. 0. 0. 0.
      255. 255. 255. 255. 0. 0. 0. 0. 209. 255. 255. 255. 115. 0. 0.
      167. 255. 255. 255. 108. 0. 0. 0. 2. 255. 255. 255. 255. 0. 0. 0.
      167. 255. 255. 255. 101. 0. 0. 0. 29. 255. 255. 255. 245. 0. 0. 0.
      238. 255. 255. 255. 0. 0. 0. 0. 213. 255. 255. 255. 138. 0. 0. 0.
      238. 255. 255. 255. 0. 0. 0. 0. 255. 255. 255. 255. 0. 0. 0. 0.
      238. 255. 255. 186. 0. 0. 0. 116. 255. 255. 255. 68. 0. 0. 0. 0.
      167. 255. 255. 255. 0. 0. 120. 255. 255. 255. 194. 0. 0. 0. 0. 0.
      10. 255. 255. 255. 255. 255. 255. 255. 255. 227. 0. 0. 0. 0.</_>
    <_>
      0. 0. 0. 0. 0. 0. 0. 0. 187. 80. 80. 175. 0. 0. 0. 0. 0. 0. 0. 0.
      0. 0. 9. 241. 0. 0. 0. 13. 171. 0. 0. 0. 0. 0. 0. 0. 0. 28. 255.
      21. 0. 0. 0. 13. 255. 0. 0. 0. 0. 0. 0. 0. 0. 219. 141. 0. 0. 0.
      0. 13. 255. 0. 0. 0. 0. 0. 0. 0. 0. 255. 0. 0. 0. 0. 0. 13. 255.
      0. 0. 0. 0. 0. 0. 0. 242. 255. 0. 0. 0. 0. 0. 255. 255. 0. 0. 0.
      0. 0. 0. 0. 255. 191. 0. 0. 0. 0. 0. 255. 255. 0. 0. 0. 0. 0. 0.
      166. 255. 0. 0. 0. 0. 0. 0. 255. 166. 0. 0. 0. 0. 0. 0. 166. 255.
      0. 0. 0. 0. 0. 0. 255. 166. 0. 0. 0. 0. 0. 0. 255. 255. 0. 0. 0.
      0. 0. 191. 255. 0. 0. 0. 0. 0. 0. 0. 255. 255. 0. 0. 0. 0. 0. 255.
      242. 0. 0. 0. 0. 0. 0. 0. 255. 13. 0. 0. 0. 0. 93. 255. 45. 0. 0.
      0. 0. 0. 0. 0. 255. 13. 0. 0. 0. 0. 141. 255. 0. 0. 0. 0. 0. 0. 0.
      0. 255. 13. 0. 0. 0. 21. 255. 28. 0. 0. 0. 0. 0. 0. 0. 0. 171. 13.
      0. 0. 0. 241. 9. 0. 0. 0. 0. 0. 0. 0. 0. 0. 0. 175. 80. 80. 187.
      0. 0. 0. 0. 0. 0. 0. 0.</_>
    <_>
      0. 0. 0. 0. 0. 0. 107. 80. 80. 245. 107. 0. 0. 0. 0. 0. 0. 0. 0.
      0. 0. 56. 99. 0. 0. 0. 245. 56. 0. 0. 0. 0. 0. 0. 0. 0. 0. 255. 0.
      0. 0. 0. 0. 255. 0. 0. 0. 0. 0. 0. 0. 0. 150. 220. 0. 0. 0. 0. 0.
      255. 150. 0. 0. 0. 0. 0. 0. 0. 184. 212. 0. 0. 0. 0. 0. 212. 184.
      0. 0. 0. 0. 0. 0. 0. 255. 212. 0. 0. 0. 0. 0. 212. 184. 0. 0. 0.
      0. 0. 0. 0. 255. 213. 0. 0. 0. 0. 0. 213. 255. 0. 0. 0. 0. 0. 0.
      0. 255. 212. 0. 0. 0. 0. 0. 212. 255. 0. 0. 0. 0. 0. 0. 0. 255.
      212. 0. 0. 0. 0. 0. 212. 255. 0. 0. 0. 0. 0. 0. 0. 255. 213. 0. 0.
      0. 0. 0. 213. 255. 0. 0. 0. 0. 0. 0. 0. 255. 212. 0. 0. 0. 0. 0.
      212. 184. 0. 0. 0. 0. 0. 0. 0. 197. 212. 0. 0. 0. 0. 0. 212. 184.
      0. 0. 0. 0. 0. 0. 0. 184. 220. 0. 0. 0. 0. 0. 255. 150. 0. 0. 0.
      0. 0. 0. 0. 0. 255. 0. 0. 0. 0. 56. 255. 0. 0. 0. 0. 0. 0. 0. 0.
      0. 56. 99. 0. 0. 0. 245. 56. 0. 0. 0. 0. 0. 0. 0. 0. 0. 0. 107.
      80. 80. 245. 107. 0. 0. 0. 0. 0.</_>
    <_>
      0. 0. 0. 0. 0. 20. 175. 255. 255. 255. 255. 221. 175. 0. 0. 0. 0.
      0. 0. 3. 255. 255. 255. 255. 255. 255. 255. 255. 255. 255. 3. 0.
      0. 0. 0. 139. 255. 255. 255. 246. 0. 0. 239. 255. 255. 255. 255.
      0. 0. 0. 0. 255. 255. 255. 255. 0. 0. 0. 0. 225. 255. 255. 255.
      151. 0. 0. 186. 255. 255. 255. 226. 0. 0. 0. 0. 0. 255. 255. 255.
      199. 0. 0. 186. 255. 255. 255. 226. 0. 0. 0. 0. 0. 255. 255. 255.
      255. 0. 0. 186. 255. 255. 255. 225. 0. 0. 0. 0. 0. 255. 255. 255.
      255. 0. 0. 255. 255. 255. 255. 14. 0. 0. 0. 0. 0. 255. 255. 255.
      255. 0. 0. 255. 255. 255. 255. 0. 0. 0. 0. 0. 0. 255. 255. 255.
      255. 0. 0. 255. 255. 255. 255. 226. 0. 0. 0. 0. 0. 255. 255. 255.
      255. 0. 0. 186. 255. 255. 255. 226. 0. 0. 0. 0. 0. 255. 255. 255.
      255. 0. 0. 186. 255. 255. 255. 226. 0. 0. 0. 0. 0. 255. 255. 255.
      255. 0. 0. 186. 255. 255. 255. 226. 0. 0. 0. 0. 42. 255. 255. 255.
      199. 0. 0. 0. 255. 255. 255. 255. 0. 0. 0. 0. 242. 255. 255. 255.
      151. 0. 0. 0. 139. 255. 255. 255. 246. 0. 0. 239. 255. 255. 255.
      255. 0. 0. 0. 0. 3. 255. 255. 255. 255. 255. 255. 255. 255. 255.
      255. 3. 0.</_>
    <_>
      0. 0. 0. 0. 0. 0. 0. 24. 215. 215. 119. 208. 208. 8. 0. 0. 0. 0.
      0. 0. 0. 0. 201. 206. 215. 215. 119. 208. 254. 254. 11. 0. 0. 0.
      0. 0. 0. 170. 255. 255. 206. 0. 0. 0. 254. 254. 209. 0. 0. 0. 0.
      0. 9. 255. 255. 255. 0. 0. 0. 0. 243. 255. 255. 0. 0. 0. 0. 0.
      255. 255. 255. 95. 0. 0. 0. 0. 243. 255. 255. 0. 0. 0. 0. 0. 255.
      255. 255. 47. 0. 0. 0. 0. 243. 255. 255. 0. 0. 0. 0. 0. 255. 255.
      255. 0. 0. 0. 0. 0. 243. 255. 255. 0. 0. 0. 0. 54. 255. 255. 157.
      0. 0. 0. 0. 0. 255. 255. 255. 0. 0. 0. 0. 174. 255. 255. 151. 0.
      0. 0. 0. 0. 255. 255. 255. 0. 0. 0. 0. 174. 255. 255. 151. 0. 0.
      0. 0. 9. 255. 255. 199. 0. 0. 0. 0. 209. 255. 255. 0. 0. 0. 0. 0.
      150. 255. 255. 174. 0. 0. 0. 0. 209. 255. 255. 0. 0. 0. 0. 0. 235.
      255. 255. 98. 0. 0. 0. 0. 189. 255. 255. 0. 0. 0. 0. 11. 255. 255.
      255. 0. 0. 0. 0. 0. 174. 255. 255. 0. 0. 0. 0. 169. 255. 255. 209.
      0. 0. 0. 0. 0. 174. 255. 255. 141. 0. 0. 0. 255. 255. 255. 5. 0.
      0. 0. 0. 0. 0. 255. 255. 255. 255. 255. 255. 255. 255. 7. 0. 0. 0.</_>
    <_>
      0. 0. 0. 0. 0. 0. 0. 12. 215. 13. 161. 0. 0. 0. 0. 0. 0. 0. 0. 0.
      0. 0. 0. 175. 0. 0. 112. 48. 0. 0. 0. 0. 0. 0. 0. 0. 0. 0. 255. 0.
      0. 0. 111. 255. 0. 0. 0. 0. 0. 0. 0. 0. 0. 143. 255. 0. 0. 0. 111.
      255. 0. 0. 0. 0. 0. 0. 0. 0. 0. 255. 158. 0. 0. 0. 111. 255. 0. 0.
      0. 0. 0. 0. 0. 0. 0. 255. 16. 0. 0. 0. 111. 255. 0. 0. 0. 0. 0. 0.
      0. 0. 48. 255. 0. 0. 0. 0. 255. 255. 0. 0. 0. 0. 0. 0. 0. 0. 48.
      255. 0. 0. 0. 0. 255. 184. 0. 0. 0. 0. 0. 0. 0. 0. 255. 255. 0. 0.
      0. 0. 255. 48. 0. 0. 0. 0. 0. 0. 0. 0. 255. 255. 0. 0. 0. 0. 255.
      1. 0. 0. 0. 0. 0. 0. 0. 0. 255. 111. 0. 0. 0. 16. 255. 0. 0. 0. 0.
      0. 0. 0. 0. 0. 255. 111. 0. 0. 0. 255. 255. 0. 0. 0. 0. 0. 0. 0.
      0. 0. 255. 0. 0. 0. 0. 255. 143. 0. 0. 0. 0. 0. 0. 0. 0. 0. 255.
      0. 0. 0. 0. 255. 0. 0. 0. 0. 0. 0. 0. 0. 0. 0. 255. 59. 0. 0. 175.
      112. 0. 0. 0. 0. 0. 0. 0. 0. 0. 0. 7. 232. 0. 67. 107. 0. 0. 0. 0.
      0. 0. 0.</_>
    <_>
      0. 0. 0. 0. 0. 0. 0. 12. 215. 215. 161. 161. 0. 0. 0. 0. 0. 0. 0.
      0. 0. 0. 0. 175. 215. 215. 161. 161. 48. 0. 0. 0. 0. 0. 0. 0. 0.
      0. 255. 255. 175. 0. 112. 255. 255. 0. 0. 0. 0. 0. 0. 0. 0. 143.
      255. 255. 0. 0. 111. 255. 255. 0. 0. 0. 0. 0. 0. 0. 0. 255. 255.
      255. 0. 0. 111. 255. 255. 0. 0. 0. 0. 0. 0. 0. 0. 255. 255. 158.
      0. 0. 111. 255. 255. 0. 0. 0. 0. 0. 0. 0. 48. 255. 255. 16. 0. 0.
      255. 255. 255. 0. 0. 0. 0. 0. 0. 0. 48. 255. 255. 0. 0. 0. 255.
      255. 255. 0. 0. 0. 0. 0. 0. 0. 255. 255. 255. 0. 0. 0. 255. 255.
      184. 0. 0. 0. 0. 0. 0. 0. 255. 255. 255. 0. 0. 0. 255. 255. 48. 0.
      0. 0. 0. 0. 0. 0. 255. 255. 255. 0. 0. 16. 255. 255. 1. 0. 0. 0.
      0. 0. 0. 0. 255. 255. 111. 0. 0. 255. 255. 255. 0. 0. 0. 0. 0. 0.
      0. 0. 255. 255. 111. 0. 0. 255. 255. 255. 0. 0. 0. 0. 0. 0. 0. 0.
      255. 255. 0. 0. 0. 255. 255. 143. 0. 0. 0. 0. 0. 0. 0. 0. 255.
      255. 59. 0. 175. 255. 255. 0. 0. 0. 0. 0. 0. 0. 0. 0. 255. 255.
      232. 67. 175. 175. 112. 0. 0. 0. 0. 0.</_>
    <_>
      0. 0. 0. 0. 0. 0. 0. 252. 0. 252. 0. 0. 0. 0. 0. 0. 0. 0. 0. 0. 0.
      0. 255. 0. 0. 0. 255. 0. 0. 0. 0. 0. 0. 0. 0. 0. 0. 43. 255. 0. 0.
      0. 255. 43. 0. 0. 0. 0. 0. 0. 0. 0. 0. 255. 91. 0. 0. 0. 240. 255.
      0. 0. 0. 0. 0. 0. 0. 0. 0. 255. 91. 0. 0. 0. 91. 255. 0. 0. 0. 0.
      0. 0. 0. 0. 0. 255. 91. 0. 0. 0. 91. 255. 0. 0. 0. 0. 0. 0. 0. 0.
      0. 255. 91. 0. 0. 0. 91. 255. 0. 0. 0. 0. 0. 0. 0. 0. 0. 255. 91.
      0. 0. 0. 91. 255. 0. 0. 0. 0. 0. 0. 0. 0. 0. 255. 91. 0. 0. 0. 91.
      255. 0. 0. 0. 0. 0. 0. 0. 0. 0. 255. 91. 0. 0. 0. 91. 255. 0. 0.
      0. 0. 0. 0. 0. 0. 0. 255. 91. 0. 0. 0. 91. 255. 0. 0. 0. 0. 0. 0.
      0. 0. 0. 255. 91. 0. 0. 0. 91. 255. 0. 0. 0. 0. 0. 0. 0. 0. 0.
      255. 91. 0. 0. 0. 91. 255. 0. 0. 0. 0. 0. 0. 0. 0. 0. 54. 255. 0.
      0. 0. 255. 54. 0. 0. 0. 0. 0. 0. 0. 0. 0. 0. 255. 0. 0. 0. 255. 0.
      0. 0. 0. 0. 0. 0. 0. 0. 0. 0. 26. 200. 0. 200. 26. 0. 0. 0. 0. 0.</_>
    <_>
      0. 0. 0. 0. 0. 0. 0. 252. 252. 252. 252. 0. 0. 0. 0. 0. 0. 0. 0.
      0. 0. 0. 255. 255. 252. 252. 255. 255. 0. 0. 0. 0. 0. 0. 0. 0. 0.
      43. 255. 255. 0. 0. 255. 255. 43. 0. 0. 0. 0. 0. 0. 0. 0. 255.
      255. 255. 0. 0. 255. 255. 255. 0. 0. 0. 0. 0. 0. 0. 0. 255. 255.
      91. 0. 0. 240. 255. 255. 0. 0. 0. 0. 0. 0. 0. 0. 255. 255. 91. 0.
      0. 91. 255. 255. 0. 0. 0. 0. 0. 0. 0. 0. 255. 255. 91. 0. 0. 91.
      255. 255. 0. 0. 0. 0. 0. 0. 0. 0. 255. 255. 91. 0. 0. 91. 255.
      255. 0. 0. 0. 0. 0. 0. 0. 0. 255. 255. 91. 0. 0. 91. 255. 255. 0.
      0. 0. 0. 0. 0. 0. 0. 255. 255. 91. 0. 0. 91. 255. 255. 0. 0. 0. 0.
      0. 0. 0. 0. 255. 255. 91. 0. 0. 91. 255. 255. 0. 0. 0. 0. 0. 0. 0.
      0. 255. 255. 91. 0. 0. 91. 255. 255. 0. 0. 0. 0. 0. 0. 0. 0. 255.
      255. 91. 0. 0. 91. 255. 255. 0. 0. 0. 0. 0. 0. 0. 0. 255. 255.
      255. 0. 0. 255. 255. 255. 0. 0. 0. 0. 0. 0. 0. 0. 54. 255. 255. 0.
      0. 255. 255. 54. 0. 0. 0. 0. 0. 0. 0. 0. 0. 255. 255. 200. 200.
      255. 255. 0. 0. 0. 0.</_>
    <_>
      0. 0. 0. 0. 0. 0. 0. 149. 80. 80. 211. 167. 0. 0. 0. 0. 0. 0. 0.
      0. 0. 4. 255. 36. 0. 0. 0. 240. 166. 0. 0. 0. 0. 0. 0. 0. 0. 147.
      115. 0. 0. 0. 0. 13. 255. 0. 0. 0. 0. 0. 0. 0. 0. 255. 0. 0. 0. 0.
      0. 13. 255. 0. 0. 0. 0. 0. 0. 0. 242. 243. 0. 0. 0. 0. 0. 13. 255.
      0. 0. 0. 0. 0. 0. 0. 249. 191. 0. 0. 0. 0. 0. 13. 255. 0. 0. 0. 0.
      0. 0. 0. 255. 12. 0. 0. 0. 0. 0. 240. 255. 0. 0. 0. 0. 0. 0. 166.
      255. 0. 0. 0. 0. 0. 0. 255. 255. 0. 0. 0. 0. 0. 0. 166. 255. 0. 0.
      0. 0. 0. 0. 255. 193. 0. 0. 0. 0. 0. 0. 171. 255. 0. 0. 0. 0. 0.
      0. 255. 166. 0. 0. 0. 0. 0. 0. 255. 255. 0. 0. 0. 0. 0. 0. 255.
      93. 0. 0. 0. 0. 0. 0. 255. 255. 0. 0. 0. 0. 0. 191. 255. 0. 0. 0.
      0. 0. 0. 0. 238. 255. 0. 0. 0. 0. 0. 255. 197. 0. 0. 0. 0. 0. 0.
      0. 166. 255. 0. 0. 0. 0. 65. 255. 0. 0. 0. 0. 0. 0. 0. 0. 10. 255.
      0. 0. 0. 0. 246. 4. 0. 0. 0. 0. 0. 0. 0. 0. 0. 0. 151. 80. 80.
      175. 0. 0. 0. 0. 0. 0. 0.</_>
    <_>
      0. 0. 0. 0. 0. 0. 50. 241. 255. 255. 255. 255. 149. 0. 0. 0. 0. 0.
      0. 0. 22. 255. 255. 255. 167. 167. 189. 255. 255. 255. 0. 0. 0. 0.
      0. 0. 255. 255. 197. 6. 0. 0. 0. 197. 255. 255. 173. 0. 0. 0. 0.
      221. 255. 255. 0. 0. 0. 0. 0. 0. 255. 255. 191. 0. 0. 0. 64. 255.
      255. 64. 0. 0. 0. 0. 0. 0. 255. 255. 255. 0. 0. 0. 255. 255. 255.
      64. 0. 0. 0. 0. 0. 0. 255. 255. 255. 0. 0. 0. 255. 255. 255. 0. 0.
      0. 0. 0. 0. 191. 255. 255. 191. 0. 0. 137. 255. 255. 209. 0. 0. 0.
      0. 0. 0. 191. 255. 255. 191. 0. 0. 191. 255. 255. 191. 0. 0. 0. 0.
      0. 0. 255. 255. 255. 0. 0. 0. 245. 255. 255. 30. 0. 0. 0. 0. 0. 0.
      255. 255. 255. 0. 0. 0. 255. 255. 255. 0. 0. 0. 0. 0. 0. 64. 255.
      255. 255. 0. 0. 0. 255. 255. 255. 0. 0. 0. 0. 0. 0. 255. 255. 255.
      64. 0. 0. 0. 221. 255. 255. 0. 0. 0. 0. 0. 0. 255. 255. 221. 0. 0.
      0. 0. 173. 255. 255. 197. 0. 0. 0. 6. 255. 255. 255. 0. 0. 0. 0.
      0. 0. 255. 255. 255. 255. 167. 233. 255. 255. 213. 22. 0. 0. 0. 0.
      0. 0. 0. 149. 255. 255. 255. 255. 199. 50. 0. 0. 0. 0. 0. 0.</_>
    <_>
      0. 0. 0. 0. 0. 0. 34. 247. 255. 247. 34. 0. 0. 0. 0. 0. 0. 0. 0.
      0. 0. 56. 255. 143. 0. 143. 255. 56. 0. 0. 0. 0. 0. 0. 0. 0. 0.
      255. 0. 0. 0. 0. 0. 255. 0. 0. 0. 0. 0. 0. 0. 0. 0. 255. 0. 0. 0.
      0. 0. 255. 0. 0. 0. 0. 0. 0. 0. 0. 212. 127. 0. 0. 0. 0. 0. 127.
      212. 0. 0. 0. 0. 0. 0. 0. 213. 127. 0. 0. 0. 0. 0. 127. 213. 0. 0.
      0. 0. 0. 0. 0. 255. 0. 0. 0. 0. 0. 0. 0. 255. 0. 0. 0. 0. 0. 0. 0.
      255. 0. 0. 0. 0. 0. 0. 0. 255. 0. 0. 0. 0. 0. 0. 0. 255. 0. 0. 0.
      0. 0. 0. 0. 255. 0. 0. 0. 0. 0. 0. 0. 255. 0. 0. 0. 0. 0. 0. 0.
      255. 0. 0. 0. 0. 0. 0. 0. 252. 127. 0. 0. 0. 0. 0. 127. 252. 0. 0.
      0. 0. 0. 0. 0. 212. 127. 0. 0. 0. 0. 0. 127. 212. 0. 0. 0. 0. 0.
      0. 0. 0. 255. 0. 0. 0. 0. 0. 255. 0. 0. 0. 0. 0. 0. 0. 0. 0. 255.
      0. 0. 0. 0. 0. 255. 0. 0. 0. 0. 0. 0. 0. 0. 0. 56. 255. 143. 0.
      143. 255. 56. 0. 0. 0. 0. 0. 0. 0. 0. 0. 0. 34. 247. 255. 247. 34.
      0. 0. 0. 0. 0.</_>
    <_>
      0. 0. 0. 0. 0. 0. 0. 183. 72. 72. 72. 117. 0. 0. 0. 0. 0. 0. 0. 0.
      0. 25. 0. 0. 0. 0. 0. 0. 72. 0. 0. 0. 0. 0. 0. 0. 0. 93. 0. 0. 0.
      0. 0. 0. 0. 0. 0. 0. 0. 0. 0. 0. 209. 0. 0. 0. 0. 0. 0. 0. 0. 185.
      0. 0. 0. 0. 0. 0. 111. 0. 0. 0. 0. 0. 0. 0. 0. 131. 0. 0. 0. 0. 0.
      0. 0. 0. 0. 0. 0. 0. 0. 0. 0. 70. 0. 0. 0. 0. 0. 185. 0. 0. 0. 0.
      0. 0. 0. 0. 0. 69. 0. 0. 0. 0. 0. 185. 0. 0. 0. 0. 0. 0. 0. 0. 0.
      69. 0. 0. 0. 0. 0. 69. 0. 0. 0. 0. 0. 0. 0. 0. 0. 95. 0. 0. 0. 0.
      0. 69. 0. 0. 0. 0. 0. 0. 0. 0. 0. 185. 0. 0. 0. 0. 0. 70. 0. 0. 0.
      0. 0. 0. 0. 0. 0. 168. 0. 0. 0. 0. 0. 185. 0. 0. 0. 0. 0. 0. 0. 0.
      0. 0. 0. 0. 0. 0. 0. 185. 0. 0. 0. 0. 0. 0. 0. 0. 209. 0. 0. 0. 0.
      0. 0. 0. 0. 0. 0. 0. 0. 0. 0. 38. 27. 0. 0. 0. 0. 0. 0. 0. 72. 0.
      0. 0. 0. 0. 0. 25. 0. 0. 0. 0. 0. 0. 0. 0. 0. 117. 72. 72. 72.
      183. 0. 0. 0. 0. 0. 0.</_>
    <_>
      0. 0. 0. 0. 0. 0. 0. 183. 183. 72. 72. 117. 117. 0. 0. 0. 0. 0. 0.
      0. 0. 25. 25. 183. 183. 72. 72. 117. 117. 72. 0. 0. 0. 0. 0. 0. 0.
      93. 93. 0. 0. 0. 0. 0. 72. 72. 0. 0. 0. 0. 0. 0. 209. 209. 93. 0.
      0. 0. 0. 0. 0. 185. 185. 0. 0. 0. 0. 0. 209. 209. 0. 0. 0. 0. 0.
      0. 0. 185. 185. 0. 0. 0. 0. 0. 111. 111. 0. 0. 0. 0. 0. 0. 0. 131.
      131. 0. 0. 0. 0. 185. 185. 0. 0. 0. 0. 0. 0. 0. 0. 70. 70. 0. 0.
      0. 0. 185. 185. 0. 0. 0. 0. 0. 0. 0. 0. 69. 69. 0. 0. 0. 0. 185.
      185. 0. 0. 0. 0. 0. 0. 0. 0. 95. 95. 0. 0. 0. 0. 69. 69. 0. 0. 0.
      0. 0. 0. 0. 0. 185. 185. 0. 0. 0. 0. 70. 70. 0. 0. 0. 0. 0. 0. 0.
      0. 185. 185. 0. 0. 0. 0. 185. 185. 0. 0. 0. 0. 0. 0. 0. 0. 168.
      168. 0. 0. 0. 0. 185. 185. 0. 0. 0. 0. 0. 0. 0. 209. 209. 0. 0. 0.
      0. 0. 185. 185. 0. 0. 0. 0. 0. 0. 38. 209. 209. 0. 0. 0. 0. 0. 0.
      72. 72. 0. 0. 0. 0. 0. 38. 38. 27. 0. 0. 0. 0. 0. 0. 72. 117. 117.
      72. 72. 183. 183. 25. 25. 0. 0. 0.</_>
    <_>
      0. 0. 0. 0. 0. 0. 183. 72. 72. 72. 183. 0. 0. 0. 0. 0. 0. 0. 0. 0.
      0. 191. 0. 0. 0. 0. 0. 29. 13. 0. 0. 0. 0. 0. 0. 0. 136. 0. 0. 0.
      0. 0. 0. 0. 174. 0. 0. 0. 0. 0. 0. 0. 0. 0. 0. 0. 0. 0. 0. 0. 0.
      6. 0. 0. 0. 0. 0. 197. 0. 0. 0. 0. 0. 0. 0. 0. 0. 197. 0. 0. 0. 0.
      0. 197. 0. 0. 0. 0. 0. 0. 0. 0. 0. 58. 0. 0. 0. 0. 0. 58. 0. 0. 0.
      0. 0. 0. 0. 0. 0. 58. 0. 0. 0. 0. 0. 58. 0. 0. 0. 0. 0. 0. 0. 0.
      0. 58. 0. 0. 0. 0. 0. 58. 0. 0. 0. 0. 0. 0. 0. 0. 0. 58. 0. 0. 0.
      0. 0. 58. 0. 0. 0. 0. 0. 0. 0. 0. 0. 58. 0. 0. 0. 0. 0. 197. 0. 0.
      0. 0. 0. 0. 0. 0. 0. 58. 0. 0. 0. 0. 0. 197. 0. 0. 0. 0. 0. 0. 0.
      0. 0. 197. 0. 0. 0. 0. 0. 0. 0. 0. 0. 0. 0. 0. 0. 0. 0. 6. 0. 0.
      0. 0. 0. 0. 136. 0. 0. 0. 0. 0. 0. 0. 174. 0. 0. 0. 0. 0. 0. 0.
      13. 29. 0. 0. 0. 0. 0. 29. 13. 0. 0. 0. 0. 0. 0. 0. 0. 0. 183. 72.
      72. 72. 183. 0. 0. 0. 0. 0.</_>
    <_>
      0. 0. 0. 0. 0. 0. 183. 183. 72. 72. 183. 183. 0. 0. 0. 0. 0. 0. 0.
      0. 0. 191. 191. 183. 72. 72. 183. 183. 29. 13. 0. 0. 0. 0. 0. 0.
      136. 191. 191. 0. 0. 0. 0. 29. 174. 174. 0. 0. 0. 0. 0. 0. 136.
      136. 0. 0. 0. 0. 0. 0. 174. 174. 6. 0. 0. 0. 0. 197. 197. 0. 0. 0.
      0. 0. 0. 0. 0. 197. 197. 0. 0. 0. 0. 197. 197. 0. 0. 0. 0. 0. 0.
      0. 0. 197. 197. 0. 0. 0. 0. 197. 197. 0. 0. 0. 0. 0. 0. 0. 0. 58.
      58. 0. 0. 0. 0. 58. 58. 0. 0. 0. 0. 0. 0. 0. 0. 58. 58. 0. 0. 0.
      0. 58. 58. 0. 0. 0. 0. 0. 0. 0. 0. 58. 58. 0. 0. 0. 0. 58. 58. 0.
      0. 0. 0. 0. 0. 0. 0. 58. 58. 0. 0. 0. 0. 197. 197. 0. 0. 0. 0. 0.
      0. 0. 0. 58. 58. 0. 0. 0. 0. 197. 197. 0. 0. 0. 0. 0. 0. 0. 0.
      197. 197. 0. 0. 0. 0. 197. 197. 0. 0. 0. 0. 0. 0. 0. 0. 197. 197.
      0. 0. 0. 0. 0. 136. 136. 0. 0. 0. 0. 0. 0. 174. 174. 6. 0. 0. 0.
      0. 0. 136. 136. 29. 0. 0. 0. 0. 29. 174. 174. 0. 0. 0. 0. 0. 0.
      13. 29. 183. 183. 72. 72. 183. 183. 29. 13. 0. 0.</_>
    <_>
      0. 0. 0. 0. 0. 0. 0. 183. 255. 255. 255. 117. 0. 0. 0. 0. 0. 0. 0.
      0. 0. 25. 251. 98. 0. 0. 0. 229. 255. 0. 0. 0. 0. 0. 0. 0. 27.
      255. 0. 0. 0. 0. 0. 0. 227. 0. 0. 0. 0. 0. 0. 0. 255. 93. 0. 0. 0.
      0. 0. 0. 202. 185. 0. 0. 0. 0. 0. 0. 255. 0. 0. 0. 0. 0. 0. 0. 0.
      255. 0. 0. 0. 0. 0. 168. 209. 0. 0. 0. 0. 0. 0. 0. 0. 255. 0. 0.
      0. 0. 0. 185. 137. 0. 0. 0. 0. 0. 0. 0. 0. 255. 0. 0. 0. 0. 0.
      240. 0. 0. 0. 0. 0. 0. 0. 0. 0. 255. 0. 0. 0. 0. 0. 255. 0. 0. 0.
      0. 0. 0. 0. 0. 0. 255. 0. 0. 0. 0. 0. 255. 0. 0. 0. 0. 0. 0. 0. 0.
      0. 185. 0. 0. 0. 0. 0. 255. 0. 0. 0. 0. 0. 0. 0. 0. 209. 168. 0.
      0. 0. 0. 0. 218. 0. 0. 0. 0. 0. 0. 0. 0. 255. 0. 0. 0. 0. 0. 0.
      185. 202. 0. 0. 0. 0. 0. 0. 90. 255. 0. 0. 0. 0. 0. 0. 0. 227. 0.
      0. 0. 0. 0. 0. 255. 27. 0. 0. 0. 0. 0. 0. 0. 79. 229. 0. 0. 0. 98.
      251. 25. 0. 0. 0. 0. 0. 0. 0. 0. 0. 117. 255. 255. 255. 183. 0. 0.
      0. 0. 0. 0.</_>
    <_>
      0. 0. 0. 0. 0. 0. 0. 183. 255. 255. 255. 255. 117. 0. 0. 0. 0. 0.
      0. 0. 0. 25. 251. 251. 255. 255. 255. 255. 255. 255. 0. 0. 0. 0.
      0. 0. 27. 255. 255. 251. 98. 0. 0. 229. 255. 255. 0. 0. 0. 0. 0.
      0. 255. 255. 255. 0. 0. 0. 0. 0. 227. 227. 185. 0. 0. 0. 0. 0.
      255. 255. 93. 0. 0. 0. 0. 0. 202. 255. 255. 0. 0. 0. 0. 168. 255.
      255. 0. 0. 0. 0. 0. 0. 0. 255. 255. 0. 0. 0. 0. 185. 209. 209. 0.
      0. 0. 0. 0. 0. 0. 255. 255. 0. 0. 0. 0. 240. 240. 137. 0. 0. 0. 0.
      0. 0. 0. 255. 255. 0. 0. 0. 0. 255. 255. 0. 0. 0. 0. 0. 0. 0. 0.
      255. 255. 0. 0. 0. 0. 255. 255. 0. 0. 0. 0. 0. 0. 0. 0. 255. 255.
      0. 0. 0. 0. 255. 255. 0. 0. 0. 0. 0. 0. 0. 209. 209. 185. 0. 0. 0.
      0. 255. 255. 0. 0. 0. 0. 0. 0. 0. 255. 255. 168. 0. 0. 0. 0. 218.
      218. 202. 0. 0. 0. 0. 0. 90. 255. 255. 0. 0. 0. 0. 0. 185. 227.
      227. 0. 0. 0. 0. 0. 255. 255. 255. 0. 0. 0. 0. 0. 0. 227. 229.
      229. 0. 0. 98. 251. 255. 255. 27. 0. 0. 0. 0. 0. 0. 79. 229. 255.
      255. 255. 255. 251. 251. 25. 0. 0. 0.</_>
    <_>
      0. 0. 0. 0. 0. 0. 183. 252. 255. 255. 255. 183. 0. 0. 0. 0. 0. 0.
      0. 0. 13. 255. 255. 252. 255. 255. 255. 255. 255. 13. 0. 0. 0. 0.
      0. 0. 184. 255. 255. 127. 0. 0. 127. 255. 255. 255. 0. 0. 0. 0. 0.
      0. 252. 252. 124. 0. 0. 0. 0. 35. 255. 255. 6. 0. 0. 0. 0. 197.
      252. 252. 0. 0. 0. 0. 0. 0. 174. 197. 197. 0. 0. 0. 0. 197. 197.
      174. 0. 0. 0. 0. 0. 0. 92. 255. 255. 0. 0. 0. 0. 255. 255. 0. 0.
      0. 0. 0. 0. 0. 0. 255. 255. 0. 0. 0. 0. 255. 255. 0. 0. 0. 0. 0.
      0. 0. 0. 255. 255. 0. 0. 0. 0. 255. 255. 0. 0. 0. 0. 0. 0. 0. 0.
      255. 255. 0. 0. 0. 0. 255. 255. 0. 0. 0. 0. 0. 0. 0. 0. 255. 255.
      0. 0. 0. 0. 255. 255. 0. 0. 0. 0. 0. 0. 0. 0. 255. 255. 0. 0. 0.
      0. 197. 197. 174. 0. 0. 0. 0. 0. 0. 92. 255. 255. 0. 0. 0. 0. 197.
      252. 252. 0. 0. 0. 0. 0. 0. 174. 224. 224. 0. 0. 0. 0. 0. 252.
      252. 124. 0. 0. 0. 0. 35. 255. 255. 6. 0. 0. 0. 0. 0. 184. 255.
      255. 127. 0. 0. 127. 255. 255. 255. 0. 0. 0. 0. 0. 0. 13. 255.
      255. 252. 255. 255. 255. 255. 255. 13. 0. 0.</_>
    <_>
      0. 0. 0. 0. 0. 0. 183. 252. 72. 80. 183. 0. 0. 0. 0. 0. 0. 0. 0.
      0. 0. 220. 0. 0. 0. 0. 0. 220. 13. 0. 0. 0. 0. 0. 0. 0. 184. 0. 0.
      0. 0. 0. 0. 0. 207. 0. 0. 0. 0. 0. 0. 0. 168. 0. 0. 0. 0. 0. 0. 0.
      0. 6. 0. 0. 0. 0. 0. 197. 0. 0. 0. 0. 0. 0. 0. 0. 0. 197. 0. 0. 0.
      0. 0. 197. 0. 0. 0. 0. 0. 0. 0. 0. 0. 255. 0. 0. 0. 0. 0. 255. 0.
      0. 0. 0. 0. 0. 0. 0. 0. 187. 0. 0. 0. 0. 0. 255. 0. 0. 0. 0. 0. 0.
      0. 0. 0. 58. 0. 0. 0. 0. 0. 255. 0. 0. 0. 0. 0. 0. 0. 0. 0. 58. 0.
      0. 0. 0. 0. 255. 0. 0. 0. 0. 0. 0. 0. 0. 0. 187. 0. 0. 0. 0. 0.
      197. 0. 0. 0. 0. 0. 0. 0. 0. 0. 255. 0. 0. 0. 0. 0. 197. 0. 0. 0.
      0. 0. 0. 0. 0. 0. 197. 0. 0. 0. 0. 0. 0. 168. 0. 0. 0. 0. 0. 0. 0.
      0. 6. 0. 0. 0. 0. 0. 0. 184. 0. 0. 0. 0. 0. 0. 0. 207. 0. 0. 0. 0.
      0. 0. 0. 0. 220. 0. 0. 0. 0. 0. 220. 13. 0. 0. 0. 0. 0. 0. 0. 0.
      0. 183. 252. 72. 80. 183. 0. 0. 0. 0. 0.</_>
    <_>
      0. 0. 0. 0. 0. 0. 0. 183. 255. 255. 255. 183. 0. 0. 0. 0. 0. 0. 0.
      0. 0. 94. 255. 255. 255. 255. 255. 255. 255. 0. 0. 0. 0. 0. 0. 0.
      114. 255. 255. 255. 104. 104. 255. 255. 255. 191. 0. 0. 0. 0. 0.
      2. 255. 255. 255. 0. 0. 0. 0. 255. 255. 255. 0. 0. 0. 0. 0. 153.
      255. 255. 165. 0. 0. 0. 0. 255. 255. 255. 0. 0. 0. 0. 0. 255. 255.
      255. 6. 0. 0. 0. 0. 255. 255. 255. 0. 0. 0. 0. 66. 255. 255. 255.
      0. 88. 88. 66. 0. 255. 255. 255. 0. 0. 0. 0. 191. 255. 255. 191.
      0. 255. 255. 42. 191. 255. 255. 191. 0. 0. 0. 0. 205. 255. 255.
      191. 42. 255. 255. 0. 191. 255. 255. 191. 0. 0. 0. 0. 255. 255.
      255. 0. 66. 88. 88. 0. 255. 255. 255. 0. 0. 0. 0. 0. 255. 255.
      255. 0. 0. 0. 0. 6. 255. 255. 255. 0. 0. 0. 0. 0. 255. 255. 255.
      0. 0. 0. 0. 165. 255. 255. 153. 0. 0. 0. 0. 0. 255. 255. 255. 0.
      0. 0. 0. 255. 255. 255. 2. 0. 0. 0. 0. 0. 191. 255. 255. 255. 104.
      104. 255. 255. 255. 114. 0. 0. 0. 0. 0. 0. 0. 255. 255. 255. 255.
      255. 255. 255. 94. 0. 0. 0. 0. 0. 0. 0. 0. 0. 183. 255. 255. 255.
      183. 0. 0. 0. 0. 0. 0. 0.</_>
    <_>
      0. 0. 0. 0. 0. 0. 0. 183. 255. 255. 255. 255. 183. 0. 0. 0. 0. 0.
      0. 0. 0. 94. 255. 255. 255. 255. 255. 255. 255. 255. 0. 0. 0. 0.
      0. 0. 114. 255. 255. 255. 255. 255. 255. 255. 255. 255. 191. 0. 0.
      0. 0. 2. 255. 255. 255. 255. 255. 104. 255. 255. 255. 255. 255. 0.
      0. 0. 0. 153. 255. 255. 255. 255. 0. 0. 0. 255. 255. 255. 255. 0.
      0. 0. 0. 255. 255. 255. 255. 165. 0. 0. 0. 255. 255. 255. 255. 0.
      0. 0. 66. 255. 255. 255. 255. 88. 88. 88. 66. 255. 255. 255. 255.
      0. 0. 0. 191. 255. 255. 255. 255. 255. 255. 255. 191. 255. 255.
      255. 255. 0. 0. 0. 205. 255. 255. 255. 191. 255. 255. 255. 191.
      255. 255. 255. 191. 0. 0. 0. 255. 255. 255. 255. 191. 255. 255.
      255. 255. 255. 255. 255. 191. 0. 0. 0. 255. 255. 255. 255. 66. 88.
      88. 88. 255. 255. 255. 255. 0. 0. 0. 0. 255. 255. 255. 255. 0. 0.
      0. 165. 255. 255. 255. 255. 0. 0. 0. 0. 255. 255. 255. 255. 0. 0.
      0. 255. 255. 255. 255. 153. 0. 0. 0. 0. 255. 255. 255. 255. 255.
      104. 255. 255. 255. 255. 255. 2. 0. 0. 0. 0. 191. 255. 255. 255.
      255. 255. 255. 255. 255. 255. 114. 0. 0. 0. 0. 0. 0. 255. 255.
      255. 255. 255. 255. 255. 255. 94. 0. 0. 0. 0.</_>
    <_>
      0. 0. 0. 0. 0. 0. 183. 255. 255. 255. 255. 183. 0. 0. 0. 0. 0. 0.
      0. 0. 13. 255. 255. 255. 255. 255. 255. 255. 255. 13. 0. 0. 0. 0.
      0. 0. 255. 255. 255. 255. 255. 255. 255. 255. 255. 255. 0. 0. 0.
      0. 0. 6. 255. 255. 255. 255. 255. 255. 255. 255. 255. 255. 6. 0.
      0. 0. 0. 197. 255. 255. 255. 252. 0. 0. 252. 255. 255. 255. 197.
      0. 0. 0. 0. 249. 255. 255. 255. 151. 0. 0. 151. 255. 255. 255.
      249. 0. 0. 0. 0. 255. 255. 255. 255. 84. 88. 88. 84. 255. 255.
      255. 255. 0. 0. 0. 0. 255. 255. 255. 255. 243. 255. 255. 243. 255.
      255. 255. 255. 0. 0. 0. 0. 255. 255. 255. 255. 243. 255. 255. 243.
      255. 255. 255. 255. 0. 0. 0. 0. 255. 255. 255. 255. 243. 255. 255.
      243. 255. 255. 255. 255. 0. 0. 0. 0. 255. 255. 255. 255. 84. 88.
      88. 84. 255. 255. 255. 255. 0. 0. 0. 0. 249. 255. 255. 255. 151.
      0. 0. 151. 255. 255. 255. 249. 0. 0. 0. 0. 197. 255. 255. 255.
      252. 0. 0. 252. 255. 255. 255. 197. 0. 0. 0. 0. 6. 255. 255. 255.
      255. 255. 255. 255. 255. 255. 255. 6. 0. 0. 0. 0. 0. 255. 255.
      255. 255. 255. 255. 255. 255. 255. 255. 0. 0. 0. 0. 0. 0. 13. 255.
      255. 255. 255. 255. 255. 255. 255. 13. 0. 0.</_>
    <_>
      0. 0. 0. 0. 0. 0. 69. 183. 255. 255. 255. 183. 23. 0. 0. 0. 0. 0.
      0. 0. 0. 246. 255. 255. 215. 215. 255. 255. 255. 0. 0. 0. 0. 0. 0.
      0. 138. 255. 198. 0. 0. 0. 0. 173. 255. 181. 0. 0. 0. 0. 0. 32.
      255. 255. 0. 0. 0. 0. 0. 0. 255. 255. 0. 0. 0. 0. 0. 255. 255.
      140. 0. 0. 0. 0. 0. 0. 255. 255. 0. 0. 0. 0. 0. 255. 255. 1. 0. 0.
      0. 0. 0. 0. 255. 255. 0. 0. 0. 0. 62. 255. 255. 0. 0. 88. 88. 33.
      0. 0. 255. 255. 0. 0. 0. 0. 181. 255. 117. 0. 0. 255. 255. 95. 0.
      117. 255. 197. 0. 0. 0. 0. 197. 255. 91. 0. 95. 255. 255. 0. 0.
      117. 255. 181. 0. 0. 0. 0. 255. 255. 0. 0. 33. 88. 88. 0. 0. 255.
      255. 0. 0. 0. 0. 0. 255. 255. 0. 0. 0. 0. 0. 0. 1. 255. 255. 0. 0.
      0. 0. 0. 255. 255. 0. 0. 0. 0. 0. 0. 140. 255. 136. 0. 0. 0. 0. 0.
      255. 255. 0. 0. 0. 0. 0. 0. 255. 255. 1. 0. 0. 0. 0. 0. 181. 255.
      173. 0. 0. 0. 22. 198. 255. 82. 0. 0. 0. 0. 0. 0. 0. 255. 255.
      255. 215. 215. 255. 255. 38. 0. 0. 0. 0. 0. 0. 0. 0. 23. 183. 255.
      255. 255. 183. 0. 0. 0. 0. 0. 0. 0.</_>
    <_>
      0. 0. 0. 0. 0. 0. 69. 183. 255. 255. 255. 255. 183. 23. 0. 0. 0.
      0. 0. 0. 0. 246. 255. 255. 255. 255. 255. 255. 255. 255. 0. 0. 0.
      0. 0. 0. 138. 255. 255. 255. 255. 215. 255. 255. 255. 255. 181. 0.
      0. 0. 0. 32. 255. 255. 255. 198. 0. 0. 0. 173. 255. 255. 255. 0.
      0. 0. 0. 255. 255. 255. 255. 0. 0. 0. 0. 0. 255. 255. 255. 0. 0.
      0. 0. 255. 255. 255. 140. 0. 0. 0. 0. 0. 255. 255. 255. 0. 0. 0.
      62. 255. 255. 255. 1. 88. 88. 88. 33. 0. 255. 255. 255. 0. 0. 0.
      181. 255. 255. 255. 0. 255. 255. 255. 95. 117. 255. 255. 255. 0.
      0. 0. 197. 255. 255. 117. 95. 255. 255. 255. 95. 117. 255. 255.
      197. 0. 0. 0. 255. 255. 255. 91. 95. 255. 255. 255. 0. 255. 255.
      255. 181. 0. 0. 0. 255. 255. 255. 0. 33. 88. 88. 88. 1. 255. 255.
      255. 0. 0. 0. 0. 255. 255. 255. 0. 0. 0. 0. 0. 140. 255. 255. 255.
      0. 0. 0. 0. 255. 255. 255. 0. 0. 0. 0. 0. 255. 255. 255. 136. 0.
      0. 0. 0. 255. 255. 255. 173. 0. 0. 22. 198. 255. 255. 255. 1. 0.
      0. 0. 0. 181. 255. 255. 255. 255. 215. 255. 255. 255. 255. 82. 0.
      0. 0. 0. 0. 0. 255. 255. 255. 255. 255. 255. 255. 255. 38. 0. 0.
      0. 0.</_>
    <_>
      0. 0. 0. 0. 0. 0. 190. 255. 255. 255. 183. 0. 0. 0. 0. 0. 0. 0. 0.
      0. 79. 255. 255. 233. 215. 215. 255. 255. 46. 0. 0. 0. 0. 0. 0. 0.
      255. 255. 94. 0. 0. 0. 94. 255. 255. 0. 0. 0. 0. 0. 0. 185. 255.
      250. 0. 0. 0. 0. 0. 250. 255. 6. 0. 0. 0. 0. 0. 185. 255. 93. 0.
      0. 0. 0. 0. 93. 255. 185. 0. 0. 0. 0. 0. 255. 255. 0. 0. 0. 0. 0.
      0. 0. 255. 248. 0. 0. 0. 0. 0. 255. 255. 0. 0. 88. 88. 88. 0. 0.
      255. 255. 0. 0. 0. 0. 0. 255. 255. 0. 0. 255. 255. 255. 0. 0. 255.
      255. 0. 0. 0. 0. 0. 255. 255. 0. 0. 255. 255. 255. 0. 0. 255. 255.
      0. 0. 0. 0. 0. 255. 255. 0. 0. 88. 88. 88. 0. 0. 255. 255. 0. 0.
      0. 0. 0. 248. 255. 0. 0. 0. 0. 0. 0. 9. 255. 248. 0. 0. 0. 0. 0.
      185. 255. 93. 0. 0. 0. 0. 0. 93. 255. 185. 0. 0. 0. 0. 0. 6. 255.
      250. 0. 0. 0. 0. 0. 250. 255. 6. 0. 0. 0. 0. 0. 0. 255. 255. 94.
      0. 0. 0. 94. 255. 255. 0. 0. 0. 0. 0. 0. 0. 7. 255. 255. 233. 215.
      233. 255. 255. 7. 0. 0. 0. 0. 0. 0. 0. 0. 0. 183. 255. 255. 255.
      183. 0. 0. 0. 0. 0.</_>
    <_>
      0. 0. 0. 0. 0. 0. 190. 255. 255. 255. 255. 183. 0. 0. 0. 0. 0. 0.
      0. 0. 79. 255. 255. 255. 255. 255. 255. 255. 255. 46. 0. 0. 0. 0.
      0. 0. 255. 255. 255. 255. 233. 215. 255. 255. 255. 255. 0. 0. 0.
      0. 0. 185. 255. 255. 255. 94. 0. 0. 94. 255. 255. 255. 6. 0. 0. 0.
      0. 185. 255. 255. 250. 0. 0. 0. 0. 250. 255. 255. 185. 0. 0. 0. 0.
      255. 255. 255. 93. 0. 0. 0. 0. 93. 255. 255. 248. 0. 0. 0. 0. 255.
      255. 255. 0. 88. 88. 88. 88. 0. 255. 255. 255. 0. 0. 0. 0. 255.
      255. 255. 0. 255. 255. 255. 255. 0. 255. 255. 255. 0. 0. 0. 0.
      255. 255. 255. 0. 255. 255. 255. 255. 0. 255. 255. 255. 0. 0. 0.
      0. 255. 255. 255. 0. 255. 255. 255. 255. 0. 255. 255. 255. 0. 0.
      0. 0. 255. 255. 255. 0. 88. 88. 88. 88. 9. 255. 255. 255. 0. 0. 0.
      0. 248. 255. 255. 93. 0. 0. 0. 0. 93. 255. 255. 248. 0. 0. 0. 0.
      185. 255. 255. 250. 0. 0. 0. 0. 250. 255. 255. 185. 0. 0. 0. 0. 6.
      255. 255. 255. 94. 0. 0. 94. 255. 255. 255. 6. 0. 0. 0. 0. 0. 255.
      255. 255. 255. 233. 233. 255. 255. 255. 255. 0. 0. 0. 0. 0. 0. 7.
      255. 255. 255. 255. 255. 255. 255. 255. 7. 0. 0.</_>
    <_>
      0. 0. 0. 0. 0. 0. 0. 61. 213. 255. 255. 121. 0. 0. 0. 0. 0. 0. 0.
      0. 0. 0. 210. 175. 22. 0. 0. 255. 120. 0. 0. 0. 0. 0. 0. 0. 0. 0.
      205. 0. 0. 0. 0. 51. 153. 0. 0. 0. 0. 0. 0. 0. 0. 255. 0. 0. 0. 0.
      0. 0. 255. 0. 0. 0. 0. 0. 0. 0. 204. 0. 0. 0. 0. 0. 0. 0. 255. 0.
      0. 0. 0. 0. 0. 0. 231. 0. 0. 0. 0. 0. 0. 0. 255. 0. 0. 0. 0. 0. 0.
      0. 255. 0. 0. 0. 0. 0. 0. 0. 255. 0. 0. 0. 0. 0. 0. 153. 51. 0. 0.
      0. 0. 0. 0. 51. 153. 0. 0. 0. 0. 0. 0. 153. 51. 0. 0. 0. 0. 0. 0.
      51. 153. 0. 0. 0. 0. 0. 0. 181. 0. 0. 0. 0. 0. 0. 0. 255. 0. 0. 0.
      0. 0. 0. 0. 255. 0. 0. 0. 0. 0. 0. 0. 255. 0. 0. 0. 0. 0. 0. 0.
      255. 0. 0. 0. 0. 0. 0. 0. 204. 0. 0. 0. 0. 0. 0. 0. 255. 0. 0. 0.
      0. 0. 0. 255. 0. 0. 0. 0. 0. 0. 0. 0. 153. 51. 0. 0. 0. 0. 205.
      247. 0. 0. 0. 0. 0. 0. 0. 0. 120. 255. 0. 0. 22. 175. 210. 0. 0.
      0. 0. 0. 0. 0. 0. 0. 0. 121. 255. 255. 213. 61. 0. 0. 0. 0. 0. 0.
      0.</_>
    <_>
      0. 0. 0. 0. 0. 0. 151. 255. 255. 239. 114. 0. 0. 0. 0. 0. 0. 0. 0.
      0. 129. 255. 56. 0. 0. 56. 255. 129. 0. 0. 0. 0. 0. 0. 0. 0. 252.
      2. 0. 0. 0. 0. 2. 252. 0. 0. 0. 0. 0. 0. 0. 140. 229. 0. 0. 0. 0.
      0. 0. 89. 140. 0. 0. 0. 0. 0. 0. 180. 89. 0. 0. 0. 0. 0. 0. 89.
      180. 0. 0. 0. 0. 0. 0. 255. 0. 0. 0. 0. 0. 0. 0. 0. 255. 0. 0. 0.
      0. 0. 0. 255. 0. 0. 0. 0. 0. 0. 0. 0. 255. 0. 0. 0. 0. 0. 0. 255.
      0. 0. 0. 0. 0. 0. 0. 0. 255. 0. 0. 0. 0. 0. 0. 255. 0. 0. 0. 0. 0.
      0. 0. 0. 255. 0. 0. 0. 0. 0. 0. 255. 0. 0. 0. 0. 0. 0. 0. 0. 255.
      0. 0. 0. 0. 0. 0. 255. 0. 0. 0. 0. 0. 0. 0. 0. 255. 0. 0. 0. 0. 0.
      0. 180. 89. 0. 0. 0. 0. 0. 0. 59. 180. 0. 0. 0. 0. 0. 0. 140. 229.
      0. 0. 0. 0. 0. 0. 89. 140. 0. 0. 0. 0. 0. 0. 0. 252. 64. 0. 0. 0.
      0. 2. 252. 0. 0. 0. 0. 0. 0. 0. 0. 129. 255. 56. 0. 0. 56. 255.
      129. 0. 0. 0. 0. 0. 0. 0. 0. 0. 114. 239. 255. 255. 151. 0. 0. 0.
      0. 0. 0.</_>
    <_>
      0. 0. 0. 0. 0. 0. 0. 38. 242. 255. 255. 76. 0. 0. 0. 0. 0. 0. 0.
      0. 0. 0. 179. 255. 204. 0. 191. 255. 0. 0. 0. 0. 0. 0. 0. 0. 0. 0.
      255. 255. 13. 0. 0. 255. 153. 0. 0. 0. 0. 0. 0. 0. 0. 255. 255.
      204. 0. 0. 0. 255. 204. 0. 0. 0. 0. 0. 0. 0. 102. 255. 255. 51. 0.
      0. 255. 255. 242. 0. 0. 0. 0. 0. 0. 0. 255. 255. 255. 0. 0. 0.
      255. 255. 255. 0. 0. 0. 0. 0. 0. 0. 255. 255. 255. 0. 0. 0. 255.
      255. 217. 0. 0. 0. 0. 0. 0. 204. 255. 255. 102. 0. 0. 25. 255.
      255. 204. 0. 0. 0. 0. 0. 0. 204. 255. 255. 25. 0. 0. 102. 255.
      255. 204. 0. 0. 0. 0. 0. 0. 255. 255. 255. 0. 0. 0. 255. 255. 255.
      0. 0. 0. 0. 0. 0. 0. 255. 255. 255. 0. 0. 0. 255. 255. 255. 0. 0.
      0. 0. 0. 0. 0. 255. 255. 255. 0. 0. 0. 255. 255. 102. 0. 0. 0. 0.
      0. 0. 0. 255. 255. 0. 0. 0. 204. 255. 255. 0. 0. 0. 0. 0. 0. 0. 0.
      204. 255. 0. 0. 0. 255. 255. 0. 0. 0. 0. 0. 0. 0. 0. 0. 0. 255.
      191. 0. 51. 255. 179. 0. 0. 0. 0. 0. 0. 0. 0. 0. 0. 76. 255. 255.
      242. 38. 0. 0. 0. 0. 0. 0. 0.</_>
    <_>
      0. 0. 0. 0. 0. 0. 191. 255. 255. 191. 0. 0. 0. 0. 0. 0. 0. 0. 0.
      0. 0. 147. 255. 191. 211. 255. 147. 0. 0. 0. 0. 0. 0. 0. 0. 0. 0.
      255. 60. 0. 0. 60. 255. 0. 0. 0. 0. 0. 0. 0. 0. 0. 207. 255. 0. 0.
      0. 0. 255. 207. 0. 0. 0. 0. 0. 0. 0. 0. 207. 255. 0. 0. 0. 0. 255.
      207. 0. 0. 0. 0. 0. 0. 0. 0. 255. 143. 0. 0. 0. 0. 143. 255. 0. 0.
      0. 0. 0. 0. 0. 0. 255. 143. 0. 0. 0. 0. 143. 255. 0. 0. 0. 0. 0.
      0. 0. 0. 255. 143. 0. 0. 0. 0. 143. 255. 0. 0. 0. 0. 0. 0. 0. 0.
      255. 143. 0. 0. 0. 0. 143. 255. 0. 0. 0. 0. 0. 0. 0. 0. 255. 143.
      0. 0. 0. 0. 143. 255. 0. 0. 0. 0. 0. 0. 0. 0. 255. 143. 0. 0. 0.
      0. 143. 255. 0. 0. 0. 0. 0. 0. 0. 0. 207. 255. 0. 0. 0. 0. 255.
      207. 0. 0. 0. 0. 0. 0. 0. 0. 207. 255. 0. 0. 0. 0. 255. 207. 0. 0.
      0. 0. 0. 0. 0. 0. 0. 255. 239. 0. 0. 60. 255. 0. 0. 0. 0. 0. 0. 0.
      0. 0. 0. 147. 255. 211. 191. 255. 147. 0. 0. 0. 0. 0. 0. 0. 0. 0.
      0. 0. 191. 255. 255. 191. 0. 0. 0. 0. 0. 0.</_>
    <_>
      0. 0. 0. 0. 0. 0. 0. 38. 242. 255. 255. 76. 0. 0. 0. 0. 0. 0. 0.
      0. 0. 0. 179. 255. 38. 0. 255. 255. 0. 0. 0. 0. 0. 0. 0. 0. 0.
      191. 255. 255. 0. 0. 255. 255. 204. 0. 0. 0. 0. 0. 0. 0. 25. 255.
      255. 204. 0. 0. 255. 255. 217. 0. 0. 0. 0. 0. 0. 0. 217. 255. 255.
      0. 0. 0. 255. 255. 255. 0. 0. 0. 0. 0. 0. 0. 255. 255. 255. 0. 0.
      0. 255. 255. 255. 0. 0. 0. 0. 0. 0. 153. 255. 255. 255. 0. 0. 76.
      255. 255. 255. 0. 0. 0. 0. 0. 0. 204. 255. 255. 255. 0. 0. 102.
      255. 255. 242. 0. 0. 0. 0. 0. 0. 242. 255. 255. 102. 0. 0. 217.
      255. 255. 204. 0. 0. 0. 0. 0. 0. 255. 255. 255. 76. 0. 0. 255.
      255. 255. 153. 0. 0. 0. 0. 0. 0. 255. 255. 255. 0. 0. 0. 255. 255.
      255. 0. 0. 0. 0. 0. 0. 0. 255. 255. 255. 0. 0. 0. 255. 255. 217.
      0. 0. 0. 0. 0. 0. 0. 255. 255. 255. 0. 0. 204. 255. 255. 25. 0. 0.
      0. 0. 0. 0. 0. 204. 255. 255. 0. 0. 255. 255. 191. 0. 0. 0. 0. 0.
      0. 0. 0. 0. 255. 255. 0. 38. 255. 179. 0. 0. 0. 0. 0. 0. 0. 0. 0.
      0. 76. 255. 255. 242. 38. 0. 0. 0. 0. 0. 0. 0.</_>
    <_>
      0. 0. 0. 0. 0. 0. 191. 64. 217. 191. 0. 0. 0. 0. 0. 0. 0. 0. 0. 0.
      0. 255. 255. 0. 0. 255. 255. 0. 0. 0. 0. 0. 0. 0. 0. 0. 217. 255.
      140. 0. 0. 140. 255. 217. 0. 0. 0. 0. 0. 0. 0. 0. 255. 255. 102.
      0. 0. 102. 255. 255. 0. 0. 0. 0. 0. 0. 0. 204. 255. 255. 102. 0.
      0. 102. 255. 255. 204. 0. 0. 0. 0. 0. 0. 217. 255. 255. 102. 0. 0.
      102. 255. 255. 217. 0. 0. 0. 0. 0. 0. 255. 255. 255. 102. 0. 0.
      102. 255. 255. 255. 0. 0. 0. 0. 0. 0. 255. 255. 255. 102. 0. 0.
      102. 255. 255. 255. 0. 0. 0. 0. 0. 0. 255. 255. 255. 102. 0. 0.
      102. 255. 255. 255. 0. 0. 0. 0. 0. 0. 255. 255. 255. 102. 0. 0.
      102. 255. 255. 255. 0. 0. 0. 0. 0. 0. 217. 255. 255. 102. 0. 0.
      102. 255. 255. 217. 0. 0. 0. 0. 0. 0. 204. 255. 255. 102. 0. 0.
      102. 255. 255. 204. 0. 0. 0. 0. 0. 0. 0. 255. 255. 102. 0. 0. 102.
      255. 255. 0. 0. 0. 0. 0. 0. 0. 0. 217. 255. 102. 0. 0. 140. 255.
      217. 0. 0. 0. 0. 0. 0. 0. 0. 25. 255. 255. 0. 0. 255. 255. 25. 0.
      0. 0. 0. 0. 0. 0. 0. 0. 0. 191. 64. 64. 191. 0. 0. 0. 0. 0. 0.</_>
    <_>
      0. 0. 0. 0. 0. 0. 0. 233. 255. 255. 191. 0. 0. 0. 0. 0. 0. 0. 0.
      0. 0. 85. 135. 0. 0. 0. 135. 175. 0. 0. 0. 0. 0. 0. 0. 0. 0. 236.
      0. 0. 0. 0. 0. 236. 0. 0. 0. 0. 0. 0. 0. 0. 180. 170. 0. 0. 0. 0.
      0. 170. 198. 0. 0. 0. 0. 0. 0. 0. 198. 0. 0. 0. 0. 0. 0. 0. 232.
      0. 0. 0. 0. 0. 0. 0. 255. 0. 0. 0. 0. 0. 0. 0. 255. 0. 0. 0. 0. 0.
      0. 0. 255. 0. 0. 0. 0. 0. 0. 0. 255. 0. 0. 0. 0. 0. 0. 0. 255. 0.
      0. 0. 0. 0. 0. 0. 255. 0. 0. 0. 0. 0. 0. 0. 255. 0. 0. 0. 0. 0. 0.
      0. 255. 0. 0. 0. 0. 0. 0. 0. 255. 0. 0. 0. 0. 0. 0. 0. 255. 0. 0.
      0. 0. 0. 0. 0. 255. 0. 0. 0. 0. 0. 0. 0. 255. 0. 0. 0. 0. 0. 0. 0.
      198. 0. 0. 0. 0. 0. 0. 0. 198. 0. 0. 0. 0. 0. 0. 0. 180. 170. 0.
      0. 0. 0. 0. 170. 180. 0. 0. 0. 0. 0. 0. 0. 0. 255. 0. 0. 0. 0. 0.
      236. 0. 0. 0. 0. 0. 0. 0. 0. 0. 85. 135. 0. 0. 0. 135. 175. 0. 0.
      0. 0. 0. 0. 0. 0. 0. 0. 191. 255. 255. 255. 191. 0. 0. 0. 0. 0.</_>
    <_>
      0. 0. 0. 0. 0. 0. 36. 248. 255. 255. 248. 36. 0. 0. 0. 0. 0. 0. 0.
      0. 0. 68. 255. 255. 255. 255. 255. 255. 127. 0. 0. 0. 0. 0. 0. 0.
      0. 255. 255. 255. 255. 255. 255. 255. 255. 0. 0. 0. 0. 0. 0. 0. 0.
      255. 255. 255. 255. 255. 255. 255. 255. 0. 0. 0. 0. 0. 0. 0. 212.
      255. 255. 255. 42. 42. 255. 255. 255. 212. 0. 0. 0. 0. 0. 0. 213.
      255. 255. 255. 42. 17. 255. 255. 255. 255. 0. 0. 0. 0. 0. 0. 255.
      255. 255. 255. 0. 0. 255. 255. 255. 255. 0. 0. 0. 0. 0. 0. 255.
      255. 255. 255. 0. 0. 255. 255. 255. 255. 0. 0. 0. 0. 0. 0. 255.
      255. 255. 255. 0. 0. 255. 255. 255. 255. 0. 0. 0. 0. 0. 0. 255.
      255. 255. 255. 0. 0. 255. 255. 255. 255. 0. 0. 0. 0. 0. 0. 255.
      255. 255. 255. 0. 0. 255. 255. 255. 255. 0. 0. 0. 0. 0. 0. 213.
      255. 255. 255. 42. 42. 255. 255. 255. 224. 0. 0. 0. 0. 0. 0. 212.
      255. 255. 255. 62. 62. 255. 255. 255. 212. 0. 0. 0. 0. 0. 0. 0.
      255. 255. 255. 255. 255. 255. 255. 255. 0. 0. 0. 0. 0. 0. 0. 0.
      255. 255. 255. 255. 255. 255. 255. 255. 0. 0. 0. 0. 0. 0. 0. 0.
      68. 255. 255. 255. 255. 255. 255. 68. 0. 0. 0.</_>
    <_>
      0. 0. 0. 0. 0. 0. 207. 255. 255. 207. 0. 0. 0. 0. 0. 0. 0. 0. 0.
      0. 0. 201. 255. 143. 143. 255. 201. 0. 0. 0. 0. 0. 0. 0. 0. 0. 0.
      255. 159. 0. 0. 159. 255. 0. 0. 0. 0. 0. 0. 0. 0. 0. 153. 255. 0.
      0. 0. 0. 255. 223. 0. 0. 0. 0. 0. 0. 0. 0. 223. 255. 0. 0. 0. 0.
      255. 223. 0. 0. 0. 0. 0. 0. 0. 0. 255. 255. 0. 0. 0. 0. 255. 255.
      0. 0. 0. 0. 0. 0. 0. 0. 255. 255. 0. 0. 0. 0. 255. 255. 0. 0. 0.
      0. 0. 0. 0. 0. 255. 255. 0. 0. 0. 0. 255. 255. 0. 0. 0. 0. 0. 0.
      0. 0. 255. 255. 0. 0. 0. 0. 255. 255. 0. 0. 0. 0. 0. 0. 0. 0. 255.
      255. 0. 0. 0. 0. 255. 255. 0. 0. 0. 0. 0. 0. 0. 0. 255. 255. 0. 0.
      0. 0. 255. 255. 0. 0. 0. 0. 0. 0. 0. 0. 223. 255. 0. 0. 0. 0. 255.
      223. 0. 0. 0. 0. 0. 0. 0. 0. 153. 255. 50. 0. 0. 0. 255. 153. 0.
      0. 0. 0. 0. 0. 0. 0. 0. 255. 159. 0. 0. 159. 255. 0. 0. 0. 0. 0.
      0. 0. 0. 0. 0. 201. 255. 241. 143. 255. 201. 0. 0. 0. 0. 0. 0. 0.
      0. 0. 0. 0. 207. 255. 255. 207. 0. 0. 0. 0. 0. 0.</_>
    <_>
      0. 0. 0. 0. 0. 0. 0. 0. 0. 0. 123. 255. 255. 223. 0. 0. 0. 0. 0.
      0. 0. 0. 0. 0. 100. 232. 255. 255. 255. 255. 146. 0. 0. 0. 0. 0.
      0. 0. 0. 227. 255. 255. 255. 48. 77. 255. 255. 0. 0. 0. 0. 0. 0.
      34. 255. 255. 255. 84. 0. 0. 0. 255. 255. 0. 0. 0. 0. 0. 0. 255.
      255. 255. 102. 0. 0. 0. 0. 255. 255. 0. 0. 0. 0. 0. 48. 255. 255.
      118. 0. 0. 0. 0. 36. 255. 146. 0. 0. 0. 0. 0. 255. 255. 125. 0. 0.
      0. 0. 0. 105. 255. 100. 0. 0. 0. 0. 218. 255. 239. 0. 0. 0. 0. 0.
      0. 255. 223. 0. 0. 0. 0. 0. 255. 255. 0. 0. 0. 0. 0. 0. 143. 255.
      80. 0. 0. 0. 0. 232. 255. 80. 0. 0. 0. 0. 0. 0. 255. 230. 0. 0. 0.
      0. 118. 255. 255. 0. 0. 0. 0. 0. 0. 248. 255. 0. 0. 0. 0. 0. 146.
      255. 50. 0. 0. 0. 0. 0. 182. 255. 16. 0. 0. 0. 0. 0. 255. 255. 36.
      0. 0. 0. 7. 255. 255. 241. 0. 0. 0. 0. 0. 0. 234. 255. 77. 0. 7.
      107. 255. 255. 207. 0. 0. 0. 0. 0. 0. 0. 146. 255. 255. 255. 255.
      255. 255. 75. 0. 0. 0. 0. 0. 0. 0. 0. 0. 143. 255. 255. 239. 143.
      0. 0. 0. 0. 0. 0. 0. 0. 0.</_>
    <_>
      0. 0. 0. 0. 0. 0. 0. 0. 0. 0. 123. 255. 255. 255. 223. 0. 0. 0. 0.
      0. 0. 0. 0. 0. 100. 232. 255. 255. 255. 255. 255. 146. 0. 0. 0. 0.
      0. 0. 0. 227. 255. 255. 255. 255. 255. 255. 255. 255. 0. 0. 0. 0.
      0. 34. 255. 255. 255. 255. 255. 255. 77. 255. 255. 255. 0. 0. 0.
      0. 0. 255. 255. 255. 255. 255. 84. 0. 0. 255. 255. 255. 0. 0. 0.
      0. 48. 255. 255. 255. 255. 102. 0. 0. 36. 255. 255. 255. 0. 0. 0.
      0. 255. 255. 255. 255. 118. 0. 0. 0. 105. 255. 255. 146. 0. 0. 0.
      218. 255. 255. 255. 125. 0. 0. 0. 0. 255. 255. 255. 100. 0. 0. 0.
      255. 255. 255. 239. 0. 0. 0. 0. 143. 255. 255. 223. 0. 0. 0. 232.
      255. 255. 255. 0. 0. 0. 0. 0. 255. 255. 255. 80. 0. 0. 118. 255.
      255. 255. 80. 0. 0. 0. 0. 248. 255. 255. 230. 0. 0. 0. 146. 255.
      255. 255. 0. 0. 0. 0. 182. 255. 255. 255. 0. 0. 0. 0. 255. 255.
      255. 50. 0. 0. 7. 255. 255. 255. 255. 16. 0. 0. 0. 0. 255. 255.
      255. 77. 7. 107. 255. 255. 255. 255. 241. 0. 0. 0. 0. 0. 234. 255.
      255. 255. 255. 255. 255. 255. 255. 207. 0. 0. 0. 0. 0. 0. 146.
      255. 255. 255. 255. 255. 255. 255. 75. 0. 0. 0. 0. 0. 0.</_>
    <_>
      0. 0. 0. 0. 0. 0. 0. 0. 0. 0. 0. 143. 255. 225. 0. 0. 0. 0. 0. 0.
      0. 0. 0. 0. 0. 115. 240. 255. 255. 255. 221. 0. 0. 0. 0. 0. 0. 0.
      0. 0. 207. 255. 88. 2. 0. 103. 255. 0. 0. 0. 0. 0. 0. 0. 0. 245.
      255. 99. 0. 0. 0. 69. 255. 0. 0. 0. 0. 0. 0. 0. 62. 255. 120. 0.
      0. 0. 0. 80. 255. 0. 0. 0. 0. 0. 0. 2. 255. 135. 0. 0. 0. 0. 0.
      255. 147. 0. 0. 0. 0. 0. 0. 255. 240. 0. 0. 0. 0. 0. 29. 255. 101.
      0. 0. 0. 0. 0. 99. 255. 0. 0. 0. 0. 0. 0. 128. 225. 0. 0. 0. 0. 0.
      0. 242. 245. 0. 0. 0. 0. 0. 0. 255. 82. 0. 0. 0. 0. 0. 186. 255.
      0. 0. 0. 0. 0. 0. 245. 235. 0. 0. 0. 0. 0. 0. 255. 72. 0. 0. 0. 0.
      0. 167. 255. 0. 0. 0. 0. 0. 0. 147. 255. 29. 0. 0. 0. 0. 0. 252.
      25. 0. 0. 0. 0. 0. 0. 255. 255. 0. 0. 0. 0. 8. 172. 242. 0. 0. 0.
      0. 0. 0. 0. 235. 255. 6. 0. 0. 17. 255. 224. 0. 0. 0. 0. 0. 0. 0.
      0. 147. 255. 255. 80. 113. 255. 175. 0. 0. 0. 0. 0. 0. 0. 0. 0. 0.
      143. 255. 255. 143. 94. 0. 0. 0. 0. 0. 0. 0. 0.</_>
    <_>
      0. 0. 0. 0. 0. 0. 0. 0. 0. 0. 0. 143. 255. 255. 225. 0. 0. 0. 0.
      0. 0. 0. 0. 0. 0. 115. 240. 255. 255. 255. 255. 221. 0. 0. 0. 0.
      0. 0. 0. 0. 207. 255. 255. 255. 255. 255. 255. 255. 0. 0. 0. 0. 0.
      0. 0. 245. 255. 255. 255. 88. 2. 103. 255. 255. 0. 0. 0. 0. 0. 0.
      62. 255. 255. 255. 99. 0. 0. 80. 255. 255. 0. 0. 0. 0. 0. 2. 255.
      255. 255. 120. 0. 0. 0. 255. 255. 255. 0. 0. 0. 0. 0. 255. 255.
      255. 135. 0. 0. 0. 29. 255. 255. 147. 0. 0. 0. 0. 99. 255. 255.
      240. 0. 0. 0. 0. 128. 255. 255. 101. 0. 0. 0. 0. 242. 255. 255. 0.
      0. 0. 0. 0. 255. 255. 225. 0. 0. 0. 0. 186. 255. 255. 245. 0. 0.
      0. 0. 245. 255. 255. 82. 0. 0. 0. 0. 255. 255. 255. 0. 0. 0. 0.
      167. 255. 255. 235. 0. 0. 0. 0. 147. 255. 255. 72. 0. 0. 0. 0.
      252. 255. 255. 0. 0. 0. 0. 0. 255. 255. 255. 29. 0. 0. 8. 172.
      252. 252. 25. 0. 0. 0. 0. 0. 255. 255. 255. 6. 0. 17. 255. 255.
      242. 242. 0. 0. 0. 0. 0. 0. 235. 255. 255. 255. 113. 255. 255.
      255. 224. 0. 0. 0. 0. 0. 0. 0. 147. 255. 255. 255. 255. 255. 255.
      175. 0. 0. 0. 0. 0. 0.</_>
    <_>
      0. 0. 0. 0. 0. 0. 0. 0. 0. 143. 255. 224. 91. 0. 0. 0. 0. 0. 0. 0.
      0. 0. 0. 0. 175. 255. 255. 255. 226. 0. 0. 0. 0. 0. 0. 0. 0. 0. 0.
      250. 255. 43. 0. 13. 255. 139. 0. 0. 0. 0. 0. 0. 0. 0. 209. 255.
      16. 0. 0. 0. 93. 255. 0. 0. 0. 0. 0. 0. 0. 0. 255. 240. 0. 0. 0.
      0. 93. 255. 0. 0. 0. 0. 0. 0. 0. 185. 255. 19. 0. 0. 0. 0. 93.
      255. 0. 0. 0. 0. 0. 0. 0. 255. 190. 0. 0. 0. 0. 0. 143. 255. 0. 0.
      0. 0. 0. 0. 162. 255. 26. 0. 0. 0. 0. 0. 255. 139. 0. 0. 0. 0. 0.
      0. 214. 255. 0. 0. 0. 0. 0. 39. 255. 139. 0. 0. 0. 0. 0. 96. 255.
      70. 0. 0. 0. 0. 0. 70. 255. 0. 0. 0. 0. 0. 0. 139. 255. 13. 0. 0.
      0. 0. 0. 255. 162. 0. 0. 0. 0. 0. 0. 255. 255. 0. 0. 0. 0. 0. 46.
      255. 10. 0. 0. 0. 0. 0. 0. 255. 255. 0. 0. 0. 0. 1. 255. 174. 0.
      0. 0. 0. 0. 0. 0. 139. 255. 70. 0. 0. 0. 255. 246. 0. 0. 0. 0. 0.
      0. 0. 0. 0. 226. 255. 80. 80. 255. 248. 0. 0. 0. 0. 0. 0. 0. 0. 0.
      0. 91. 224. 255. 255. 143. 0. 0. 0. 0. 0. 0. 0.</_>
    <_>
      0. 0. 0. 0. 0. 0. 0. 0. 0. 143. 255. 255. 224. 91. 0. 0. 0. 0. 0.
      0. 0. 0. 0. 0. 175. 255. 255. 255. 255. 226. 0. 0. 0. 0. 0. 0. 0.
      0. 0. 250. 255. 255. 255. 255. 255. 255. 139. 0. 0. 0. 0. 0. 0. 0.
      209. 255. 255. 255. 43. 13. 255. 255. 255. 0. 0. 0. 0. 0. 0. 0.
      255. 255. 255. 16. 0. 0. 93. 255. 255. 0. 0. 0. 0. 0. 0. 185. 255.
      255. 240. 0. 0. 0. 93. 255. 255. 0. 0. 0. 0. 0. 0. 255. 255. 255.
      19. 0. 0. 0. 143. 255. 255. 0. 0. 0. 0. 0. 162. 255. 255. 190. 0.
      0. 0. 0. 255. 255. 255. 0. 0. 0. 0. 0. 214. 255. 255. 26. 0. 0. 0.
      39. 255. 255. 139. 0. 0. 0. 0. 96. 255. 255. 255. 0. 0. 0. 0. 70.
      255. 255. 139. 0. 0. 0. 0. 139. 255. 255. 70. 0. 0. 0. 0. 255.
      255. 255. 0. 0. 0. 0. 0. 255. 255. 255. 13. 0. 0. 0. 46. 255. 255.
      162. 0. 0. 0. 0. 0. 255. 255. 255. 0. 0. 0. 1. 255. 255. 255. 10.
      0. 0. 0. 0. 0. 255. 255. 255. 70. 0. 0. 255. 255. 255. 174. 0. 0.
      0. 0. 0. 0. 139. 255. 255. 255. 80. 255. 255. 255. 246. 0. 0. 0.
      0. 0. 0. 0. 0. 226. 255. 255. 255. 255. 255. 248. 0. 0. 0. 0. 0.</_>
    <_>
      0. 0. 0. 0. 0. 255. 255. 112. 112. 255. 255. 0. 0. 0. 0. 0. 0. 0.
      0. 0. 204. 255. 0. 0. 0. 0. 255. 239. 0. 0. 0. 0. 0. 0. 0. 0. 255.
      255. 0. 0. 0. 0. 48. 255. 124. 0. 0. 0. 0. 0. 0. 153. 255. 0. 0.
      0. 0. 0. 0. 255. 153. 0. 0. 0. 0. 0. 0. 159. 255. 0. 0. 0. 0. 0.
      0. 255. 159. 0. 0. 0. 0. 0. 0. 255. 255. 0. 0. 0. 0. 0. 0. 255.
      255. 0. 0. 0. 0. 0. 0. 255. 255. 0. 0. 0. 0. 0. 0. 255. 255. 0. 0.
      0. 0. 0. 0. 255. 255. 0. 0. 0. 0. 0. 0. 255. 255. 0. 0. 0. 0. 0.
      0. 255. 255. 0. 0. 0. 0. 0. 0. 255. 255. 0. 0. 0. 0. 0. 0. 255.
      255. 0. 0. 0. 0. 0. 0. 255. 255. 0. 0. 0. 0. 0. 0. 172. 255. 0. 0.
      0. 0. 0. 0. 255. 255. 0. 0. 0. 0. 0. 0. 153. 255. 0. 0. 0. 0. 0.
      0. 255. 153. 0. 0. 0. 0. 0. 0. 0. 255. 16. 0. 0. 0. 0. 0. 255.
      143. 0. 0. 0. 0. 0. 0. 0. 245. 255. 0. 0. 0. 0. 255. 245. 0. 0. 0.
      0. 0. 0. 0. 0. 0. 255. 80. 0. 0. 80. 255. 0. 0. 0. 0. 0. 0. 0. 0.
      0. 0. 0. 166. 255. 255. 166. 0. 0. 0. 0. 0. 0.</_>
    <_>
      0. 0. 0. 0. 0. 0. 0. 0. 199. 255. 255. 204. 0. 0. 0. 0. 0. 0. 0.
      0. 0. 0. 64. 223. 0. 0. 0. 152. 255. 0. 0. 0. 0. 0. 0. 0. 0. 21.
      255. 0. 0. 0. 0. 0. 255. 189. 0. 0. 0. 0. 0. 0. 0. 255. 37. 0. 0.
      0. 0. 0. 139. 230. 0. 0. 0. 0. 0. 0. 116. 225. 0. 0. 0. 0. 0. 0.
      0. 255. 0. 0. 0. 0. 0. 0. 255. 0. 0. 0. 0. 0. 0. 0. 0. 255. 0. 0.
      0. 0. 0. 0. 237. 0. 0. 0. 0. 0. 0. 0. 0. 255. 0. 0. 0. 0. 0. 208.
      139. 0. 0. 0. 0. 0. 0. 0. 0. 221. 0. 0. 0. 0. 0. 221. 0. 0. 0. 0.
      0. 0. 0. 0. 139. 208. 0. 0. 0. 0. 0. 255. 0. 0. 0. 0. 0. 0. 0. 0.
      237. 0. 0. 0. 0. 0. 0. 255. 0. 0. 0. 0. 0. 0. 0. 0. 255. 0. 0. 0.
      0. 0. 0. 255. 0. 0. 0. 0. 0. 0. 0. 225. 116. 0. 0. 0. 0. 0. 0.
      230. 139. 0. 0. 0. 0. 0. 37. 255. 0. 0. 0. 0. 0. 0. 0. 189. 255.
      0. 0. 0. 0. 0. 255. 21. 0. 0. 0. 0. 0. 0. 0. 0. 255. 152. 0. 0. 0.
      223. 64. 0. 0. 0. 0. 0. 0. 0. 0. 0. 0. 204. 255. 255. 199. 0. 0.
      0. 0. 0. 0. 0.</_>
    <_>
      0. 0. 0. 0. 0. 0. 0. 0. 151. 255. 255. 227. 96. 0. 0. 0. 0. 0. 0.
      0. 0. 0. 163. 255. 56. 0. 0. 56. 255. 109. 0. 0. 0. 0. 0. 0. 0.
      180. 255. 1. 0. 0. 0. 0. 93. 139. 0. 0. 0. 0. 0. 0. 0. 255. 39. 0.
      0. 0. 0. 0. 0. 255. 0. 0. 0. 0. 0. 0. 162. 69. 0. 0. 0. 0. 0. 0.
      0. 255. 0. 0. 0. 0. 0. 0. 255. 0. 0. 0. 0. 0. 0. 0. 0. 255. 0. 0.
      0. 0. 0. 100. 255. 0. 0. 0. 0. 0. 0. 0. 93. 139. 0. 0. 0. 0. 0.
      139. 93. 0. 0. 0. 0. 0. 0. 0. 93. 139. 0. 0. 0. 0. 0. 150. 93. 0.
      0. 0. 0. 0. 0. 0. 255. 0. 0. 0. 0. 0. 0. 255. 0. 0. 0. 0. 0. 0. 0.
      20. 255. 0. 0. 0. 0. 0. 0. 255. 0. 0. 0. 0. 0. 0. 0. 69. 162. 0.
      0. 0. 0. 0. 0. 255. 0. 0. 0. 0. 0. 0. 0. 255. 56. 0. 0. 0. 0. 0.
      0. 255. 0. 0. 0. 0. 0. 0. 46. 196. 0. 0. 0. 0. 0. 0. 0. 139. 93.
      0. 0. 0. 0. 23. 254. 0. 0. 0. 0. 0. 0. 0. 0. 109. 255. 15. 0. 0.
      56. 250. 0. 0. 0. 0. 0. 0. 0. 0. 0. 0. 96. 227. 255. 255. 151. 0.
      0. 0. 0. 0. 0. 0.</_>
    <_>
      0. 0. 0. 0. 0. 0. 0. 0. 151. 255. 255. 227. 96. 0. 0. 0. 0. 0. 0.
      0. 0. 0. 163. 255. 56. 0. 0. 56. 255. 109. 0. 0. 0. 0. 0. 0. 0.
      180. 255. 1. 0. 0. 0. 0. 93. 139. 0. 0. 0. 0. 0. 0. 0. 255. 0. 0.
      0. 0. 0. 0. 0. 255. 0. 0. 0. 0. 0. 0. 162. 69. 0. 0. 0. 0. 0. 0.
      0. 255. 0. 0. 0. 0. 0. 0. 255. 0. 0. 0. 0. 0. 0. 0. 0. 255. 0. 0.
      0. 0. 0. 100. 138. 0. 0. 0. 0. 0. 0. 0. 93. 171. 0. 0. 0. 0. 0.
      139. 93. 0. 0. 0. 0. 0. 0. 0. 93. 139. 0. 0. 0. 0. 0. 150. 84. 0.
      0. 0. 0. 0. 0. 0. 255. 126. 0. 0. 0. 0. 0. 255. 0. 0. 0. 0. 0. 0.
      0. 0. 255. 0. 0. 0. 0. 0. 0. 255. 0. 0. 0. 0. 0. 0. 0. 69. 211. 0.
      0. 0. 0. 0. 0. 255. 0. 0. 0. 0. 0. 0. 0. 255. 56. 0. 0. 0. 0. 0.
      0. 255. 0. 0. 0. 0. 0. 0. 39. 196. 0. 0. 0. 0. 0. 0. 0. 139. 93.
      0. 0. 0. 0. 1. 254. 0. 0. 0. 0. 0. 0. 0. 0. 109. 255. 15. 0. 0.
      56. 250. 0. 0. 0. 0. 0. 0. 0. 0. 0. 0. 96. 227. 255. 255. 151. 0.
      0. 0. 0. 0. 0. 0.</_>
    <_>
      0. 0. 0. 0. 0. 0. 0. 0. 151. 255. 255. 255. 227. 96. 0. 0. 0. 0.
      0. 0. 0. 0. 163. 255. 255. 255. 255. 255. 255. 255. 109. 0. 0. 0.
      0. 0. 0. 180. 255. 255. 255. 56. 0. 56. 255. 255. 139. 0. 0. 0. 0.
      0. 0. 255. 255. 255. 1. 0. 0. 0. 93. 255. 255. 0. 0. 0. 0. 0. 162.
      255. 255. 0. 0. 0. 0. 0. 0. 255. 255. 0. 0. 0. 0. 0. 255. 255. 69.
      0. 0. 0. 0. 0. 0. 255. 255. 0. 0. 0. 0. 100. 255. 255. 0. 0. 0. 0.
      0. 0. 93. 255. 255. 0. 0. 0. 0. 139. 139. 138. 0. 0. 0. 0. 0. 0.
      93. 171. 171. 0. 0. 0. 0. 150. 150. 93. 0. 0. 0. 0. 0. 0. 255.
      255. 139. 0. 0. 0. 0. 255. 255. 84. 0. 0. 0. 0. 0. 0. 255. 255.
      126. 0. 0. 0. 0. 255. 255. 0. 0. 0. 0. 0. 0. 69. 255. 255. 0. 0.
      0. 0. 0. 255. 255. 0. 0. 0. 0. 0. 0. 255. 255. 211. 0. 0. 0. 0. 0.
      255. 255. 0. 0. 0. 0. 0. 39. 255. 255. 56. 0. 0. 0. 0. 0. 255.
      255. 93. 0. 0. 0. 1. 254. 254. 196. 0. 0. 0. 0. 0. 0. 139. 255.
      255. 15. 0. 56. 250. 254. 254. 0. 0. 0. 0. 0. 0. 0. 109. 255. 255.
      255. 255. 255. 250. 250. 0. 0. 0. 0. 0.</_>
    <_>
      0. 0. 0. 0. 0. 114. 239. 255. 255. 239. 114. 0. 0. 0. 0. 0. 0. 0.
      0. 0. 129. 255. 56. 0. 0. 56. 255. 129. 0. 0. 0. 0. 0. 0. 0. 0.
      252. 2. 0. 0. 0. 0. 2. 252. 0. 0. 0. 0. 0. 0. 0. 140. 89. 0. 0. 0.
      0. 0. 0. 89. 140. 0. 0. 0. 0. 0. 0. 180. 59. 0. 0. 0. 0. 0. 0. 59.
      180. 0. 0. 0. 0. 0. 0. 255. 0. 0. 0. 0. 0. 0. 0. 0. 255. 0. 0. 0.
      0. 0. 0. 255. 0. 0. 0. 0. 0. 0. 0. 0. 255. 0. 0. 0. 0. 0. 0. 255.
      0. 0. 0. 0. 0. 0. 0. 0. 255. 0. 0. 0. 0. 0. 0. 255. 0. 0. 0. 0. 0.
      0. 0. 0. 255. 0. 0. 0. 0. 0. 0. 255. 0. 0. 0. 0. 0. 0. 0. 0. 255.
      0. 0. 0. 0. 0. 0. 255. 0. 0. 0. 0. 0. 0. 0. 0. 255. 0. 0. 0. 0. 0.
      0. 180. 59. 0. 0. 0. 0. 0. 0. 59. 180. 0. 0. 0. 0. 0. 0. 140. 89.
      0. 0. 0. 0. 0. 0. 89. 140. 0. 0. 0. 0. 0. 0. 0. 252. 2. 0. 0. 0.
      0. 2. 252. 0. 0. 0. 0. 0. 0. 0. 0. 129. 255. 56. 0. 0. 56. 255.
      129. 0. 0. 0. 0. 0. 0. 0. 0. 0. 114. 239. 255. 255. 239. 114. 0.
      0. 0. 0. 0.</_>
    <_>
      0. 0. 0. 0. 0. 0. 0. 135. 255. 255. 255. 151. 0. 0. 0. 0. 0. 0. 0.
      0. 0. 0. 123. 65. 0. 0. 24. 255. 0. 0. 0. 0. 0. 0. 0. 0. 0. 88.
      100. 0. 0. 0. 0. 13. 177. 0. 0. 0. 0. 0. 0. 0. 0. 231. 0. 0. 0. 0.
      0. 0. 255. 0. 0. 0. 0. 0. 0. 0. 242. 0. 0. 0. 0. 0. 0. 0. 255. 0.
      0. 0. 0. 0. 0. 0. 253. 0. 0. 0. 0. 0. 0. 0. 255. 0. 0. 0. 0. 0. 0.
      21. 225. 0. 0. 0. 0. 0. 0. 13. 244. 0. 0. 0. 0. 0. 0. 166. 13. 0.
      0. 0. 0. 0. 0. 13. 166. 0. 0. 0. 0. 0. 0. 166. 13. 0. 0. 0. 0. 0.
      0. 255. 166. 0. 0. 0. 0. 0. 0. 255. 0. 0. 0. 0. 0. 0. 0. 255. 0.
      0. 0. 0. 0. 0. 0. 255. 0. 0. 0. 0. 0. 0. 0. 253. 0. 0. 0. 0. 0. 0.
      0. 255. 0. 0. 0. 0. 0. 0. 72. 151. 0. 0. 0. 0. 0. 0. 0. 255. 0. 0.
      0. 0. 0. 0. 231. 0. 0. 0. 0. 0. 0. 0. 0. 177. 13. 0. 0. 0. 0. 115.
      88. 0. 0. 0. 0. 0. 0. 0. 0. 145. 255. 24. 0. 0. 255. 123. 0. 0. 0.
      0. 0. 0. 0. 0. 0. 0. 151. 255. 255. 255. 135. 0. 0. 0. 0. 0. 0. 0.</_>
    <_>
      0. 0. 0. 0. 0. 0. 159. 255. 255. 223. 53. 0. 0. 0. 0. 0. 0. 0. 0.
      0. 0. 223. 180. 11. 0. 11. 180. 223. 0. 0. 0. 0. 0. 0. 0. 0. 0.
      255. 0. 0. 0. 0. 0. 255. 0. 0. 0. 0. 0. 0. 0. 0. 170. 0. 0. 0. 0.
      0. 0. 0. 170. 0. 0. 0. 0. 0. 0. 0. 223. 0. 0. 0. 0. 0. 0. 0. 223.
      0. 0. 0. 0. 0. 0. 0. 255. 0. 0. 0. 0. 0. 0. 0. 255. 0. 0. 0. 0. 0.
      0. 0. 255. 0. 0. 0. 0. 0. 0. 0. 255. 0. 0. 0. 0. 0. 0. 0. 255. 0.
      0. 0. 0. 0. 0. 0. 255. 0. 0. 0. 0. 0. 0. 0. 255. 0. 0. 0. 0. 0. 0.
      0. 255. 0. 0. 0. 0. 0. 0. 0. 255. 0. 0. 0. 0. 0. 0. 0. 255. 0. 0.
      0. 0. 0. 0. 0. 255. 0. 0. 0. 0. 0. 0. 0. 255. 0. 0. 0. 0. 0. 0. 0.
      223. 0. 0. 0. 0. 0. 0. 0. 223. 0. 0. 0. 0. 0. 0. 0. 170. 0. 0. 0.
      0. 0. 0. 0. 170. 0. 0. 0. 0. 0. 0. 0. 0. 255. 0. 0. 0. 0. 0. 255.
      0. 0. 0. 0. 0. 0. 0. 0. 0. 223. 180. 11. 0. 11. 180. 223. 0. 0. 0.
      0. 0. 0. 0. 0. 0. 0. 159. 255. 255. 255. 159. 0. 0. 0. 0. 0.</_>
    <_>
      0. 0. 0. 0. 0. 0. 0. 135. 255. 255. 255. 151. 0. 0. 0. 0. 0. 0. 0.
      0. 0. 0. 223. 65. 0. 0. 24. 255. 145. 0. 0. 0. 0. 0. 0. 0. 0. 88.
      100. 0. 0. 0. 0. 13. 177. 0. 0. 0. 0. 0. 0. 0. 0. 231. 0. 0. 0. 0.
      0. 0. 255. 0. 0. 0. 0. 0. 0. 0. 242. 72. 0. 0. 0. 0. 0. 0. 255. 0.
      0. 0. 0. 0. 0. 0. 253. 0. 0. 0. 0. 0. 0. 0. 255. 0. 0. 0. 0. 0. 0.
      21. 255. 0. 0. 0. 0. 0. 0. 13. 166. 0. 0. 0. 0. 0. 0. 166. 13. 0.
      0. 0. 0. 0. 0. 13. 166. 0. 0. 0. 0. 0. 0. 166. 13. 0. 0. 0. 0. 0.
      0. 255. 62. 0. 0. 0. 0. 0. 0. 255. 2. 0. 0. 0. 0. 0. 0. 255. 0. 0.
      0. 0. 0. 0. 0. 255. 0. 0. 0. 0. 0. 0. 0. 242. 0. 0. 0. 0. 0. 0. 0.
      255. 0. 0. 0. 0. 0. 0. 191. 151. 0. 0. 0. 0. 0. 0. 0. 255. 0. 0.
      0. 0. 0. 0. 255. 0. 0. 0. 0. 0. 0. 0. 0. 177. 11. 0. 0. 0. 0. 237.
      88. 0. 0. 0. 0. 0. 0. 0. 0. 145. 255. 0. 0. 0. 65. 123. 0. 0. 0.
      0. 0. 0. 0. 0. 0. 0. 151. 255. 255. 255. 135. 0. 0. 0. 0. 0. 0. 0.</_>
    <_>
      0. 0. 0. 0. 0. 0. 0. 0. 227. 255. 255. 100. 0. 0. 0. 0. 0. 0. 0.
      0. 0. 0. 115. 255. 0. 0. 0. 255. 0. 0. 0. 0. 0. 0. 0. 0. 0. 0.
      255. 42. 0. 0. 0. 255. 212. 0. 0. 0. 0. 0. 0. 0. 0. 187. 235. 0.
      0. 0. 0. 127. 255. 0. 0. 0. 0. 0. 0. 0. 0. 255. 206. 0. 0. 0. 0.
      127. 255. 0. 0. 0. 0. 0. 0. 0. 0. 255. 0. 0. 0. 0. 0. 127. 255. 0.
      0. 0. 0. 0. 0. 0. 212. 255. 0. 0. 0. 0. 0. 127. 255. 0. 0. 0. 0.
      0. 0. 0. 213. 255. 0. 0. 0. 0. 0. 219. 255. 0. 0. 0. 0. 0. 0. 0.
      255. 255. 0. 0. 0. 0. 0. 255. 213. 0. 0. 0. 0. 0. 0. 0. 255. 127.
      0. 0. 0. 0. 0. 255. 212. 0. 0. 0. 0. 0. 0. 0. 255. 127. 0. 0. 0.
      0. 0. 255. 0. 0. 0. 0. 0. 0. 0. 0. 255. 127. 0. 0. 0. 0. 206. 255.
      0. 0. 0. 0. 0. 0. 0. 0. 232. 127. 0. 0. 0. 0. 235. 187. 0. 0. 0.
      0. 0. 0. 0. 0. 212. 255. 0. 0. 0. 42. 255. 0. 0. 0. 0. 0. 0. 0. 0.
      0. 0. 255. 0. 0. 0. 255. 115. 0. 0. 0. 0. 0. 0. 0. 0. 0. 0. 100.
      255. 255. 227. 166. 0. 0. 0. 0. 0. 0.</_>
    <_>
      0. 0. 0. 0. 0. 0. 71. 251. 255. 251. 71. 0. 0. 0. 0. 0. 0. 0. 0.
      0. 0. 0. 255. 255. 167. 255. 255. 0. 0. 0. 0. 0. 0. 0. 0. 0. 0.
      182. 255. 40. 0. 40. 255. 182. 0. 0. 0. 0. 0. 0. 0. 0. 0. 200.
      255. 18. 0. 18. 255. 200. 0. 0. 0. 0. 0. 0. 0. 0. 0. 255. 255. 0.
      0. 0. 255. 255. 0. 0. 0. 0. 0. 0. 0. 0. 0. 255. 255. 0. 0. 0. 255.
      255. 0. 0. 0. 0. 0. 0. 0. 0. 0. 255. 255. 0. 0. 0. 255. 255. 0. 0.
      0. 0. 0. 0. 0. 0. 0. 255. 255. 0. 0. 0. 255. 255. 0. 0. 0. 0. 0.
      0. 0. 0. 0. 255. 255. 0. 0. 0. 255. 255. 0. 0. 0. 0. 0. 0. 0. 0.
      0. 255. 255. 0. 0. 0. 255. 255. 0. 0. 0. 0. 0. 0. 0. 0. 0. 255.
      255. 0. 0. 0. 255. 255. 0. 0. 0. 0. 0. 0. 0. 0. 0. 255. 255. 0. 0.
      0. 255. 255. 0. 0. 0. 0. 0. 0. 0. 0. 0. 200. 255. 18. 0. 18. 255.
      200. 0. 0. 0. 0. 0. 0. 0. 0. 0. 182. 255. 40. 0. 40. 255. 182. 0.
      0. 0. 0. 0. 0. 0. 0. 0. 0. 255. 255. 167. 255. 255. 0. 0. 0. 0. 0.
      0. 0. 0. 0. 0. 0. 71. 251. 255. 251. 71. 0. 0. 0. 0. 0.</_>
    <_>
      0. 0. 0. 0. 0. 0. 71. 251. 255. 255. 251. 71. 0. 0. 0. 0. 0. 0. 0.
      0. 0. 0. 255. 255. 255. 255. 255. 255. 0. 0. 0. 0. 0. 0. 0. 0. 0.
      182. 255. 255. 255. 255. 255. 255. 182. 0. 0. 0. 0. 0. 0. 0. 0.
      200. 255. 255. 40. 40. 255. 255. 200. 0. 0. 0. 0. 0. 0. 0. 0. 255.
      255. 255. 18. 18. 255. 255. 255. 0. 0. 0. 0. 0. 0. 0. 0. 255. 255.
      255. 0. 0. 255. 255. 255. 0. 0. 0. 0. 0. 0. 0. 0. 255. 255. 255.
      0. 0. 255. 255. 255. 0. 0. 0. 0. 0. 0. 0. 0. 255. 255. 255. 0. 0.
      255. 255. 255. 0. 0. 0. 0. 0. 0. 0. 0. 255. 255. 255. 0. 0. 255.
      255. 255. 0. 0. 0. 0. 0. 0. 0. 0. 255. 255. 255. 0. 0. 255. 255.
      255. 0. 0. 0. 0. 0. 0. 0. 0. 255. 255. 255. 0. 0. 255. 255. 255.
      0. 0. 0. 0. 0. 0. 0. 0. 255. 255. 255. 0. 0. 255. 255. 255. 0. 0.
      0. 0. 0. 0. 0. 0. 255. 255. 255. 18. 18. 255. 255. 255. 0. 0. 0.
      0. 0. 0. 0. 0. 200. 255. 255. 40. 40. 255. 255. 200. 0. 0. 0. 0.
      0. 0. 0. 0. 182. 255. 255. 255. 255. 255. 255. 182. 0. 0. 0. 0. 0.
      0. 0. 0. 0. 255. 255. 255. 255. 255. 255. 0. 0. 0. 0.</_>
    <_>
      0. 0. 0. 0. 0. 0. 0. 167. 211. 255. 255. 255. 203. 8. 0. 0. 0. 0.
      0. 0. 0. 0. 191. 255. 255. 255. 255. 255. 255. 255. 0. 0. 0. 0. 0.
      0. 0. 146. 255. 255. 255. 255. 255. 255. 255. 255. 174. 0. 0. 0.
      0. 0. 7. 255. 255. 255. 255. 255. 200. 255. 255. 255. 255. 0. 0.
      0. 0. 0. 232. 255. 255. 255. 234. 0. 0. 193. 255. 255. 255. 0. 0.
      0. 0. 0. 255. 255. 255. 255. 0. 0. 0. 151. 255. 255. 255. 0. 0. 0.
      0. 92. 255. 255. 255. 212. 255. 255. 152. 151. 255. 255. 255. 0.
      0. 0. 0. 174. 255. 255. 255. 255. 255. 255. 255. 239. 255. 255.
      255. 0. 0. 0. 0. 186. 255. 255. 255. 255. 255. 255. 255. 255. 255.
      255. 186. 0. 0. 0. 0. 255. 255. 255. 239. 29. 215. 215. 58. 255.
      255. 255. 174. 0. 0. 0. 0. 255. 255. 255. 151. 0. 0. 0. 212. 255.
      255. 255. 92. 0. 0. 0. 0. 255. 255. 255. 151. 0. 0. 0. 255. 255.
      255. 255. 0. 0. 0. 0. 0. 255. 255. 255. 193. 0. 0. 234. 255. 255.
      255. 232. 0. 0. 0. 0. 0. 255. 255. 255. 255. 200. 255. 255. 255.
      255. 255. 7. 0. 0. 0. 0. 0. 174. 255. 255. 255. 255. 255. 255.
      255. 255. 146. 0. 0. 0. 0. 0. 0. 0. 255. 255. 255. 255. 255. 255.
      255. 191. 0. 0. 0. 0.</_>
    <_>
      0. 0. 0. 0. 0. 84. 167. 255. 255. 255. 167. 84. 0. 0. 0. 0. 0. 0.
      0. 0. 25. 255. 255. 255. 255. 255. 255. 255. 25. 0. 0. 0. 0. 0. 0.
      0. 255. 255. 255. 255. 255. 255. 255. 255. 255. 0. 0. 0. 0. 0. 0.
      106. 255. 255. 255. 255. 183. 255. 255. 255. 255. 106. 0. 0. 0. 0.
      0. 178. 255. 255. 255. 119. 0. 119. 255. 255. 255. 178. 0. 0. 0.
      0. 0. 255. 255. 255. 255. 0. 0. 0. 255. 255. 255. 255. 0. 0. 0. 0.
      0. 255. 255. 255. 127. 135. 135. 135. 227. 255. 255. 255. 0. 0. 0.
      0. 0. 255. 255. 255. 127. 255. 255. 255. 127. 255. 255. 255. 0. 0.
      0. 0. 0. 255. 255. 255. 127. 255. 255. 255. 127. 255. 255. 255. 0.
      0. 0. 0. 0. 255. 255. 255. 127. 255. 255. 255. 127. 255. 255. 255.
      0. 0. 0. 0. 0. 255. 255. 255. 127. 135. 135. 135. 227. 255. 255.
      255. 0. 0. 0. 0. 0. 255. 255. 255. 255. 0. 0. 0. 255. 255. 255.
      255. 0. 0. 0. 0. 0. 178. 255. 255. 255. 119. 0. 119. 255. 255.
      255. 178. 0. 0. 0. 0. 0. 106. 255. 255. 255. 255. 183. 255. 255.
      255. 255. 106. 0. 0. 0. 0. 0. 0. 255. 255. 255. 255. 255. 255.
      255. 255. 255. 0. 0. 0. 0. 0. 0. 0. 25. 255. 255. 255. 255. 255.
      255. 255. 25. 0. 0. 0.</_>
    <_>
      0. 0. 0. 0. 0. 0. 0. 48. 151. 255. 255. 250. 117. 0. 0. 0. 0. 0.
      0. 0. 0. 0. 27. 255. 255. 255. 255. 255. 255. 118. 0. 0. 0. 0. 0.
      0. 0. 0. 255. 255. 131. 0. 0. 255. 255. 150. 0. 0. 0. 0. 0. 0. 0.
      245. 255. 147. 0. 0. 0. 12. 255. 255. 0. 0. 0. 0. 0. 0. 68. 255.
      243. 0. 0. 0. 0. 11. 255. 255. 0. 0. 0. 0. 0. 0. 228. 255. 103. 0.
      0. 0. 0. 11. 255. 255. 0. 0. 0. 0. 0. 0. 255. 255. 0. 58. 255.
      255. 25. 12. 255. 255. 0. 0. 0. 0. 0. 151. 255. 255. 0. 255. 255.
      255. 35. 232. 255. 160. 0. 0. 0. 0. 0. 160. 255. 232. 0. 239. 255.
      239. 0. 255. 255. 151. 0. 0. 0. 0. 0. 255. 255. 12. 0. 0. 0. 0. 0.
      255. 255. 0. 0. 0. 0. 0. 0. 255. 255. 11. 0. 0. 0. 0. 103. 255.
      228. 0. 0. 0. 0. 0. 0. 255. 255. 11. 0. 0. 0. 0. 243. 255. 68. 0.
      0. 0. 0. 0. 0. 255. 255. 12. 0. 0. 0. 147. 255. 245. 0. 0. 0. 0.
      0. 0. 0. 150. 255. 255. 0. 0. 131. 255. 255. 0. 0. 0. 0. 0. 0. 0.
      0. 118. 255. 255. 255. 255. 255. 255. 27. 0. 0. 0. 0. 0. 0. 0. 0.
      0. 117. 250. 255. 255. 151. 48. 0. 0. 0. 0. 0. 0.</_>
    <_>
      0. 0. 0. 0. 0. 0. 0. 48. 151. 255. 255. 255. 250. 117. 0. 0. 0. 0.
      0. 0. 0. 0. 27. 255. 255. 255. 255. 255. 255. 255. 118. 0. 0. 0.
      0. 0. 0. 0. 255. 255. 255. 255. 255. 255. 255. 255. 150. 0. 0. 0.
      0. 0. 0. 245. 255. 255. 255. 131. 0. 255. 255. 255. 255. 0. 0. 0.
      0. 0. 68. 255. 255. 255. 147. 0. 0. 12. 255. 255. 255. 0. 0. 0. 0.
      0. 228. 255. 255. 243. 0. 0. 0. 11. 255. 255. 255. 0. 0. 0. 0. 0.
      255. 255. 255. 103. 255. 255. 255. 25. 255. 255. 255. 0. 0. 0. 0.
      151. 255. 255. 255. 255. 255. 255. 255. 232. 255. 255. 255. 0. 0.
      0. 0. 160. 255. 255. 255. 255. 255. 255. 255. 255. 255. 255. 160.
      0. 0. 0. 0. 255. 255. 255. 232. 239. 255. 255. 239. 255. 255. 255.
      151. 0. 0. 0. 0. 255. 255. 255. 12. 0. 0. 0. 103. 255. 255. 255.
      0. 0. 0. 0. 0. 255. 255. 255. 11. 0. 0. 0. 243. 255. 255. 228. 0.
      0. 0. 0. 0. 255. 255. 255. 12. 0. 0. 147. 255. 255. 255. 68. 0. 0.
      0. 0. 0. 255. 255. 255. 255. 0. 131. 255. 255. 255. 245. 0. 0. 0.
      0. 0. 0. 150. 255. 255. 255. 255. 255. 255. 255. 255. 0. 0. 0. 0.
      0. 0. 0. 118. 255. 255. 255. 255. 255. 255. 255. 27. 0. 0. 0. 0.</_>
    <_>
      0. 0. 0. 0. 0. 0. 172. 255. 255. 255. 172. 0. 0. 0. 0. 0. 0. 0. 0.
      0. 0. 255. 255. 255. 255. 255. 255. 255. 0. 0. 0. 0. 0. 0. 0. 0.
      253. 255. 255. 255. 255. 255. 255. 255. 253. 0. 0. 0. 0. 0. 0.
      153. 255. 255. 255. 205. 0. 205. 255. 255. 255. 153. 0. 0. 0. 0.
      0. 153. 255. 255. 255. 0. 0. 0. 255. 255. 255. 153. 0. 0. 0. 0. 0.
      255. 255. 255. 255. 0. 0. 0. 255. 255. 255. 255. 0. 0. 0. 0. 0.
      255. 255. 255. 0. 255. 255. 255. 0. 255. 255. 255. 0. 0. 0. 0. 0.
      255. 255. 255. 51. 255. 255. 255. 51. 255. 255. 255. 0. 0. 0. 0.
      0. 255. 255. 255. 51. 255. 255. 255. 51. 255. 255. 255. 0. 0. 0.
      0. 0. 255. 255. 255. 46. 255. 255. 255. 46. 255. 255. 255. 0. 0.
      0. 0. 0. 255. 255. 255. 0. 0. 0. 0. 0. 255. 255. 255. 0. 0. 0. 0.
      0. 255. 255. 255. 255. 0. 0. 0. 255. 255. 255. 255. 0. 0. 0. 0. 0.
      153. 255. 255. 255. 0. 0. 0. 255. 255. 255. 153. 0. 0. 0. 0. 0.
      153. 255. 255. 255. 205. 0. 205. 255. 255. 255. 153. 0. 0. 0. 0.
      0. 0. 253. 255. 255. 255. 255. 255. 255. 255. 253. 0. 0. 0. 0. 0.
      0. 0. 0. 255. 255. 255. 255. 255. 255. 255. 0. 0. 0. 0.</_>
    <_>
      0. 0. 0. 0. 80. 80. 231. 175. 175. 175. 231. 80. 80. 0. 0. 0. 0.
      0. 0. 120. 255. 87. 11. 0. 0. 0. 11. 87. 255. 120. 0. 0. 0. 0.
      129. 255. 241. 33. 0. 0. 0. 0. 0. 33. 241. 255. 129. 0. 0. 14.
      234. 255. 186. 0. 0. 0. 0. 0. 0. 0. 186. 255. 234. 14. 0. 76. 255.
      255. 0. 0. 0. 0. 0. 0. 0. 0. 0. 255. 255. 76. 0. 255. 255. 255. 0.
      0. 0. 0. 0. 0. 0. 0. 0. 255. 255. 155. 0. 255. 255. 255. 0. 0. 0.
      0. 0. 0. 0. 0. 0. 255. 255. 255. 0. 255. 255. 255. 0. 0. 0. 0. 0.
      0. 0. 0. 0. 255. 255. 255. 0. 255. 255. 255. 0. 0. 0. 0. 0. 0. 0.
      0. 0. 255. 255. 255. 0. 255. 255. 255. 0. 0. 0. 0. 0. 0. 0. 0. 0.
      255. 255. 255. 0. 255. 255. 255. 0. 0. 0. 0. 0. 0. 0. 0. 0. 255.
      255. 255. 0. 76. 255. 255. 0. 0. 0. 0. 0. 0. 0. 0. 0. 255. 255.
      76. 0. 76. 255. 255. 186. 0. 0. 0. 0. 0. 0. 0. 186. 255. 234. 14.
      0. 0. 129. 255. 241. 33. 0. 0. 0. 0. 0. 33. 241. 255. 129. 0. 0.
      0. 0. 120. 255. 255. 11. 0. 0. 0. 11. 255. 255. 120. 0. 0. 0. 0.
      0. 0. 80. 80. 231. 175. 175. 175. 231. 80. 80. 0. 0. 0.</_>
    <_>
      0. 0. 0. 0. 80. 80. 231. 231. 175. 175. 231. 231. 80. 80. 0. 0. 0.
      0. 0. 120. 255. 255. 231. 231. 175. 175. 231. 231. 255. 255. 120.
      0. 0. 0. 129. 255. 255. 255. 87. 11. 0. 0. 11. 87. 255. 255. 255.
      129. 0. 14. 234. 255. 255. 241. 33. 0. 0. 0. 0. 33. 241. 255. 255.
      234. 0. 76. 255. 255. 255. 186. 0. 0. 0. 0. 0. 0. 186. 255. 255.
      255. 0. 255. 255. 255. 255. 0. 0. 0. 0. 0. 0. 0. 0. 255. 255. 255.
      0. 255. 255. 255. 255. 0. 0. 0. 0. 0. 0. 0. 0. 255. 255. 255. 0.
      255. 255. 255. 255. 0. 0. 0. 0. 0. 0. 0. 0. 255. 255. 255. 0. 255.
      255. 255. 255. 0. 0. 0. 0. 0. 0. 0. 0. 255. 255. 255. 0. 255. 255.
      255. 255. 0. 0. 0. 0. 0. 0. 0. 0. 255. 255. 255. 0. 255. 255. 255.
      255. 0. 0. 0. 0. 0. 0. 0. 0. 255. 255. 255. 0. 255. 255. 255. 255.
      0. 0. 0. 0. 0. 0. 0. 0. 255. 255. 255. 0. 76. 255. 255. 255. 186.
      0. 0. 0. 0. 0. 0. 186. 255. 255. 255. 0. 76. 255. 255. 255. 241.
      33. 0. 0. 0. 0. 33. 241. 255. 255. 234. 0. 0. 129. 255. 255. 255.
      255. 11. 0. 0. 11. 255. 255. 255. 255. 129. 0. 0. 0. 120. 255.
      255. 255. 231. 175. 175. 231. 255. 255. 255. 120. 0.</_>
    <_>
      0. 0. 0. 0. 0. 0. 199. 208. 255. 255. 255. 255. 255. 255. 0. 0. 0.
      0. 0. 0. 42. 255. 255. 255. 255. 255. 255. 255. 255. 255. 0. 0. 0.
      0. 0. 0. 42. 255. 255. 255. 255. 255. 255. 255. 255. 127. 0. 0. 0.
      0. 0. 0. 255. 255. 255. 255. 255. 255. 255. 255. 255. 127. 0. 0.
      0. 0. 0. 0. 255. 255. 155. 135. 255. 255. 255. 255. 255. 0. 0. 0.
      0. 0. 0. 0. 0. 0. 0. 42. 255. 255. 255. 255. 255. 0. 0. 0. 0. 0.
      0. 0. 0. 0. 0. 255. 255. 255. 255. 255. 255. 0. 0. 0. 0. 0. 0. 0.
      0. 0. 0. 255. 255. 255. 255. 255. 222. 0. 0. 0. 0. 0. 0. 0. 0. 0.
      0. 255. 255. 255. 255. 255. 42. 0. 0. 0. 0. 0. 0. 0. 0. 0. 0. 255.
      255. 255. 255. 255. 31. 0. 0. 0. 0. 0. 0. 0. 0. 0. 127. 255. 255.
      255. 255. 255. 0. 0. 0. 0. 0. 0. 0. 0. 0. 0. 127. 255. 255. 255.
      255. 238. 0. 0. 0. 0. 0. 0. 0. 0. 0. 0. 255. 255. 255. 255. 255.
      212. 0. 0. 0. 0. 0. 0. 212. 255. 255. 255. 255. 255. 255. 255.
      255. 255. 255. 255. 255. 0. 0. 0. 212. 255. 255. 255. 255. 255.
      255. 255. 255. 255. 255. 255. 255. 0. 0. 0. 255. 255. 255. 255.
      255. 255. 255. 255. 255. 255. 255. 255. 227. 0.</_>
    <_>
      0. 0. 0. 0. 0. 0. 0. 11. 199. 199. 255. 255. 184. 0. 0. 0. 0. 0.
      0. 0. 0. 0. 156. 255. 255. 172. 255. 255. 0. 0. 0. 0. 0. 0. 0. 0.
      0. 0. 15. 0. 0. 0. 255. 255. 0. 0. 0. 0. 0. 0. 0. 0. 0. 0. 0. 0.
      0. 0. 255. 255. 0. 0. 0. 0. 0. 0. 0. 0. 0. 0. 0. 0. 0. 8. 255.
      255. 0. 0. 0. 0. 0. 0. 0. 0. 0. 0. 0. 0. 0. 241. 255. 42. 0. 0. 0.
      0. 0. 0. 0. 0. 0. 0. 0. 0. 0. 241. 255. 42. 0. 0. 0. 0. 0. 0. 0.
      0. 0. 0. 0. 0. 0. 255. 255. 0. 0. 0. 0. 0. 0. 0. 0. 0. 0. 0. 0. 0.
      0. 255. 255. 0. 0. 0. 0. 0. 0. 0. 0. 0. 0. 0. 0. 0. 127. 255. 171.
      0. 0. 0. 0. 0. 0. 0. 0. 0. 0. 0. 0. 0. 127. 255. 156. 0. 0. 0. 0.
      0. 0. 0. 0. 0. 0. 0. 0. 0. 251. 255. 5. 0. 0. 0. 0. 0. 0. 0. 0. 0.
      0. 0. 0. 0. 255. 255. 0. 0. 0. 0. 0. 0. 0. 0. 0. 0. 0. 0. 0. 14.
      255. 255. 0. 0. 0. 0. 0. 0. 0. 0. 0. 0. 121. 167. 167. 172. 255.
      255. 167. 167. 167. 0. 0. 0. 0. 0. 0. 0. 255. 255. 255. 255. 255.
      255. 255. 255. 184. 0. 0. 0.</_>
    <_>
      0. 0. 0. 0. 0. 0. 0. 11. 199. 199. 255. 255. 255. 184. 0. 0. 0. 0.
      0. 0. 0. 0. 156. 255. 255. 255. 255. 255. 255. 184. 0. 0. 0. 0. 0.
      0. 0. 0. 156. 255. 255. 255. 255. 255. 255. 0. 0. 0. 0. 0. 0. 0.
      0. 0. 15. 15. 0. 0. 255. 255. 255. 0. 0. 0. 0. 0. 0. 0. 0. 0. 0.
      0. 0. 8. 255. 255. 255. 0. 0. 0. 0. 0. 0. 0. 0. 0. 0. 0. 0. 241.
      255. 255. 255. 0. 0. 0. 0. 0. 0. 0. 0. 0. 0. 0. 0. 241. 255. 255.
      42. 0. 0. 0. 0. 0. 0. 0. 0. 0. 0. 0. 0. 255. 255. 255. 42. 0. 0.
      0. 0. 0. 0. 0. 0. 0. 0. 0. 0. 255. 255. 255. 0. 0. 0. 0. 0. 0. 0.
      0. 0. 0. 0. 0. 127. 255. 255. 255. 0. 0. 0. 0. 0. 0. 0. 0. 0. 0.
      0. 0. 127. 255. 255. 171. 0. 0. 0. 0. 0. 0. 0. 0. 0. 0. 0. 0. 251.
      255. 255. 156. 0. 0. 0. 0. 0. 0. 0. 0. 0. 0. 0. 0. 255. 255. 255.
      5. 0. 0. 0. 0. 0. 0. 0. 0. 0. 0. 0. 14. 255. 255. 255. 0. 0. 0. 0.
      0. 0. 0. 0. 0. 121. 167. 167. 172. 255. 255. 255. 167. 167. 167.
      0. 0. 0. 0. 0. 0. 255. 255. 255. 255. 255. 255. 255. 255. 255.
      184. 0. 0.</_>
    <_>
      0. 0. 0. 0. 0. 0. 0. 166. 199. 255. 255. 255. 255. 0. 0. 0. 0. 0.
      0. 0. 0. 0. 255. 255. 255. 255. 255. 255. 255. 0. 0. 0. 0. 0. 0.
      0. 0. 0. 255. 255. 255. 255. 255. 255. 255. 0. 0. 0. 0. 0. 0. 0.
      0. 0. 24. 24. 0. 42. 255. 255. 255. 0. 0. 0. 0. 0. 0. 0. 0. 0. 0.
      0. 0. 49. 255. 255. 127. 0. 0. 0. 0. 0. 0. 0. 0. 0. 0. 0. 0. 255.
      255. 255. 127. 0. 0. 0. 0. 0. 0. 0. 0. 0. 0. 0. 0. 255. 255. 255.
      52. 0. 0. 0. 0. 0. 0. 0. 0. 0. 0. 0. 0. 255. 255. 255. 0. 0. 0. 0.
      0. 0. 0. 0. 0. 0. 0. 0. 0. 255. 255. 255. 0. 0. 0. 0. 0. 0. 0. 0.
      0. 0. 0. 0. 127. 255. 255. 255. 0. 0. 0. 0. 0. 0. 0. 0. 0. 0. 0.
      0. 127. 255. 255. 76. 0. 0. 0. 0. 0. 0. 0. 0. 0. 0. 0. 0. 251.
      255. 255. 42. 0. 0. 0. 0. 0. 0. 0. 0. 0. 0. 0. 0. 255. 255. 255.
      42. 0. 0. 0. 0. 0. 0. 0. 0. 0. 0. 0. 0. 255. 255. 255. 0. 0. 0. 0.
      0. 0. 0. 0. 0. 139. 167. 167. 167. 255. 255. 251. 167. 167. 167.
      0. 0. 0. 0. 0. 0. 255. 255. 255. 255. 255. 255. 255. 255. 255.
      255. 0. 0.</_>
    <_>
      0. 0. 0. 0. 199. 199. 255. 255. 255. 153. 0. 0. 0. 0. 0. 0. 0. 0.
      0. 255. 255. 255. 255. 255. 255. 153. 0. 0. 0. 0. 0. 0. 0. 0. 0.
      255. 255. 255. 255. 255. 255. 153. 0. 0. 0. 0. 0. 0. 0. 0. 0. 135.
      0. 0. 255. 255. 255. 153. 0. 0. 0. 0. 0. 0. 0. 0. 0. 0. 0. 0. 255.
      255. 255. 153. 0. 0. 0. 0. 0. 0. 0. 0. 0. 0. 0. 0. 255. 255. 255.
      153. 0. 0. 0. 0. 0. 0. 0. 0. 0. 0. 0. 0. 255. 255. 255. 153. 0. 0.
      0. 0. 0. 0. 0. 0. 0. 0. 0. 0. 255. 255. 255. 153. 0. 0. 0. 0. 0.
      0. 0. 0. 0. 0. 0. 0. 255. 255. 255. 153. 0. 0. 0. 0. 0. 0. 0. 0.
      0. 0. 0. 0. 255. 255. 255. 153. 0. 0. 0. 0. 0. 0. 0. 0. 0. 0. 0.
      0. 255. 255. 255. 153. 0. 0. 0. 0. 0. 0. 0. 0. 0. 0. 0. 0. 255.
      255. 255. 153. 0. 0. 0. 0. 0. 0. 0. 0. 0. 0. 0. 0. 255. 255. 255.
      153. 0. 0. 0. 0. 0. 0. 0. 0. 0. 255. 255. 255. 255. 255. 255. 255.
      255. 255. 255. 0. 0. 0. 0. 0. 0. 255. 255. 255. 255. 255. 255.
      255. 255. 255. 255. 0. 0. 0. 0. 0. 0. 255. 255. 255. 255. 255.
      255. 255. 255. 255. 255. 0. 0. 0.</_>
    <_>
      0. 0. 0. 0. 0. 199. 202. 255. 255. 0. 0. 0. 0. 0. 0. 0. 0. 0. 0.
      0. 255. 255. 255. 255. 255. 0. 0. 0. 0. 0. 0. 0. 0. 0. 0. 0. 255.
      24. 22. 255. 255. 0. 0. 0. 0. 0. 0. 0. 0. 0. 0. 0. 0. 0. 0. 255.
      255. 0. 0. 0. 0. 0. 0. 0. 0. 0. 0. 0. 0. 0. 0. 255. 255. 0. 0. 0.
      0. 0. 0. 0. 0. 0. 0. 0. 0. 0. 0. 255. 255. 0. 0. 0. 0. 0. 0. 0. 0.
      0. 0. 0. 0. 0. 0. 255. 255. 0. 0. 0. 0. 0. 0. 0. 0. 0. 0. 0. 0. 0.
      0. 255. 255. 0. 0. 0. 0. 0. 0. 0. 0. 0. 0. 0. 0. 0. 0. 255. 255.
      0. 0. 0. 0. 0. 0. 0. 0. 0. 0. 0. 0. 0. 0. 255. 255. 0. 0. 0. 0. 0.
      0. 0. 0. 0. 0. 0. 0. 0. 0. 255. 255. 0. 0. 0. 0. 0. 0. 0. 0. 0. 0.
      0. 0. 0. 0. 255. 255. 0. 0. 0. 0. 0. 0. 0. 0. 0. 0. 0. 0. 0. 0.
      255. 255. 0. 0. 0. 0. 0. 0. 0. 0. 0. 0. 0. 0. 0. 0. 255. 255. 0.
      0. 0. 0. 0. 0. 0. 0. 0. 0. 0. 255. 255. 255. 255. 255. 255. 255.
      255. 0. 0. 0. 0. 0. 0. 0. 0. 255. 255. 255. 255. 255. 255. 255.
      255. 0. 0. 0. 0.</_>
    <_>
      0. 0. 0. 0. 0. 0. 0. 174. 255. 0. 0. 0. 0. 0. 0. 0. 0. 0. 0. 0. 0.
      0. 180. 255. 255. 0. 0. 0. 0. 0. 0. 0. 0. 0. 0. 0. 0. 173. 255.
      35. 255. 0. 0. 0. 0. 0. 0. 0. 0. 0. 0. 0. 0. 252. 15. 0. 255. 0.
      0. 0. 0. 0. 0. 0. 0. 0. 0. 0. 146. 40. 0. 0. 255. 0. 0. 0. 0. 0.
      0. 0. 0. 0. 0. 0. 0. 0. 0. 0. 255. 0. 0. 0. 0. 0. 0. 0. 0. 0. 0.
      0. 0. 0. 0. 0. 255. 0. 0. 0. 0. 0. 0. 0. 0. 0. 0. 0. 0. 0. 0. 0.
      255. 0. 0. 0. 0. 0. 0. 0. 0. 0. 0. 0. 0. 0. 0. 0. 255. 0. 0. 0. 0.
      0. 0. 0. 0. 0. 0. 0. 0. 0. 0. 0. 255. 0. 0. 0. 0. 0. 0. 0. 0. 0.
      0. 0. 0. 0. 0. 0. 255. 0. 0. 0. 0. 0. 0. 0. 0. 0. 0. 0. 0. 0. 0.
      0. 255. 0. 0. 0. 0. 0. 0. 0. 0. 0. 0. 0. 0. 0. 0. 0. 255. 0. 0. 0.
      0. 0. 0. 0. 0. 0. 0. 0. 0. 0. 0. 0. 255. 0. 0. 0. 0. 0. 0. 0. 0.
      0. 0. 0. 0. 0. 0. 0. 255. 0. 0. 0. 0. 0. 0. 0. 0. 0. 0. 0. 255.
      255. 255. 255. 255. 255. 255. 255. 255. 0. 0. 0.</_>
    <_>
      0. 0. 0. 0. 0. 0. 0. 0. 0. 0. 255. 0. 0. 0. 0. 0. 0. 0. 0. 0. 0.
      0. 0. 0. 0. 179. 255. 0. 0. 0. 0. 0. 0. 0. 0. 0. 0. 0. 0. 0. 191.
      255. 255. 0. 0. 0. 0. 0. 0. 0. 0. 0. 0. 0. 255. 255. 255. 255.
      255. 0. 0. 0. 0. 0. 0. 0. 0. 0. 0. 0. 255. 255. 255. 255. 255. 0.
      0. 0. 0. 0. 0. 0. 0. 0. 0. 0. 0. 0. 0. 255. 255. 0. 0. 0. 0. 0. 0.
      0. 0. 0. 0. 0. 0. 0. 0. 255. 255. 0. 0. 0. 0. 0. 0. 0. 0. 0. 0. 0.
      0. 0. 0. 255. 255. 0. 0. 0. 0. 0. 0. 0. 0. 0. 0. 0. 0. 0. 0. 255.
      255. 0. 0. 0. 0. 0. 0. 0. 0. 0. 0. 0. 0. 0. 0. 255. 255. 0. 0. 0.
      0. 0. 0. 0. 0. 0. 0. 0. 0. 0. 0. 255. 255. 0. 0. 0. 0. 0. 0. 0. 0.
      0. 0. 0. 0. 0. 0. 255. 255. 0. 0. 0. 0. 0. 0. 0. 0. 0. 0. 0. 0. 0.
      0. 255. 255. 0. 0. 0. 0. 0. 0. 0. 0. 0. 0. 0. 0. 0. 0. 255. 255.
      0. 0. 0. 0. 0. 0. 0. 0. 0. 0. 0. 0. 0. 0. 255. 255. 0. 0. 0. 0. 0.
      0. 0. 0. 0. 0. 0. 0. 0. 0. 255. 255. 0. 0. 0. 0. 0.</_>
    <_>
      0. 0. 0. 0. 0. 0. 0. 0. 131. 175. 235. 255. 0. 0. 0. 0. 0. 0. 0.
      0. 0. 0. 0. 0. 0. 64. 255. 191. 0. 0. 0. 0. 0. 0. 0. 0. 0. 0. 0.
      0. 0. 64. 255. 108. 0. 0. 0. 0. 0. 0. 0. 0. 0. 0. 0. 0. 0. 255.
      255. 0. 0. 0. 0. 0. 0. 0. 0. 0. 0. 0. 0. 0. 0. 255. 255. 0. 0. 0.
      0. 0. 0. 0. 0. 0. 0. 0. 0. 0. 0. 255. 147. 0. 0. 0. 0. 0. 0. 0. 0.
      0. 0. 0. 0. 0. 179. 255. 64. 0. 0. 0. 0. 0. 0. 0. 0. 0. 0. 0. 0.
      0. 211. 255. 0. 0. 0. 0. 0. 0. 0. 0. 0. 0. 0. 0. 0. 0. 255. 255.
      0. 0. 0. 0. 0. 0. 0. 0. 0. 0. 0. 0. 0. 64. 255. 191. 0. 0. 0. 0.
      0. 0. 0. 0. 0. 0. 0. 0. 0. 147. 255. 0. 0. 0. 0. 0. 0. 0. 0. 0. 0.
      0. 0. 0. 0. 255. 255. 0. 0. 0. 0. 0. 0. 0. 0. 0. 0. 0. 0. 0. 0.
      255. 255. 0. 0. 0. 0. 0. 0. 0. 0. 0. 0. 0. 0. 0. 108. 255. 64. 0.
      0. 0. 0. 0. 0. 0. 0. 0. 0. 0. 0. 0. 191. 255. 64. 0. 0. 0. 0. 0.
      0. 0. 0. 0. 0. 0. 80. 123. 255. 255. 123. 80. 0. 0. 0. 0. 0. 0.</_>
    <_>
      0. 0. 0. 0. 0. 0. 0. 0. 131. 175. 235. 255. 255. 0. 0. 0. 0. 0. 0.
      0. 0. 0. 0. 0. 131. 175. 255. 255. 255. 0. 0. 0. 0. 0. 0. 0. 0. 0.
      0. 0. 0. 64. 255. 255. 191. 0. 0. 0. 0. 0. 0. 0. 0. 0. 0. 0. 0.
      255. 255. 255. 108. 0. 0. 0. 0. 0. 0. 0. 0. 0. 0. 0. 0. 255. 255.
      255. 0. 0. 0. 0. 0. 0. 0. 0. 0. 0. 0. 0. 0. 255. 255. 255. 0. 0.
      0. 0. 0. 0. 0. 0. 0. 0. 0. 0. 179. 255. 255. 147. 0. 0. 0. 0. 0.
      0. 0. 0. 0. 0. 0. 0. 211. 255. 255. 64. 0. 0. 0. 0. 0. 0. 0. 0. 0.
      0. 0. 0. 255. 255. 255. 0. 0. 0. 0. 0. 0. 0. 0. 0. 0. 0. 0. 64.
      255. 255. 255. 0. 0. 0. 0. 0. 0. 0. 0. 0. 0. 0. 0. 147. 255. 255.
      191. 0. 0. 0. 0. 0. 0. 0. 0. 0. 0. 0. 0. 255. 255. 255. 0. 0. 0.
      0. 0. 0. 0. 0. 0. 0. 0. 0. 0. 255. 255. 255. 0. 0. 0. 0. 0. 0. 0.
      0. 0. 0. 0. 0. 108. 255. 255. 255. 0. 0. 0. 0. 0. 0. 0. 0. 0. 0.
      0. 0. 191. 255. 255. 64. 0. 0. 0. 0. 0. 0. 0. 0. 0. 0. 80. 123.
      255. 255. 255. 123. 80. 0. 0. 0. 0. 0.</_>
    <_>
      0. 0. 0. 0. 0. 0. 0. 0. 0. 255. 255. 255. 255. 0. 0. 0. 0. 0. 0.
      0. 0. 0. 0. 183. 255. 255. 255. 255. 170. 0. 0. 0. 0. 0. 0. 0. 0.
      0. 255. 255. 104. 186. 255. 255. 170. 0. 0. 0. 0. 0. 0. 0. 172.
      255. 255. 82. 0. 255. 255. 255. 0. 0. 0. 0. 0. 0. 0. 0. 90. 255.
      0. 0. 0. 255. 255. 255. 0. 0. 0. 0. 0. 0. 0. 0. 0. 0. 0. 0. 0.
      255. 255. 255. 0. 0. 0. 0. 0. 0. 0. 0. 0. 0. 0. 0. 0. 255. 255.
      255. 0. 0. 0. 0. 0. 0. 0. 0. 0. 0. 0. 0. 255. 255. 255. 56. 0. 0.
      0. 0. 0. 0. 0. 0. 0. 0. 0. 0. 255. 255. 255. 0. 0. 0. 0. 0. 0. 0.
      0. 0. 0. 0. 0. 0. 255. 255. 255. 0. 0. 0. 0. 0. 0. 0. 0. 0. 0. 0.
      0. 0. 255. 255. 255. 0. 0. 0. 0. 0. 0. 0. 0. 0. 0. 0. 0. 170. 255.
      255. 165. 0. 0. 0. 0. 0. 0. 0. 0. 0. 0. 0. 0. 170. 255. 255. 85.
      0. 0. 0. 0. 0. 0. 0. 0. 0. 0. 0. 0. 255. 255. 255. 50. 0. 0. 0. 0.
      0. 0. 0. 0. 0. 0. 0. 0. 255. 255. 255. 0. 0. 0. 0. 0. 0. 0. 0. 0.
      0. 0. 0. 85. 255. 255. 231. 0. 0. 0. 0. 0. 0.</_>
    <_>
      0. 0. 0. 0. 0. 0. 0. 0. 255. 255. 255. 255. 0. 0. 0. 0. 0. 0. 0.
      0. 0. 0. 17. 255. 255. 255. 255. 255. 0. 0. 0. 0. 0. 0. 0. 0. 0.
      151. 255. 255. 84. 255. 255. 255. 0. 0. 0. 0. 0. 0. 0. 0. 178.
