<?xml version="1.0"?>
<opencv_storage>
<opencv_ml_svm>
  <format>3</format>
  <svmType>C_SVC</svmType>
  <kernel>
    <type>LINEAR</type></kernel>
  <C>1.</C>
  <term_criteria><epsilon>1.1920928955078125e-07</epsilon>
    <iterations>1000</iterations></term_criteria>
  <var_count>400</var_count>
  <class_count>10</class_count>
  <class_labels type_id="opencv-matrix">
    <rows>10</rows>
    <cols>1</cols>
    <dt>i</dt>
    <data>
      0 1 2 3 4 5 6 7 8 9</data></class_labels>
  <sv_total>45</sv_total>
  <support_vectors>
    <_>
      0. 3.53785140e-07 3.53785140e-07 8.84462850e-07 1.26954592e-05
      3.80493366e-05 2.86021805e-05 -7.74554865e-05 4.44751131e-05
      2.25686250e-04 2.00845257e-04 1.40162825e-04 7.15795177e-05
      7.60318580e-05 -2.77116715e-06 2.11453116e-05 1.94125641e-05
      -5.15410975e-05 0. 0. 0. 1.30016042e-05 1.30016042e-05
      3.34336728e-05 9.94442817e-05 7.96497989e-05 -5.12628612e-05
      -1.03817743e-04 1.47708542e-05 -2.50109151e-05 2.17609399e-04
      9.23439366e-05 -1.13761394e-04 8.21068679e-05 -1.74999514e-05
      -1.08723958e-04 -4.61598102e-05 -6.25818720e-05 0. 0.
      1.39642282e-06 5.21691691e-05 1.08982218e-04 1.58135852e-04
      2.52183352e-04 1.38231786e-04 -5.54757680e-05 2.31105059e-06
      -6.65922562e-05 -9.48579909e-05 1.17936506e-05 -6.00626699e-05
      -4.39479372e-05 5.02728544e-05 -9.57457378e-05 -2.00235256e-04
      -8.61003718e-06 -7.14111811e-05 -1.16259253e-05 -1.98841221e-07
      4.21810319e-06 8.81056549e-05 1.39793381e-04 2.11213526e-04
      2.06114666e-04 3.90647438e-05 -3.01872406e-05 -1.36375660e-04
      -1.34928123e-04 -1.97802874e-04 -2.74907594e-04 -2.17982000e-04
      -1.30684275e-04 -1.29482549e-04 -1.39744952e-04 -1.11248482e-04
      4.74540911e-06 -1.00375029e-04 -6.08313203e-05 3.58768125e-06
      5.91185271e-05 1.08140572e-04 1.71896594e-04 2.49959499e-04
      1.96333218e-04 -5.41955305e-05 -7.75674634e-05 -1.74167290e-04
      -7.16128197e-05 -3.49300215e-04 -4.35419119e-04 -2.51842343e-04
      -2.17809313e-04 -1.37646653e-04 3.64816478e-05 -1.50743406e-04
      -2.03984047e-04 -1.54144640e-04 -3.76307798e-05 8.87404804e-06
      1.01916623e-04 1.26834784e-04 1.38586867e-04 9.78308453e-05
      3.43012034e-05 -9.64482242e-05 -1.86179619e-04 -1.40756194e-04
      3.19233186e-05 -2.73244339e-04 -3.54024320e-04 -2.46799609e-04
      -2.31593309e-04 -2.22768562e-04 -9.15249839e-05 -2.36602253e-04
      -3.92309506e-04 1.19288961e-05 7.77635942e-05 7.15037140e-06
      1.07561631e-04 1.29187029e-04 8.04462761e-05 -6.17129699e-05
      -8.08492623e-05 -1.46727863e-04 -3.45164917e-05 -2.01800231e-05
      6.53057359e-05 -5.99618361e-05 -1.48049861e-04 -1.45619619e-04
      -1.63176766e-04 -2.18942791e-04 -9.71374175e-05 -1.83812663e-04
      -1.40246673e-04 9.70771798e-05 1.51782675e-04 2.18923888e-05
      1.07561631e-04 1.14287905e-04 -2.00701106e-05 -1.74017856e-04
      -1.03253471e-04 -9.78212411e-05 1.66377242e-04 1.23366859e-04
      4.32202141e-05 6.58079662e-05 -4.79984665e-05 -1.08064101e-04
      -1.64464713e-04 -1.65948382e-04 -2.24113282e-05 -1.92701918e-04
      -8.59391293e-05 1.15335162e-04 1.57501185e-04 6.23522865e-05
      1.07561631e-04 7.82632414e-05 -9.41991020e-05 -1.84356933e-04
      1.21574631e-04 1.24098689e-04 2.52251280e-04 1.72556887e-04
      5.52411711e-06 1.05405088e-05 -7.51973494e-05 -2.23381285e-04
      -2.81973451e-04 -1.70384184e-04 -4.74377302e-05 -7.38152667e-05
      1.59454721e-04 1.71331718e-04 1.40625300e-04 7.25041173e-05
      1.00839032e-04 1.39214098e-04 5.54732026e-07 -1.28696527e-04
      1.36178685e-04 3.17552214e-04 2.84615817e-04 1.19864446e-04
      -1.12743175e-04 -1.56673224e-04 -9.35731368e-05 -3.18448903e-04
      -2.68543896e-04 -4.00671743e-05 9.19027007e-05 2.72604986e-04
      2.53940816e-04 1.57538656e-04 8.34277307e-05 2.99354833e-05
      6.38647180e-05 1.55894959e-04 1.12348389e-04 4.50152911e-05
      4.90689476e-04 6.41558436e-04 3.36727448e-04 1.30394783e-05
      -2.51203834e-04 -2.20665883e-04 -1.02633428e-04 -2.59130466e-04
      -1.39193755e-04 2.60277593e-04 2.53270962e-04 4.00565506e-04
      2.60047207e-04 1.57218761e-04 4.74094959e-05 2.25538024e-05
      2.68904078e-05 1.72575834e-04 1.86202233e-04 1.83981698e-04
      5.68838150e-04 6.80600700e-04 3.99117474e-04 -2.23908683e-05
      -2.58432992e-04 -3.19492858e-04 -2.32415914e-04 -1.70152169e-04
      5.53841346e-05 4.00905788e-04 3.39652266e-04 5.33190905e-04
      3.78892553e-04 1.83914250e-04 2.03056225e-05 1.42398521e-05
      1.14234972e-05 1.61835094e-04 1.93575397e-04 2.34643201e-04
      6.96041097e-04 7.16537877e-04 4.34753019e-04 1.79330509e-05
      -2.18590896e-04 -2.62287562e-04 -1.88174861e-04 -2.98965970e-05
      2.20806003e-04 3.70471505e-04 4.13404836e-04 4.46698687e-04
      3.84969579e-04 1.99659218e-04 2.39516339e-05 1.76892570e-06
      1.08827071e-05 1.13336791e-04 2.01056260e-04 2.65328505e-04
      5.03490795e-04 7.04076549e-04 4.96948429e-04 1.56563983e-04
      -8.11221762e-05 -1.04792591e-04 -4.61936179e-05 1.53637200e-04
      4.11559129e-04 3.42360348e-04 2.87847419e-04 3.15496640e-04
      3.68356647e-04 2.03721662e-04 6.95754134e-05 0. 0. 6.48830464e-05
      2.06309138e-04 1.62166572e-04 1.73834836e-04 4.18605225e-04
      5.89320436e-04 3.99328710e-04 2.52957543e-04 2.20838978e-04
      1.70355328e-04 3.30597832e-04 4.11227957e-04 1.76458430e-04
      1.31948967e-04 2.63066235e-04 2.53023551e-04 1.51711574e-04
      9.39502934e-05 0. 1.04069606e-07 3.53078940e-05 1.39129450e-04
      5.59851032e-05 8.11767968e-05 1.76254762e-04 5.07316261e-04
      4.31593333e-04 4.70382860e-04 3.49633949e-04 2.08628335e-04
      3.22524575e-04 2.27718847e-04 1.06134148e-05 1.33908849e-04
      1.39870084e-04 1.49091766e-05 -2.19386220e-05 4.53394605e-05
      1.06694479e-05 0. 2.26014527e-05 4.02769983e-05 2.46487489e-05
      -1.79621347e-05 5.46376832e-05 2.52283557e-04 3.39551247e-04
      4.58185095e-04 2.07318823e-04 8.28333141e-05 1.42630553e-04
      1.43043726e-05 1.40302400e-05 1.39139331e-04 3.89702363e-05
      -1.87301011e-05 -6.79089062e-05 -2.70027340e-05 5.11344069e-06 0.
      4.51907908e-06 1.64328831e-05 -1.18821110e-04 -2.40752197e-04
      -9.83953360e-05 1.45107289e-04 3.41238716e-04 3.23127635e-04
      1.60279655e-04 6.95316558e-05 6.78613142e-05 8.10061611e-05
      9.02591200e-05 2.45223855e-05 -9.71355403e-05 -5.29517274e-05
      -8.17054934e-06 -5.22476221e-05 0. 0. 0. 4.77609956e-06
      5.12066326e-05 -9.80285913e-05 -4.57485803e-05 1.01791738e-04
      2.90506694e-04 1.19641547e-04 7.35626891e-05 1.00937992e-04
      -2.84336784e-05 8.05895106e-05 1.88558508e-04 -6.45785767e-05
      -1.85884564e-04 -4.34928297e-05 -1.08564552e-06 0. 0. 0. 0.
      1.76892570e-07 2.66667939e-05 7.19523960e-05 9.46953151e-05
      1.24413191e-05 -2.80229779e-05 2.27193832e-05 4.90988241e-05
      8.13031875e-05 -1.77158421e-04 -7.36446164e-05 1.56651644e-04
      5.05273238e-05 4.42089513e-05 1.27441808e-06 0. 0. 0.</_>
    <_>
      0. 5.98626457e-06 4.58315990e-05 2.64996052e-04 -7.86429970e-04
      3.46588611e-04 1.03355467e-03 1.02026621e-03 1.16825383e-03
      -4.05138089e-05 -6.46069355e-04 -5.65055758e-04 -2.89942895e-04
      2.93024088e-04 7.41537544e-04 6.82779355e-04 3.39052989e-04
      5.85102607e-05 2.89734289e-05 0. 0. 1.54825873e-04 3.32785625e-04
      -5.62512250e-05 -9.27283196e-04 -1.19185177e-04 1.23478239e-04
      3.01976397e-04 4.82482516e-04 -2.97007908e-04 1.61706572e-04
      7.28867308e-04 7.74141736e-05 -3.87164764e-04 -5.77936822e-04
      -6.52596122e-04 -5.50141522e-05 -4.09412787e-05 2.89734289e-05 0.
      2.02076299e-05 1.61688207e-04 1.33140525e-03 6.91956782e-04
      3.30985291e-04 3.05571557e-05 -7.79303664e-04 -2.41032612e-04
      7.21597346e-04 -8.41962523e-04 -5.84494730e-04 2.91151548e-04
      -2.68753589e-04 -3.12755030e-04 -8.88788272e-05 -2.46087962e-04
      -1.04230159e-04 -5.05189644e-04 -2.28130128e-04 8.70366930e-05
      1.96463108e-04 -3.48718022e-04 9.16630030e-04 -5.66566305e-04
      3.60042104e-05 -1.09519220e-04 -1.06334174e-03 -2.52428872e-04
      8.87732545e-04 -5.27394761e-04 -7.23015866e-04 -2.17658337e-04
      -3.78403638e-04 -1.65545993e-04 -8.71562952e-05 3.98478383e-04
      1.35486072e-04 -5.01851435e-04 -4.97693021e-04 4.04504739e-04
      4.40698408e-04 -3.72088514e-04 -7.75659515e-04 -8.85819085e-04
      -4.42798424e-04 -9.18736987e-05 -6.81296398e-04 -5.70815522e-04
      6.66313630e-04 -1.14301602e-05 -1.79236158e-05 1.00022196e-04
      -6.17662212e-04 -1.00684963e-04 4.23638732e-04 -2.13887659e-04
      -4.24675178e-04 -1.46313600e-04 -1.78271948e-04 3.49757960e-04
      7.56890338e-04 -3.46134912e-05 -1.12443941e-03 -4.50485386e-05
      -2.25049778e-04 1.24821236e-04 -2.03350428e-05 -6.60327962e-04
      7.75409280e-05 -1.13579317e-05 7.02236866e-05 -1.24102362e-05
      -1.12751080e-03 -7.95094646e-04 -1.32123620e-04 -7.40966410e-04
      -3.29618808e-04 5.75473299e-04 3.84651474e-04 2.80834851e-04
      8.58087325e-04 5.55998849e-05 -8.20415968e-04 4.54950670e-04
      -3.75592062e-05 -1.30219720e-04 1.25391118e-04 -4.80261915e-05
      2.14449086e-04 1.53752859e-04 8.82946188e-05 -1.35944618e-04
      -9.07606678e-04 -8.21439666e-04 -4.33478504e-04 -6.25701272e-04
      1.02710248e-04 2.05184537e-04 -2.14307220e-04 2.04296826e-04
      6.81243895e-04 -3.00089232e-05 -4.29457112e-04 2.05054501e-04
      -2.43507675e-05 -3.18245264e-04 2.99212785e-04 9.60719888e-04
      6.05636276e-04 2.90388707e-04 1.44716920e-04 -1.40568693e-04
      8.18698318e-05 -8.30829813e-05 -2.68606800e-06 -1.50402513e-04
      -1.80232193e-04 -6.00458705e-04 -3.31113144e-04 1.94666121e-04
      5.05791570e-04 -1.56234484e-04 1.88886872e-04 3.35531717e-04
      4.88764024e-04 -7.34850619e-05 6.41257036e-04 1.24439516e-03
      5.81295812e-04 1.15473806e-04 -7.11899629e-05 -1.08905209e-04
      3.75749049e-04 5.90432282e-05 3.62066727e-04 6.04588189e-04
      1.33216803e-04 -5.20386966e-04 -6.57140554e-05 2.73911457e-04
      1.24866754e-04 -1.24806626e-04 3.08676914e-04 4.48218081e-04
      4.57293907e-04 1.05547762e-04 9.46942833e-04 9.65503859e-04
      2.39310364e-04 -1.34952104e-04 -3.60865146e-04 -1.68388084e-04
      2.37066401e-04 -1.05494342e-04 3.70089001e-05 9.16646735e-04
      3.40543600e-04 -2.66858609e-04 -3.49725771e-04 -6.80187426e-04
      -2.34724663e-04 4.53802168e-05 2.68389733e-04 5.00331284e-04
      3.58573132e-04 5.79493411e-04 1.10994850e-03 6.63404702e-04
      -1.85930156e-04 -4.32182918e-04 -5.12761704e-04 -2.70131102e-04
      4.29715255e-05 -1.76238333e-04 -2.17011519e-04 9.42021259e-04
      5.61935944e-04 -7.80418923e-05 -3.54058808e-04 -1.47553830e-04
      -6.16880599e-04 6.42694358e-05 6.08018599e-04 8.61973152e-04
      2.66780757e-04 7.92792765e-04 1.03706087e-03 3.74524185e-04
      -4.99811489e-04 -6.16878271e-04 -5.75833779e-04 -4.30887943e-04
      -4.60978590e-05 -1.07368629e-04 -4.86619072e-04 8.73982324e-04
      6.59331505e-04 1.42944380e-04 -3.94955219e-04 3.54432617e-04
      -2.73115322e-04 9.42256447e-05 3.33050761e-04 8.20572663e-04
      -3.25863686e-04 1.16050331e-04 6.31883740e-04 3.36630910e-04
      -5.40606270e-04 -6.50372764e-04 -5.34482300e-04 -4.39199037e-04
      1.39662501e-04 -2.03751275e-04 -1.95801549e-04 8.02951050e-04
      7.87223398e-04 -1.06205931e-04 -5.92077267e-04 4.83990239e-04
      -5.53117607e-05 -4.83098003e-04 -5.27773343e-04 2.21254901e-04
      -2.01506031e-04 -2.10507220e-04 5.11326012e-04 4.45311656e-04
      -3.95528623e-04 -6.81749312e-04 -5.23813243e-04 -2.08512036e-04
      7.28517305e-04 4.40598251e-06 2.27457247e-04 6.40009879e-04
      6.65385160e-04 -4.18773649e-04 -3.16761463e-04 3.31714982e-04
      2.08588426e-05 -5.16193570e-04 -1.05139962e-03 -3.61263636e-04
      -2.08893951e-04 -2.54647544e-04 -2.34295701e-04 -4.58282157e-04
      -1.32641435e-04 -3.08598886e-04 -1.40665405e-04 3.35107325e-04
      1.10062608e-03 2.53964885e-04 3.78186232e-04 5.09458652e-04
      6.37276738e-04 -4.99970745e-04 -8.46537023e-06 1.44659396e-04
      2.03856791e-04 -3.76469252e-05 -8.99866631e-04 -9.30067676e-04
      -3.94391769e-04 1.19214519e-05 -2.11386083e-04 -5.01609000e-04
      1.57014831e-04 -3.54700722e-04 -1.24523547e-04 -1.15693524e-07
      7.36666203e-04 7.40057614e-04 6.67278247e-04 1.58064970e-04
      3.95199686e-06 3.21750762e-04 4.80888528e-04 1.67700811e-04
      2.08654426e-04 7.49025145e-04 3.32243275e-04 -4.78366681e-04
      -2.54458166e-04 3.27063201e-04 7.92627325e-05 3.14148456e-05
      3.03485227e-04 -1.77202179e-04 -1.46052225e-05 -7.26095634e-04
      -4.64643555e-04 2.33802901e-04 3.60723468e-04 -5.02025709e-04
      -1.11922261e-03 7.27583771e-04 6.65707979e-04 2.05818738e-04 0.
      3.59097292e-04 3.74003343e-04 6.50464266e-04 1.59577103e-04
      -1.80426767e-04 2.49827193e-04 6.64842810e-05 5.31017504e-05
      2.90207281e-05 -1.39206953e-04 -2.78557156e-04 -1.67817358e-04
      -2.42787224e-04 -4.53917310e-04 -3.57523269e-04 -6.99522439e-04
      4.27218940e-04 2.02446172e-04 8.57051637e-05 0. 0. 8.20766654e-05
      1.21469187e-04 -2.41347967e-04 -9.91069013e-04 2.73227139e-04
      4.08940803e-04 -2.23833049e-04 -4.65736724e-04 -3.85708379e-04
      -1.72557076e-04 -1.36469738e-04 -1.28796935e-04 4.13312046e-05
      3.17130820e-04 1.23903097e-04 1.00996105e-04 0. 0. 0. 0.
      2.99907715e-05 5.02767580e-05 2.43333940e-04 2.45727933e-05
      6.40015816e-04 6.96668227e-04 -1.27236897e-04 -5.55125298e-04
      -4.17630072e-04 -1.18968194e-06 -1.91633197e-04 -2.79362110e-04
      2.11339502e-04 2.53706938e-04 9.33191768e-05 -7.39056341e-05 0. 0.</_>
    <_>
      0. 1.52319433e-06 8.76139495e-07 3.16093110e-06 6.00124826e-04
      4.14370734e-04 2.22905714e-04 -8.04823067e-05 -6.23071173e-05
      7.95096857e-05 -9.35741264e-05 -1.99805465e-04 -6.53978059e-05
      2.46914627e-04 -3.88347507e-05 2.09784805e-04 1.44046018e-04 0. 0.
      0. 0. 5.59773944e-05 3.21981242e-05 -9.44504336e-06 2.60199915e-04
      -3.11501681e-05 -2.13883963e-04 -1.29768479e-04 7.82129155e-06
      6.92138565e-05 5.04296877e-05 -1.08350221e-04 -2.86173425e-04
      3.80805322e-05 -3.21332336e-04 -7.45771540e-05 4.78496877e-05
      -4.37326235e-05 0. 0. 7.06625360e-06 2.63673399e-04 2.06801502e-04
      -3.61002167e-05 4.30728178e-05 -1.49641928e-04 -2.39918329e-04
      2.36488650e-05 1.68721002e-04 1.55121117e-04 -8.56990955e-05
      -3.55636672e-04 -3.29526549e-04 -2.35438638e-05 -1.39586162e-04
      -2.33351675e-04 -1.01916463e-04 -4.23461170e-04 -2.16959394e-04
      -2.73254445e-05 -6.90750530e-05 4.53454762e-04 3.01127176e-04
      -1.24529570e-05 8.11161299e-05 1.24249682e-05 -1.42727265e-04
      1.27977628e-05 3.79469457e-05 -2.04460430e-05 -1.49355052e-04
      -3.21511150e-04 -3.01412569e-04 -3.74381307e-05 -9.16124554e-05
      -3.33810924e-04 -8.67249037e-05 -4.96554305e-04 -3.40376369e-04
      -4.67206009e-05 8.51184959e-05 1.93719665e-04 1.63576158e-04
      -7.32882763e-05 -8.49690259e-05 -9.48793459e-05 -1.73692519e-04
      1.81929834e-04 1.49171494e-04 -1.17643853e-04 -2.20276299e-04
      -2.99266569e-04 -3.60558101e-04 -1.03514336e-04 -1.49383632e-04
      -3.97421914e-04 -2.95843609e-04 -4.84883989e-04 -3.40167666e-04
      -1.85696539e-04 3.35816949e-05 1.15303021e-06 -4.87619836e-05
      -2.28679783e-05 -1.42331948e-04 -1.99348724e-04 2.58509262e-05
      3.37817619e-04 2.62858812e-04 -1.52751774e-04 -2.64607108e-04
      -2.02433745e-04 -2.25886266e-04 -2.13725565e-04 -1.98582478e-04
      -4.68226586e-04 -4.62014694e-04 -3.16013116e-04 -2.51168880e-04
      -3.32389347e-04 -2.90801818e-05 -5.58486063e-05 -1.17717456e-04
      -1.19038114e-05 -5.48821008e-05 -1.18310942e-04 1.49383864e-04
      3.70948866e-04 2.59168504e-04 -4.01384641e-05 -2.60261295e-04
      -1.18142692e-04 -5.68377545e-05 -2.03542571e-04 -1.50335356e-04
      -3.39597464e-04 -4.43361845e-04 -1.66485232e-04 -1.12319074e-04
      -2.71459983e-04 1.11151283e-04 1.43733007e-04 1.27645486e-04
      2.24330288e-05 1.99177404e-04 1.59592018e-04 2.35327083e-04
      3.53402400e-04 1.89684855e-04 -9.86298692e-05 -4.34865127e-04
      -1.78524002e-04 -8.43527087e-05 -2.65219889e-04 -3.57801182e-05
      -1.22917088e-04 -2.21116163e-04 -1.71498221e-04 -9.21282481e-06
      3.87299860e-06 2.28077915e-04 3.45341017e-04 5.03915129e-04
      1.51774686e-04 6.53236522e-04 6.26903842e-04 4.29887557e-04
      3.39560473e-04 8.36646868e-05 -2.75502971e-04 -6.04922010e-04
      -4.23539983e-04 -2.76109989e-04 -3.11265845e-04 -1.19642846e-05
      2.79727305e-04 6.67745480e-05 -1.66409649e-04 6.80742160e-05
      2.42223410e-04 2.26165692e-04 3.73323826e-04 6.93722861e-04
      3.69016372e-04 7.96761306e-04 9.43975232e-04 6.81809965e-04
      3.26026988e-04 -5.31487422e-05 -4.11990593e-04 -6.53878029e-04
      -5.26844000e-04 -3.91749549e-04 -4.87325742e-04 -7.39257666e-06
      4.69008868e-04 2.12989893e-04 -2.46134121e-04 3.47024070e-05
      2.79810862e-04 1.43238271e-04 4.28182946e-04 4.96582303e-04
      4.11711342e-04 9.38989455e-04 1.12455268e-03 8.29954864e-04
      3.25722562e-04 -1.92376930e-04 -4.30976303e-04 -5.15881227e-04
      -3.83339619e-04 -3.71616799e-04 -5.85939502e-04 -9.95316295e-05
      3.96432646e-04 2.66229617e-04 -2.18999427e-04 -6.64623949e-05
      2.54382961e-04 6.03108529e-05 4.68987942e-04 3.97486787e-04
      3.85577878e-04 9.62540857e-04 1.19554414e-03 8.34013859e-04
      3.33622273e-04 -1.59734467e-04 -3.13242723e-04 -2.69078999e-04
      -1.69761624e-04 -2.36349006e-04 -3.32806376e-04 -9.69644025e-05
      4.28666826e-04 1.30853310e-04 -2.04901458e-04 -1.97890389e-04
      2.37618966e-04 -2.08572674e-05 2.27004493e-04 1.81694966e-04
      1.94813867e-04 7.41217344e-04 1.10003131e-03 7.67576450e-04
      3.16097605e-04 -9.80755140e-05 -2.76103267e-04 -2.58845219e-04
      -1.36610295e-04 -1.63259392e-04 -2.00674287e-04 -6.30944851e-05
      2.93471268e-04 1.16408250e-04 -1.54251233e-04 -2.87473289e-04
      7.48039674e-05 -1.59467527e-04 -9.11345196e-05 2.70452938e-06
      5.39782741e-05 2.96873739e-04 6.86763495e-04 6.12967182e-04
      3.55547323e-04 -3.61988932e-05 -2.21916605e-04 -2.29312092e-04
      -1.08358588e-04 -1.06038839e-04 -8.71796583e-05 -7.07234221e-06
      3.40035767e-05 2.69215752e-06 -1.43733807e-04 -2.39712477e-04
      -1.04915358e-04 -2.46826850e-04 -1.42694233e-04 7.64228957e-07
      2.33725841e-05 2.82184374e-05 1.20502911e-04 3.31971969e-04
      2.65547889e-04 -1.79285580e-05 -1.06549174e-04 -1.35054070e-04
      -9.50655522e-05 -9.95328810e-05 -1.95568704e-04 -5.20333961e-05
      -9.91819907e-05 -1.76224057e-04 -2.76313280e-04 -2.07409961e-04
      -1.79248309e-04 -1.17029318e-04 -8.13543156e-05 1.09242224e-04
      -2.34389936e-05 -8.20630521e-05 1.60223080e-05 5.72838217e-05
      1.17015021e-04 -3.62704886e-05 -1.28860032e-04 -9.21189494e-05
      -1.68388593e-04 -1.80963892e-04 -2.41733505e-04 -7.65453879e-05
      -1.93135085e-04 -1.85822180e-04 -5.26828808e-04 -2.69809883e-04
      -6.65228799e-05 -3.72809991e-05 -1.44597216e-04 -1.73069566e-04
      -9.84127109e-05 -1.41942946e-04 1.33875466e-04 1.35564100e-04
      8.67716881e-05 -2.39664194e-04 -2.76955223e-04 -4.49916297e-05
      -2.80161941e-04 -2.34481646e-04 -8.83473040e-05 -2.51015877e-06
      -4.60237134e-05 2.63524066e-06 -4.77233290e-04 -3.69808811e-04
      -7.31492619e-05 0. -9.12097676e-05 -2.34788386e-04 4.04508046e-06
      -1.12205140e-04 1.11064626e-04 1.44570149e-04 -1.14238455e-05
      -1.84787161e-04 -1.16636525e-04 -2.47550870e-05 -1.53345842e-04
      -1.06081156e-04 2.67488194e-05 6.56303598e-07 -1.41687240e-04
      -6.79045697e-05 -6.25747314e-04 -3.42057552e-04 -3.83423940e-05 0.
      0. 2.05631241e-05 1.79490584e-04 -4.07178504e-06 -1.01691912e-05
      5.67671595e-05 2.89950822e-05 -2.25020540e-05 9.75947332e-05
      2.31349568e-05 1.35709752e-05 1.79203475e-04 1.44839825e-04
      -2.30374717e-05 -1.60688709e-04 -3.12538687e-05 -9.40551981e-05 0.
      0. 0. 0. 7.61597164e-07 6.38668207e-05 9.13199110e-05
      -6.17825549e-07 1.12193520e-04 -1.81158204e-04 -8.80647058e-05
      -2.17641646e-05 3.25018391e-06 6.89003136e-05 1.95833869e-04
      6.73133400e-05 -3.01492430e-04 -1.57780509e-04 -2.54822498e-05
      -4.12497502e-05 0. 0.</_>
    <_>
      0. 0. 0. 0. 1.91801519e-06 1.47045730e-05 -1.12218535e-04
      -4.29516454e-04 -2.72759935e-04 2.01898540e-04 -1.26375700e-04
      -6.62381863e-05 7.36310263e-04 4.86486097e-04 2.88786861e-04
      6.70952664e-04 3.63911022e-05 -3.09894385e-04 -1.65224497e-04 0.
      0. 0. 0. 2.15530690e-05 1.55259986e-04 3.21653148e-04
      2.43851155e-05 3.62677674e-05 4.95824905e-04 6.18817867e-04
      2.52590573e-04 2.40529815e-04 6.93067966e-04 3.15939833e-04
      -3.32063268e-04 -1.03781640e-04 1.43130310e-04 -2.05851829e-04
      -1.64874378e-04 0. 2.73266352e-07 1.68455354e-05 8.34668099e-05
      1.36554227e-04 4.01048921e-04 7.33901688e-04 3.13731376e-04
      3.89831810e-04 9.24572290e-04 9.64766892e-04 1.68099417e-04
      2.85755505e-05 1.32445406e-04 1.77617621e-05 -4.12526540e-04
      -3.44726868e-04 3.04171786e-04 2.20367583e-04 1.14884155e-04
      1.07306099e-04 0. 2.77155232e-05 1.25891616e-04 3.25362547e-04
      5.33746206e-04 7.23239675e-04 3.42641899e-04 2.79765256e-04
      5.42503025e-04 5.41442249e-04 3.89356392e-05 -1.81221141e-04
      -2.95102291e-05 -9.09035371e-05 -2.92259705e-04 -1.38884381e-04
      3.77235789e-04 4.80777489e-05 1.86856792e-04 3.20961495e-04
      3.69882531e-04 2.53397564e-04 2.76053586e-04 4.62875003e-04
      4.78728733e-04 5.26119373e-04 3.81701866e-05 1.68623679e-04
      3.58742409e-06 1.38526055e-04 5.97110613e-07 -2.36036329e-04
      1.79267183e-04 4.98465852e-05 2.56277999e-04 1.16929041e-04
      2.72177887e-04 2.31737286e-04 4.79102717e-04 3.99198761e-04
      4.88977705e-04 5.44872892e-04 3.77886376e-04 3.39685561e-04
      3.45000240e-04 4.66936326e-04 2.61062698e-04 1.56372480e-04
      -2.91401870e-04 -3.01143096e-04 -7.35329886e-05 -1.31543595e-04
      1.41100027e-04 1.34093905e-04 3.45478737e-04 1.53847996e-05
      5.77411993e-05 2.91350821e-04 6.72590802e-04 3.12593125e-04
      4.15810617e-04 5.33888291e-04 3.08216840e-04 3.86123022e-04
      2.08079291e-04 7.71440536e-05 2.15947948e-04 1.01460180e-04
      -5.73018857e-04 -4.62215365e-04 -5.86906535e-05 7.35940557e-06
      -3.85613821e-05 9.10777162e-05 3.44278029e-04 4.71873900e-05
      1.21514320e-04 3.80156911e-04 7.04931270e-04 3.19772633e-04
      1.95358283e-04 1.85690718e-04 2.61915557e-04 6.13711716e-04
      5.64306742e-04 7.22758923e-05 -6.30181676e-05 -2.85422720e-04
      -7.43270444e-04 -3.71781760e-04 8.44351744e-05 2.22639152e-04
      -1.43266501e-04 2.77676809e-05 3.27431975e-04 1.78595044e-04
      3.43669730e-04 3.88614630e-04 6.79030549e-04 4.70829924e-04
      2.33552084e-04 -3.89243687e-05 7.05295242e-05 3.79241450e-04
      8.22815462e-04 4.29290259e-04 3.96238875e-06 -5.75837272e-04
      -4.31637338e-04 -1.61318851e-04 7.09328524e-05 2.98432889e-04
      3.26447553e-05 -2.40709473e-04 4.54954497e-05 4.86438454e-04
      5.55871811e-04 3.61332204e-04 4.76240937e-04 3.58723715e-04
      -1.86749749e-05 -3.97998432e-04 -1.86629535e-04 -9.24562846e-05
      -1.99792150e-04 1.58147537e-04 1.51402390e-04 -1.86125442e-04
      -2.45856627e-05 -3.21792431e-05 1.64576177e-05 3.63760890e-04
      1.81495401e-04 -4.42904158e-04 -9.92869245e-05 7.48513325e-04
      6.15914527e-04 2.72465200e-04 1.25191087e-04 -2.51275342e-05
      -2.47778225e-04 -6.58024452e-04 -4.62854223e-04 -3.05436290e-04
      -3.43570340e-04 1.24925849e-04 1.87383106e-04 3.22255328e-05
      2.11965758e-04 4.07440848e-06 -3.01962864e-05 3.22551990e-04
      2.75146274e-04 -2.88089941e-04 1.07049542e-04 9.39410762e-04
      7.08424661e-04 8.18866611e-05 2.21430082e-06 -1.30404616e-04
      -1.97962418e-05 -6.34928001e-04 -5.88033290e-04 -1.18847465e-05
      -4.41879325e-04 1.42612713e-04 2.62625290e-05 -3.55253651e-05
      2.01046758e-04 -5.50492223e-05 -2.46644748e-04 -6.82355385e-05
      1.98011272e-04 2.48264056e-04 2.88744137e-04 7.31233333e-04
      7.75208246e-05 -3.37914127e-04 -9.27215442e-05 -1.57071641e-04
      3.81321479e-05 -3.52748379e-04 -4.03311133e-04 -4.16100665e-04
      -4.87689511e-04 1.48437379e-04 -1.04908919e-04 -2.78700638e-04
      -3.94961753e-05 -1.29349297e-04 -2.76898500e-04 -1.96936715e-04
      -2.37036860e-04 -1.07632259e-04 -1.36851722e-05 -1.47995292e-04
      -1.99087182e-04 -5.64925314e-04 -3.26061680e-04 -5.67833704e-05
      -9.83009304e-05 -8.70519489e-06 -2.23664319e-04 -4.67474019e-04
      -3.06771981e-04 -8.60810324e-05 -3.25241330e-04 -1.97952875e-04
      -2.20671209e-04 -3.21898056e-04 -2.05614386e-04 -2.18959336e-04
      -2.87932635e-04 -4.43721336e-04 -7.38002011e-04 -7.50489009e-04
      -2.78671941e-04 -4.75579262e-04 -3.36369063e-04 -2.17983834e-04
      -1.06466810e-04 1.14462047e-04 9.79557226e-05 -1.00359939e-04
      -6.70816589e-05 -4.98487731e-04 -4.22350422e-04 -3.15046287e-04
      -4.35785012e-04 -6.60606078e-04 -5.91842807e-04 -3.77659104e-04
      -2.44147261e-04 -4.31772351e-04 -9.80247627e-04 -1.01499073e-03
      -4.55473026e-04 -5.07706252e-04 -2.64009985e-04 -4.80642950e-04
      1.09228222e-05 2.83262780e-04 4.23591555e-04 5.05607095e-05
      -1.53035042e-04 -1.88505859e-04 -3.00118118e-04 -3.91465554e-04
      -5.01335773e-04 -4.97592962e-04 -2.88179639e-04 -1.31283989e-04
      -2.67157011e-04 -3.91824899e-04 -4.34766145e-04 -1.01979426e-03
      -7.30803935e-04 -3.98413074e-04 -2.65179027e-04 -4.19381948e-04
      8.55762119e-05 2.45715928e-04 6.79999503e-05 -2.45629519e-04
      -2.43017581e-04 2.30288875e-04 -5.01260292e-05 1.11707683e-04
      1.55745351e-04 8.64162066e-05 1.06042746e-04 -1.40524047e-04
      -2.66137329e-04 -3.75714939e-04 1.05983367e-04 -5.08941768e-04
      -5.19921537e-04 -5.33690501e-04 -3.50930670e-04 -5.72908379e-04 0.
      7.27687147e-05 1.23479593e-04 8.74294201e-05 -1.39258846e-04
      2.95459962e-04 2.95865757e-04 5.93470701e-04 6.64728344e-04
      5.47266449e-04 1.58533803e-04 -6.40800636e-06 1.49894613e-05
      -1.93034575e-04 2.47018877e-04 -2.72025587e-04 -1.59073563e-04
      -5.16555388e-04 -2.06956873e-04 -2.05823773e-04 0. 0.
      1.19040969e-05 4.33559071e-05 -1.37606941e-04 1.25332692e-04
      6.59886282e-04 5.66150935e-04 3.83723149e-04 4.09364497e-04
      -3.92525253e-05 -1.03240440e-04 1.94741195e-04 3.20308725e-04
      2.68002390e-04 -2.41121932e-04 -2.21249211e-04 -3.33109841e-04
      -1.64874378e-04 0. 0. 0. 1.15539760e-05 5.46445226e-05
      9.94865404e-05 7.89215410e-05 2.11234350e-04 -1.13893206e-04
      -1.14260154e-04 -1.86993886e-04 -3.21021042e-04 -2.30717225e-04
      -7.41924305e-05 2.94329966e-05 -1.16720999e-04 -4.99140180e-04
      -4.19567863e-04 -3.78223893e-04 -1.65224497e-04 0.</_>
    <_>
      0. 3.94484459e-06 3.94484459e-06 -3.47521127e-04 -5.96021826e-04
      -2.56257801e-04 -9.28310183e-05 -8.68882707e-05 -3.05873255e-04
      -5.93151606e-04 -3.74993222e-04 8.99436563e-05 1.55439353e-04
      -1.14421906e-04 -1.07797641e-04 1.15670169e-04 1.10629306e-04 0.
      0. 0. 0. 1.44973033e-04 1.44973033e-04 -1.42279197e-04
      -2.11724939e-04 -2.34518797e-04 -1.52516688e-04 1.83238899e-05
      -1.44425954e-04 -3.77154618e-04 7.23459889e-05 2.69804645e-04
      8.22422007e-05 -4.86038014e-04 -5.35353203e-04 -2.58305983e-04
      -1.37643956e-05 -4.24768077e-05 0. 0. -3.19756073e-05
      6.26064502e-05 -8.13452934e-05 2.15582477e-04 3.81293648e-04
      -6.94419359e-05 -1.39839511e-04 -6.48340501e-05 -1.00897632e-04
      -1.09916815e-04 2.36488602e-04 3.49945738e-04 -8.54414466e-05
      -4.03556623e-04 -3.97044292e-04 -1.08455213e-04 -6.20334549e-06
      -2.41244663e-04 -2.07220481e-04 -1.35635666e-04 -5.39750734e-04
      -1.68327053e-04 -3.70283582e-04 -2.01860443e-04 4.41372191e-04
      3.27177986e-04 1.60448311e-04 -3.24164022e-04 -1.93102998e-04
      -7.49707169e-06 1.11206529e-04 1.79106137e-04 9.80505938e-05
      -2.30176694e-04 -4.14448470e-04 -6.16428633e-06 3.03780660e-04
      -7.38416493e-05 -1.42949997e-04 -3.02651781e-04 -2.27829820e-04
      -7.17029397e-05 -2.35526910e-04 -2.25613941e-04 4.96058958e-04
      5.28211065e-04 9.51360489e-05 -4.74331522e-04 -2.93541729e-04
      -5.52274345e-04 -2.07957608e-04 -8.47518750e-05 8.68630086e-05
      -4.01120196e-05 -1.17830525e-04 1.54642024e-04 4.85435652e-04
      1.60634998e-04 1.30572676e-06 -1.26177139e-04 6.73040631e-05
      -9.81281300e-06 -8.90500887e-05 -1.12895723e-04 3.67142755e-04
      2.34995474e-04 -6.70053560e-05 -3.12871678e-04 -4.12609719e-04
      -7.37435650e-04 -2.98004248e-04 1.12027403e-04 2.20565416e-04
      3.27010421e-05 7.08378366e-06 2.92742297e-05 4.34291665e-04
      3.80382873e-04 2.24846386e-04 1.55776479e-06 2.59560300e-04
      5.23872404e-06 -9.19926460e-05 -1.80516829e-04 6.72056194e-05
      -1.42314340e-04 -7.16488721e-05 -1.63482313e-04 -3.34683689e-04
      -4.11096553e-04 -2.03447096e-04 1.88570208e-04 1.70227620e-04
      3.00721120e-04 5.28762001e-04 -8.75047626e-05 4.20040247e-04
      4.21023113e-04 5.05440985e-04 6.87583888e-05 2.43079397e-04
      1.97172179e-04 -4.77853282e-05 -9.58196506e-06 4.26230727e-05
      -1.68723622e-04 2.47444259e-04 3.29950999e-04 -1.51583110e-04
      -5.53155784e-04 -5.85883157e-04 -5.47530326e-05 -1.50778360e-04
      7.55451038e-05 6.14177028e-04 1.96197536e-04 4.76411195e-04
      5.19635738e-04 5.84914815e-04 2.13017629e-04 2.25467127e-04
      3.89990688e-04 7.92428254e-05 2.28969307e-04 9.45589927e-05
      4.97436777e-05 2.98757426e-04 2.09450925e-04 -4.79180162e-04
      -1.00028096e-03 -1.04921544e-03 -5.62306610e-04 -5.67525334e-04
      -3.32913973e-04 6.59313344e-04 7.43120210e-04 3.78873316e-04
      5.84477675e-04 6.51390234e-04 3.27166606e-04 1.97866015e-04
      5.11454768e-04 1.76950853e-04 1.79536306e-04 1.31557084e-04
      -5.05097960e-05 2.13192234e-05 -4.06612467e-04 -7.29496765e-04
      -9.94834816e-04 -1.09257968e-03 -7.08017033e-04 -4.64630051e-04
      -4.50953376e-04 5.12409548e-04 8.42463691e-04 -1.23174643e-04
      3.77655408e-04 6.19135855e-04 2.96927930e-04 1.25315142e-04
      4.92194667e-04 3.18054721e-04 1.67670223e-04 3.62397433e-04
      1.47809638e-04 1.34570131e-04 -1.82003787e-04 -3.32732539e-04
      -3.91122274e-04 -4.23786289e-04 -5.62215340e-04 -4.20414581e-04
      -3.30600888e-04 1.66032536e-04 4.89929633e-04 -6.36786217e-06
      1.07065724e-04 4.20626922e-04 2.70514050e-04 5.27642733e-05
      4.72147629e-04 5.65476133e-04 4.04913182e-04 6.35864271e-04
      4.73051245e-04 4.36537841e-04 1.19208511e-04 1.90791659e-04
      2.78271677e-04 2.87200848e-04 -1.78618531e-04 -3.14464851e-04
      -9.25613349e-05 2.71216177e-05 1.18259748e-04 -3.63166386e-04
      -3.02919012e-04 4.40743133e-05 1.65496545e-04 0. 4.20816155e-04
      6.01947482e-04 4.98899259e-04 6.18721533e-04 6.87840919e-04
      6.91202178e-04 5.54863014e-04 4.88376652e-04 7.72116822e-04
      7.41077529e-04 2.13131992e-04 -1.52985333e-04 2.39824294e-04
      1.35102397e-04 -2.32440478e-04 -3.14502657e-04 -5.41679095e-04
      -2.38649605e-04 -2.68896056e-05 0. 3.27713933e-04 4.47640981e-04
      1.75058973e-04 2.89647782e-04 7.72623403e-04 6.98532618e-04
      6.21936284e-04 6.15869008e-04 8.00758193e-04 7.98972906e-04
      3.89210094e-04 6.04644374e-05 6.09206210e-04 1.99899223e-04
      -3.14455887e-04 -1.11613779e-04 -3.72035574e-04 -3.12325050e-04
      -5.73858197e-05 0. 2.36914275e-04 3.08674003e-04 -7.47649901e-05
      -1.71521358e-04 4.02639474e-04 6.32466516e-04 6.27274858e-04
      5.17799752e-04 5.58153377e-04 5.71560231e-04 4.32430330e-04
      2.88962532e-04 4.60658368e-04 2.21895447e-04 -2.51466408e-04
      -8.54935661e-06 -1.37537980e-04 -3.38086422e-04 -1.28370866e-05
      -7.29375506e-06 1.54172259e-04 1.53951434e-04 -7.90143604e-05
      -5.94081175e-05 2.31034239e-04 3.72339622e-04 6.42719038e-04
      7.18775322e-04 4.98696172e-04 3.29012284e-04 2.75143742e-04
      1.18016920e-04 -1.88643258e-04 2.33959887e-04 -2.60996778e-04
      -5.26750868e-04 -2.25364653e-04 -2.39397574e-04 -8.65867551e-05 0.
      -9.78641128e-06 -4.35876609e-05 8.14521336e-05 4.35649636e-05
      -2.21919458e-04 1.63553515e-04 5.41747373e-04 7.50800362e-04
      2.50745157e-04 -1.25475795e-04 -1.03286511e-04 1.22036850e-04
      -4.01363272e-04 6.08958508e-05 -4.79916089e-05 -4.18651762e-04
      -2.41925954e-04 -2.66661773e-05 -2.11976905e-04 0. -6.82765676e-05
      -1.02221384e-04 -4.60668925e-05 -1.29670379e-05 -5.68273535e-04
      -3.11980766e-05 2.55185994e-04 -2.22561303e-05 -1.80423114e-04
      -1.81676063e-04 -2.88975367e-04 -1.76542613e-04 -3.10728647e-04
      -1.05009698e-04 -2.65550276e-04 -2.43611677e-04 1.90340324e-05
      1.16957352e-04 -1.15972420e-04 0. 0. 5.32554004e-05 2.46165786e-04
      1.46225429e-04 -5.13237901e-04 -4.26093349e-04 5.54467915e-05
      -1.36944756e-04 -2.13201798e-04 -1.33142647e-04 -1.21850477e-04
      -1.99429924e-04 -1.16773350e-04 -5.46486399e-06 -3.64392297e-04
      -1.17437376e-04 4.10732537e-06 0. 0. 0. 0. 1.97242230e-06
      6.52614690e-05 2.85021903e-04 1.35548471e-04 9.66940424e-05
      3.84914019e-04 4.52649583e-05 -2.84785347e-04 -2.15444146e-04
      8.74245416e-06 1.52887820e-04 1.91655417e-04 1.33090900e-04
      -1.09220855e-05 -6.55126087e-07 0. 0. 0.</_>
    <_>
      0. 0. 0. 0. -4.34817775e-05 -1.20502978e-03 -3.11807176e-04
      9.65717263e-05 -1.71605905e-04 -3.33705888e-04 -1.31698267e-04
      -3.43371107e-06 -3.14393947e-05 -1.22316909e-04 5.68427749e-05
      6.15175377e-05 4.74810658e-05 1.85200752e-05 4.36544633e-06 0. 0.
      0. 0. 1.68642466e-04 5.18626359e-04 -5.57760766e-04 3.81227524e-04
      6.07498281e-04 -3.49287526e-04 -4.75194247e-04 5.21597103e-05
      -4.22839912e-05 2.20699840e-05 -1.21008241e-04 -2.66782939e-04
      -2.31180689e-04 -8.32612295e-06 3.05897483e-05 4.49773279e-06 0.
      1.71619340e-05 1.70891755e-04 -2.62077287e-04 4.60977142e-04
      9.78567987e-04 -3.52438539e-04 2.90505384e-04 3.09416733e-04
      -1.01902922e-04 3.15859215e-04 -1.61754957e-04 5.28795463e-05
      3.96554424e-05 -2.50374113e-04 9.29939119e-07 -2.34751096e-05
      5.25572541e-05 4.37744347e-05 4.99328162e-05 1.87931291e-04 0.
      7.09687418e-04 -6.98556483e-04 -5.06571887e-05 4.70913481e-04
      -3.25055269e-04 9.67442291e-04 6.02257132e-05 1.96067544e-04
      8.46542884e-04 1.34015689e-04 3.47058347e-04 2.19312336e-04
      -3.65118503e-05 -8.82029781e-05 -4.51332962e-05 -1.45775502e-05
      -3.23214510e-04 -4.56293346e-04 5.57858322e-04 2.83937297e-05
      3.61722312e-04 -1.77148919e-04 -2.76857871e-04 5.40084555e-04
      -1.81493902e-04 5.57114487e-04 2.01056246e-04 6.47971116e-04
      1.71043896e-04 8.35839455e-05 2.87384726e-04 -1.39347176e-04
      3.52756324e-04 3.78903234e-04 -2.83269939e-04 -3.97609751e-04
      -6.34009077e-04 -3.39112303e-04 4.13073401e-04 3.20442414e-05
      1.61872827e-04 2.58823740e-04 -3.23727261e-04 5.21385926e-04
      1.45804894e-04 -8.85884510e-05 2.29644895e-04 9.72015783e-04
      5.43642207e-04 1.54780369e-04 2.99747102e-04 5.45019808e-04
      9.50819289e-04 4.82653908e-04 -5.25605516e-04 -3.07150214e-04
      -3.88848333e-04 4.25355596e-04 3.04754474e-04 -1.03526190e-06
      1.75598339e-04 5.41971349e-05 -3.98483913e-04 1.80873714e-04
      -3.28852548e-05 -3.99094482e-04 4.76316607e-04 7.91549624e-04
      2.68207339e-04 -2.07132707e-05 3.63607949e-04 4.10284003e-04
      6.16625475e-04 7.24746205e-04 3.11775366e-04 -1.13404487e-04
      4.16926814e-05 9.42213752e-04 1.05394931e-04 -1.52818393e-05
      -8.62461820e-06 -2.16490254e-04 -4.50130756e-04 -4.19493095e-04
      -6.74908631e-04 -1.04199641e-03 -1.64089855e-04 -6.19097089e-04
      -8.40378401e-04 -8.61339970e-04 -3.24580411e-04 -4.12533438e-04
      -1.87222933e-04 7.44034536e-04 1.00399763e-03 5.84395544e-04
      5.49525779e-04 9.16008314e-04 4.34245681e-04 -1.82800613e-05
      -5.25853538e-05 -5.42780268e-04 6.28320486e-05 -6.46444169e-05
      -5.25374082e-04 -6.86668674e-04 -5.83048910e-04 -7.46974256e-04
      -3.21627740e-04 -4.17558360e-04 -5.59892680e-04 -4.16949886e-04
      -3.42857500e-04 3.62542953e-04 1.16433890e-03 1.80316507e-03
      1.00865238e-03 9.11523646e-04 6.69082510e-04 2.53109156e-05
      -4.90935403e-04 -7.85652082e-04 1.90809515e-04 1.35562790e-04
      -1.56520179e-03 -7.31131076e-05 -1.99947506e-04 -1.09152636e-03
      -1.01410330e-03 -6.94199465e-04 -1.05015957e-03 -9.01577238e-04
      -2.11824226e-04 2.91325967e-04 3.94974486e-04 8.10354191e-04
      9.33593314e-04 8.22806905e-04 6.37345656e-04 1.69830717e-04
      -3.43247928e-04 -7.37876573e-04 6.30467257e-05 -8.89610164e-05
      -1.88197242e-03 -3.29118629e-05 -2.17614739e-04 -1.31344667e-03
      -2.07144627e-03 -1.53695641e-03 -1.33748935e-03 -1.57255924e-03
      -4.86453617e-04 6.03518391e-04 -2.03970358e-05 1.68925631e-04
      8.93789751e-04 7.82551244e-04 6.45624939e-04 4.51567263e-04
      -2.38652046e-05 -6.27405185e-04 1.52924360e-04 7.57732487e-05
      -1.84694701e-03 1.42271834e-04 -2.56131869e-04 -1.20607356e-03
      -8.10850703e-04 3.65737214e-04 2.23360577e-04 -8.97592516e-04
      4.18862473e-04 1.46123185e-03 7.90321967e-04 -5.37201704e-04
      2.88543561e-05 5.16571628e-04 5.97693899e-04 1.46573890e-04
      -8.64595422e-05 -6.12506294e-04 8.25054231e-05 -1.24399867e-06
      -5.80367807e-04 3.77579127e-04 4.58494906e-04 -4.71776206e-04
      1.61935561e-04 1.19576219e-03 8.87200877e-04 1.02711849e-04
      5.08019468e-04 1.41953817e-03 -8.42708105e-05 -7.79700407e-04
      -4.91277548e-04 -4.20320503e-05 2.81798159e-04 -2.38792942e-04
      -2.42236914e-04 -3.60739330e-04 -1.22073267e-04 -3.53408177e-05
      -3.04997870e-04 2.58828455e-04 1.18747225e-03 3.52861098e-04
      6.22517138e-04 1.30625162e-03 6.84046652e-04 4.02644335e-04
      3.41326027e-04 -4.26691375e-04 -1.25915778e-03 -7.91155151e-04
      -3.70066409e-04 -2.42433525e-04 -1.82306161e-04 -4.76466899e-04
      -2.64039409e-04 -7.60197581e-05 -1.36046030e-04 4.44329577e-04
      -3.41936277e-04 -2.29263205e-05 8.40505585e-04 6.07871974e-04
      4.77916561e-04 7.72361003e-04 6.12712640e-04 4.41986864e-04
      2.42208989e-04 -1.22458173e-03 -1.14321231e-03 -8.12237966e-04
      -7.72316009e-04 -2.38083434e-04 -6.60802412e-04 -4.20664233e-04
      -1.97163550e-04 -2.04289419e-04 -3.05731286e-04 3.70531052e-04
      -4.25107311e-04 -2.36498672e-04 -1.71081294e-04 5.08872326e-04
      1.80376155e-04 4.50379506e-04 2.11191335e-04 9.25261920e-05
      -4.94858308e-04 4.05056198e-04 -5.68827323e-04 -3.67786328e-04
      -6.97221432e-04 -3.85264633e-04 -8.57033243e-04 -3.09224502e-04
      1.75710466e-05 -5.49534336e-04 -6.73101633e-04 -5.99275663e-05
      -2.50078156e-04 1.16557756e-04 -5.59369044e-04 -3.45750741e-04
      -2.67453404e-04 2.17204913e-04 -2.76838720e-04 5.24193980e-04
      -2.10708662e-04 7.66845304e-04 -5.01083967e-04 2.61382433e-04
      8.58012427e-05 -1.92608306e-04 -7.28913583e-04 0. 9.17896468e-05
      -6.45803695e-04 -9.10527015e-04 -5.30711724e-04 3.63710606e-05
      6.65732427e-04 -5.69884651e-05 -2.11462466e-05 4.60409676e-04
      5.19347319e-04 -9.52575556e-06 2.16824701e-04 -1.71689782e-04
      5.87920600e-04 -2.44811061e-04 9.07957030e-04 1.24315871e-03
      6.25062385e-05 -2.81740649e-04 0. 0. 4.13544876e-05
      -1.48426203e-04 -3.62606079e-04 1.87607977e-04 4.42938181e-04
      6.73330913e-04 1.90195555e-04 4.08429216e-04 3.14724137e-04
      -3.51535709e-04 -5.87999471e-04 -2.01709699e-04 7.20316020e-04
      2.57117848e-04 2.86294409e-04 1.36886219e-05 4.49773279e-06 0. 0.
      0. -1.42011131e-05 -2.48633674e-04 -2.02199881e-04 -4.72115848e-04
      -6.01110689e-04 5.15859458e-04 1.26293366e-04 -1.26872881e-04
      7.17578747e-04 5.07894845e-04 -3.09567025e-04 8.15485837e-04
      4.65901976e-04 -5.06375625e-04 -2.82176363e-04 -1.05629195e-04
      4.36544633e-06 0.</_>
    <_>
      -2.33916489e-05 -2.08893762e-05 -5.87068571e-05 -5.49534489e-05
      2.06572349e-05 -5.73510151e-05 -1.05031751e-04 -8.98948347e-05
      -2.65215698e-04 -3.46082845e-04 -2.45145377e-04 -1.92267195e-04
      -1.47356594e-04 -1.35831389e-04 -8.96487836e-05 -5.25473442e-05
      2.23942061e-05 -4.54312358e-05 -1.10078349e-06 0. -2.33916489e-05
      6.85668638e-05 3.90543973e-05 -1.60038326e-05 -7.74001164e-05
      -2.50605139e-04 -1.76655245e-04 8.25207371e-06 -7.63655316e-06
      -4.64983277e-05 5.82272805e-05 -3.79858102e-05 -1.00689256e-04
      -1.20255703e-04 -1.86563630e-04 -2.55102437e-04 -1.37432027e-04
      -1.22316123e-04 -2.20156699e-06 -1.19251547e-06 -5.32996019e-05
      -4.30931905e-05 -1.84123739e-04 -2.45494186e-04 -1.01682912e-04
      -1.82876669e-04 -1.08348686e-04 4.45501537e-05 8.42063746e-05
      4.62612443e-05 2.67197047e-05 -1.06014020e-04 -1.57423754e-04
      -1.26869068e-04 -2.11403079e-04 -2.60550907e-04 -2.68482429e-04
      -4.08792141e-04 -2.61013018e-04 -1.09998917e-04 -5.15919935e-04
      -2.81716435e-04 -2.31740021e-04 -1.55431844e-04 3.90544192e-05
      -7.76246961e-05 -8.90565279e-05 -5.29999415e-05 -1.08820814e-06
      -7.10860986e-05 -1.28426051e-04 -1.46321530e-04 -1.98855079e-04
      -1.41533266e-04 -2.01563496e-04 -1.76885544e-04 -2.63953378e-04
      -4.22495505e-04 -3.01667256e-04 -2.07929086e-04 -3.48461443e-04
      -1.48596577e-04 -1.01182894e-04 -4.26281294e-05 7.57860034e-05
      -3.72199211e-05 -5.38886379e-05 -2.61074711e-05 -5.42628811e-07
      -1.23212041e-04 -2.32456820e-04 -1.52595661e-04 -2.18869711e-04
      -1.26922387e-04 -1.17272575e-04 -1.43061785e-04 -2.42234717e-04
      -3.54952062e-04 -2.11147999e-04 -1.54254521e-04 -1.86147154e-04
      1.98014823e-05 4.76784990e-05 9.82159545e-05 7.57064336e-05
      -6.00979620e-05 4.48497940e-06 9.20655730e-05 5.09362289e-05
      -1.17465621e-04 -2.38882276e-04 -1.96299414e-04 -2.05689314e-04
      -1.43134923e-04 -9.71574555e-05 -1.90663486e-04 -2.13719235e-04
      -2.61096255e-04 -9.47627777e-05 -8.43339076e-05 -1.56698850e-04
      8.13764491e-05 9.56400036e-05 1.30312153e-04 7.87092067e-05
      6.43359817e-05 1.87313926e-04 2.42420720e-04 9.66162552e-05
      -1.12553440e-04 -2.54445156e-04 -2.14595842e-04 -8.28224729e-05
      -8.03049770e-05 -7.11664325e-05 -1.81732350e-04 -1.15895986e-04
      -1.51284257e-04 -1.92333609e-05 -3.21637817e-05 -1.89853032e-04
      3.27123271e-05 9.30539245e-05 9.87513777e-05 1.39681128e-04
      2.40651032e-04 2.82406923e-04 2.76704406e-04 6.87684296e-05
      -1.76338726e-04 -3.38125130e-04 -3.07245617e-04 -4.04933526e-05
      1.87996818e-06 -4.75399320e-05 -1.17812575e-04 -4.80030212e-05
      -5.67190400e-05 -1.20042596e-05 -2.34898289e-05 -1.43639307e-04
      3.36579869e-05 1.17224787e-04 8.20494097e-05 2.76669743e-04
      4.28025407e-04 3.98236734e-04 2.56811036e-04 6.81219626e-06
      -2.12850180e-04 -3.74876981e-04 -3.69308982e-04 -1.45230515e-04
      5.95654456e-05 1.08130735e-05 1.97606496e-05 6.36701152e-05
      6.95523049e-05 3.98254051e-05 2.96542094e-05 -5.44418617e-05
      8.23998635e-05 1.45511032e-04 1.15096678e-04 2.67475261e-04
      4.80162009e-04 5.01599046e-04 2.64450879e-04 -4.82799223e-05
      -1.89042170e-04 -2.69015640e-04 -3.29651055e-04 -2.31926853e-04
      -8.34168441e-06 2.89956060e-05 1.61948759e-04 1.43744022e-04
      8.06185635e-05 5.02487856e-05 3.71434508e-05 1.83033153e-05
      1.96234876e-04 1.94080465e-04 2.06540688e-04 2.08353158e-04
      4.74675180e-04 5.01155620e-04 2.62569316e-04 -1.25889346e-04
      -1.85096185e-04 -1.33004811e-04 -2.13538558e-04 -2.23829920e-04
      -1.21530684e-04 2.41848102e-05 2.80582433e-04 2.42368260e-04
      3.70273629e-05 2.76947230e-05 2.77013787e-05 7.48056409e-05
      3.02939850e-04 2.59559514e-04 2.99097097e-04 2.01000963e-04
      4.59138828e-04 4.46780527e-04 2.33646686e-04 -7.48455641e-05
      -1.18508622e-04 -5.91490170e-05 -1.15352086e-04 -1.28351137e-04
      -5.70914926e-05 7.57481248e-05 3.21256754e-04 2.19740905e-04
      -5.30619764e-06 -2.80652021e-05 -2.35655461e-05 7.12845867e-05
      2.85826420e-04 2.74858059e-04 3.22371401e-04 2.52851023e-04
      4.08305874e-04 4.01739788e-04 2.26035729e-04 4.98650079e-05
      -8.08918230e-06 -4.02185970e-06 -3.13994860e-05 -5.62207897e-05
      -1.03951381e-04 6.14875389e-05 1.70299478e-04 1.82257543e-04
      -5.35888503e-05 -1.06877080e-04 -1.19375589e-04 2.91479664e-05
      2.31479105e-04 2.65052688e-04 2.96672166e-04 2.42385548e-04
      3.13285913e-04 3.30066046e-04 2.35604937e-04 1.12651389e-04
      3.06923430e-05 4.39194810e-05 3.49198854e-05 -5.97651569e-06
      -1.35845199e-04 -2.19187932e-05 9.20379825e-05 1.23247140e-04
      -5.49448159e-05 -1.11649926e-04 -1.51617030e-04 6.27783766e-06
      1.76017667e-04 2.35489322e-04 2.64048896e-04 2.33817234e-04
      2.26358738e-04 2.52662750e-04 1.63036151e-04 8.91863820e-05
      3.22797605e-05 4.69584083e-05 6.61717131e-05 6.47273846e-05
      -3.85793101e-05 4.71342582e-06 7.92731371e-05 6.57276469e-05
      -8.96819765e-05 -1.03334023e-04 -1.67477789e-04 -4.72588681e-06
      1.58557683e-04 2.06245546e-04 1.86086720e-04 1.42154793e-04
      1.65481775e-04 1.91765983e-04 1.66720609e-04 1.79851500e-04
      1.14977811e-04 5.21844340e-05 1.89898692e-05 9.23569969e-05
      1.10140667e-04 1.26703089e-04 8.24528106e-05 2.63093243e-05
      -1.12374051e-04 -1.06371146e-04 -1.67322520e-04 -9.30408896e-06
      6.82815953e-05 4.14710048e-05 5.93236509e-05 7.56937516e-05
      1.84264456e-04 1.77760739e-04 1.72238448e-04 2.25248368e-04
      1.96550274e-04 1.37756782e-04 1.52443117e-05 1.02992417e-04
      2.23677038e-04 2.33368657e-04 1.32204863e-04 8.46149123e-05
      -1.06190360e-04 -1.04351173e-04 -1.80642790e-04 0. -6.45664886e-06
      -3.86378160e-05 4.88336400e-06 6.49249996e-05 2.08900819e-04
      1.98412308e-04 1.72698114e-04 1.74122761e-04 1.75923909e-04
      1.94215114e-04 6.75425108e-05 8.43042435e-05 1.90074468e-04
      1.81984302e-04 1.07038686e-04 1.47159415e-04 -6.18900003e-06
      -4.26459519e-05 -6.90533925e-05 0. -1.10078349e-06 2.61669265e-05
      1.00276251e-04 9.91439665e-05 1.47062601e-04 1.85194585e-04
      2.00287192e-04 2.02899522e-04 1.97439091e-04 2.17774359e-04
      1.70365893e-04 1.94235661e-04 1.30030225e-04 1.51837696e-04
      5.75981794e-05 6.63789542e-05 -1.92733387e-05 -2.33916489e-05
      -2.33916489e-05 0. -1.10078349e-06 -6.36261620e-06 7.55726751e-06
      1.03422251e-04 1.76705915e-04 1.80251562e-04 1.27247768e-04
      1.45158934e-04 1.38324132e-04 1.77219743e-04 2.14309039e-04
      2.17341032e-04 1.03210143e-04 6.74669864e-05 -5.03447559e-08
      -1.61386179e-05 -2.33916489e-05 -2.33916489e-05 -2.33916489e-05</_>
    <_>
      0. -8.52689409e-05 -2.37202694e-04 -3.81384714e-04 -3.43152671e-04
      5.39036468e-04 7.40365591e-04 2.63990194e-04 8.51352932e-04
      7.95669272e-04 -9.52609465e-04 1.19660173e-04 1.41550566e-03
      1.19884196e-03 3.56626435e-04 -3.02266446e-04 -2.55475810e-04
      -2.65556708e-04 -3.57487297e-04 -3.95337818e-04 -8.52689409e-05
      -1.34879956e-04 -2.20148897e-04 -3.36766214e-04 -4.54809255e-04
      6.11778640e-04 -4.95778746e-04 -7.72387255e-04 -2.02210096e-04
      -9.89887165e-04 -1.09319703e-03 3.39510166e-06 4.07617510e-04
      4.71658223e-06 -3.79053032e-04 -6.17096317e-04 -5.93166216e-04
      -2.37584667e-04 -3.56340315e-04 -3.95337818e-04 -1.94851134e-04
      5.33877697e-04 1.34427031e-03 4.47107450e-04 -1.36567047e-04
      5.57037711e-04 -2.54315208e-04 -1.16829098e-04 6.10772986e-04
      1.50555104e-04 -5.81048254e-04 -5.40350738e-04 -3.74917116e-04
      9.69102693e-05 7.42347038e-04 -2.76573002e-04 -9.81319812e-04
      -4.74205626e-05 -7.15908027e-05 -4.29266132e-04 -1.82042990e-04
      9.93464608e-04 1.38358620e-03 2.26936754e-04 7.29180420e-06
      3.09122770e-05 2.61102628e-04 3.35223187e-04 8.18112690e-04
      1.42545020e-03 7.94975727e-04 4.87122888e-04 -1.65435820e-04
      8.26368123e-05 -1.42502482e-04 -1.00962841e-03 -1.24257430e-03
      -4.98598616e-04 -3.21635132e-04 -6.73799892e-04 -2.08847650e-05
      9.86148807e-05 1.57447881e-04 -2.35157058e-04 -6.23847358e-04
      5.02483919e-04 -2.10896236e-04 3.21855077e-05 1.03609776e-03
      7.68460683e-04 9.20705439e-04 4.54190333e-04 -6.61375874e-04
      3.29760893e-04 5.97687613e-05 -6.34499243e-04 -6.82350365e-04
      -8.90459109e-04 -8.54908372e-04 -4.67611622e-04 1.81059237e-04
      -3.54359945e-05 -2.19540336e-04 -1.07477754e-04 2.95790931e-04
      1.19468535e-03 2.39608824e-04 1.79983675e-04 6.05463167e-04
      2.08403464e-04 -1.08564876e-04 1.55842921e-04 -1.44440914e-04
      4.70370514e-06 -4.97264729e-04 -6.76290132e-04 -4.27160470e-04
      -6.62616629e-04 -5.91700606e-04 -1.13329610e-04 2.24748976e-04
      3.12756631e-04 3.22484499e-04 3.09284776e-04 -4.92146282e-05
      4.77764290e-04 9.77859381e-05 4.51941654e-04 -2.59246008e-04
      -1.17967131e-04 -2.61600246e-04 -3.57345969e-04 -4.55305853e-04
      -1.52698885e-05 -2.48170400e-04 -1.23481406e-03 8.66851624e-05
      8.77572747e-05 2.43710034e-04 1.34662419e-04 2.26111515e-04
      3.23872518e-04 4.27517109e-04 2.35743239e-04 -1.84748103e-04
      9.14373144e-04 -1.77905720e-04 -1.43612419e-06 -5.23656665e-04
      -3.87587264e-04 -4.03348007e-04 -6.89136097e-04 -1.46016560e-03
      -3.70063965e-04 3.20972089e-04 -7.85062555e-04 6.35860546e-04
      1.02586532e-03 8.00621463e-04 6.85511623e-04 2.29040685e-04
      3.67152301e-04 6.38315862e-04 -2.31795551e-04 1.03469868e-03
      1.75500265e-03 -6.37407822e-04 -8.82367429e-04 -7.73802632e-04
      -1.30058627e-03 -1.63861702e-03 -1.21161842e-03 -1.37272908e-03
      -1.27495220e-03 7.13598201e-05 1.06943212e-03 6.60272432e-04
      8.54365819e-04 1.20492827e-03 8.87120143e-04 2.86873052e-04
      7.17870425e-04 9.91114648e-04 -4.97568224e-04 7.63440446e-04
      1.46030565e-04 -6.93214533e-04 -1.13209593e-03 -9.22025181e-04
      -1.43576763e-03 -1.89764285e-03 -1.33890682e-03 -1.36091525e-03
      -2.31886585e-03 -2.66410381e-04 1.41606666e-03 -8.39593122e-05
      3.32260897e-05 1.01776712e-03 6.67157467e-04 1.53057830e-04
      1.04749436e-03 3.41382372e-04 -4.99085698e-04 2.45244766e-04
      -3.43025225e-04 -3.35279998e-04 -4.53162414e-04 -9.42230166e-04
      -9.90984146e-04 -8.46586772e-04 -1.05139334e-03 -1.48571224e-03
      -1.86326553e-03 -9.39541569e-05 1.44680764e-03 3.75624950e-04
      3.87131266e-04 3.00373475e-04 6.40703423e-04 -2.76566920e-04
      1.20474107e-03 -1.95732850e-04 -1.23412916e-04 -2.65365321e-04
      -1.72960892e-04 8.21846261e-05 -2.98578991e-04 -1.06468971e-03
      -9.12876625e-04 -7.55571818e-04 -7.57836911e-04 -1.03254116e-03
      -1.63664648e-04 9.04303452e-04 2.88098212e-03 -3.04815912e-04
      5.46637108e-04 -4.76126697e-05 4.17572999e-04 -7.27581501e-04
      1.40883960e-04 -1.12486247e-03 -3.45318520e-04 8.46602721e-04
      1.40571466e-03 4.37619135e-04 -2.26053526e-04 -7.36178888e-04
      -4.76220972e-04 1.33868103e-04 5.91831165e-04 2.41174654e-04
      6.35758799e-04 1.10102573e-03 8.68502655e-04 -1.38185814e-03
      -1.67456790e-04 -4.02140540e-05 1.52020570e-04 -1.00217620e-03
      -1.40685227e-03 -1.23409217e-03 -3.43684747e-04 5.14564017e-05
      5.55058126e-04 -1.75615118e-04 3.51633935e-04 -1.53991481e-04
      -6.27220652e-05 2.11946783e-04 7.72966072e-04 1.57819199e-03
      1.21815421e-03 -4.46889790e-05 -9.42158338e-04 -1.09378586e-03
      -1.30055111e-03 -6.80421479e-04 -9.65981380e-05 -8.91463773e-04
      -1.48172770e-03 -7.83155556e-04 2.67307158e-04 -7.71534862e-04
      -4.20315046e-04 -4.67802456e-04 9.06881003e-04 6.26216060e-04
      1.20897184e-03 1.05445099e-03 1.19761610e-03 1.86573435e-03
      1.02447707e-03 -3.73614021e-04 -1.19820680e-03 -3.26858746e-04
      -1.29524642e-03 -1.44105405e-03 -3.60441074e-04 -5.03831136e-04
      -8.67726281e-04 -2.65709532e-04 -6.46739281e-05 -6.60894380e-04
      6.02641594e-05 2.73539219e-04 4.05831379e-04 1.18801964e-03
      2.25731730e-03 1.27819553e-03 4.52690583e-04 7.96574604e-05
      -2.48575496e-04 2.29196186e-04 -1.05772202e-03 -1.13891008e-04
      -6.99890545e-04 -1.39099720e-03 -8.40489112e-04 -2.16943270e-04
      -4.35624155e-04 -1.41766592e-04 2.54477258e-04 -1.52944369e-04
      5.97645703e-04 8.68916686e-04 -3.32993193e-04 6.89531211e-04
      1.78110495e-03 4.61631367e-04 -1.07595441e-03 -9.71041387e-04
      -9.22143809e-04 -8.50069453e-04 -2.79540691e-04 3.02762171e-04
      2.06457160e-04 -5.56203304e-04 -8.38455919e-04 -2.38753040e-04
      -3.28411988e-04 -2.98469356e-04 3.75929347e-04 1.83274475e-04
      -5.59082720e-04 -1.35705386e-05 -6.51758921e-04 2.11908802e-04
      8.03754141e-04 -1.01377860e-04 -8.52858648e-04 -9.97363823e-04
      -5.78636187e-04 1.57403934e-04 1.86167497e-04 1.79374285e-04
      1.08360348e-03 6.85925579e-06 -5.16734086e-04 -8.52689409e-05
      -2.30476217e-04 -3.36052646e-04 -3.62749153e-04 8.39848362e-04
      4.44103469e-04 3.52359872e-04 5.37336455e-04 -8.04331095e-04
      1.68488827e-04 7.30338739e-04 2.07784164e-04 -3.44233791e-04
      -8.54729224e-05 9.35401593e-04 -7.47563550e-04 -9.68309105e-05
      2.50379730e-04 -3.46513145e-04 -3.95337818e-04 0. -8.52689409e-05
      -2.30149017e-04 -4.55215486e-04 1.96282542e-03 1.12765376e-03
      1.42316057e-04 6.88985805e-04 -3.17230180e-04 -2.40958921e-04
      1.82362227e-03 1.33251408e-04 -1.41310258e-04 3.75462900e-04
      -4.69977269e-04 -1.01573102e-03 -5.93003700e-04 1.65099027e-05
      -2.70668010e-04 -3.95337818e-04</_>
    <_>
      0. 7.09593621e-07 4.90802222e-06 -1.82771197e-04 4.22638877e-05
      -1.62627781e-04 -5.77570172e-05 5.06356155e-05 2.01918709e-04
      5.07712830e-04 2.22187547e-04 1.71755557e-04 4.45618702e-04
      5.23276976e-04 -3.81051272e-04 -3.10403848e-04 -1.07521801e-05
      9.44223721e-05 7.09593621e-07 0. 0. 7.09593621e-07 1.09796143e-04
      -2.01802541e-04 1.25683335e-04 1.83809607e-04 2.81927569e-05
      1.07814456e-04 -1.69941814e-05 1.19586599e-04 4.13397443e-04
      4.63672448e-04 4.44566424e-04 6.25512330e-05 -3.58325313e-04
      -3.68824316e-04 5.74015667e-06 3.69752852e-05 1.41918724e-06
      7.68726409e-07 4.24589098e-06 3.22469277e-05 2.03527423e-04
      -2.53419712e-04 4.21042860e-05 -1.30140790e-04 3.90767309e-06
      -5.56916675e-05 -3.34173703e-04 -3.35143879e-04 -3.33052361e-04
      -4.62164666e-04 -4.54076981e-05 -2.04456446e-04 -7.31518900e-04
      -5.44497801e-04 4.35580514e-05 -2.59901804e-04 -1.23617123e-04
      -1.73882672e-05 4.66147285e-05 9.86236919e-05 2.87019357e-04
      -4.39287323e-05 -1.99843307e-05 -5.06203796e-04 -2.41929214e-04
      -1.70583735e-04 -3.30635725e-04 -4.23332152e-04 -8.09852208e-04
      -8.94926081e-04 -6.41673338e-04 -5.79731655e-04 -1.26063009e-03
      -5.45598625e-04 4.36404007e-05 -5.90599026e-04 -7.64961733e-05
      -3.65583255e-05 1.74443645e-04 6.16649631e-05 3.20285093e-04
      2.41752758e-04 -3.91753914e-04 -3.73165909e-04 -3.20710475e-04
      -1.08088519e-04 1.18337070e-04 3.93194408e-04 -2.43741772e-04
      -2.96151818e-04 -5.25054755e-04 -5.69368247e-04 -1.09085499e-03
      -7.29572435e-04 -5.05083357e-04 -6.95114082e-04 -3.00144620e-05
      -1.72528147e-04 2.59960158e-04 -2.34883319e-05 -3.05999356e-06
      8.73493482e-05 -3.17057536e-04 1.44193211e-04 -4.63093093e-05
      4.26966755e-04 5.42912923e-04 5.93553181e-04 3.88064567e-04
      4.24280530e-04 1.10703855e-04 -3.82547405e-05 -4.45392914e-04
      -7.54508830e-04 -5.60132437e-04 -3.78411001e-04 2.59940816e-06
      -4.52497974e-04 3.03416367e-04 -1.71287193e-05 -3.12342832e-04
      1.95523244e-04 -2.56699102e-04 3.53722775e-04 3.23909830e-04
      5.84753463e-04 7.07129075e-04 6.79878285e-04 5.47510164e-04
      5.08225232e-04 3.92860355e-04 2.61934591e-04 -3.93838091e-05
      -6.27992849e-04 -5.30423888e-04 -4.36444592e-04 1.87158639e-05
      -6.36488083e-04 1.52951412e-04 9.66591597e-06 9.71804093e-06
      -5.61073321e-05 -6.47277338e-05 3.00418265e-04 4.58579510e-04
      5.18359884e-04 5.22379996e-04 4.89800295e-04 3.66715918e-04
      1.04806779e-04 1.46289298e-04 2.47438787e-04 2.57265463e-04
      -2.30749269e-04 -2.74696707e-04 -1.83266471e-04 -9.58459786e-05
      -3.11030395e-04 7.09357628e-05 1.41616241e-04 5.01290779e-04
      -4.88949358e-04 3.41484381e-04 4.01063618e-04 6.14132558e-04
      3.88211367e-04 2.00472467e-04 1.37469789e-04 2.52855916e-05
      -1.48005434e-04 -2.05271848e-04 -9.42313127e-05 4.45601145e-05
      4.22681478e-04 -1.21654863e-04 1.28323692e-04 -1.58691866e-04
      4.44633624e-05 9.69777921e-06 2.22166782e-04 6.73662347e-04
      -5.95554069e-04 4.14138252e-04 4.62273223e-04 4.82746284e-04
      1.90403240e-04 -1.57844173e-04 -1.18925047e-04 -2.37543180e-04
      -4.92000603e-04 -7.29687687e-04 -5.19417168e-04 -3.31883377e-04
      6.73900184e-04 -1.20679157e-04 1.56798233e-05 -7.76758679e-05
      1.79378228e-04 5.32195190e-06 2.35851840e-04 2.86395836e-04
      -3.17188009e-04 3.81707156e-04 7.62199110e-04 3.87257605e-04
      1.23455931e-04 -4.94125357e-04 -3.64762265e-04 -8.70491494e-04
      -1.15891069e-03 -9.52683506e-04 -8.74476973e-04 -5.24071278e-04
      5.47112140e-04 9.18699370e-05 -3.23503889e-04 -4.80528388e-06
      1.70605155e-04 1.00525756e-06 2.41108282e-04 3.49370297e-04
      3.02538770e-04 4.19418007e-04 9.28159221e-04 3.71644448e-04
      -3.82922794e-04 -6.43847277e-04 -1.00150367e-03 -1.56063575e-03
      -1.41675468e-03 -9.65555140e-04 -7.31032866e-04 -5.12157218e-04
      2.28593344e-04 1.72926866e-05 -6.73699775e-04 -2.55122286e-05
      1.89424100e-04 4.50762491e-05 1.25128572e-04 5.45170275e-04
      5.97414677e-04 9.66580410e-04 9.66693100e-04 5.91320801e-04
      -8.56559200e-05 -5.65099472e-04 -1.34890876e-03 -1.65793626e-03
      -1.33855280e-03 -8.03149771e-04 -3.54293385e-04 -3.08999937e-04
      -4.24138067e-04 1.05967294e-04 -7.13404908e-04 -9.35728749e-05
      1.25114297e-04 3.91458634e-05 -1.02893631e-04 3.94414034e-04
      4.17750591e-04 7.83473835e-04 7.33378460e-04 6.51816023e-04
      4.31476015e-04 -2.98360847e-05 -5.61463879e-04 -7.52100372e-04
      -6.80675148e-04 -2.35789063e-04 7.11988687e-05 -2.56739266e-04
      -1.57094124e-04 5.75965496e-05 -2.40099063e-04 -8.11075952e-05
      4.30716973e-05 0. -2.62778340e-04 1.76397880e-04 1.69508348e-04
      4.04873397e-04 5.89496281e-04 7.69946782e-04 5.63413079e-04
      4.95836604e-04 3.11420270e-04 1.64953963e-04 1.93276966e-04
      2.23100549e-04 2.40961323e-04 1.12159454e-04 2.09871418e-04
      -2.37283661e-04 2.18545305e-04 -8.89849398e-05 3.79932717e-05
      -3.35524419e-05 1.14334485e-04 3.92217014e-04 1.36325079e-05
      1.67489052e-04 2.02290321e-04 5.87468327e-04 7.97972723e-04
      8.02455412e-04 9.93990339e-04 9.16327059e-04 7.12134468e-04
      3.92475456e-04 3.17930710e-04 -8.86019370e-06 -8.42912195e-05
      -5.94990677e-04 -1.22163809e-04 -1.60455878e-04 3.44002401e-05 0.
      4.92628897e-04 3.57927231e-04 -4.36965820e-05 2.01130562e-04
      2.03372503e-04 -8.54162645e-05 -1.75377325e-04 3.63034866e-04
      5.33928629e-04 3.78983648e-04 2.14640575e-04 -1.99472997e-05
      1.73560402e-04 3.88407032e-04 1.33073263e-04 -2.30738791e-04
      -4.54210909e-04 1.18799408e-05 -6.23917322e-06 0. 2.66062852e-04
      2.06163197e-04 4.74432672e-05 3.43235180e-04 1.66442711e-04
      -3.32382915e-04 -3.70375958e-04 -5.30087913e-04 -5.32361621e-04
      -4.86243574e-04 -2.90765223e-04 -9.55735086e-05 -6.41579536e-05
      -2.74591264e-04 -7.24326455e-05 4.99448797e-04 4.29897365e-04
      3.95099807e-04 1.10927449e-05 0. 7.09593621e-07 4.90802222e-06
      -2.15952095e-04 2.30939739e-04 2.57519074e-04 3.21967469e-04
      4.18448471e-04 -2.04530195e-04 -3.06017493e-04 -2.69132579e-04
      -1.10926914e-04 2.60565750e-04 1.06547210e-04 -3.10764182e-04
      -1.85176941e-05 9.76214651e-05 2.50273606e-05 1.41918724e-06
      7.68726409e-07 0. 7.09593621e-07 4.90802222e-06 -2.47026619e-04
      1.09053042e-04 1.22627462e-04 5.22801711e-04 4.96733875e-04
      7.50485124e-05 -7.07289655e-05 3.66456836e-04 3.58047109e-04
      3.66418360e-04 4.89188707e-04 -2.17585693e-04 -1.97920148e-04
      -6.63690153e-05 4.90802222e-06 7.09593621e-07 0.</_>
    <_>
      0. 0. 0. 0. 0. -1.36817049e-04 -2.70914607e-04 -4.02323960e-04
      3.08316521e-04 1.75715366e-04 3.38748097e-04 8.11358987e-05
      6.58750243e-04 7.94976833e-04 -2.74518359e-04 -6.75695774e-04
      -5.62398927e-04 0. 0. 0. 0. 0. 0. -4.30297314e-06 -3.53250129e-04
      -9.71648144e-04 -3.15063662e-04 -9.97405587e-05 1.13890506e-03
      -2.50739133e-04 2.01668750e-04 -4.78163929e-05 7.21666962e-04
      7.90109567e-04 -2.09172737e-04 4.58847033e-04 2.86276772e-04
      1.18269301e-04 0. 0. 0. 1.78151856e-06 1.64699704e-05
      1.46318289e-05 -6.90671732e-04 -8.85176996e-05 -1.04830266e-04
      3.72417941e-04 1.44734420e-03 -3.23629502e-04 -1.97066664e-04
      -1.24173137e-04 5.36013511e-04 6.51059730e-04 8.76627673e-05
      6.54806034e-04 8.36079009e-04 2.90564494e-04 -1.41130484e-04
      -3.27293892e-05 0. -8.38512642e-05 -9.38501398e-05 -6.15164245e-05
      -6.46572793e-04 1.38607621e-03 -3.32086056e-04 -6.11516007e-05
      9.86445521e-05 -1.76315312e-04 -1.50466629e-04 -3.44299187e-04
      -2.61051446e-05 3.32956901e-04 4.31727589e-04 5.63776470e-04
      6.42812287e-04 -3.24774126e-04 -2.78964842e-04 -1.04564187e-05 0.
      -1.90363775e-04 -2.60239147e-04 -4.46896156e-05 -6.87742606e-04
      3.40337487e-04 -8.33058672e-04 -2.95447797e-04 8.73917743e-05
      2.43124538e-04 -1.26804065e-04 8.83696121e-05 -3.40960745e-04
      5.24071111e-05 -6.13070879e-05 -3.02444605e-05 2.33602390e-04
      -3.52937466e-04 -2.04204858e-04 -2.01965831e-05 0. -1.13782553e-04
      -3.49146023e-04 5.45144503e-05 -9.02345928e-04 4.80657582e-05
      -3.21200350e-04 4.05596729e-05 2.50025507e-04 5.39404864e-04
      6.71693706e-04 4.06432955e-04 2.37934219e-05 -1.41455865e-04
      -1.45722108e-04 -4.58221941e-04 -1.37518553e-04 -1.46817081e-04
      -8.36198451e-05 -1.43289371e-05 0. 1.51229972e-06 -2.68917182e-04
      3.94282921e-04 -8.89418821e-04 -1.05410203e-04 7.17052491e-04
      1.31095381e-04 -9.22249310e-05 6.54177973e-04 6.39412727e-04
      2.84045323e-04 -7.92574283e-05 -4.47990518e-04 -6.80449521e-05
      -4.25121892e-04 -5.16142696e-04 -1.77640439e-04 -4.40244257e-05
      -7.25962173e-06 0. 2.85355309e-05 2.70420460e-05 2.38822700e-04
      -6.33966527e-04 3.65688145e-04 1.65858641e-04 -5.27932541e-04
      -1.76648566e-04 3.13498371e-04 4.46922175e-04 8.94222059e-04
      2.78689724e-04 -5.25943877e-04 -1.47567262e-04 -2.99884181e-04
      -5.67228359e-04 -2.26851669e-04 -9.33223491e-05 -2.00875329e-05 0.
      9.58954479e-05 3.74984345e-04 4.63820106e-05 -4.30048181e-04
      1.67799546e-04 1.80933595e-04 2.28931458e-04 2.82112567e-04
      -4.40853968e-04 -2.79630418e-04 4.41572425e-04 4.16413153e-04
      -4.94644162e-04 -3.55704979e-04 -1.84899298e-04 -4.30841174e-04
      -4.81399446e-04 -1.03562925e-04 -1.10246347e-05 0. 0.
      3.43031308e-04 5.54621729e-05 -5.39237575e-04 -4.86168428e-04
      4.79973911e-04 2.86049035e-04 1.59484280e-05 -1.30698274e-04
      -6.22719643e-04 1.33125417e-04 4.00850055e-04 4.02248297e-05
      -2.24808391e-04 -5.33446519e-06 -2.33215163e-04 -4.15901828e-04
      -3.10125761e-05 0. 0. 0. 1.23904276e-04 -7.94691368e-05
      -6.74726150e-04 -2.97618681e-05 1.27872184e-03 1.22998515e-03
      9.60109872e-04 8.94395227e-04 1.04648047e-04 3.25770059e-04
      1.22111035e-03 9.09555703e-04 -2.51160847e-04 1.26002255e-04
      -1.35345355e-04 -1.36959687e-04 -4.30794580e-06 0. 0. 0. 0.
      -6.32923256e-05 -6.50349364e-04 6.84173574e-05 1.75119820e-03
      1.57862972e-03 5.13959851e-04 1.02797749e-04 -1.64209137e-04
      -3.28901806e-05 4.54364839e-04 5.26019954e-04 3.97813565e-05
      3.12015967e-04 -1.17957199e-04 -1.04332948e-05 -2.94916703e-07 0.
      0. -2.51296825e-07 -1.35584160e-05 -8.93875986e-05 -5.09162433e-04
      -2.16632325e-04 9.21953120e-04 9.80940997e-04 2.72615725e-05
      -1.83637923e-04 2.58495238e-05 -2.25652548e-04 -9.53738694e-04
      -3.03420704e-04 4.60071169e-04 7.31114647e-04 -3.23226668e-05
      -3.63618256e-06 0. 0. 0. -1.67454016e-06 -7.39985117e-05
      -2.22519389e-04 -4.30631830e-04 -8.10640224e-04 9.14806515e-05
      1.32430549e-04 -3.82334052e-04 7.03457044e-04 2.48185312e-03
      1.23874110e-03 -1.92109161e-04 2.21229551e-04 7.30872503e-04
      5.50829689e-04 1.33755675e-04 -1.93489504e-05 0. 0. 0.
      -1.96407200e-05 -1.73409557e-04 -2.88077514e-04 -5.09512145e-04
      -1.26711826e-03 -3.16564139e-04 -5.94699814e-04 -1.21400354e-03
      -8.50998389e-04 4.73164895e-04 8.59894557e-04 4.31036897e-04
      4.72211657e-04 1.00833690e-03 -6.93013426e-05 -3.54206655e-04
      -1.82845019e-04 0. 0. -1.57494778e-05 -1.59461153e-04
      -4.05991974e-04 -4.69390681e-04 -6.82276790e-04 -1.07096485e-03
      -3.59047321e-04 -4.18593496e-04 -9.19772952e-04 -1.54923229e-03
      -1.52528065e-03 -8.54623097e-04 3.29097093e-04 6.31101488e-04
      5.97578241e-04 -4.44063597e-04 -7.89598562e-04 -4.49932326e-04
      -6.05706300e-05 0. -3.10067844e-05 -3.77476681e-04 -7.03381724e-04
      -7.33702153e-04 -8.27135926e-04 -3.23834189e-04 -1.27428124e-04
      -3.34495824e-04 1.44360267e-04 5.30370511e-04 2.97158957e-04
      2.64210103e-04 1.45752192e-03 2.88459589e-04 -1.76560585e-04
      -7.90692400e-04 -7.95684406e-04 -5.41717047e-04 -7.17988587e-05 0.
      0. -1.97488960e-04 -7.01715471e-04 -9.66596766e-04 -9.77445394e-04
      -4.09161148e-04 -3.53733398e-04 -3.01571417e-04 -1.33656693e-04
      -5.64024158e-05 6.65981570e-05 -3.51531722e-04 -6.10669085e-04
      -6.31739269e-04 -7.37732509e-04 -1.11832540e-03 -7.24327634e-04
      -6.85537350e-04 0. 0. 0. 0. 0. -8.68076459e-05 -1.13116077e-03
      -6.92692527e-04 -3.95468611e-04 -1.42611243e-04 -3.33994394e-04
      -5.45315270e-04 -4.32037254e-04 -7.48664141e-04 -1.31858059e-03
      -1.03220146e-03 -6.26098830e-04 -8.85761285e-04 -3.11105076e-04
      -7.65042132e-05 0. 0. 0. 0. 0. 0. -4.59705130e-04 -1.06936402e-03
      -6.45977969e-04 -5.82798493e-05 -4.74757981e-04 -7.82097864e-04
      -3.06199479e-04 -5.32524078e-04 -1.44077674e-03 -9.55482246e-04
      -1.92659994e-04 -1.13632241e-05 0. 0. 0. 0.</_>
    <_>
      0. 0. 0. 0. 0. -4.15586510e-06 -5.80075546e-04 -8.15091829e-04
      7.62529613e-04 2.86382739e-04 -8.35150131e-04 -3.86682397e-04
      5.21687907e-04 3.54712509e-04 3.44761647e-04 -4.30802203e-04 0. 0.
      0. 0. 0. 0. 0. -2.27209413e-04 -1.43470906e-03 -1.96139957e-03
      -8.32602149e-04 -1.62352354e-03 -1.14963588e-03 -8.48109717e-04
      -1.29565748e-03 -3.76609823e-04 -5.93347242e-04 -3.80656042e-04
      1.02845824e-03 4.79110866e-04 3.84658866e-04 1.53463625e-04 0. 0.
      -2.77355070e-06 -4.20111901e-05 4.42178407e-06 -1.57285249e-04
      -2.00264901e-03 -1.25920610e-03 -3.57586192e-04 -1.09275477e-03
      -7.86573946e-05 -5.07484547e-05 3.83303850e-04 1.00422985e-04
      -3.42578314e-05 -1.44549937e-04 1.01004774e-03 8.95254489e-04
      6.12322590e-04 8.51970690e-04 6.51915965e-04 9.56110525e-05
      -1.98371145e-05 -2.71323370e-04 -2.19630339e-04 -1.88580627e-04
      -8.41757865e-04 -1.96051653e-04 6.92863105e-05 3.85024672e-04
      9.84242186e-04 5.32735314e-04 7.67115853e-04 5.26178686e-04
      -4.28624189e-04 3.54483287e-04 3.51161376e-04 3.74501309e-04
      -1.49050000e-04 -3.66200373e-04 7.32005341e-04 5.82866924e-05
      -4.56214875e-05 -4.84087039e-04 -3.62582388e-04 -3.44422151e-05
      -1.85306722e-04 -9.54334027e-05 3.53410345e-04 6.51420793e-04
      1.26594678e-03 7.38031231e-04 9.40996571e-04 2.68749045e-05
      -2.43347895e-04 -6.19732891e-04 -5.94736193e-04 -2.05807970e-04
      -6.75707066e-04 -1.61266595e-04 3.83207254e-04 7.24414567e-05
      -8.87478382e-05 -3.32294410e-04 -6.65733067e-04 6.44951942e-04
      -2.52543890e-04 -5.28231030e-04 3.81843129e-04 8.42305715e-04
      1.61451707e-03 8.81090411e-04 6.11652562e-04 1.94502441e-04
      5.35396503e-05 -4.94529435e-04 -6.18627295e-04 -5.13992796e-04
      -6.43640349e-04 9.64822539e-06 -3.97373253e-04 -5.77634419e-05
      -9.89986293e-05 -9.55435971e-05 -6.44078187e-04 3.93758062e-04
      -2.07776728e-04 -8.89804433e-05 1.79602590e-03 1.52973831e-03
      1.45972904e-03 1.44277012e-03 6.81782549e-04 7.50918407e-04
      4.52572829e-04 -4.69647115e-04 -3.70981725e-04 -6.78043405e-04
      -5.73523110e-04 -3.57902405e-04 -9.18361999e-04 0. -3.92867842e-05
      -4.45870137e-05 -1.39185417e-04 2.56731204e-04 3.36478755e-04
      4.98738082e-04 8.82752996e-04 6.67649088e-04 7.59521208e-04
      1.47626110e-04 -3.20456369e-04 -2.46003881e-04 1.03787589e-03
      -5.50875382e-04 -3.04646208e-04 -5.49449644e-04 -2.18816262e-04
      -6.54461735e-04 -5.67614101e-04 0. -4.50693824e-06 -9.60860234e-07
      2.42508704e-05 2.10261845e-04 3.44643267e-05 3.60139034e-04
      1.38265139e-04 1.48552790e-04 -1.00304745e-03 -1.54928071e-03
      -9.46417626e-04 -2.93965277e-04 1.63055534e-04 -7.46708538e-05
      -1.06350402e-03 -6.88700413e-04 -3.57342687e-05 -9.53910581e-04
      -1.54417983e-04 0. 0. -2.71210538e-08 0. 1.05838459e-04
      -2.59359280e-04 -1.48948704e-04 -5.08880876e-05 -3.16927850e-04
      -1.87427818e-03 -7.37930823e-04 -1.65559235e-04 7.59276518e-05
      5.50108962e-05 4.26337007e-04 -3.35003366e-04 -4.85554076e-04
      -4.57870134e-04 -9.19818820e-04 -1.58077000e-05 0. 0. 0. 0.
      -2.42021080e-04 -5.65957103e-04 -2.79577478e-04 3.19608836e-04
      7.89796410e-04 -1.41640473e-03 -5.72470250e-04 -7.95807209e-05
      3.13104538e-04 7.30070460e-04 1.30943500e-03 4.34829213e-04
      -2.67134223e-04 -9.07006674e-04 -6.19004131e-04 -5.92788747e-05 0.
      0. 0. 0. -5.86516806e-04 -7.98693567e-04 -1.72262153e-04
      7.51564919e-04 1.37485878e-03 -7.61378556e-04 -1.01896457e-03
      -2.71190598e-04 6.61953294e-04 5.65906754e-04 7.72589119e-04
      4.19770193e-04 -3.34253826e-04 -7.56498484e-04 -3.53288167e-04
      -1.02750048e-04 0. 0. 0. -1.39907483e-04 -8.50192213e-04
      -9.32598545e-04 -8.15017411e-05 8.14646250e-04 1.20958558e-03
      3.28082882e-04 -8.25646683e-04 -2.10908605e-04 4.62248630e-04
      -3.14175413e-04 -1.53320667e-04 -7.10432301e-04 -3.35889577e-04
      -4.38935385e-04 -3.58751946e-04 -1.52242254e-04 -2.76634746e-05 0.
      0. -4.89909959e-04 -6.68341818e-04 -6.41177758e-04 -2.29610974e-04
      3.30698065e-04 9.17358906e-04 8.56528815e-04 -5.12409490e-04
      5.22841219e-05 1.07210908e-04 -4.28659783e-04 -1.20593724e-03
      -8.37515341e-04 -9.87084117e-04 -6.53695548e-04 -2.05402233e-04
      -1.40414500e-04 -7.11346511e-05 0. 0. -8.20218702e-04
      1.81675976e-04 -2.12237152e-04 -2.24600590e-04 -1.67622449e-04
      2.62805697e-04 6.86523737e-04 7.13757297e-04 4.03060432e-04
      5.91460324e-04 -5.48061973e-04 -9.81151243e-04 -2.94459314e-04
      -1.15168130e-03 -8.43256130e-04 -1.23283564e-04 -9.54506104e-05
      -8.95779376e-05 0. -2.12232466e-04 -5.90478943e-04 2.67186057e-04
      -5.33239625e-04 -3.31898700e-05 -2.50064011e-04 4.38667659e-04
      6.25318906e-04 7.12764100e-04 6.43685577e-04 9.92479851e-04
      4.87166544e-04 -3.08694289e-04 -4.32564448e-05 1.61338845e-04
      -4.17396514e-04 -6.04286288e-05 -5.50164441e-05 -4.87481557e-05 0.
      -4.66710306e-04 -3.41499137e-04 -1.90585648e-04 -4.03438549e-04
      3.09931056e-05 -5.46356488e-04 2.42431906e-05 4.51913947e-04
      9.17299534e-04 -3.85895328e-06 1.98566646e-04 -4.80571653e-05
      8.54203536e-04 -8.44456663e-04 1.28062107e-04 1.11857495e-04
      -3.70640664e-05 -1.48584631e-05 -9.88562442e-06 0. -2.48189288e-04
      -4.46533260e-04 -4.00177698e-04 -1.86714926e-04 -1.00576101e-04
      -1.06435642e-03 -8.81777145e-04 -9.37469304e-04 -5.58289757e-04
      -1.02945592e-03 -2.88548414e-04 -2.80544307e-04 1.23579244e-04
      -5.06232027e-04 3.26934014e-06 -1.24391823e-04 -4.77248432e-05 0.
      0. 0. 0. 0. -1.38749165e-05 -1.50206193e-04 5.92617216e-05
      7.15758324e-06 -1.13958237e-03 -9.15216748e-04 -1.42502098e-03
      -1.01519667e-03 -4.58539522e-04 -2.37062763e-04 -6.66892098e-04
      3.25011119e-04 5.72469260e-04 -3.36504570e-04 -5.80908090e-06 0.
      0. 0. 0. 0. 0. -1.84506716e-04 -2.75724829e-04 -5.10058308e-04
      -7.20517361e-04 -9.17537909e-05 6.25708781e-04 3.70318085e-05
      -2.02198062e-04 3.44610860e-04 -4.55064699e-04 1.07433577e-03
      -5.14677027e-04 -3.63284780e-04 0. 0. 0.</_>
    <_>
      0. 0. 0. 0. 0. 0. -2.56958701e-05 -3.64818989e-05 5.00124006e-05
      1.60996991e-04 2.37568383e-05 -4.40794902e-05 1.51143555e-04
      4.35517686e-05 -1.44230862e-05 4.89575712e-07 0. 0. 0. 0. 0. 0. 0.
      7.74437285e-06 4.57832575e-05 7.10794993e-05 2.68085932e-05
      4.85929813e-05 1.57260496e-04 3.47742287e-04 1.32746238e-04
      1.89317034e-05 1.46104401e-04 -1.22495303e-05 -1.03038365e-04
      -3.50299924e-05 5.06957222e-05 2.00603499e-05 0. 0. 0.
      2.82696192e-07 6.32079673e-06 3.60262893e-05 7.26888393e-05
      1.51095213e-04 1.67329534e-04 1.07398722e-04 3.64463805e-04
      3.59135011e-04 1.46628896e-04 3.56913697e-05 2.52666741e-05
      1.61981607e-05 7.88707839e-05 6.73747709e-05 1.04555518e-04
      7.81972558e-05 2.00104223e-05 1.71575630e-06 0. 3.75892728e-06
      9.97133975e-06 3.06086549e-05 7.97563334e-05 1.68508006e-04
      1.42549354e-04 2.07229517e-04 2.65472831e-04 1.86448582e-04
      9.05763518e-05 3.76430871e-05 -4.54987021e-05 8.19610359e-05
      9.31654431e-05 2.70621986e-05 -1.89740640e-05 3.48154526e-06
      5.17421977e-05 -7.04728507e-07 0. 1.20016439e-05 3.14369208e-05
      6.10002135e-05 1.24237253e-04 1.69925697e-04 1.42163859e-04
      2.08676021e-04 1.29321270e-04 1.43362879e-04 1.60897514e-04
      1.60292460e-04 -2.20653255e-05 1.13583839e-04 1.36968461e-04
      7.13721456e-05 -1.04873948e-06 -1.22301435e-05 2.00211780e-05
      -1.93746951e-06 0. 1.20535988e-05 6.22474327e-05 1.05382169e-04
      1.66568061e-04 2.11141451e-04 2.70123710e-04 1.43180092e-04
      6.46744738e-05 7.18913434e-05 2.10343744e-04 2.07532983e-04
      8.41820292e-05 1.01559468e-04 1.54226494e-04 9.90429980e-05
      6.37708799e-05 -2.63640395e-05 -1.03663924e-05 -1.71270381e-06 0.
      -3.79879936e-07 6.64193576e-05 1.16411386e-04 1.37701194e-04
      1.89806757e-04 7.39354655e-05 1.48412528e-06 -1.13567366e-04
      -1.33593512e-05 9.97721581e-05 1.16247757e-04 1.36009185e-04
      4.99719135e-05 1.47604922e-04 7.63652424e-05 -3.76857861e-05
      -2.43693958e-05 -8.30298268e-06 0. 0. 6.18289323e-06
      4.96350040e-05 8.07275428e-05 6.21756844e-05 2.97345196e-05
      -9.82231140e-05 -1.62610071e-04 -1.57323069e-04 -1.20266639e-04
      2.89029213e-05 5.30122998e-05 1.82404008e-04 4.04023667e-05
      1.10883397e-04 1.51994740e-04 4.99610724e-05 -6.11651194e-06
      -4.92028630e-06 0. 0. 2.60502711e-05 2.08628153e-05 5.09513156e-05
      1.63109344e-05 -6.91268724e-05 -1.36650769e-05 -1.39032272e-04
      -1.40335236e-04 -6.54194009e-05 -7.41479334e-06 7.70869592e-05
      1.85208832e-04 9.80073164e-05 3.50768023e-05 1.23225822e-04
      1.01184969e-05 -1.16629462e-05 -1.53758947e-06 0. 0.
      -2.61390214e-05 -6.27082263e-05 -1.40794591e-05 -2.17867819e-05
      -1.84172852e-04 -7.10490276e-05 -1.52753477e-04 -8.69485157e-05
      3.15616380e-05 -3.63616964e-05 1.32234461e-04 1.78958508e-04
      7.63099524e-05 -8.28528864e-05 7.08536172e-05 6.42070836e-06
      -6.13176162e-05 -1.06421330e-05 0. 0. -7.40605610e-05
      -1.42147052e-04 -1.21957710e-04 -2.61544454e-04 -3.60932841e-04
      -1.80978939e-04 -2.43104616e-04 1.34733036e-05 6.38292113e-05
      -2.32696639e-05 1.98169364e-04 1.78959192e-04 -2.82497854e-06
      -9.46058572e-05 4.63357319e-05 -2.98232990e-05 -1.30186803e-04
      -7.11003231e-05 0. 0. -1.22058089e-04 -1.97779387e-04
      -2.03632590e-04 -4.30183107e-04 -4.08199878e-04 -3.12588236e-04
      -2.91601202e-04 1.83232314e-05 1.00282341e-04 1.36737872e-04
      2.31086247e-04 1.14813018e-04 -1.22199737e-04 -1.41044409e-04
      -9.21512910e-05 -2.52399186e-04 -1.96364519e-04 -1.37352181e-04 0.
      -3.87760847e-05 -1.37999188e-04 -2.16946195e-04 -2.51534861e-04
      -5.52366953e-04 -3.58747464e-04 -4.04875231e-04 -3.51716968e-04
      -7.59801187e-05 9.06375790e-05 1.94168490e-04 2.24595904e-04
      -8.42497393e-05 -2.38031484e-04 -1.90164050e-04 -2.64021626e-04
      -3.37981386e-04 -2.28484787e-04 -1.53978559e-04 -3.02934295e-05
      -7.61960982e-05 -1.29586755e-04 -1.99069647e-04 -2.91833945e-04
      -4.18348529e-04 -3.42356070e-04 -4.75246401e-04 -3.63939325e-04
      -2.11749604e-04 -1.01532169e-05 8.60062573e-05 1.15319592e-04
      -1.76057947e-04 -3.57211276e-04 -2.39061541e-04 -3.01990251e-04
      -3.38601239e-04 -2.22966919e-04 -1.25498802e-04 -5.77190876e-05
      -7.17296134e-05 -8.60585642e-05 -1.34256625e-04 -1.82152682e-04
      -1.11837391e-04 -1.88188948e-04 -3.54438642e-04 -4.00506629e-04
      -3.22888722e-04 -1.23152713e-04 -1.81929063e-05 -1.59070350e-05
      -2.83381611e-04 -4.13870846e-04 -3.63581552e-04 -3.16582678e-04
      -4.27158113e-04 -2.08838086e-04 -8.73245153e-05 -2.96826584e-05
      -2.57119118e-05 -3.50442278e-05 -7.09100132e-05 -8.46250914e-05
      -6.79927689e-05 -3.92984548e-05 -1.43938087e-04 -3.72615905e-04
      -4.67978069e-04 -2.68405129e-04 -2.12175233e-04 -2.85853137e-04
      -3.51659692e-04 -4.40424919e-04 -4.37599316e-04 -2.66471936e-04
      -3.75567150e-04 -2.00696275e-04 -7.08751249e-05 -1.36106746e-05 0.
      -6.01581860e-06 -3.98645716e-05 -4.15877512e-05 -3.33665485e-05
      -5.30876023e-05 -5.79980260e-05 -2.26178061e-04 -3.32116528e-04
      -1.85170167e-04 -1.53125991e-04 -3.06049682e-04 -2.87239091e-04
      -2.92812096e-04 -3.43471824e-04 -1.81715499e-04 -1.89737853e-04
      -1.70206011e-04 -6.39317295e-05 -9.44461226e-06 0. 0.
      -2.76792089e-05 1.29035863e-04 8.44193273e-05 9.80194309e-05
      1.05117615e-04 -8.65584952e-05 -1.19470686e-04 -1.78776045e-05
      -2.48188844e-05 -6.24799359e-05 -1.14243972e-04 -9.40792306e-05
      -7.95631131e-05 -9.20738603e-05 -5.18323250e-05 -1.50822918e-04
      -3.55817428e-05 -2.85181022e-06 0. 0. -1.10751416e-05
      1.06328625e-05 4.67051632e-06 -2.55903178e-05 2.32393768e-06
      -7.95899614e-05 -4.43186218e-06 2.02229639e-05 -6.37388948e-05
      4.87111095e-07 -4.37122762e-05 8.43187154e-05 3.75325217e-05
      -2.44830844e-05 -1.32005371e-05 -1.37362895e-05 0. 0. 0. 0. 0. 0.
      -4.55094450e-05 -1.26771673e-04 -9.40071768e-05 -6.64999679e-05
      4.95957283e-06 -3.04384594e-05 -1.13786395e-04 3.94067320e-05
      1.32758423e-05 -1.01001111e-04 -3.43439533e-05 1.87283804e-05
      -3.62459195e-06 0. 0. 0.</_>
    <_>
      0. 0. 0. 0. -7.89214973e-05 -3.29655566e-04 -3.13405151e-04
      9.40960308e-05 4.61622869e-04 -1.00558871e-04 -6.77277916e-04
      2.87923118e-04 9.18943028e-04 7.98363413e-04 -1.88402468e-04
      -5.70025695e-05 0. 0. 0. 0. 0. 0. 0. -2.65171384e-05
      -1.09865134e-04 -3.38164886e-04 -2.25804877e-04 2.22191273e-04
      3.00333137e-04 -3.86073021e-04 -2.98660743e-04 -7.24260826e-05
      2.45633011e-04 7.61036645e-05 -1.25159873e-04 -4.24175960e-05
      -1.81162104e-05 7.38902031e-07 0. 0. -1.05280724e-05
      -6.83797261e-05 -1.33771464e-04 -2.39476940e-04 -2.33688188e-04
      -1.88937687e-04 2.27258770e-05 -1.50154083e-04 -1.45004058e-04
      -2.10554703e-04 1.26778192e-04 -4.80674098e-05 -4.20078461e-04
      -7.16122333e-04 -9.06762070e-05 -1.22537704e-05 4.10977154e-05
      3.05548274e-05 4.38715688e-06 -2.76512054e-07 -1.68449158e-04
      -1.67747785e-04 -2.40704467e-04 -6.00033207e-04 -3.07973765e-04
      -1.13945949e-04 1.54588779e-04 -3.60805025e-05 1.65741498e-04
      3.83183331e-04 3.33337492e-04 2.54831655e-04 -4.09188098e-04
      -7.88821373e-04 -4.51833548e-05 1.83105280e-04 2.15110951e-04
      6.59643556e-05 -1.61230548e-06 -1.46777865e-07 -1.10544759e-04
      -1.66209808e-04 -2.79509317e-04 -4.96442255e-04 -2.09781720e-04
      6.49524882e-05 2.45589443e-04 8.42770445e-04 9.51550959e-04
      6.57668279e-04 1.31729452e-04 6.89816661e-04 3.42000130e-04
      2.50747107e-04 1.98565132e-04 4.40161122e-04 3.73609539e-04
      9.51748807e-05 -7.50565505e-07 -7.59385941e-08 -5.26403637e-05
      -1.66112412e-04 -2.03739444e-04 -3.47806781e-04 5.32729609e-05
      3.19521350e-04 1.80824267e-04 1.12095173e-03 9.88486223e-04
      6.59321842e-04 -3.91091489e-05 9.65028303e-04 1.07414904e-03
      9.19892162e-04 2.90296040e-04 5.40970941e-04 4.31890221e-04
      5.23115050e-05 -1.73193285e-07 -1.96622612e-08 0. -1.51654342e-04
      -1.27713254e-04 -1.57776070e-04 2.34486986e-04 3.88180983e-04
      1.70411280e-04 -2.20832284e-04 -1.63806675e-04 1.19738143e-04
      2.64102346e-06 6.73555187e-04 8.26592790e-04 5.14580461e-04
      3.47277557e-04 3.39362130e-04 2.40647816e-04 -2.40012810e-07
      -1.98460217e-08 0. 0. -7.58326787e-05 -1.25900597e-05
      1.21057410e-05 9.89530017e-05 2.33348372e-04 1.05515093e-04
      -1.19215867e-03 -1.01317768e-03 -7.18036201e-04 -4.01730562e-04
      -1.67251419e-04 1.97984162e-04 1.36144503e-04 3.84358165e-04
      1.61310978e-04 6.37287667e-05 -3.90534780e-07 -2.20511343e-08 0.
      0. 2.67335126e-05 1.28719781e-04 1.20358614e-04 -1.93278276e-04
      -2.43430579e-04 -1.12996589e-04 -1.06641720e-03 -9.06922156e-04
      -6.13977900e-04 -4.78115777e-04 -3.74786265e-04 -2.02546595e-04
      -3.08796516e-05 3.68012959e-04 -4.87355283e-05 -1.75996509e-04
      -2.44698697e-07 -1.51601558e-08 0. 0. 0. 9.04108238e-05
      9.76851661e-05 -2.04631579e-04 -5.22552989e-04 -2.92910176e-04
      -5.27921657e-04 -2.37485699e-04 4.38782045e-05 -1.93209431e-04
      -2.04709300e-04 -1.92623003e-04 -1.74492481e-04 -8.66918563e-05
      -2.49612465e-04 -2.47671211e-04 -1.59095307e-05 0. 0. 0. 0.
      4.39773339e-06 -6.26663386e-05 -2.95128149e-04 -4.68121725e-04
      -2.03365780e-04 -2.17078377e-05 2.89496151e-04 4.62302822e-04
      -1.05760846e-05 -6.59456491e-05 -1.78134200e-04 -4.56687179e-04
      -2.96105718e-04 -4.10905661e-04 -1.97739311e-04 -6.84993574e-05 0.
      0. 0. 0. -1.83157499e-05 -1.30734858e-04 -2.25800482e-04
      -4.12406778e-04 -9.28299705e-05 2.19199370e-04 5.22789196e-04
      5.64857270e-04 1.81182550e-04 1.17142932e-04 -1.29344407e-04
      -4.72143292e-04 -2.11887527e-04 -5.72556222e-04 -2.17926674e-04
      -1.26352301e-04 0. 0. 0. 0. 0. -8.69133219e-05 -3.17771424e-04
      -3.03206674e-04 -1.73247463e-04 1.78759467e-04 4.79967071e-04
      5.66521310e-04 2.83141271e-04 2.28470977e-04 -1.46408376e-04
      -4.07037296e-04 -1.14334514e-04 -7.19602744e-04 -2.17100067e-04
      -1.65280158e-04 -2.63201819e-05 0. 0. 0. -6.61534028e-09
      -1.05593208e-04 -2.17744353e-04 -1.90488674e-04 -2.42466267e-04
      2.01795810e-05 3.05763941e-04 4.48135805e-04 2.04057782e-04
      2.14382031e-04 -1.92414722e-04 -2.91454460e-04 -8.28723714e-05
      -5.31895203e-04 -2.93104182e-04 -1.52660941e-04 -8.42245790e-05 0.
      0. 0. -4.96150534e-08 -6.75888732e-05 -4.19237367e-05
      -1.13028596e-04 -3.27066606e-04 -2.80047389e-04 3.28506212e-05
      3.02340777e-04 7.97199828e-05 4.64377699e-05 -1.98146925e-04
      -3.10983916e-04 -1.27602631e-04 -3.56636796e-04 -3.75658710e-04
      -1.36610688e-04 -1.42128978e-04 0. 0. -3.27091847e-08
      4.46524427e-06 2.65385466e-07 -1.33207523e-05 -2.71115336e-04
      -6.33290503e-04 -4.43953933e-04 -7.53905915e-05 1.99960617e-04
      -1.08733264e-04 -2.08189624e-04 -2.21126931e-04 -4.21032659e-04
      -2.16213055e-04 -1.27756110e-04 -3.72030539e-04 -1.31951296e-04
      -1.54668203e-04 -4.21122895e-05 0. -9.38321705e-08 2.45182418e-05
      6.13498487e-05 -8.82969616e-05 -4.03732120e-04 -5.97632956e-04
      -4.77174675e-04 -2.32820166e-04 -9.32591793e-05 -6.38539612e-04
      -6.75296760e-04 -2.58673652e-04 -4.95317450e-04 -1.01220045e-04
      1.05841536e-04 -2.25329113e-05 -1.23303573e-04 -1.14245624e-04
      -1.00016689e-04 0. -5.30605426e-08 9.70478595e-06 1.28714048e-04
      -1.37802737e-04 -5.68212068e-04 -6.75496471e-04 -6.35314209e-04
      -4.38914663e-04 -3.42081912e-04 -7.76556204e-04 -6.55936950e-04
      -1.03717131e-04 -1.76900940e-05 2.55403320e-05 2.83516711e-04
      2.83643923e-04 -6.56137054e-05 -4.53053981e-05 -5.42853741e-05 0.
      0. 0. 9.52050141e-06 -1.13618480e-04 -6.50707341e-04
      -8.48629919e-04 -6.41647086e-04 -3.73662100e-04 -2.19941532e-04
      -4.82083007e-04 -3.46770219e-04 9.06948699e-05 3.40206519e-04
      3.02976900e-04 2.71471043e-04 1.80964984e-04 1.56308045e-06 0. 0.
      0. 0. 0. 0. 0. 0. -1.29154403e-04 -1.65391190e-04 -6.79945151e-05
      -2.05561650e-04 -4.88541147e-04 -2.12926068e-04 -1.12406069e-05
      1.13709975e-04 2.41921625e-05 -7.22232699e-06 0. 0. 0. 0.</_>
    <_>
      0. 0. 0. 0. 0. -5.38832792e-05 -8.16195370e-06 3.72779250e-05
      7.71550476e-05 4.70785053e-05 -7.89981132e-05 -7.04255799e-05
      -4.79287883e-05 -4.08457636e-05 -7.94752123e-05 -5.32505692e-05
      7.85529701e-05 7.85529701e-05 0. 0. 0. 0. 0. -9.08573202e-06
      -3.61390630e-05 -1.30333225e-04 -1.98096805e-05 3.13268465e-05
      1.13999668e-04 1.46608960e-04 -1.20822500e-04 -1.93987275e-04
      -6.33629097e-05 -1.04927654e-04 -1.26293162e-04 -6.29001224e-05
      4.40680269e-05 6.29292263e-05 0. 0. 0. -9.19941795e-06
      -5.43201859e-05 -5.60718654e-05 -1.40803313e-04 -2.11819395e-04
      5.47980198e-05 -2.27746132e-05 3.32453928e-05 4.61776581e-05
      -1.75025256e-04 -1.70601415e-04 -8.91654636e-05 -8.24878371e-05
      -5.70752236e-05 -3.47423702e-05 -7.85227458e-05 -7.70364204e-05
      -2.24021969e-05 -2.32757930e-06 0. 0. -7.77018140e-05
      -1.03958446e-04 -1.81144133e-04 -1.55268164e-04 1.12247697e-04
      3.81040481e-05 2.59646004e-05 5.84399095e-05 3.56072742e-05
      -4.20950846e-06 7.04866125e-06 5.74692313e-05 8.77701605e-05
      1.71231368e-05 -8.13028673e-05 -1.48667066e-04 -6.72988317e-05 0.
      0. 0. -5.69056210e-05 -1.46386286e-04 -7.13932677e-05
      8.29496366e-06 1.34290618e-04 1.28572123e-04 1.06999437e-06
      2.39835383e-04 2.60003522e-04 1.77351496e-04 8.05534364e-05
      1.47363084e-04 1.64710174e-04 1.07594700e-04 1.71897464e-05
      -1.15185874e-04 -7.56878435e-05 0. 0. 6.58130759e-08
      -2.36958913e-05 -1.10038363e-05 1.31347799e-04 6.79071309e-05
      2.42163223e-04 2.29898855e-04 5.19892346e-05 2.78494990e-04
      2.97011953e-04 2.28624122e-04 1.55607704e-04 2.02575393e-04
      1.86864956e-04 1.68613886e-04 1.64563913e-04 -1.13895927e-04
      -5.33966522e-05 -2.83505074e-06 0. 1.02245303e-06 -9.90112540e-07
      1.50108564e-04 1.98393333e-04 5.26214244e-05 7.61687334e-05
      1.22802085e-04 1.56067763e-05 1.06554136e-04 1.76926580e-04
      2.40226494e-04 2.07049554e-04 1.66461323e-04 1.83109616e-04
      1.91232131e-04 5.91391181e-05 -1.24817961e-04 -4.73690525e-05 0.
      0. 1.92926327e-05 9.41996623e-05 2.24971125e-04 1.48256760e-04
      -1.00635567e-04 -1.63916164e-04 5.95659958e-06 -7.50745821e-05
      -1.87253274e-04 -3.01467317e-05 1.71801599e-04 2.33356157e-04
      1.23111997e-04 1.45863349e-04 1.96407753e-04 8.56966744e-06
      -6.50535003e-05 -1.76784743e-05 0. 0. 6.48341011e-05
      2.23246723e-04 1.97595029e-04 1.08026788e-05 -3.78251163e-04
      -3.80382000e-04 -1.48891631e-04 -1.42384612e-04 -1.95295055e-04
      -1.30942557e-04 1.17640797e-04 2.18929461e-04 1.18327596e-04
      7.07565268e-05 1.35495429e-04 -3.00504216e-05 -6.89846411e-06
      -3.03288857e-07 0. 0. -1.14223249e-05 1.43402314e-04
      1.72619533e-04 -1.06012485e-04 -6.23718894e-04 -4.03617974e-04
      -2.14474043e-04 -1.52338689e-04 -1.04267980e-04 -1.31489287e-04
      1.10463210e-04 1.63748089e-04 5.41384252e-05 -6.72025999e-05
      -4.00099270e-05 -1.01771002e-05 0. 0. 0. 0. -3.23632521e-05
      -4.74761464e-06 5.15650618e-06 -2.93053105e-04 -7.59085116e-04
      -4.15159477e-04 -1.50035878e-04 -8.97986392e-05 -1.20662087e-04
      -2.07564935e-05 1.26216459e-04 1.36219212e-04 2.25979566e-05
      -1.02008351e-04 -1.81926647e-04 -5.68931609e-05 0. 0. 0. 0.
      -5.31735350e-05 -8.85182526e-05 -9.25806889e-05 -3.47461784e-04
      -7.79825088e-04 -4.17672592e-04 -6.49034628e-05 2.64546215e-05
      1.38751493e-04 1.89078884e-04 1.83094642e-04 1.03812279e-04
      1.14939312e-05 -1.31230088e-04 -2.62509799e-04 -1.54901252e-04 0.
      0. 0. -1.55377202e-05 -5.73029283e-05 -8.88407812e-05
      -1.19569188e-04 -4.02560516e-04 -6.33207790e-04 -3.72866431e-04
      -1.56362476e-05 1.82762640e-04 2.69495999e-04 2.52367026e-04
      1.57141214e-04 1.03474522e-05 -5.77722130e-05 -1.49636631e-04
      -3.33704549e-04 -2.24450341e-04 -2.06445256e-05 0. 0.
      -3.32964482e-05 -5.76920720e-05 -8.87564311e-05 -1.84984616e-04
      -3.11736832e-04 -4.40972392e-04 -4.02578269e-04 -6.08212249e-05
      2.36478139e-04 3.70960013e-04 2.39243745e-04 7.77570167e-05
      -1.03990715e-04 -1.32642919e-04 -1.28427244e-04 -2.82517343e-04
      -2.54425919e-04 -9.64493520e-05 0. 0. -5.09151978e-05
      -6.02023683e-05 -8.85182526e-05 -1.30132816e-04 -1.39599448e-04
      -2.28637800e-04 -3.29147500e-04 -1.93438245e-04 3.72351606e-05
      2.08801241e-04 1.48196574e-04 -1.65939364e-05 -1.16933916e-04
      -1.18240692e-04 -7.47143786e-05 -1.88313788e-04 -2.12019848e-04
      -1.67609658e-04 0. 0. -4.87669786e-05 -6.09190647e-05
      -7.79400871e-05 -3.93744813e-05 -5.45133662e-05 -1.39645883e-04
      -1.76682981e-04 -1.87763246e-04 -8.81804299e-05 2.74012200e-05
      1.12174035e-04 -8.17474793e-05 -4.67739555e-05 -4.73167311e-05
      -1.72785894e-05 -1.00230682e-04 -5.48644784e-05 -1.32138928e-04
      -1.49921725e-05 0. -3.71855458e-05 -6.05756468e-05 -6.53078459e-05
      -1.69544255e-05 1.37631359e-05 -1.20708202e-04 -1.30396540e-04
      -1.39404525e-04 -1.65446676e-04 -3.99388118e-05 6.49933718e-05
      -1.71182939e-04 -2.00184877e-05 -5.41925292e-05 -5.33691345e-05
      -6.63877145e-05 -6.75025440e-05 -8.42687514e-05 -5.21506536e-06 0.
      0. -2.07766861e-05 -7.16808790e-05 7.83634096e-06 8.97882201e-05
      -8.04733354e-05 -1.18957840e-04 -1.18397787e-04 -1.78777991e-04
      -1.84623554e-04 -9.43403284e-05 -2.21098948e-04 -2.05394739e-04
      -1.74898960e-04 -8.73260287e-05 -7.85497905e-05 -2.74574049e-05
      -7.48746606e-05 0. 0. 0. 0. -1.62348181e-06 -1.84689379e-05
      3.76355420e-05 -5.18179222e-05 -8.79082654e-05 -2.34535655e-05
      -1.06902866e-04 -1.55540314e-04 -1.34314207e-04 -9.81538906e-05
      -2.25014941e-04 -2.98166240e-04 -8.49772987e-05 -2.97042752e-05
      -5.81450468e-06 -3.13466480e-05 0. 0. 0. 0. -1.62348181e-06
      -2.61921723e-05 -2.75991897e-05 -2.40275313e-05 4.86853278e-05
      9.85911829e-05 2.01142120e-05 -1.82605017e-05 -2.35976095e-05
      -5.91013850e-05 -2.35881656e-04 -1.84026983e-04 -8.15915628e-05
      -3.80029669e-05 -2.67333326e-05 -1.23384616e-05 0. 0.</_>
    <_>
      0. 0. 0. 0. -3.55431926e-04 -1.29361451e-03 -1.48133060e-03
      -1.98368705e-03 -2.23960308e-03 9.32732946e-04 5.31538913e-04
      -1.76476594e-03 -1.86338919e-04 1.52159936e-03 -1.28683494e-03
      -3.95295036e-04 9.05225024e-05 3.78629193e-04 0. 0. 0. 0. 0.
      -3.01502412e-04 -6.53270108e-04 -9.06966801e-04 -4.19841672e-04
      1.00483384e-03 -3.12675745e-03 -1.29359227e-03 7.02270481e-04
      -2.41528591e-03 -1.90432114e-03 1.57365680e-03 -1.21705572e-03
      8.51977966e-04 3.34785698e-04 3.33846227e-04 0. 0. -1.01087846e-06
      -2.70002725e-04 -1.56783534e-03 -1.72482512e-03 -1.52101018e-03
      -3.42186843e-03 -3.06329248e-03 2.19223858e-03 8.92018608e-04
      -1.97669561e-03 9.88095533e-04 -1.19437078e-04 -1.01405650e-03
      5.56158426e-04 -2.53505236e-03 9.60261561e-04 2.75469181e-04
      -3.02221215e-05 -4.50551634e-05 -9.75080184e-05 0. -4.42067540e-05
      -2.81989085e-03 -3.03934608e-03 2.86685099e-04 -1.54891098e-03
      -2.49408442e-03 7.26088590e-04 1.14719314e-03 -1.39018847e-03
      7.78219255e-04 9.71974107e-04 -6.62195031e-04 5.74567239e-04
      -9.00294865e-04 -1.58511204e-04 -4.33452864e-04 -1.21224974e-03
      -1.50677792e-04 -1.21881232e-04 -1.23289836e-04 -8.36716572e-05
      -2.12009763e-03 -2.56622233e-03 1.61978614e-03 2.79821642e-03
      7.95000058e-04 -3.22948140e-03 1.12012157e-03 7.41493364e-04
      -1.12414523e-03 1.07080699e-03 -2.06363169e-04 3.36913305e-04
      -1.26973982e-03 -9.95764160e-04 -1.12064858e-03 -1.81236697e-04
      7.76259330e-05 1.61835909e-04 -1.04861589e-04 -2.04132186e-04
      -9.09705879e-04 -3.00387130e-03 1.43689557e-03 1.49846403e-03
      2.03435449e-03 -1.04357349e-03 1.39229768e-03 1.23113871e-03
      8.72819510e-05 6.37134654e-04 -1.79582465e-04 1.26282066e-05
      -6.64050225e-04 -6.75726915e-05 -4.20585042e-04 -6.19576196e-04
      1.61310891e-04 1.15476250e-04 0. -7.69684193e-05 -8.52094381e-05
      -2.29543354e-03 9.47924738e-04 -1.04441692e-03 -5.03863012e-05
      -1.53096044e-03 -4.97526315e-04 -5.25497489e-06 5.84194669e-04
      -5.04437885e-05 6.27328351e-04 6.48368616e-04 -1.44545236e-04
      2.30910067e-04 7.97138433e-04 -7.71859777e-04 -3.25864858e-05 0.
      0. 5.96005193e-05 4.42001387e-04 -3.14923120e-04 7.45732832e-05
      8.82422377e-04 -2.60835257e-03 -8.20687914e-04 -1.17428903e-03
      -8.59138032e-04 8.96725222e-04 -9.88563916e-05 2.23352559e-04
      6.30082737e-04 2.35096115e-04 -8.38090898e-04 4.74659646e-05
      -1.98923590e-04 1.63910829e-06 0. 0. 2.05059288e-04 9.53677634e-04
      7.82747811e-04 -4.72439366e-04 1.93094509e-03 -2.36754058e-04
      -1.61489370e-04 -1.79306569e-03 -2.55394989e-04 2.14722939e-03
      3.70412221e-04 -1.42706290e-03 1.58091440e-04 3.68205451e-06
      -1.05639210e-03 -1.63849210e-04 3.85885884e-04 5.70974225e-05 0.
      0. 0. 7.33525492e-04 8.44391529e-04 7.01867742e-04 5.89642266e-04
      1.33074715e-03 9.56582371e-04 -6.40089565e-04 1.63550815e-03
      1.69172487e-03 -1.79746959e-04 -1.60415808e-03 1.08609907e-03
      4.45384474e-04 5.75397047e-04 4.09329259e-05 1.42000106e-04 0. 0.
      0. 0. 2.64952367e-04 3.12924531e-04 5.75193080e-05 1.77940077e-04
      1.10967166e-03 2.23533344e-03 -7.45399797e-04 -1.19737897e-03
      9.76178155e-04 9.73513175e-04 -6.44985776e-05 1.13446685e-03
      5.05986623e-04 5.54482220e-04 -1.10243498e-04 -6.48223067e-05 0.
      0. 0. 0. 0. 7.34054311e-07 5.06587412e-06 7.30621105e-05
      9.99466283e-04 2.77766027e-03 -1.86850011e-05 -1.00553792e-03
      -7.72556290e-04 9.40244645e-04 2.40816025e-05 -1.99022747e-04
      4.41768119e-04 1.30889326e-04 -1.75928144e-04 -2.29011512e-05 0.
      0. 0. 0. 0. 1.11551515e-06 3.82617191e-06 1.06178530e-04
      9.52625531e-04 1.88133935e-03 5.93563076e-04 -2.36255408e-04
      9.64985738e-05 1.02352805e-03 -1.07770240e-04 -1.26256654e-03
      4.08201886e-05 8.79321033e-06 -7.22199620e-05 0. 0. 0. 0. 0. 0.
      3.08729141e-05 6.99227312e-05 1.41907425e-04 1.94824897e-04
      4.82793053e-04 2.98889354e-04 4.41867269e-05 7.57503803e-05
      9.47332941e-04 1.27075822e-03 -7.60798051e-04 -2.92467448e-04
      3.20293708e-04 -1.45417425e-05 0. 0. 0. 0. 0. 0. 1.36562070e-04
      1.66466154e-04 -2.24791598e-04 -5.27156342e-04 -5.75230457e-04
      -1.20118508e-04 -1.22714334e-03 -9.64314560e-04 -8.17238411e-04
      -5.41001093e-04 8.03261530e-04 -8.71113007e-05 8.34384060e-04
      4.72849194e-07 0. 0. 0. 0. 0. 3.22171400e-05 1.51002547e-04
      4.43437602e-06 -9.53994109e-04 -1.30476733e-03 -6.18722988e-04
      -7.87225727e-04 -1.50768622e-03 -1.43169938e-03 -2.32049730e-03
      6.44762244e-04 1.39414216e-03 -5.35059429e-04 1.31597219e-03
      8.15118547e-05 8.22346422e-08 0. 0. 0. 0. 5.16235596e-05
      -5.73316880e-04 -1.20854797e-03 -1.18225336e-03 -1.17918919e-03
      5.27628727e-05 -1.88857177e-03 -9.66490305e-04 -1.63290580e-03
      -2.14972929e-03 9.25364147e-04 1.17422664e-03 -3.40044877e-04
      3.13959259e-04 3.31159623e-04 3.08379896e-07 0. 0. 0. 0.
      1.04527899e-05 -3.23424232e-04 -1.57168414e-03 -1.02247659e-03
      -4.57764807e-04 4.07359708e-04 4.14141221e-04 1.58442114e-03
      1.22221687e-03 4.88234014e-04 -3.46642424e-04 1.48281339e-03
      -3.17936792e-04 -9.03843204e-04 1.69075560e-04 5.34525157e-07 0.
      0. 0. 0. 0. -5.60657463e-05 -7.53409404e-04 -7.32156390e-04
      -1.38744668e-04 6.06364803e-04 1.88503589e-03 3.33760376e-03
      1.87315641e-03 9.89697408e-04 1.62836121e-04 1.19032618e-03
      -1.66917045e-04 -1.58709334e-03 -8.58510612e-05 2.96415319e-08 0.
      0. 0. 0. 0. 0. 0. -4.40053205e-04 -2.02503783e-04 5.51052217e-04
      -2.25456851e-03 -1.60720129e-03 -1.51775865e-04 2.62930727e-04
      -1.94579188e-03 7.84258416e-04 9.81110279e-05 0. 0. 0. 0. 0.</_>
    <_>
      0. 0. 0. 0. 0. -2.39148790e-07 -1.50160049e-04 -1.40381366e-04
      1.11887763e-04 -2.59335211e-04 -6.21634244e-04 -3.32264957e-04
      4.22109006e-04 3.04037269e-04 9.19002196e-05 -1.09029883e-04
      -6.07385045e-05 -1.11353920e-05 0. 0. 0. 0. 0. -2.29471098e-05
      -1.26058585e-04 -1.45438898e-04 -3.84443701e-04 6.76235823e-06
      5.12560597e-04 7.09768719e-05 -1.43421756e-04 -4.93720465e-04
      -7.74734872e-05 8.68182251e-05 4.28940431e-04 1.51034677e-04
      4.37132876e-05 -1.88907609e-06 0. 0. 0. 2.26623214e-07
      2.89923423e-06 -5.36951848e-05 -3.80167185e-04 -7.32886110e-05
      -1.98372756e-04 -7.08164443e-05 5.01310045e-04 2.12313797e-04
      1.60332143e-04 -2.15212902e-04 -2.71377183e-04 -1.51215660e-04
      2.65058479e-04 1.32617832e-04 8.39791974e-05 -4.80158742e-05
      -9.69098255e-05 -4.73171858e-05 0. 1.88547824e-06 -2.33222781e-05
      -1.55365517e-04 -1.06586696e-04 8.82847307e-05 -2.38127453e-04
      3.59231723e-04 5.22761024e-04 4.37167095e-04 4.20120661e-04
      2.70587014e-04 6.65813059e-05 1.56262962e-04 -8.85169993e-06
      -6.95109266e-05 -4.88151600e-05 -1.18667325e-04 -8.34664679e-05
      -9.95952287e-05 0. 2.03268883e-06 -8.82947716e-05 -2.36404885e-04
      -1.64454483e-04 1.95254557e-04 -6.99253433e-05 7.94928463e-04
      8.19637440e-04 6.32581359e-04 5.89454896e-04 1.78314338e-04
      1.67597580e-04 3.54908785e-04 -2.31351893e-04 1.26713901e-04
      2.88230833e-04 3.22344204e-05 -1.04170969e-04 -7.02320249e-05 0.
      4.66715790e-07 -1.45864891e-04 -1.66307567e-04 4.85436931e-06
      4.39080817e-04 5.54572849e-04 1.06849859e-03 6.68927096e-04
      5.49056625e-04 5.29568817e-04 2.98714469e-04 3.33863252e-04
      4.10647684e-04 -1.66199476e-04 2.54853250e-04 5.81937318e-04
      -1.64364668e-04 -1.27133884e-04 -4.11814253e-05 0. -6.18568447e-05
      -1.52946261e-04 1.62544573e-04 7.53085260e-05 6.18113903e-04
      3.63261235e-04 4.92609164e-04 8.98970102e-05 1.19778626e-04
      3.21052619e-04 3.30340845e-04 4.04020800e-04 4.92416766e-05
      -1.87643367e-04 1.34253598e-04 3.39484905e-05 -2.89114949e-04
      -9.15598284e-05 -1.74373636e-05 0. -1.48925537e-04 1.45829676e-04
      3.59569851e-04 3.44200409e-04 5.12798317e-04 -3.80974408e-04
      -4.63429722e-04 -2.65354029e-04 -1.98082795e-04 5.37814594e-05
      2.81911207e-06 3.18879145e-04 -1.84991077e-04 -2.18359302e-04
      1.98831593e-04 -1.44655060e-04 -2.06168726e-04 -6.20966966e-05
      -1.08231916e-05 0. -1.24932805e-04 5.25037351e-04 5.01834671e-04
      4.21654346e-04 2.09219361e-04 -6.17267506e-04 -9.53224371e-04
      -6.67212415e-04 -3.53164447e-04 -1.14854163e-04 -4.62860371e-05
      1.40143500e-04 -1.71692591e-06 2.64518225e-04 6.45675638e-04
      -3.64122359e-04 -1.59173418e-04 -3.52731149e-05 -4.20901870e-06
      -5.57558342e-05 -3.48464440e-04 3.27732036e-04 4.85055498e-04
      3.30145587e-04 -9.90090412e-05 -6.48284215e-04 -1.00854877e-03
      -5.84709633e-04 -2.04322176e-04 -1.89883838e-04 -1.34270842e-04
      -1.63510544e-04 -1.56211623e-04 3.54280113e-04 4.45020327e-04
      -3.57401295e-04 -2.37261600e-04 -5.53355931e-05 0. -1.32420115e-04
      -3.41667474e-04 -6.16890247e-05 4.61542695e-05 -4.78612666e-04
      -4.39024298e-04 -4.72555112e-04 -5.51000237e-04 -4.05798462e-04
      -8.86133494e-05 2.87037401e-05 -5.13568193e-05 -2.70005374e-04
      -4.38768591e-04 2.22587187e-04 -3.14852150e-05 -2.20239730e-04
