<?xml version="1.0"?>
<opencv_storage>
<opencv_ml_boost>
  <format>3</format>
  <is_classifier>1</is_classifier>
  <var_all>8</var_all>
  <var_count>7</var_count>
  <ord_var_count>7</ord_var_count>
  <cat_var_count>1</cat_var_count>
  <training_params>
    <boosting_type>RealAdaboost</boosting_type>
    <use_surrogates>0</use_surrogates>
    <max_categories>10</max_categories>
    <regression_accuracy>9.9999997764825821e-03</regression_accuracy>
    <max_depth>1</max_depth>
    <min_sample_count>10</min_sample_count>
    <cross_validation_folds>0</cross_validation_folds>
    <weight_trimming_rate>0.</weight_trimming_rate></training_params>
  <global_var_idx>1</global_var_idx>
  <var_idx>
    0 1 2 3 4 5 6</var_idx>
  <var_type>
    0 0 0 0 0 0 0 1</var_type>
  <cat_ofs>
    0 0 0 0 0 0 0 0 0 0 0 0 0 0</cat_ofs>
  <class_labels>
    1 2</class_labels>
  <missing_subst>
    0. 0. 0. 0. 0. 0. 0. 0.</missing_subst>
  <ntrees>100</ntrees>
  <trees>
    <_>
      <nodes>
        <_>
          <depth>0</depth>
          <value>-1.9327753847035606e-01</value>
          <splits>
            <_><var>6</var>
              <quality>7.4585181474685669e-01</quality>
              <le>8.5000000000000000e+00</le></_></splits></_>
        <_>
          <depth>1</depth>
          <value>-1.1025837154250027e+00</value></_>
        <_>
          <depth>1</depth>
          <value>2.1106721264917043e+00</value></_></nodes></_>
    <_>
      <nodes>
        <_>
          <depth>0</depth>
          <value>2.2890127824371636e-08</value>
          <splits>
            <_><var>6</var>
              <quality>3.9035788178443909e-01</quality>
              <le>4.5000000000000000e+00</le></_></splits></_>
        <_>
          <depth>1</depth>
          <value>-1.1496034337576018e+00</value></_>
        <_>
          <depth>1</depth>
          <value>5.1965067701373435e-01</value></_></nodes></_>
    <_>
      <nodes>
        <_>
          <depth>0</depth>
          <value>-4.9327347786305653e-10</value>
          <splits>
            <_><var>4</var>
              <quality>3.9152297377586365e-01</quality>
              <le>6.1870948411524296e-04</le></_></splits></_>
        <_>
          <depth>1</depth>
          <value>-7.2768455173644708e-01</value></_>
        <_>
          <depth>1</depth>
          <value>7.4111088653553070e-01</value></_></nodes></_>
    <_>
      <nodes>
        <_>
          <depth>0</depth>
          <value>1.5362999747259847e-08</value>
          <splits>
            <_><var>5</var>
              <quality>1.6443397104740143e-01</quality>
              <le>1.7029199600219727e+00</le></_></splits></_>
        <_>
          <depth>1</depth>
          <value>-4.4068761083780522e-01</value></_>
        <_>
          <depth>1</depth>
          <value>4.2005655103590567e-01</value></_></nodes></_>
    <_>
      <nodes>
        <_>
          <depth>0</depth>
          <value>-7.1792696192672112e-09</value>
          <splits>
            <_><var>0</var>
              <quality>1.2459950894117355e-01</quality>
              <le>9.7278797626495361e-01</le></_></splits></_>
        <_>
          <depth>1</depth>
          <value>-3.7708422248279061e-01</value></_>
        <_>
          <depth>1</depth>
          <value>3.6082883963280271e-01</value></_></nodes></_>
    <_>
      <nodes>
        <_>
          <depth>0</depth>
          <value>-2.1784352702552286e-09</value>
          <splits>
            <_><var>3</var>
              <quality>1.4948125183582306e-01</quality>
              <le>5.</le></_></splits></_>
        <_>
          <depth>1</depth>
          <value>1.9607083127171429e-01</value></_>
        <_>
          <depth>1</depth>
          <value>-1.0255776546573392e+00</value></_></nodes></_>
    <_>
      <nodes>
        <_>
          <depth>0</depth>
          <value>-1.8447839401251666e-09</value>
          <splits>
            <_><var>1</var>
              <quality>1.0393024235963821e-01</quality>
              <le>7.4759051203727722e-02</le></_></splits></_>
        <_>
          <depth>1</depth>
          <value>1.5388771877594940e+00</value></_>
        <_>
          <depth>1</depth>
          <value>-1.1446445897153712e-01</value></_></nodes></_>
    <_>
      <nodes>
        <_>
          <depth>0</depth>
          <value>5.5498496601214838e-09</value>
          <splits>
            <_><var>2</var>
              <quality>7.5921475887298584e-02</quality>
              <le>1.5000000000000000e+00</le></_></splits></_>
        <_>
          <depth>1</depth>
          <value>-9.4853071301489775e-02</value></_>
        <_>
          <depth>1</depth>
          <value>1.1064679725905386e+00</value></_></nodes></_>
    <_>
      <nodes>
        <_>
          <depth>0</depth>
          <value>2.6019506481644791e-09</value>
          <splits>
            <_><var>4</var>
              <quality>9.4548992812633514e-02</quality>
              <le>1.4620000123977661e-01</le></_></splits></_>
        <_>
          <depth>1</depth>
          <value>1.4041606337647763e-01</value></_>
        <_>
          <depth>1</depth>
          <value>-8.2497468803630736e-01</value></_></nodes></_>
    <_>
      <nodes>
        <_>
          <depth>0</depth>
          <value>-2.7871089958128829e-09</value>
          <splits>
            <_><var>0</var>
              <quality>1.0213777422904968e-01</quality>
              <le>7.1291202306747437e-01</le></_></splits></_>
        <_>
          <depth>1</depth>
          <value>-8.2337022394995740e-01</value></_>
        <_>
          <depth>1</depth>
          <value>1.5205153092942875e-01</value></_></nodes></_>
    <_>
      <nodes>
        <_>
          <depth>0</depth>
          <value>-7.0680182206985339e-09</value>
          <splits>
            <_><var>3</var>
              <quality>9.1084145009517670e-02</quality>
              <le>3.</le></_></splits></_>
        <_>
          <depth>1</depth>
          <value>3.2630021471967730e-01</value></_>
        <_>
          <depth>1</depth>
          <value>-2.9745239206161955e-01</value></_></nodes></_>
    <_>
      <nodes>
        <_>
          <depth>0</depth>
          <value>4.2207037686584278e-09</value>
          <splits>
            <_><var>1</var>
              <quality>1.2071799486875534e-01</quality>
              <le>1.2252999842166901e-01</le></_></splits></_>
        <_>
          <depth>1</depth>
          <value>1.9570343820374198e-01</value></_>
        <_>
          <depth>1</depth>
          <value>-7.3267048631065024e-01</value></_></nodes></_>
    <_>
      <nodes>
        <_>
          <depth>0</depth>
          <value>4.9404704527578104e-09</value>
          <splits>
            <_><var>0</var>
              <quality>5.1326274871826172e-02</quality>
              <le>1.1400549411773682e+00</le></_></splits></_>
        <_>
          <depth>1</depth>
          <value>-1.3054335839890807e-01</value></_>
        <_>
          <depth>1</depth>
          <value>4.1819062744626723e-01</value></_></nodes></_>
    <_>
      <nodes>
        <_>
          <depth>0</depth>
          <value>-5.7373630620297649e-09</value>
          <splits>
            <_><var>3</var>
              <quality>7.4935190379619598e-02</quality>
              <le>5.</le></_></splits></_>
        <_>
          <depth>1</depth>
          <value>1.3217276043532419e-01</value></_>
        <_>
          <depth>1</depth>
          <value>-6.4788793811524770e-01</value></_></nodes></_>
    <_>
      <nodes>
        <_>
          <depth>0</depth>
          <value>-1.3133631977010034e-09</value>
          <splits>
            <_><var>6</var>
              <quality>6.8970009684562683e-02</quality>
              <le>6.5000000000000000e+00</le></_></splits></_>
        <_>
          <depth>1</depth>
          <value>-2.5259461310976250e-01</value></_>
        <_>
          <depth>1</depth>
          <value>2.8641172318247188e-01</value></_></nodes></_>
    <_>
      <nodes>
        <_>
          <depth>0</depth>
          <value>-6.6834665624331281e-10</value>
          <splits>
            <_><var>4</var>
              <quality>6.1049126088619232e-02</quality>
              <le>1.2047614436596632e-03</le></_></splits></_>
        <_>
          <depth>1</depth>
          <value>-2.2956518837685566e-01</value></_>
        <_>
          <depth>1</depth>
          <value>2.7749923291090101e-01</value></_></nodes></_>
    <_>
      <nodes>
        <_>
          <depth>0</depth>
          <value>1.8466863559755346e-09</value>
          <splits>
            <_><var>5</var>
              <quality>3.7804767489433289e-02</quality>
              <le>2.8878500461578369e+00</le></_></splits></_>
        <_>
          <depth>1</depth>
          <value>-5.9189839725366858e-02</value></_>
        <_>
          <depth>1</depth>
          <value>7.5724166552251615e-01</value></_></nodes></_>
    <_>
      <nodes>
        <_>
          <depth>0</depth>
          <value>1.2782803688085297e-09</value>
          <splits>
            <_><var>0</var>
              <quality>4.0472384542226791e-02</quality>
              <le>1.2540299892425537e+00</le></_></splits></_>
        <_>
          <depth>1</depth>
          <value>-9.7780484900579542e-02</value></_>
        <_>
          <depth>1</depth>
          <value>4.4191311584897830e-01</value></_></nodes></_>
    <_>
      <nodes>
        <_>
          <depth>0</depth>
          <value>7.7830164474866435e-10</value>
          <splits>
            <_><var>6</var>
              <quality>4.2771503329277039e-02</quality>
              <le>9.5000000000000000e+00</le></_></splits></_>
        <_>
          <depth>1</depth>
          <value>1.0345637675736427e-01</value></_>
        <_>
          <depth>1</depth>
          <value>-4.4151499808952227e-01</value></_></nodes></_>
    <_>
      <nodes>
        <_>
          <depth>0</depth>
          <value>-8.9041935015702650e-10</value>
          <splits>
            <_><var>6</var>
              <quality>5.6900214403867722e-02</quality>
              <le>1.2500000000000000e+01</le></_></splits></_>
        <_>
          <depth>1</depth>
          <value>-5.6961742943055713e-02</value></_>
        <_>
          <depth>1</depth>
          <value>5.7564577324623896e+00</value></_></nodes></_>
    <_>
      <nodes>
        <_>
          <depth>0</depth>
          <value>1.8019303850042143e-04</value>
          <splits>
            <_><var>5</var>
              <quality>4.9461603164672852e-02</quality>
              <le>1.3964300155639648e+00</le></_></splits></_>
        <_>
          <depth>1</depth>
          <value>-4.0871468426368607e-01</value></_>
        <_>
          <depth>1</depth>
          <value>1.2850559780307280e-01</value></_></nodes></_>
    <_>
      <nodes>
        <_>
          <depth>0</depth>
          <value>-4.1425043567152179e-09</value>
          <splits>
            <_><var>3</var>
              <quality>6.0427621006965637e-02</quality>
              <le>3.</le></_></splits></_>
        <_>
          <depth>1</depth>
          <value>2.8131548173335391e-01</value></_>
        <_>
          <depth>1</depth>
          <value>-2.2411904321435736e-01</value></_></nodes></_>
    <_>
      <nodes>
        <_>
          <depth>0</depth>
          <value>-5.8161159255908182e-10</value>
          <splits>
            <_><var>2</var>
              <quality>3.9997234940528870e-02</quality>
              <le>1.5000000000000000e+00</le></_></splits></_>
        <_>
          <depth>1</depth>
          <value>-6.2095049528603716e-02</value></_>
        <_>
          <depth>1</depth>
          <value>7.6661506738818463e-01</value></_></nodes></_>
    <_>
      <nodes>
        <_>
          <depth>0</depth>
          <value>-1.5158883060692794e-09</value>
          <splits>
            <_><var>1</var>
              <quality>3.8687273859977722e-02</quality>
              <le>1.4145749807357788e-01</le></_></splits></_>
        <_>
          <depth>1</depth>
          <value>4.3999175495826409e-02</value></_>
        <_>
          <depth>1</depth>
          <value>-1.3750588349544126e+00</value></_></nodes></_>
    <_>
      <nodes>
        <_>
          <depth>0</depth>
          <value>3.1021563086466349e-10</value>
          <splits>
            <_><var>1</var>
              <quality>5.0638038665056229e-02</quality>
              <le>1.3580200076103210e-01</le></_></splits></_>
        <_>
          <depth>1</depth>
          <value>-8.6258291697769510e-02</value></_>
        <_>
          <depth>1</depth>
          <value>6.7537815664074963e-01</value></_></nodes></_>
    <_>
      <nodes>
        <_>
          <depth>0</depth>
          <value>1.8106174304834275e-09</value>
          <splits>
            <_><var>5</var>
              <quality>4.6721901744604111e-02</quality>
              <le>1.4050550460815430e+00</le></_></splits></_>
        <_>
          <depth>1</depth>
          <value>-4.3301338011344725e-01</value></_>
        <_>
          <depth>1</depth>
          <value>1.1506551146297191e-01</value></_></nodes></_>
    <_>
      <nodes>
        <_>
          <depth>0</depth>
          <value>-2.9548292233718687e-09</value>
          <splits>
            <_><var>4</var>
              <quality>5.3400818258523941e-02</quality>
              <le>1.2047614436596632e-03</le></_></splits></_>
        <_>
          <depth>1</depth>
          <value>-2.0958571583397773e-01</value></_>
        <_>
          <depth>1</depth>
          <value>2.6451326201790948e-01</value></_></nodes></_>
    <_>
      <nodes>
        <_>
          <depth>0</depth>
          <value>9.6194785377981495e-10</value>
          <splits>
            <_><var>4</var>
              <quality>3.3051058650016785e-02</quality>
              <le>1.2561850249767303e-01</le></_></splits></_>
        <_>
          <depth>1</depth>
          <value>9.1601291365915341e-02</value></_>
        <_>
          <depth>1</depth>
          <value>-3.7898183491280923e-01</value></_></nodes></_>
    <_>
      <nodes>
        <_>
          <depth>0</depth>
          <value>6.9838579359168040e-11</value>
          <splits>
            <_><var>0</var>
              <quality>2.8543829917907715e-02</quality>
              <le>1.6449600458145142e+00</le></_></splits></_>
        <_>
          <depth>1</depth>
          <value>-2.9668566829796805e-02</value></_>
        <_>
          <depth>1</depth>
          <value>1.9770836677966239e+00</value></_></nodes></_>
    <_>
      <nodes>
        <_>
          <depth>0</depth>
          <value>7.3869266204840910e-10</value>
          <splits>
            <_><var>0</var>
              <quality>3.9767656475305557e-02</quality>
              <le>1.3603899478912354e+00</le></_></splits></_>
        <_>
          <depth>1</depth>
          <value>6.0287762283901168e-02</value></_>
        <_>
          <depth>1</depth>
          <value>-7.9357523958550469e-01</value></_></nodes></_>
    <_>
      <nodes>
        <_>
          <depth>0</depth>
          <value>-9.3087471151387246e-10</value>
          <splits>
            <_><var>0</var>
              <quality>4.6831116080284119e-02</quality>
              <le>1.0659449100494385e+00</le></_></splits></_>
        <_>
          <depth>1</depth>
          <value>-1.4778750661197362e-01</value></_>
        <_>
          <depth>1</depth>
          <value>3.3073950826998882e-01</value></_></nodes></_>
    <_>
      <nodes>
        <_>
          <depth>0</depth>
          <value>6.3861917568192464e-09</value>
          <splits>
            <_><var>6</var>
              <quality>2.4390682578086853e-02</quality>
              <le>6.5000000000000000e+00</le></_></splits></_>
        <_>
          <depth>1</depth>
          <value>-1.3416892941146510e-01</value></_>
        <_>
          <depth>1</depth>
          <value>1.8496109306404715e-01</value></_></nodes></_>
    <_>
      <nodes>
        <_>
          <depth>0</depth>
          <value>-4.7800263975664021e-09</value>
          <splits>
            <_><var>5</var>
              <quality>1.9821422174572945e-02</quality>
              <le>3.9786601066589355e+00</le></_></splits></_>
        <_>
          <depth>1</depth>
          <value>-1.9824022896896134e-02</value></_>
        <_>
          <depth>1</depth>
          <value>5.7564577324623896e+00</value></_></nodes></_>
    <_>
      <nodes>
        <_>
          <depth>0</depth>
          <value>6.2689064527199944e-05</value>
          <splits>
            <_><var>4</var>
              <quality>2.4119103327393532e-02</quality>
              <le>1.2047614436596632e-03</le></_></splits></_>
        <_>
          <depth>1</depth>
          <value>-1.3516169849110321e-01</value></_>
        <_>
          <depth>1</depth>
          <value>1.8147689190964703e-01</value></_></nodes></_>
    <_>
      <nodes>
        <_>
          <depth>0</depth>
          <value>1.1176171099566693e-11</value>
          <splits>
            <_><var>5</var>
              <quality>2.4679437279701233e-02</quality>
              <le>1.2114700078964233e+00</le></_></splits></_>
        <_>
          <depth>1</depth>
          <value>-5.2765360672231998e-01</value></_>
        <_>
          <depth>1</depth>
          <value>5.1078659318878027e-02</value></_></nodes></_>
    <_>
      <nodes>
        <_>
          <depth>0</depth>
          <value>3.0587050576493310e-09</value>
          <splits>
            <_><var>2</var>
              <quality>3.0279120430350304e-02</quality>
              <le>2.5000000000000000e+00</le></_></splits></_>
        <_>
          <depth>1</depth>
          <value>-3.3383879883473987e-02</value></_>
        <_>
          <depth>1</depth>
          <value>1.5122362375093099e+00</value></_></nodes></_>
    <_>
      <nodes>
        <_>
          <depth>0</depth>
          <value>-7.2048145232845392e-11</value>
          <splits>
            <_><var>0</var>
              <quality>2.8460612520575523e-02</quality>
              <le>6.8118703365325928e-01</le></_></splits></_>
        <_>
          <depth>1</depth>
          <value>-7.1720072402451052e-01</value></_>
        <_>
          <depth>1</depth>
          <value>4.6297502161052495e-02</value></_></nodes></_>
    <_>
      <nodes>
        <_>
          <depth>0</depth>
          <value>-1.1773093624972136e-09</value>
          <splits>
            <_><var>1</var>
              <quality>2.8762498870491982e-02</quality>
              <le>1.3243401050567627e-01</le></_></splits></_>
        <_>
          <depth>1</depth>
          <value>-6.8555423533832080e-02</value></_>
        <_>
          <depth>1</depth>
          <value>4.4794474463674672e-01</value></_></nodes></_>
    <_>
      <nodes>
        <_>
          <depth>0</depth>
          <value>5.9652727166735028e-10</value>
          <splits>
            <_><var>5</var>
              <quality>2.1792799234390259e-02</quality>
              <le>1.0534199476242065e+00</le></_></splits></_>
        <_>
          <depth>1</depth>
          <value>-5.7564577324601141e+00</value></_>
        <_>
          <depth>1</depth>
          <value>2.1796257116764885e-02</value></_></nodes></_>
    <_>
      <nodes>
        <_>
          <depth>0</depth>
          <value>-6.7877557247655654e-05</value>
          <splits>
            <_><var>1</var>
              <quality>1.8049240112304688e-02</quality>
              <le>1.4145749807357788e-01</le></_></splits></_>
        <_>
          <depth>1</depth>
          <value>2.0347330201132306e-02</value></_>
        <_>
          <depth>1</depth>
          <value>-1.3951409518199154e+00</value></_></nodes></_>
    <_>
      <nodes>
        <_>
          <depth>0</depth>
          <value>6.0155436184251099e-11</value>
          <splits>
            <_><var>1</var>
              <quality>2.4613277986645699e-02</quality>
              <le>1.4143149554729462e-01</le></_></splits></_>
        <_>
          <depth>1</depth>
          <value>-3.2947503671970114e-02</value></_>
        <_>
          <depth>1</depth>
          <value>9.6684736554863504e-01</value></_></nodes></_>
    <_>
      <nodes>
        <_>
          <depth>0</depth>
          <value>-4.6927078911446446e-10</value>
          <splits>
            <_><var>5</var>
              <quality>1.9114797934889793e-02</quality>
              <le>1.4050550460815430e+00</le></_></splits></_>
        <_>
          <depth>1</depth>
          <value>-3.1383067914745388e-01</value></_>
        <_>
          <depth>1</depth>
          <value>6.2977718856161630e-02</value></_></nodes></_>
    <_>
      <nodes>
        <_>
          <depth>0</depth>
          <value>1.2126848399633930e-09</value>
          <splits>
            <_><var>3</var>
              <quality>2.1660000085830688e-02</quality>
              <le>5.</le></_></splits></_>
        <_>
          <depth>1</depth>
          <value>5.5303190060575082e-02</value></_>
        <_>
          <depth>1</depth>
          <value>-4.1422994709900890e-01</value></_></nodes></_>
    <_>
      <nodes>
        <_>
          <depth>0</depth>
          <value>1.5352679104429614e-09</value>
          <splits>
            <_><var>2</var>
              <quality>2.0205901935696602e-02</quality>
              <le>1.5000000000000000e+00</le></_></splits></_>
        <_>
          <depth>1</depth>
          <value>-3.7733671471190430e-02</value></_>
        <_>
          <depth>1</depth>
          <value>5.9816340814397706e-01</value></_></nodes></_>
    <_>
      <nodes>
        <_>
          <depth>0</depth>
          <value>-2.0808879107605564e-09</value>
          <splits>
            <_><var>4</var>
              <quality>1.7236800864338875e-02</quality>
              <le>1.8966899812221527e-01</le></_></splits></_>
        <_>
          <depth>1</depth>
          <value>3.5739111067272629e-02</value></_>
        <_>
          <depth>1</depth>
          <value>-5.2623839024670072e-01</value></_></nodes></_>
    <_>
      <nodes>
        <_>
          <depth>0</depth>
          <value>-1.9928558842887536e-09</value>
          <splits>
            <_><var>4</var>
              <quality>1.7049223184585571e-02</quality>
              <le>1.2047614436596632e-03</le></_></splits></_>
        <_>
          <depth>1</depth>
          <value>-1.1196667036051808e-01</value></_>
        <_>
          <depth>1</depth>
          <value>1.5411496770732785e-01</value></_></nodes></_>
    <_>
      <nodes>
        <_>
          <depth>0</depth>
          <value>2.0926969002748095e-09</value>
          <splits>
            <_><var>6</var>
              <quality>2.5829691439867020e-02</quality>
              <le>4.5000000000000000e+00</le></_></splits></_>
        <_>
          <depth>1</depth>
          <value>-2.7435623955910748e-01</value></_>
        <_>
          <depth>1</depth>
          <value>9.6798151232179511e-02</value></_></nodes></_>
    <_>
      <nodes>
        <_>
          <depth>0</depth>
          <value>1.2946921296055217e-09</value>
          <splits>
            <_><var>6</var>
              <quality>2.2453743964433670e-02</quality>
              <le>1.5000000000000000e+00</le></_></splits></_>
        <_>
          <depth>1</depth>
          <value>2.9850059130734108e+00</value></_>
        <_>
          <depth>1</depth>
          <value>-2.2572572707252145e-02</value></_></nodes></_>
    <_>
      <nodes>
        <_>
          <depth>0</depth>
          <value>6.9709304946464246e-10</value>
          <splits>
            <_><var>2</var>
              <quality>1.3161747716367245e-02</quality>
              <le>5.0000000000000000e-01</le></_></splits></_>
        <_>
          <depth>1</depth>
          <value>8.4869125419436059e-02</value></_>
        <_>
          <depth>1</depth>
          <value>-1.5672576326112372e-01</value></_></nodes></_>
    <_>
      <nodes>
        <_>
          <depth>0</depth>
          <value>1.2801466537081499e-09</value>
          <splits>
            <_><var>4</var>
              <quality>2.4441087618470192e-02</quality>
              <le>2.4531251983717084e-04</le></_></splits></_>
        <_>
          <depth>1</depth>
          <value>-1.3613818074242495e-01</value></_>
        <_>
          <depth>1</depth>
          <value>1.8264339962231751e-01</value></_></nodes></_>
    <_>
      <nodes>
        <_>
          <depth>0</depth>
          <value>3.3522640106897793e-09</value>
          <splits>
            <_><var>2</var>
              <quality>1.8396398052573204e-02</quality>
              <le>5.0000000000000000e-01</le></_></splits></_>
        <_>
          <depth>1</depth>
          <value>1.0227293416433200e-01</value></_>
        <_>
          <depth>1</depth>
          <value>-1.8250180128087265e-01</value></_></nodes></_>
    <_>
      <nodes>
        <_>
          <depth>0</depth>
          <value>1.6666219487794615e-09</value>
          <splits>
            <_><var>4</var>
              <quality>1.4436559751629829e-02</quality>
              <le>2.4531251983717084e-04</le></_></splits></_>
        <_>
          <depth>1</depth>
          <value>-1.0220349580137535e-01</value></_>
        <_>
          <depth>1</depth>
          <value>1.4270546518663335e-01</value></_></nodes></_>
    <_>
      <nodes>
        <_>
          <depth>0</depth>
          <value>-2.1421562347670492e-09</value>
          <splits>
            <_><var>5</var>
              <quality>1.6366466879844666e-02</quality>
              <le>2.2550301551818848e+00</le></_></splits></_>
        <_>
          <depth>1</depth>
          <value>-8.0025871844299809e-02</value></_>
        <_>
          <depth>1</depth>
          <value>2.0789530262469549e-01</value></_></nodes></_>
    <_>
      <nodes>
        <_>
          <depth>0</depth>
          <value>-7.4464434623993603e-11</value>
          <splits>
            <_><var>5</var>
              <quality>1.7414048314094543e-02</quality>
              <le>2.9762301445007324e+00</le></_></splits></_>
        <_>
          <depth>1</depth>
          <value>3.7696476615076989e-02</value></_>
        <_>
          <depth>1</depth>
          <value>-5.0007109930791016e-01</value></_></nodes></_>
    <_>
      <nodes>
        <_>
          <depth>0</depth>
          <value>2.2647461678659985e-10</value>
          <splits>
            <_><var>3</var>
              <quality>1.6077810898423195e-02</quality>
              <le>3.</le></_></splits></_>
        <_>
          <depth>1</depth>
          <value>1.5535893345263233e-01</value></_>
        <_>
          <depth>1</depth>
          <value>-1.0470034789048085e-01</value></_></nodes></_>
    <_>
      <nodes>
        <_>
          <depth>0</depth>
          <value>-1.9528312893812188e-09</value>
          <splits>
            <_><var>0</var>
              <quality>1.4573879539966583e-02</quality>
              <le>8.7456297874450684e-01</le></_></splits></_>
        <_>
          <depth>1</depth>
          <value>-1.8755498741426008e-01</value></_>
        <_>
          <depth>1</depth>
          <value>7.8776125389335219e-02</value></_></nodes></_>
    <_>
      <nodes>
        <_>
          <depth>0</depth>
          <value>-2.8849683281170545e-09</value>
          <splits>
            <_><var>6</var>
              <quality>1.3067846186459064e-02</quality>
              <le>6.5000000000000000e+00</le></_></splits></_>
        <_>
          <depth>1</depth>
          <value>-1.0538161504511981e-01</value></_>
        <_>
          <depth>1</depth>
          <value>1.2511242614491097e-01</value></_></nodes></_>
    <_>
      <nodes>
        <_>
          <depth>0</depth>
          <value>-1.1989498852557819e-09</value>
          <splits>
            <_><var>0</var>
              <quality>1.3687911443412304e-02</quality>
              <le>1.7636449337005615e+00</le></_></splits></_>
        <_>
          <depth>1</depth>
          <value>-1.4603678031017977e-02</value></_>
        <_>
          <depth>1</depth>
          <value>1.7158285811881280e+00</value></_></nodes></_>
    <_>
      <nodes>
        <_>
          <depth>0</depth>
          <value>3.3893621231465256e-10</value>
          <splits>
            <_><var>0</var>
              <quality>1.3885211199522018e-02</quality>
              <le>1.0077600479125977e+00</le></_></splits></_>
        <_>
          <depth>1</depth>
          <value>9.1105959615616613e-02</value></_>
        <_>
          <depth>1</depth>
          <value>-1.5403553190022382e-01</value></_></nodes></_>
    <_>
      <nodes>
        <_>
          <depth>0</depth>
          <value>1.9882770945658742e-09</value>
          <splits>
            <_><var>1</var>
              <quality>1.3304964639246464e-02</quality>
              <le>7.4884444475173950e-02</le></_></splits></_>
        <_>
          <depth>1</depth>
          <value>-5.9787223074136553e-01</value></_>
        <_>
          <depth>1</depth>
          <value>2.4849421665172265e-02</value></_></nodes></_>
    <_>
      <nodes>
        <_>
          <depth>0</depth>
          <value>4.1124481580963954e-10</value>
          <splits>
            <_><var>1</var>
              <quality>1.2334419414401054e-02</quality>
              <le>8.2365646958351135e-02</le></_></splits></_>
        <_>
          <depth>1</depth>
          <value>3.2287638751866743e-01</value></_>
        <_>
          <depth>1</depth>
          <value>-3.9540631326606367e-02</value></_></nodes></_>
    <_>
      <nodes>
        <_>
          <depth>0</depth>
          <value>-2.0067094137788882e-09</value>
          <splits>
            <_><var>4</var>
              <quality>1.1265228502452374e-02</quality>
              <le>2.5842750072479248e-01</le></_></splits></_>
        <_>
          <depth>1</depth>
          <value>-1.4727349187720729e-02</value></_>
        <_>
          <depth>1</depth>
          <value>1.0080984670205344e+00</value></_></nodes></_>
    <_>
      <nodes>
        <_>
          <depth>0</depth>
          <value>6.0695892755888906e-12</value>
          <splits>
            <_><var>2</var>
              <quality>1.0850948281586170e-02</quality>
              <le>2.5000000000000000e+00</le></_></splits></_>
        <_>
          <depth>1</depth>
          <value>-1.2410385251370386e-02</value></_>
        <_>
          <depth>1</depth>
          <value>1.3514244931047026e+00</value></_></nodes></_>
    <_>
      <nodes>
        <_>
          <depth>0</depth>
          <value>5.3710014185100288e-10</value>
          <splits>
            <_><var>1</var>
              <quality>1.4143456704914570e-02</quality>
              <le>1.4145749807357788e-01</le></_></splits></_>
        <_>
          <depth>1</depth>
          <value>1.5246487606264058e-02</value></_>
        <_>
          <depth>1</depth>
          <value>-1.6418112231809927e+00</value></_></nodes></_>
    <_>
      <nodes>
        <_>
          <depth>0</depth>
          <value>5.5483240193634852e-10</value>
          <splits>
            <_><var>1</var>
              <quality>3.0615596100687981e-02</quality>
              <le>1.4143149554729462e-01</le></_></splits></_>
        <_>
          <depth>1</depth>
          <value>-3.6033436044067710e-02</value></_>
        <_>
          <depth>1</depth>
          <value>1.2561952229268287e+00</value></_></nodes></_>
    <_>
      <nodes>
        <_>
          <depth>0</depth>
          <value>1.3710399463594216e-09</value>
          <splits>
            <_><var>6</var>
              <quality>2.9895216226577759e-02</quality>
              <le>2.5000000000000000e+00</le></_></splits></_>
        <_>
          <depth>1</depth>
          <value>-6.5828843850360164e-01</value></_>
        <_>
          <depth>1</depth>
          <value>5.1837810747363822e-02</value></_></nodes></_>
    <_>
      <nodes>
        <_>
          <depth>0</depth>
          <value>-4.5953851837035152e-11</value>
          <splits>
            <_><var>5</var>
              <quality>9.3025173991918564e-03</quality>
              <le>1.8690750598907471e+00</le></_></splits></_>
        <_>
          <depth>1</depth>
          <value>9.0643073385582196e-02</value></_>
        <_>
          <depth>1</depth>
          <value>-1.0327451800000854e-01</value></_></nodes></_>
    <_>
      <nodes>
        <_>
          <depth>0</depth>
          <value>8.8457729951497409e-10</value>
          <splits>
            <_><var>5</var>
              <quality>2.0300736650824547e-02</quality>
              <le>2.3784551620483398e+00</le></_></splits></_>
        <_>
          <depth>1</depth>
          <value>-8.1253788689689799e-02</value></_>
        <_>
          <depth>1</depth>
          <value>2.5583223038644942e-01</value></_></nodes></_>
    <_>
      <nodes>
        <_>
          <depth>0</depth>
          <value>1.7825569877260626e-09</value>
          <splits>
            <_><var>1</var>
              <quality>1.1818787083029747e-02</quality>
              <le>9.6864148974418640e-02</le></_></splits></_>
        <_>
          <depth>1</depth>
          <value>-1.2168662322201648e-01</value></_>
        <_>
          <depth>1</depth>
          <value>9.7915433694228116e-02</value></_></nodes></_>
    <_>
      <nodes>
        <_>
          <depth>0</depth>
          <value>-1.2923301319638710e-10</value>
          <splits>
            <_><var>5</var>
              <quality>1.0771711356937885e-02</quality>
              <le>1.6270099878311157e+00</le></_></splits></_>
        <_>
          <depth>1</depth>
          <value>-1.5570301185937618e-01</value></_>
        <_>
          <depth>1</depth>
          <value>6.9852689797492970e-02</value></_></nodes></_>
    <_>
      <nodes>
        <_>
          <depth>0</depth>
          <value>5.0539039594392615e-10</value>
          <splits>
            <_><var>4</var>
              <quality>2.1816646680235863e-02</quality>
              <le>2.4531251983717084e-04</le></_></splits></_>
        <_>
          <depth>1</depth>
          <value>-1.2687644506962226e-01</value></_>
        <_>
          <depth>1</depth>
          <value>1.7462726885801552e-01</value></_></nodes></_>
    <_>
      <nodes>
        <_>
          <depth>0</depth>
          <value>-3.1141394005008256e-09</value>
          <splits>
            <_><var>2</var>
              <quality>1.3316432945430279e-02</quality>
              <le>5.0000000000000000e-01</le></_></splits></_>
        <_>
          <depth>1</depth>
          <value>8.7495934099320702e-02</value></_>
        <_>
          <depth>1</depth>
          <value>-1.5378399573679741e-01</value></_></nodes></_>
    <_>
      <nodes>
        <_>
          <depth>0</depth>
          <value>9.2375840225077285e-10</value>
          <splits>
            <_><var>5</var>
              <quality>1.0937435552477837e-02</quality>
              <le>1.8690750598907471e+00</le></_></splits></_>
        <_>
          <depth>1</depth>
          <value>9.6357428525458477e-02</value></_>
        <_>
          <depth>1</depth>
          <value>-1.1435597864687273e-01</value></_></nodes></_>
    <_>
      <nodes>
        <_>
          <depth>0</depth>
          <value>1.7720282987317576e-09</value>
          <splits>
            <_><var>1</var>
              <quality>1.0068741627037525e-02</quality>
              <le>9.5788553357124329e-02</le></_></splits></_>
        <_>
          <depth>1</depth>
          <value>1.2758342384006008e-01</value></_>
        <_>
          <depth>1</depth>
          <value>-7.9513773969986115e-02</value></_></nodes></_>
    <_>
      <nodes>
        <_>
          <depth>0</depth>
          <value>-2.4618515620067394e-09</value>
          <splits>
            <_><var>1</var>
              <quality>8.3463639020919800e-03</quality>
              <le>1.3829550147056580e-01</le></_></splits></_>
        <_>
          <depth>1</depth>
          <value>-2.4646822977626239e-02</value></_>
        <_>
          <depth>1</depth>
          <value>3.5263138820819634e-01</value></_></nodes></_>
    <_>
      <nodes>
        <_>
          <depth>0</depth>
          <value>-6.9600925071837103e-10</value>
          <splits>
            <_><var>1</var>
              <quality>1.2207818217575550e-02</quality>
              <le>1.4145749807357788e-01</le></_></splits></_>
        <_>
          <depth>1</depth>
          <value>1.4402616638793619e-02</value></_>
        <_>
          <depth>1</depth>
          <value>-1.2478146502893350e+00</value></_></nodes></_>
    <_>
      <nodes>
        <_>
          <depth>0</depth>
          <value>-8.4315610056510483e-11</value>
          <splits>
            <_><var>1</var>
              <quality>1.0235371068120003e-02</quality>
              <le>1.4143149554729462e-01</le></_></splits></_>
        <_>
          <depth>1</depth>
          <value>-1.6070722409575279e-02</value></_>
        <_>
          <depth>1</depth>
          <value>7.5302533290801099e-01</value></_></nodes></_>
    <_>
      <nodes>
        <_>
          <depth>0</depth>
          <value>-1.1069944417838320e-09</value>
          <splits>
            <_><var>0</var>
              <quality>9.4893127679824829e-03</quality>
              <le>1.0781450271606445e+00</le></_></splits></_>
        <_>
          <depth>1</depth>
          <value>5.0363658033577265e-02</value></_>
        <_>
          <depth>1</depth>
          <value>-1.9085936863050734e-01</value></_></nodes></_>
    <_>
      <nodes>
        <_>
          <depth>0</depth>
          <value>-2.7235469509459845e-09</value>
          <splits>
            <_><var>0</var>
              <quality>1.0571473278105259e-02</quality>
              <le>1.0513149499893188e+00</le></_></splits></_>
        <_>
          <depth>1</depth>
          <value>-6.6900220757804468e-02</value></_>
        <_>
          <depth>1</depth>
          <value>1.5959553541629562e-01</value></_></nodes></_>
    <_>
      <nodes>
        <_>
          <depth>0</depth>
          <value>2.2864643459587042e-09</value>
          <splits>
            <_><var>0</var>
              <quality>8.9905429631471634e-03</quality>
              <le>1.0077600479125977e+00</le></_></splits></_>
        <_>
          <depth>1</depth>
          <value>6.8308005494156818e-02</value></_>
        <_>
          <depth>1</depth>
          <value>-1.3259397705204951e-01</value></_></nodes></_>
    <_>
      <nodes>
        <_>
          <depth>0</depth>
          <value>6.0803584352675193e-10</value>
          <splits>
            <_><var>0</var>
              <quality>1.0175317525863647e-02</quality>
              <le>9.9404752254486084e-01</le></_></splits></_>
        <_>
          <depth>1</depth>
          <value>-9.3932469721478604e-02</value></_>
        <_>
          <depth>1</depth>
          <value>1.0907480846352950e-01</value></_></nodes></_>
    <_>
      <nodes>
        <_>
          <depth>0</depth>
          <value>1.2259904187918676e-09</value>
          <splits>
            <_><var>1</var>
              <quality>9.1779176145792007e-03</quality>
              <le>1.2317599356174469e-01</le></_></splits></_>
        <_>
          <depth>1</depth>
          <value>3.7358769342117008e-02</value></_>
        <_>
          <depth>1</depth>
          <value>-2.5092074580326795e-01</value></_></nodes></_>
    <_>
      <nodes>
        <_>
          <depth>0</depth>
          <value>5.2978599257257566e-10</value>
          <splits>
            <_><var>3</var>
              <quality>1.0267713107168674e-02</quality>
              <le>3.</le></_></splits></_>
        <_>
          <depth>1</depth>
          <value>1.3165268520544729e-01</value></_>
        <_>
          <depth>1</depth>
          <value>-7.8602458922578333e-02</value></_></nodes></_>
    <_>
      <nodes>
        <_>
          <depth>0</depth>
          <value>-1.2930248555264320e-09</value>
          <splits>
            <_><var>0</var>
              <quality>7.3788133449852467e-03</quality>
              <le>6.1855196952819824e-01</le></_></splits></_>
        <_>
          <depth>1</depth>
          <value>-4.2464873485313093e-01</value></_>
        <_>
          <depth>1</depth>
          <value>1.8410477412989148e-02</value></_></nodes></_>
    <_>
      <nodes>
        <_>
          <depth>0</depth>
          <value>-4.7650855506344601e-10</value>
          <splits>
            <_><var>1</var>
              <quality>1.0271280072629452e-02</quality>
              <le>6.3736394047737122e-02</le></_></splits></_>
        <_>
          <depth>1</depth>
          <value>5.7564577324623896e+00</value></_>
        <_>
          <depth>1</depth>
          <value>-1.0271641966054635e-02</value></_></nodes></_>
    <_>
      <nodes>
        <_>
          <depth>0</depth>
          <value>3.2481849588762687e-05</value>
          <splits>
            <_><var>1</var>
              <quality>1.3297841884195805e-02</quality>
              <le>7.4884444475173950e-02</le></_></splits></_>
        <_>
          <depth>1</depth>
          <value>-6.5976934841547141e-01</value></_>
        <_>
          <depth>1</depth>
          <value>2.3033556331609206e-02</value></_></nodes></_>
    <_>
      <nodes>
        <_>
          <depth>0</depth>
          <value>9.5776586569868511e-10</value>
          <splits>
            <_><var>5</var>
              <quality>1.2535658665001392e-02</quality>
              <le>1.4050550460815430e+00</le></_></splits></_>
        <_>
          <depth>1</depth>
          <value>-2.6022623274835954e-01</value></_>
        <_>
          <depth>1</depth>
          <value>4.9294538850058509e-02</value></_></nodes></_>
    <_>
      <nodes>
        <_>
          <depth>0</depth>
          <value>-1.9832468484612654e-09</value>
          <splits>
            <_><var>2</var>
              <quality>1.7504477873444557e-02</quality>
              <le>1.5000000000000000e+00</le></_></splits></_>
        <_>
          <depth>1</depth>
          <value>-3.7171634705945804e-02</value></_>
        <_>
          <depth>1</depth>
          <value>5.1151713631852858e-01</value></_></nodes></_>
    <_>
      <nodes>
        <_>
          <depth>0</depth>
          <value>2.8775048927420865e-09</value>
          <splits>
            <_><var>4</var>
              <quality>8.3151543512940407e-03</quality>
              <le>1.2702149152755737e-01</le></_></splits></_>
        <_>
          <depth>1</depth>
          <value>4.4188717490010104e-02</value></_>
        <_>
          <depth>1</depth>
          <value>-1.9057011067882135e-01</value></_></nodes></_>
    <_>
      <nodes>
        <_>
          <depth>0</depth>
          <value>-4.1936193424341695e-10</value>
          <splits>
            <_><var>4</var>
              <quality>1.6771640628576279e-02</quality>
              <le>1.2047614436596632e-03</le></_></splits></_>
        <_>
          <depth>1</depth>
          <value>-1.0795039963942427e-01</value></_>
        <_>
          <depth>1</depth>
          <value>1.5725082591949943e-01</value></_></nodes></_>
    <_>
      <nodes>
        <_>
          <depth>0</depth>
          <value>9.6005203777613859e-11</value>
          <splits>
            <_><var>5</var>
              <quality>1.5849458053708076e-02</quality>
              <le>1.6270099878311157e+00</le></_></splits></_>
        <_>
          <depth>1</depth>
          <value>-1.9651610666257791e-01</value></_>
        <_>
          <depth>1</depth>
          <value>8.1870199827634674e-02</value></_></nodes></_>
    <_>
      <nodes>
        <_>
          <depth>0</depth>
          <value>2.5308202136540758e-09</value>
          <splits>
            <_><var>5</var>
              <quality>8.9267510920763016e-03</quality>
              <le>1.7254650592803955e+00</le></_></splits></_>
        <_>
          <depth>1</depth>
          <value>1.1925072935789405e-01</value></_>
        <_>
          <depth>1</depth>
          <value>-7.5353800780770960e-02</value></_></nodes></_>
    <_>
      <nodes>
        <_>
          <depth>0</depth>
          <value>1.6333756566840835e-10</value>
          <splits>
            <_><var>6</var>
              <quality>1.2156885117292404e-02</quality>
              <le>6.5000000000000000e+00</le></_></splits></_>
        <_>
          <depth>1</depth>
          <value>-1.0216334415897189e-01</value></_>
        <_>
          <depth>1</depth>
          <value>1.1998072786893069e-01</value></_></nodes></_>
    <_>
      <nodes>
        <_>
          <depth>0</depth>
          <value>-7.8324807812065908e-10</value>
          <splits>
            <_><var>5</var>
              <quality>1.1048569343984127e-02</quality>
              <le>2.7179100513458252e+00</le></_></splits></_>
        <_>
          <depth>1</depth>
          <value>-4.9425777657414058e-02</value></_>
        <_>
          <depth>1</depth>
          <value>2.2756933380974975e-01</value></_></nodes></_>
    <_>
      <nodes>
        <_>
          <depth>0</depth>
          <value>7.4824058004598834e-10</value>
          <splits>
            <_><var>1</var>
              <quality>1.3296420685946941e-02</quality>
              <le>9.8244696855545044e-02</le></_></splits></_>
        <_>
          <depth>1</depth>
          <value>-1.2067344265670822e-01</value></_>
        <_>
          <depth>1</depth>
          <value>1.1117525618730068e-01</value></_></nodes></_>
    <_>
      <nodes>
        <_>
          <depth>0</depth>
          <value>6.1792793100768619e-11</value>
          <splits>
            <_><var>4</var>
              <quality>9.3326605856418610e-03</quality>
              <le>1.2047614436596632e-03</le></_></splits></_>
        <_>
          <depth>1</depth>
          <value>-8.1080204654048207e-02</value></_>
        <_>
          <depth>1</depth>
          <value>1.1587198342111489e-01</value></_></nodes></_>
    <_>
      <nodes>
        <_>
          <depth>0</depth>
          <value>1.7222894192239343e-09</value>
          <splits>
            <_><var>2</var>
              <quality>1.4452539384365082e-02</quality>
              <le>5.0000000000000000e-01</le></_></splits></_>
        <_>
          <depth>1</depth>
          <value>9.1682858348279661e-02</value></_>
        <_>
          <depth>1</depth>
          <value>-1.5941447119341923e-01</value></_></nodes></_>
    <_>
      <nodes>
        <_>
          <depth>0</depth>
          <value>-6.2853317035020165e-10</value>
          <splits>
            <_><var>4</var>
              <quality>1.1496799997985363e-02</quality>
              <le>1.2047614436596632e-03</le></_></splits></_>
        <_>
          <depth>1</depth>
          <value>-8.8937203578355314e-02</value></_>
        <_>
          <depth>1</depth>
          <value>1.3034254181888882e-01</value></_></nodes></_>
    <_>
      <nodes>
        <_>
          <depth>0</depth>
          <value>-2.2972916954895270e-09</value>
          <splits>
            <_><var>5</var>
              <quality>1.0634662583470345e-02</quality>
              <le>1.6270099878311157e+00</le></_></splits></_>
        <_>
          <depth>1</depth>
          <value>-1.5844532741387526e-01</value></_>
        <_>
          <depth>1</depth>
          <value>6.7783167181587875e-02</value></_></nodes></_>
    <_>
      <nodes>
        <_>
          <depth>0</depth>
          <value>-1.2723391800785497e-09</value>
          <splits>
            <_><var>0</var>
              <quality>1.0622214525938034e-02</quality>
              <le>1.2540299892425537e+00</le></_></splits></_>
        <_>
          <depth>1</depth>
          <value>-4.1250858788746986e-02</value></_>
        <_>
          <depth>1</depth>
          <value>2.6358852464664589e-01</value></_></nodes></_></trees></opencv_ml_boost>
</opencv_storage>
