<?xml version="1.0"?>
<opencv_storage>
<opencv_ml_boost>
  <format>3</format>
  <is_classifier>1</is_classifier>
  <var_all>5</var_all>
  <var_count>4</var_count>
  <ord_var_count>4</ord_var_count>
  <cat_var_count>1</cat_var_count>
  <training_params>
    <boosting_type>RealAdaboost</boosting_type>
    <use_surrogates>0</use_surrogates>
    <max_categories>10</max_categories>
    <regression_accuracy>9.9999997764825821e-03</regression_accuracy>
    <max_depth>1</max_depth>
    <min_sample_count>10</min_sample_count>
    <cross_validation_folds>0</cross_validation_folds>
    <weight_trimming_rate>0.</weight_trimming_rate></training_params>
  <global_var_idx>1</global_var_idx>
  <var_idx>
    0 1 2 3</var_idx>
  <var_type>
    0 0 0 0 1</var_type>
  <cat_ofs>
    0 0 0 0 0 0 0 0</cat_ofs>
  <class_labels>
    1 2</class_labels>
  <missing_subst>
    0. 0. 0. 0. 0.</missing_subst>
  <ntrees>100</ntrees>
  <trees>
    <_>
      <nodes>
        <_>
          <depth>0</depth>
          <value>-8.8558938076402283e-01</value>
          <splits>
            <_><var>1</var>
              <quality>7.8329610824584961e-01</quality>
              <le>8.5430249571800232e-02</le></_></splits></_>
        <_>
          <depth>1</depth>
          <value>6.2988208197717332e-01</value></_>
        <_>
          <depth>1</depth>
          <value>-1.6615360133059713e+00</value></_></nodes></_>
    <_>
      <nodes>
        <_>
          <depth>0</depth>
          <value>-2.9401424382482167e-08</value>
          <splits>
            <_><var>1</var>
              <quality>2.1885675191879272e-01</quality>
              <le>1.0963299870491028e-01</le></_></splits></_>
        <_>
          <depth>1</depth>
          <value>3.0887711702872300e-01</value></_>
        <_>
          <depth>1</depth>
          <value>-9.3075832229259103e-01</value></_></nodes></_>
    <_>
      <nodes>
        <_>
          <depth>0</depth>
          <value>-5.6688215265216074e-10</value>
          <splits>
            <_><var>2</var>
              <quality>1.9985204935073853e-01</quality>
              <le>1.5000000000000000e+00</le></_></splits></_>
        <_>
          <depth>1</depth>
          <value>-2.5407573513897924e-01</value></_>
        <_>
          <depth>1</depth>
          <value>1.1082360595050047e+00</value></_></nodes></_>
    <_>
      <nodes>
        <_>
          <depth>0</depth>
          <value>-1.8275458957365665e-09</value>
          <splits>
            <_><var>0</var>
              <quality>1.5087987482547760e-01</quality>
              <le>9.9720650911331177e-01</le></_></splits></_>
        <_>
          <depth>1</depth>
          <value>-3.8282072717795745e-01</value></_>
        <_>
          <depth>1</depth>
          <value>4.3945731755975920e-01</value></_></nodes></_>
    <_>
      <nodes>
        <_>
          <depth>0</depth>
          <value>-5.3677053645803967e-09</value>
          <splits>
            <_><var>3</var>
              <quality>8.6507372558116913e-02</quality>
              <le>3.</le></_></splits></_>
        <_>
          <depth>1</depth>
          <value>4.6016772645757470e-01</value></_>
        <_>
          <depth>1</depth>
          <value>-2.0385430384778097e-01</value></_></nodes></_>
    <_>
      <nodes>
        <_>
          <depth>0</depth>
          <value>-2.4173263396835373e-10</value>
          <splits>
            <_><var>2</var>
              <quality>8.8206112384796143e-02</quality>
              <le>5.0000000000000000e-01</le></_></splits></_>
        <_>
          <depth>1</depth>
          <value>-3.0367314798417194e-01</value></_>
        <_>
          <depth>1</depth>
          <value>3.0879248724721348e-01</value></_></nodes></_>
    <_>
      <nodes>
        <_>
          <depth>0</depth>
          <value>-7.0719132161909008e-09</value>
          <splits>
            <_><var>0</var>
              <quality>8.2112967967987061e-02</quality>
              <le>1.6306049823760986e+00</le></_></splits></_>
        <_>
          <depth>1</depth>
          <value>-8.9609897904047192e-02</value></_>
        <_>
          <depth>1</depth>
          <value>1.5812033370322200e+00</value></_></nodes></_>
    <_>
      <nodes>
        <_>
          <depth>0</depth>
          <value>5.3067394894672922e-10</value>
          <splits>
            <_><var>1</var>
              <quality>8.8193416595458984e-02</quality>
              <le>7.4759051203727722e-02</le></_></splits></_>
        <_>
          <depth>1</depth>
          <value>9.4200977921562223e-01</value></_>
        <_>
          <depth>1</depth>
          <value>-1.2038270052817168e-01</value></_></nodes></_>
    <_>
      <nodes>
        <_>
          <depth>0</depth>
          <value>2.4358426381105559e-10</value>
          <splits>
            <_><var>0</var>
              <quality>7.9534024000167847e-02</quality>
              <le>6.2720644474029541e-01</le></_></splits></_>
        <_>
          <depth>1</depth>
          <value>-1.1139971958183772e+00</value></_>
        <_>
          <depth>1</depth>
          <value>9.9065089823314204e-02</value></_></nodes></_>
    <_>
      <nodes>
        <_>
          <depth>0</depth>
          <value>3.6585123685474423e-09</value>
          <splits>
            <_><var>1</var>
              <quality>4.1609264910221100e-02</quality>
              <le>1.1299200356006622e-01</le></_></splits></_>
        <_>
          <depth>1</depth>
          <value>8.0329397772322106e-02</value></_>
        <_>
          <depth>1</depth>
          <value>-5.7510252819385355e-01</value></_></nodes></_>
    <_>
      <nodes>
        <_>
          <depth>0</depth>
          <value>-6.3856875383826074e-10</value>
          <splits>
            <_><var>3</var>
              <quality>6.1543520539999008e-02</quality>
              <le>3.</le></_></splits></_>
        <_>
          <depth>1</depth>
          <value>3.7496047132433602e-01</value></_>
        <_>
          <depth>1</depth>
          <value>-1.7347376957948685e-01</value></_></nodes></_>
    <_>
      <nodes>
        <_>
          <depth>0</depth>
          <value>6.2105232029606380e-10</value>
          <splits>
            <_><var>2</var>
              <quality>3.9448324590921402e-02</quality>
              <le>2.5000000000000000e+00</le></_></splits></_>
        <_>
          <depth>1</depth>
          <value>-4.2466800013650843e-02</value></_>
        <_>
          <depth>1</depth>
          <value>1.6545536197482857e+00</value></_></nodes></_>
    <_>
      <nodes>
        <_>
          <depth>0</depth>
          <value>1.0398015780650642e-10</value>
          <splits>
            <_><var>1</var>
              <quality>3.0278533697128296e-02</quality>
              <le>6.9576397538185120e-02</le></_></splits></_>
        <_>
          <depth>1</depth>
          <value>1.1005380169879613e+00</value></_>
        <_>
          <depth>1</depth>
          <value>-3.7833487395693761e-02</value></_></nodes></_>
    <_>
      <nodes>
        <_>
          <depth>0</depth>
          <value>-1.5534271115819726e-09</value>
          <splits>
            <_><var>3</var>
              <quality>4.6856712549924850e-02</quality>
              <le>5.</le></_></splits></_>
        <_>
          <depth>1</depth>
          <value>9.4695991269525756e-02</value></_>
        <_>
          <depth>1</depth>
          <value>-5.4437183617503815e-01</value></_></nodes></_>
    <_>
      <nodes>
        <_>
          <depth>0</depth>
          <value>-2.6585444963662844e-10</value>
          <splits>
            <_><var>1</var>
              <quality>3.0440628528594971e-02</quality>
              <le>1.0177600383758545e-01</le></_></splits></_>
        <_>
          <depth>1</depth>
          <value>1.0877284022029261e-01</value></_>
        <_>
          <depth>1</depth>
          <value>-2.8872174814055368e-01</value></_></nodes></_>
    <_>
      <nodes>
        <_>
          <depth>0</depth>
          <value>4.7773829314137779e-10</value>
          <splits>
            <_><var>1</var>
              <quality>3.9146989583969116e-02</quality>
              <le>8.5509151220321655e-02</le></_></splits></_>
        <_>
          <depth>1</depth>
          <value>-2.8465694907029221e-01</value></_>
        <_>
          <depth>1</depth>
          <value>1.4216810816377645e-01</value></_></nodes></_>
    <_>
      <nodes>
        <_>
          <depth>0</depth>
          <value>-2.3098412072464845e-11</value>
          <splits>
            <_><var>1</var>
              <quality>2.2677624598145485e-02</quality>
              <le>1.4143149554729462e-01</le></_></splits></_>
        <_>
          <depth>1</depth>
          <value>-4.0462668738421151e-02</value></_>
        <_>
          <depth>1</depth>
          <value>6.3394659505513595e-01</value></_></nodes></_>
    <_>
      <nodes>
        <_>
          <depth>0</depth>
          <value>9.0635055008504262e-11</value>
          <splits>
            <_><var>1</var>
              <quality>3.8429040461778641e-02</quality>
              <le>1.0963299870491028e-01</le></_></splits></_>
        <_>
          <depth>1</depth>
          <value>7.8904724575021512e-02</value></_>
        <_>
          <depth>1</depth>
          <value>-5.3348595077835992e-01</value></_></nodes></_>
    <_>
      <nodes>
        <_>
          <depth>0</depth>
          <value>-1.1231717790674794e-09</value>
          <splits>
            <_><var>0</var>
              <quality>1.9541451707482338e-02</quality>
              <le>9.0595495700836182e-01</le></_></splits></_>
        <_>
          <depth>1</depth>
          <value>-1.6460021231747851e-01</value></_>
        <_>
          <depth>1</depth>
          <value>1.2036891315931599e-01</value></_></nodes></_>
    <_>
      <nodes>
        <_>
          <depth>0</depth>
          <value>-1.4535526137205486e-09</value>
          <splits>
            <_><var>1</var>
              <quality>1.7298141494393349e-02</quality>
              <le>7.1857094764709473e-02</le></_></splits></_>
        <_>
          <depth>1</depth>
          <value>5.2422571523698835e-01</value></_>
        <_>
          <depth>1</depth>
          <value>-3.5981771276967320e-02</value></_></nodes></_>
    <_>
      <nodes>
        <_>
          <depth>0</depth>
          <value>-4.2051834254683773e-10</value>
          <splits>
            <_><var>1</var>
              <quality>1.6965728253126144e-02</quality>
              <le>1.3979849219322205e-01</le></_></splits></_>
        <_>
          <depth>1</depth>
          <value>-3.4106354633886414e-02</value></_>
        <_>
          <depth>1</depth>
          <value>5.4614962650148347e-01</value></_></nodes></_>
    <_>
      <nodes>
        <_>
          <depth>0</depth>
          <value>1.3404768388419929e-09</value>
          <splits>
            <_><var>1</var>
              <quality>1.2180539779365063e-02</quality>
              <le>9.4539299607276917e-02</le></_></splits></_>
        <_>
          <depth>1</depth>
          <value>8.8625803548055215e-02</value></_>
        <_>
          <depth>1</depth>
          <value>-1.3867973977556261e-01</value></_></nodes></_>
    <_>
      <nodes>
        <_>
          <depth>0</depth>
          <value>1.1574661216076981e-09</value>
          <splits>
            <_><var>1</var>
              <quality>1.2351763434708118e-02</quality>
              <le>8.4717549383640289e-02</le></_></splits></_>
        <_>
          <depth>1</depth>
          <value>-1.6040843133161153e-01</value></_>
        <_>
          <depth>1</depth>
          <value>7.7817972800129240e-02</value></_></nodes></_>
    <_>
      <nodes>
        <_>
          <depth>0</depth>
          <value>-5.4726362360675669e-10</value>
          <splits>
            <_><var>1</var>
              <quality>1.2263828888535500e-02</quality>
              <le>8.6897850036621094e-02</le></_></splits></_>
        <_>
          <depth>1</depth>
          <value>1.3100259754892318e-01</value></_>
        <_>
          <depth>1</depth>
          <value>-9.4429759148261433e-02</value></_></nodes></_>
    <_>
      <nodes>
        <_>
          <depth>0</depth>
          <value>-1.9261566267988941e-09</value>
          <splits>
            <_><var>1</var>
              <quality>1.1949718929827213e-02</quality>
              <le>9.9699050188064575e-02</le></_></splits></_>
        <_>
          <depth>1</depth>
          <value>-7.5305842170423340e-02</value></_>
        <_>
          <depth>1</depth>
          <value>1.6034247840695728e-01</value></_></nodes></_>
    <_>
      <nodes>
        <_>
          <depth>0</depth>
          <value>-2.2198092302509411e-09</value>
          <splits>
            <_><var>1</var>
              <quality>1.2291825376451015e-02</quality>
              <le>1.4145749807357788e-01</le></_></splits></_>
        <_>
          <depth>1</depth>
          <value>2.0836925780189305e-02</value></_>
        <_>
          <depth>1</depth>
          <value>-6.7765258399885231e-01</value></_></nodes></_>
    <_>
      <nodes>
        <_>
          <depth>0</depth>
          <value>1.0005385399062369e-09</value>
          <splits>
            <_><var>0</var>
              <quality>1.5287413261830807e-02</quality>
              <le>2.3689100742340088e+00</le></_></splits></_>
        <_>
          <depth>1</depth>
          <value>-1.6485659305270964e-02</value></_>
        <_>
          <depth>1</depth>
          <value>1.6394797826586367e+00</value></_></nodes></_>
    <_>
      <nodes>
        <_>
          <depth>0</depth>
          <value>2.7341862100256821e-10</value>
          <splits>
            <_><var>0</var>
              <quality>2.1120714023709297e-02</quality>
              <le>2.2119050025939941e+00</le></_></splits></_>
        <_>
          <depth>1</depth>
          <value>2.6557235442475728e-02</value></_>
        <_>
          <depth>1</depth>
          <value>-1.0861737595687857e+00</value></_></nodes></_>
    <_>
      <nodes>
        <_>
          <depth>0</depth>
          <value>6.5005401019766775e-10</value>
          <splits>
            <_><var>0</var>
              <quality>7.0675141178071499e-03</quality>
              <le>2.3689100742340088e+00</le></_></splits></_>
        <_>
          <depth>1</depth>
          <value>-8.8848532582009084e-03</value></_>
        <_>
          <depth>1</depth>
          <value>1.0861737991152443e+00</value></_></nodes></_>
    <_>
      <nodes>
        <_>
          <depth>0</depth>
          <value>5.9918692194196221e-10</value>
          <splits>
            <_><var>1</var>
              <quality>1.0654744692146778e-02</quality>
              <le>1.1721400171518326e-01</le></_></splits></_>
        <_>
          <depth>1</depth>
          <value>2.9289187215836874e-02</value></_>
        <_>
          <depth>1</depth>
          <value>-3.8135248009356854e-01</value></_></nodes></_>
    <_>
      <nodes>
        <_>
          <depth>0</depth>
          <value>-3.1419306055648535e-10</value>
          <splits>
            <_><var>1</var>
              <quality>1.4416595920920372e-02</quality>
              <le>1.4143149554729462e-01</le></_></splits></_>
        <_>
          <depth>1</depth>
          <value>-2.5866170274315353e-02</value></_>
        <_>
          <depth>1</depth>
          <value>6.2916593917357289e-01</value></_></nodes></_>
    <_>
      <nodes>
        <_>
          <depth>0</depth>
          <value>-1.0690144336737265e-09</value>
          <splits>
            <_><var>1</var>
              <quality>1.3175146654248238e-02</quality>
              <le>1.4145749807357788e-01</le></_></splits></_>
        <_>
          <depth>1</depth>
          <value>1.6705130277752823e-02</value></_>
        <_>
          <depth>1</depth>
          <value>-1.0681466889392968e+00</value></_></nodes></_>
    <_>
      <nodes>
        <_>
          <depth>0</depth>
          <value>-6.5469146813386934e-10</value>
          <splits>
            <_><var>1</var>
              <quality>9.3188583850860596e-03</quality>
              <le>1.4143149554729462e-01</le></_></splits></_>
        <_>
          <depth>1</depth>
          <value>-1.6705131950080405e-02</value></_>
        <_>
          <depth>1</depth>
          <value>6.2977305916613713e-01</value></_></nodes></_>
    <_>
      <nodes>
        <_>
          <depth>0</depth>
          <value>-1.2863009007827489e-09</value>
          <splits>
            <_><var>1</var>
              <quality>1.2822790071368217e-02</quality>
              <le>1.1721400171518326e-01</le></_></splits></_>
        <_>
          <depth>1</depth>
          <value>2.5866168834836792e-02</value></_>
        <_>
          <depth>1</depth>
          <value>-5.4378336085746282e-01</value></_></nodes></_>
    <_>
      <nodes>
        <_>
          <depth>0</depth>
          <value>-3.6718755827163231e-10</value>
          <splits>
            <_><var>0</var>
              <quality>9.7206076607108116e-03</quality>
              <le>9.6201896667480469e-01</le></_></splits></_>
        <_>
          <depth>1</depth>
          <value>8.9654568902754472e-02</value></_>
        <_>
          <depth>1</depth>
          <value>-1.0914457337807021e-01</value></_></nodes></_>
    <_>
      <nodes>
        <_>
          <depth>0</depth>
          <value>-7.3594552728355931e-10</value>
          <splits>
            <_><var>0</var>
              <quality>1.5548433177173138e-02</quality>
              <le>7.8355848789215088e-01</le></_></splits></_>
        <_>
          <depth>1</depth>
          <value>-2.2358040754078815e-01</value></_>
        <_>
          <depth>1</depth>
          <value>7.0815988587697623e-02</value></_></nodes></_>
    <_>
      <nodes>
        <_>
          <depth>0</depth>
          <value>-4.5321746357907123e-11</value>
          <splits>
            <_><var>0</var>
              <quality>1.0235205292701721e-02</quality>
              <le>6.4310699701309204e-01</le></_></splits></_>
        <_>
          <depth>1</depth>
          <value>3.0569388354784410e-01</value></_>
        <_>
          <depth>1</depth>
          <value>-3.4532103109714045e-02</value></_></nodes></_>
    <_>
      <nodes>
        <_>
          <depth>0</depth>
          <value>-5.8891624944700217e-10</value>
          <splits>
            <_><var>0</var>
              <quality>1.1694735847413540e-02</quality>
              <le>6.4194154739379883e-01</le></_></splits></_>
        <_>
          <depth>1</depth>
          <value>-4.0939387777290270e-01</value></_>
        <_>
          <depth>1</depth>
          <value>3.0153476274540150e-02</value></_></nodes></_>
    <_>
      <nodes>
        <_>
          <depth>0</depth>
          <value>4.6879144988360198e-10</value>
          <splits>
            <_><var>0</var>
              <quality>8.7373955175280571e-03</quality>
              <le>6.4310699701309204e-01</le></_></splits></_>
        <_>
          <depth>1</depth>
          <value>2.9840460412860798e-01</value></_>
        <_>
          <depth>1</depth>
          <value>-3.0153475123997481e-02</value></_></nodes></_>
    <_>
      <nodes>
        <_>
          <depth>0</depth>
          <value>5.1933524120813831e-10</value>
          <splits>
            <_><var>0</var>
              <quality>1.0578929446637630e-02</quality>
              <le>6.6291898488998413e-01</le></_></splits></_>
        <_>
          <depth>1</depth>
          <value>-2.7847821904299458e-01</value></_>
        <_>
          <depth>1</depth>
          <value>3.8985053606624930e-02</value></_></nodes></_>
    <_>
      <nodes>
        <_>
          <depth>0</depth>
          <value>-2.8521297072170835e-09</value>
          <splits>
            <_><var>0</var>
              <quality>8.4842117503285408e-03</quality>
              <le>8.1598246097564697e-01</le></_></splits></_>
        <_>
          <depth>1</depth>
          <value>1.3608547784103328e-01</value></_>
        <_>
          <depth>1</depth>
          <value>-6.2811585863224564e-02</value></_></nodes></_>
    <_>
      <nodes>
        <_>
          <depth>0</depth>
          <value>-2.5914526147740022e-09</value>
          <splits>
            <_><var>1</var>
              <quality>9.1635892167687416e-03</quality>
              <le>1.4143149554729462e-01</le></_></splits></_>
        <_>
          <depth>1</depth>
          <value>-1.7245335697505918e-02</value></_>
        <_>
          <depth>1</depth>
          <value>5.9212049442253201e-01</value></_></nodes></_>
    <_>
      <nodes>
        <_>
          <depth>0</depth>
          <value>5.0253090552458370e-10</value>
          <splits>
            <_><var>1</var>
              <quality>7.3627196252346039e-03</quality>
              <le>8.0212846398353577e-02</le></_></splits></_>
        <_>
          <depth>1</depth>
          <value>1.6601245512476015e-01</value></_>
        <_>
          <depth>1</depth>
          <value>-4.4787013555139275e-02</value></_></nodes></_>
    <_>
      <nodes>
        <_>
          <depth>0</depth>
          <value>-3.3154612399833827e-10</value>
          <splits>
            <_><var>1</var>
              <quality>1.1316875927150249e-02</quality>
              <le>8.5509151220321655e-02</le></_></splits></_>
        <_>
          <depth>1</depth>
          <value>-1.3789799939312467e-01</value></_>
        <_>
          <depth>1</depth>
          <value>8.2775074086036377e-02</value></_></nodes></_>
    <_>
      <nodes>
        <_>
          <depth>0</depth>
          <value>1.2787733078302029e-09</value>
          <splits>
            <_><var>1</var>
              <quality>1.1271811090409756e-02</quality>
              <le>9.3719303607940674e-02</le></_></splits></_>
        <_>
          <depth>1</depth>
          <value>8.6768581353327170e-02</value></_>
        <_>
          <depth>1</depth>
          <value>-1.3097629442093969e-01</value></_></nodes></_>
    <_>
      <nodes>
        <_>
          <depth>0</depth>
          <value>-2.6228410068233268e-09</value>
          <splits>
            <_><var>3</var>
              <quality>8.1837764009833336e-03</quality>
              <le>7.</le></_></splits></_>
        <_>
          <depth>1</depth>
          <value>1.2373831406718491e-02</value></_>
        <_>
          <depth>1</depth>
          <value>-7.9531835636716808e-01</value></_></nodes></_>
    <_>
      <nodes>
        <_>
          <depth>0</depth>
          <value>4.0048386812989272e-10</value>
          <splits>
            <_><var>0</var>
              <quality>7.5997677631676197e-03</quality>
              <le>9.0829002857208252e-01</le></_></splits></_>
        <_>
          <depth>1</depth>
          <value>-1.0290004112233646e-01</value></_>
        <_>
          <depth>1</depth>
          <value>7.4252477406357806e-02</value></_></nodes></_>
    <_>
      <nodes>
        <_>
          <depth>0</depth>
          <value>4.3834269545538837e-11</value>
          <splits>
            <_><var>0</var>
              <quality>7.6857451349496841e-03</quality>
              <le>9.2344349622726440e-01</le></_></splits></_>
        <_>
          <depth>1</depth>
          <value>8.9943130917821051e-02</value></_>
        <_>
          <depth>1</depth>
          <value>-8.5892066037627279e-02</value></_></nodes></_>
    <_>
      <nodes>
        <_>
          <depth>0</depth>
          <value>-9.9626773596873547e-10</value>
          <splits>
            <_><var>0</var>
              <quality>8.4658823907375336e-03</quality>
              <le>1.0797750949859619e+00</le></_></splits></_>
        <_>
          <depth>1</depth>
          <value>-5.6307097361274906e-02</value></_>
        <_>
          <depth>1</depth>
          <value>1.5166305036629008e-01</value></_></nodes></_>
    <_>
      <nodes>
        <_>
          <depth>0</depth>
          <value>-8.8463192405283629e-10</value>
          <splits>
            <_><var>0</var>
              <quality>7.7429935336112976e-03</quality>
              <le>1.0066149234771729e+00</le></_></splits></_>
        <_>
          <depth>1</depth>
          <value>6.7380339685884097e-02</value></_>
        <_>
          <depth>1</depth>
          <value>-1.1560079103020443e-01</value></_></nodes></_>
    <_>
      <nodes>
        <_>
          <depth>0</depth>
          <value>1.7884798054966823e-09</value>
          <splits>
            <_><var>0</var>
              <quality>7.7969999983906746e-03</quality>
              <le>9.1240400075912476e-01</le></_></splits></_>
        <_>
          <depth>1</depth>
          <value>-1.0076431393765921e-01</value></_>
        <_>
          <depth>1</depth>
          <value>7.7796867831441574e-02</value></_></nodes></_>
    <_>
      <nodes>
        <_>
          <depth>0</depth>
          <value>-1.5574856983945694e-09</value>
          <splits>
            <_><var>0</var>
              <quality>7.4955509044229984e-03</quality>
              <le>3.6243000626564026e-01</le></_></splits></_>
        <_>
          <depth>1</depth>
          <value>1.2522393368043550e+00</value></_>
        <_>
          <depth>1</depth>
          <value>-8.8298447043017054e-03</value></_></nodes></_>
    <_>
      <nodes>
        <_>
          <depth>0</depth>
          <value>3.5595704149335318e-10</value>
          <splits>
            <_><var>0</var>
              <quality>6.7153316922485828e-03</quality>
              <le>4.5337548851966858e-01</le></_></splits></_>
        <_>
          <depth>1</depth>
          <value>-7.7575219162739484e-01</value></_>
        <_>
          <depth>1</depth>
          <value>1.0327487167660562e-02</value></_></nodes></_>
    <_>
      <nodes>
        <_>
          <depth>0</depth>
          <value>-1.4182588439006505e-10</value>
          <splits>
            <_><var>0</var>
              <quality>6.9762184284627438e-03</quality>
              <le>5.1304751634597778e-01</le></_></splits></_>
        <_>
          <depth>1</depth>
          <value>5.3582607914095381e-01</value></_>
        <_>
          <depth>1</depth>
          <value>-1.4243318311988705e-02</value></_></nodes></_>
    <_>
      <nodes>
        <_>
          <depth>0</depth>
          <value>1.8346635318709155e-10</value>
          <splits>
            <_><var>1</var>
              <quality>6.6176373511552811e-03</quality>
              <le>6.3215799629688263e-02</le></_></splits></_>
        <_>
          <depth>1</depth>
          <value>5.7564577324623896e+00</value></_>
        <_>
          <depth>1</depth>
          <value>-6.6177336128742572e-03</value></_></nodes></_>
    <_>
      <nodes>
        <_>
          <depth>0</depth>
          <value>2.0927059824328920e-05</value>
          <splits>
            <_><var>1</var>
              <quality>9.9667729809880257e-03</quality>
              <le>6.4115643501281738e-02</le></_></splits></_>
        <_>
          <depth>1</depth>
          <value>-3.0811286739033861e+00</value></_>
        <_>
          <depth>1</depth>
          <value>1.0029923713413250e-02</value></_></nodes></_>
    <_>
      <nodes>
        <_>
          <depth>0</depth>
          <value>-4.5887255127847658e-10</value>
          <splits>
            <_><var>0</var>
              <quality>7.8638102859258652e-03</quality>
              <le>6.4194154739379883e-01</le></_></splits></_>
        <_>
          <depth>1</depth>
          <value>-3.7027224826942245e-01</value></_>
        <_>
          <depth>1</depth>
          <value>2.2203387161073559e-02</value></_></nodes></_>
    <_>
      <nodes>
        <_>
          <depth>0</depth>
          <value>-4.6252979245841537e-10</value>
          <splits>
            <_><var>1</var>
              <quality>9.2705441638827324e-03</quality>
              <le>6.9576397538185120e-02</le></_></splits></_>
        <_>
          <depth>1</depth>
          <value>1.5509898299818452e+00</value></_>
        <_>
          <depth>1</depth>
          <value>-1.0143745849401080e-02</value></_></nodes></_>
    <_>
      <nodes>
        <_>
          <depth>0</depth>
          <value>-3.2076563637759085e-10</value>
          <splits>
            <_><var>0</var>
              <quality>6.5145548433065414e-03</quality>
              <le>8.1598246097564697e-01</le></_></splits></_>
        <_>
          <depth>1</depth>
          <value>1.2270758475023040e-01</value></_>
        <_>
          <depth>1</depth>
          <value>-5.3406990595598745e-02</value></_></nodes></_>
    <_>
      <nodes>
        <_>
          <depth>0</depth>
          <value>8.5386031505685961e-10</value>
          <splits>
            <_><var>1</var>
              <quality>5.3234966471791267e-03</quality>
              <le>1.0789400339126587e-01</le></_></splits></_>
        <_>
          <depth>1</depth>
          <value>-2.8354230774147861e-02</value></_>
        <_>
          <depth>1</depth>
          <value>1.9005570198236971e-01</value></_></nodes></_>
    <_>
      <nodes>
        <_>
          <depth>0</depth>
          <value>9.2437457602830099e-10</value>
          <splits>
            <_><var>1</var>
              <quality>9.8292110487818718e-03</quality>
              <le>1.1721400171518326e-01</le></_></splits></_>
        <_>
          <depth>1</depth>
          <value>2.2069586250639716e-02</value></_>
        <_>
          <depth>1</depth>
          <value>-4.7900443617959110e-01</value></_></nodes></_>
    <_>
      <nodes>
        <_>
          <depth>0</depth>
          <value>9.4420693477170576e-11</value>
          <splits>
            <_><var>0</var>
              <quality>5.0977431237697601e-03</quality>
              <le>1.6306049823760986e+00</le></_></splits></_>
        <_>
          <depth>1</depth>
          <value>-1.6290116565180004e-02</value></_>
        <_>
          <depth>1</depth>
          <value>3.2382612054573096e-01</value></_></nodes></_>
    <_>
      <nodes>
        <_>
          <depth>0</depth>
          <value>-1.7656315301826046e-10</value>
          <splits>
            <_><var>0</var>
              <quality>7.9596377909183502e-03</quality>
              <le>1.2880150079727173e+00</le></_></splits></_>
        <_>
          <depth>1</depth>
          <value>3.2335541409726228e-02</value></_>
        <_>
          <depth>1</depth>
          <value>-2.5140968480742282e-01</value></_></nodes></_>
    <_>
      <nodes>
        <_>
          <depth>0</depth>
          <value>-1.2321668145437498e-09</value>
          <splits>
            <_><var>0</var>
              <quality>9.0924557298421860e-03</quality>
              <le>1.2460050582885742e+00</le></_></splits></_>
        <_>
          <depth>1</depth>
          <value>-3.9827888545694821e-02</value></_>
        <_>
          <depth>1</depth>
          <value>2.3251594993409921e-01</value></_></nodes></_>
    <_>
      <nodes>
        <_>
          <depth>0</depth>
          <value>-7.8134704323261909e-10</value>
          <splits>
            <_><var>0</var>
              <quality>7.0517607964575291e-03</quality>
              <le>1.2661499977111816e+00</le></_></splits></_>
        <_>
          <depth>1</depth>
          <value>3.0716051457828738e-02</value></_>
        <_>
          <depth>1</depth>
          <value>-2.3382121446549156e-01</value></_></nodes></_>
    <_>
      <nodes>
        <_>
          <depth>0</depth>
          <value>-8.6701940147048299e-10</value>
          <splits>
            <_><var>0</var>
              <quality>5.7117240503430367e-03</quality>
              <le>1.2460050582885742e+00</le></_></splits></_>
        <_>
          <depth>1</depth>
          <value>-3.0716053855719808e-02</value></_>
        <_>
          <depth>1</depth>
          <value>1.8820188799404430e-01</value></_></nodes></_>
    <_>
      <nodes>
        <_>
          <depth>0</depth>
          <value>5.0201620635770279e-11</value>
          <splits>
            <_><var>1</var>
              <quality>5.9860162436962128e-03</quality>
              <le>8.0439195036888123e-02</le></_></splits></_>
        <_>
          <depth>1</depth>
          <value>1.5161359870925514e-01</value></_>
        <_>
          <depth>1</depth>
          <value>-3.9805122608743609e-02</value></_></nodes></_>
    <_>
      <nodes>
        <_>
          <depth>0</depth>
          <value>4.5825254680981525e-10</value>
          <splits>
            <_><var>3</var>
              <quality>7.2893458418548107e-03</quality>
              <le>3.</le></_></splits></_>
        <_>
          <depth>1</depth>
          <value>1.3873735186337099e-01</value></_>
        <_>
          <depth>1</depth>
          <value>-5.2926649104864526e-02</value></_></nodes></_>
    <_>
      <nodes>
        <_>
          <depth>0</depth>
          <value>-1.8469797916723270e-10</value>
          <splits>
            <_><var>2</var>
              <quality>6.6063310950994492e-03</quality>
              <le>5.0000000000000000e-01</le></_></splits></_>
        <_>
          <depth>1</depth>
          <value>-8.4787787487658320e-02</value></_>
        <_>
          <depth>1</depth>
          <value>7.8262082731935800e-02</value></_></nodes></_>
    <_>
      <nodes>
        <_>
          <depth>0</depth>
          <value>-9.7093710943366243e-10</value>
          <splits>
            <_><var>1</var>
              <quality>5.2084377966821194e-03</quality>
              <le>1.0386599600315094e-01</le></_></splits></_>
        <_>
          <depth>1</depth>
          <value>3.3344766924244408e-02</value></_>
        <_>
          <depth>1</depth>
          <value>-1.5754814462754699e-01</value></_></nodes></_>
    <_>
      <nodes>
        <_>
          <depth>0</depth>
          <value>-9.0754182029624470e-10</value>
          <splits>
            <_><var>1</var>
              <quality>9.3169063329696655e-03</quality>
              <le>9.9444448947906494e-02</le></_></splits></_>
        <_>
          <depth>1</depth>
          <value>-6.4385264806030434e-02</value></_>
        <_>
          <depth>1</depth>
          <value>1.4593266036778357e-01</value></_></nodes></_>
    <_>
      <nodes>
        <_>
          <depth>0</depth>
          <value>4.7548831516181723e-10</value>
          <splits>
            <_><var>1</var>
              <quality>6.2401862815022469e-03</quality>
              <le>9.3719303607940674e-02</le></_></splits></_>
        <_>
          <depth>1</depth>
          <value>6.4340348661262203e-02</value></_>
        <_>
          <depth>1</depth>
          <value>-9.7428034367063945e-02</value></_></nodes></_>
    <_>
      <nodes>
        <_>
          <depth>0</depth>
          <value>6.3471405868613016e-10</value>
          <splits>
            <_><var>1</var>
              <quality>5.0169681198894978e-03</quality>
              <le>7.0330545306205750e-02</le></_></splits></_>
        <_>
          <depth>1</depth>
          <value>-4.6257402559974831e-01</value></_>
        <_>
          <depth>1</depth>
          <value>1.1609042710069089e-02</value></_></nodes></_>
    <_>
      <nodes>
        <_>
          <depth>0</depth>
          <value>-5.7221838382025836e-11</value>
          <splits>
            <_><var>0</var>
              <quality>4.6040210872888565e-03</quality>
              <le>2.2119050025939941e+00</le></_></splits></_>
        <_>
          <depth>1</depth>
          <value>1.0485547067897024e-02</value></_>
        <_>
          <depth>1</depth>
          <value>-4.7111363288312874e-01</value></_></nodes></_>
    <_>
      <nodes>
        <_>
          <depth>0</depth>
          <value>1.7136692062441494e-10</value>
          <splits>
            <_><var>0</var>
              <quality>8.4885582327842712e-03</quality>
              <le>2.3689100742340088e+00</le></_></splits></_>
        <_>
          <depth>1</depth>
          <value>-9.8394584736004077e-03</value></_>
        <_>
          <depth>1</depth>
          <value>1.3039387238553608e+00</value></_></nodes></_>
    <_>
      <nodes>
        <_>
          <depth>0</depth>
          <value>-2.1163071299883490e-10</value>
          <splits>
            <_><var>0</var>
              <quality>6.1807245947420597e-03</quality>
              <le>2.2119050025939941e+00</le></_></splits></_>
        <_>
          <depth>1</depth>
          <value>9.8394587955623111e-03</value></_>
        <_>
          <depth>1</depth>
          <value>-7.3839952078355242e-01</value></_></nodes></_>
    <_>
      <nodes>
        <_>
          <depth>0</depth>
          <value>2.1698309810868355e-10</value>
          <splits>
            <_><var>0</var>
              <quality>9.6197826787829399e-03</quality>
              <le>1.6432700157165527e+00</le></_></splits></_>
        <_>
          <depth>1</depth>
          <value>-1.6859756642119226e-02</value></_>
        <_>
          <depth>1</depth>
          <value>6.4845754800573818e-01</value></_></nodes></_>
    <_>
      <nodes>
        <_>
          <depth>0</depth>
          <value>6.3101435148355217e-10</value>
          <splits>
            <_><var>0</var>
              <quality>7.7798538841307163e-03</quality>
              <le>1.4522750377655029e+00</le></_></splits></_>
        <_>
          <depth>1</depth>
          <value>2.3722221621048183e-02</value></_>
        <_>
          <depth>1</depth>
          <value>-3.4060554681484567e-01</value></_></nodes></_>
    <_>
      <nodes>
        <_>
          <depth>0</depth>
          <value>2.2435409081052179e-10</value>
          <splits>
            <_><var>0</var>
              <quality>5.5686337873339653e-03</quality>
              <le>1.5322899818420410e+00</le></_></splits></_>
        <_>
          <depth>1</depth>
          <value>-1.6758097807064110e-02</value></_>
        <_>
          <depth>1</depth>
          <value>3.4544099181327825e-01</value></_></nodes></_>
    <_>
      <nodes>
        <_>
          <depth>0</depth>
          <value>-8.4878548641241911e-11</value>
          <splits>
            <_><var>0</var>
              <quality>4.9755116924643517e-03</quality>
              <le>2.2119050025939941e+00</le></_></splits></_>
        <_>
          <depth>1</depth>
          <value>8.6701292565466923e-03</value></_>
        <_>
          <depth>1</depth>
          <value>-6.5329296913636725e-01</value></_></nodes></_>
    <_>
      <nodes>
        <_>
          <depth>0</depth>
          <value>1.8466139725035814e-10</value>
          <splits>
            <_><var>2</var>
              <quality>4.3304236605763435e-03</quality>
              <le>5.5000000000000000e+00</le></_></splits></_>
        <_>
          <depth>1</depth>
          <value>-5.0258067401345568e-03</value></_>
        <_>
          <depth>1</depth>
          <value>1.2996953271180054e+00</value></_></nodes></_>
    <_>
      <nodes>
        <_>
          <depth>0</depth>
          <value>-3.7822578403999296e-11</value>
          <splits>
            <_><var>2</var>
              <quality>4.3927226215600967e-03</quality>
              <le>4.5000000000000000e+00</le></_></splits></_>
        <_>
          <depth>1</depth>
          <value>6.4297056476276945e-03</value></_>
        <_>
          <depth>1</depth>
          <value>-8.3509308612501254e-01</value></_></nodes></_>
    <_>
      <nodes>
        <_>
          <depth>0</depth>
          <value>-1.5536616440241754e-10</value>
          <splits>
            <_><var>2</var>
              <quality>4.5789903961122036e-03</quality>
              <le>2.5000000000000000e+00</le></_></splits></_>
        <_>
          <depth>1</depth>
          <value>-8.3702825318519945e-03</value></_>
        <_>
          <depth>1</depth>
          <value>6.1418459683542825e-01</value></_></nodes></_>
    <_>
      <nodes>
        <_>
          <depth>0</depth>
          <value>-6.6589583891318282e-10</value>
          <splits>
            <_><var>1</var>
              <quality>4.2393701151013374e-03</quality>
              <le>1.0963299870491028e-01</le></_></splits></_>
        <_>
          <depth>1</depth>
          <value>1.7158001406245970e-02</value></_>
        <_>
          <depth>1</depth>
          <value>-2.5232458005958469e-01</value></_></nodes></_>
    <_>
      <nodes>
        <_>
          <depth>0</depth>
          <value>-1.7046758452174315e-10</value>
          <splits>
            <_><var>1</var>
              <quality>8.4940502420067787e-03</quality>
              <le>1.0789400339126587e-01</le></_></splits></_>
        <_>
          <depth>1</depth>
          <value>-3.4560885451890351e-02</value></_>
        <_>
          <depth>1</depth>
          <value>2.5101065160948999e-01</value></_></nodes></_>
    <_>
      <nodes>
        <_>
          <depth>0</depth>
          <value>-7.2031486383055307e-10</value>
          <splits>
            <_><var>1</var>
              <quality>7.2832531295716763e-03</quality>
              <le>1.0177600383758545e-01</le></_></splits></_>
        <_>
          <depth>1</depth>
          <value>4.4223566740981227e-02</value></_>
        <_>
          <depth>1</depth>
          <value>-1.6631572647014975e-01</value></_></nodes></_>
    <_>
      <nodes>
        <_>
          <depth>0</depth>
          <value>-5.6661203538996328e-10</value>
          <splits>
            <_><var>1</var>
              <quality>8.2406913861632347e-03</quality>
              <le>1.0132449865341187e-01</le></_></splits></_>
        <_>
          <depth>1</depth>
          <value>-5.3155985990331014e-02</value></_>
        <_>
          <depth>1</depth>
          <value>1.5643826496679877e-01</value></_></nodes></_>
    <_>
      <nodes>
        <_>
          <depth>0</depth>
          <value>-6.9977357242613301e-12</value>
          <splits>
            <_><var>1</var>
              <quality>6.5087028779089451e-03</quality>
              <le>1.0177600383758545e-01</le></_></splits></_>
        <_>
          <depth>1</depth>
          <value>4.1969042104049080e-02</value></_>
        <_>
          <depth>1</depth>
          <value>-1.5643826825538854e-01</value></_></nodes></_>
    <_>
      <nodes>
        <_>
          <depth>0</depth>
          <value>-1.6051409116542953e-09</value>
          <splits>
            <_><var>1</var>
              <quality>5.2830530330538750e-03</quality>
              <le>1.0132449865341187e-01</le></_></splits></_>
        <_>
          <depth>1</depth>
          <value>-4.1969043532178014e-02</value></_>
        <_>
          <depth>1</depth>
          <value>1.2662613409242135e-01</value></_></nodes></_>
    <_>
      <nodes>
        <_>
          <depth>0</depth>
          <value>-9.0435237158532266e-10</value>
          <splits>
            <_><var>1</var>
              <quality>5.3477473556995392e-03</quality>
              <le>7.6411545276641846e-02</le></_></splits></_>
        <_>
          <depth>1</depth>
          <value>1.9377398524668096e-01</value></_>
        <_>
          <depth>1</depth>
          <value>-2.7949693818004804e-02</value></_></nodes></_>
    <_>
      <nodes>
        <_>
          <depth>0</depth>
          <value>6.7736483043337888e-10</value>
          <splits>
            <_><var>1</var>
              <quality>4.8053874634206295e-03</quality>
              <le>8.3246305584907532e-02</le></_></splits></_>
        <_>
          <depth>1</depth>
          <value>-1.0321840746327687e-01</value></_>
        <_>
          <depth>1</depth>
          <value>4.6754784567232026e-02</value></_></nodes></_>
    <_>
      <nodes>
        <_>
          <depth>0</depth>
          <value>-5.3584731125447355e-10</value>
          <splits>
            <_><var>1</var>
              <quality>7.6278452761471272e-03</quality>
              <le>8.6051747202873230e-02</le></_></splits></_>
        <_>
          <depth>1</depth>
          <value>1.0193570187172217e-01</value></_>
        <_>
          <depth>1</depth>
          <value>-7.5230575690226051e-02</value></_></nodes></_>
    <_>
      <nodes>
        <_>
          <depth>0</depth>
          <value>1.2064873530103233e-09</value>
          <splits>
            <_><var>1</var>
              <quality>6.8278247490525246e-03</quality>
              <le>8.5509151220321655e-02</le></_></splits></_>
        <_>
          <depth>1</depth>
          <value>-1.0738389284593819e-01</value></_>
        <_>
          <depth>1</depth>
          <value>6.3914426267836708e-02</value></_></nodes></_>
    <_>
      <nodes>
        <_>
          <depth>0</depth>
          <value>3.6539216095918187e-11</value>
          <splits>
            <_><var>1</var>
              <quality>6.1258077621459961e-03</quality>
              <le>9.4539299607276917e-02</le></_></splits></_>
        <_>
          <depth>1</depth>
          <value>6.0227905322148716e-02</value></_>
        <_>
          <depth>1</depth>
          <value>-1.0218762162190229e-01</value></_></nodes></_>
    <_>
      <nodes>
        <_>
          <depth>0</depth>
          <value>-5.7774501882673709e-10</value>
          <splits>
            <_><var>0</var>
              <quality>4.6696327626705170e-03</quality>
              <le>1.0797750949859619e+00</le></_></splits></_>
        <_>
          <depth>1</depth>
          <value>-4.1742323929498545e-02</value></_>
        <_>
          <depth>1</depth>
          <value>1.1240404045122446e-01</value></_></nodes></_>
    <_>
      <nodes>
        <_>
          <depth>0</depth>
          <value>5.0999893171446571e-10</value>
          <splits>
            <_><var>0</var>
              <quality>4.0272306650876999e-03</quality>
              <le>1.0066149234771729e+00</le></_></splits></_>
        <_>
          <depth>1</depth>
          <value>4.8912739546260901e-02</value></_>
        <_>
          <depth>1</depth>
          <value>-8.2587920158543535e-02</value></_></nodes></_>
    <_>
      <nodes>
        <_>
          <depth>0</depth>
          <value>-1.0773153492020606e-09</value>
          <splits>
            <_><var>0</var>
              <quality>5.2303788252174854e-03</quality>
              <le>9.0829002857208252e-01</le></_></splits></_>
        <_>
          <depth>1</depth>
          <value>-8.6936229840416282e-02</value></_>
        <_>
          <depth>1</depth>
          <value>6.0388190444336909e-02</value></_></nodes></_>
    <_>
      <nodes>
        <_>
          <depth>0</depth>
          <value>2.0176993405322051e-10</value>
          <splits>
            <_><var>0</var>
              <quality>5.3010135889053345e-03</quality>
              <le>9.2344349622726440e-01</le></_></splits></_>
        <_>
          <depth>1</depth>
          <value>7.6647544653575830e-02</value></_>
        <_>
          <depth>1</depth>
          <value>-6.9407531540729095e-02</value></_></nodes></_>
    <_>
      <nodes>
        <_>
          <depth>0</depth>
          <value>3.2178992793367065e-10</value>
          <splits>
            <_><var>0</var>
              <quality>4.2208340018987656e-03</quality>
              <le>9.1240400075912476e-01</le></_></splits></_>
        <_>
          <depth>1</depth>
          <value>-7.6156408089769673e-02</value></_>
        <_>
          <depth>1</depth>
          <value>5.5587519306780069e-02</value></_></nodes></_>
    <_>
      <nodes>
        <_>
          <depth>0</depth>
          <value>-8.4789397725879063e-12</value>
          <splits>
            <_><var>0</var>
              <quality>4.4005084782838821e-03</quality>
              <le>6.4310699701309204e-01</le></_></splits></_>
        <_>
          <depth>1</depth>
          <value>2.2519366212713338e-01</value></_>
        <_>
          <depth>1</depth>
          <value>-1.9872821677357422e-02</value></_></nodes></_></trees></opencv_ml_boost>
</opencv_storage>
